#include "ModelData.h"

const float g_model_hidden_weights[64][784] = {
    {
        -2.71595567e-02f, 1.38119496e-02f, -3.55898850e-02f, 3.08946855e-02f, 2.01149024e-02f, -6.87672384e-03f, -1.52159166e-02f, -3.02386601e-02f,
        1.59068182e-02f, 2.82476805e-02f, -2.08697114e-02f, 1.15102194e-02f, 1.78102255e-02f, -2.48507806e-03f, 1.40475202e-02f, 1.08103994e-02f,
        7.98093155e-03f, 4.00373712e-03f, 2.62748823e-03f, 1.40156224e-03f, -3.03264577e-02f, 1.04505345e-02f, 2.54795477e-02f, 7.22872466e-03f,
        3.28686200e-02f, -1.25184450e-02f, -2.17815693e-02f, 6.31612912e-03f, -2.02397797e-02f, -1.93638001e-02f, -2.83440799e-02f, -2.36198567e-02f,
        3.58557664e-02f, -3.42578106e-02f, -1.57396719e-02f, 2.58177184e-02f, 2.00227983e-02f, -5.45337647e-02f, 1.16266469e-02f, 7.45960250e-02f,
        1.20294560e-02f, 4.61920276e-02f, 2.26459548e-01f, -1.32746637e-01f, -1.85134500e-01f, -2.22540468e-01f, -4.08786051e-02f, 3.72906625e-02f,
        1.05447315e-01f, 3.30758393e-02f, 3.26916878e-03f, 4.10493501e-02f, 2.78913341e-02f, -3.54039297e-03f, -3.44845466e-02f, 1.42576471e-02f,
        -2.18294151e-02f, -1.50604937e-02f, -2.88873110e-02f, 1.13241561e-01f, 1.10520728e-01f, 1.41608655e-01f, 2.51825064e-01f, 2.87119865e-01f,
        4.95173901e-01f, 5.90985537e-01f, 5.33217311e-01f, 3.87358814e-01f, 3.71002287e-01f, 5.14477015e-01f, 4.14819151e-01f, 6.91297114e-01f,
        5.97506523e-01f, 5.53865612e-01f, 4.30805594e-01f, 3.87556791e-01f, 1.92886844e-01f, 7.97341913e-02f, 6.65167198e-02f, 5.23785539e-02f,
        2.04138711e-01f, 1.75262004e-01f, 1.94858760e-03f, 1.88674778e-02f, -2.72159651e-03f, -1.95215046e-02f, 3.27058792e-01f, 3.01168375e-02f,
        -7.78955966e-02f, -1.09350204e-01f, -1.02231354e-02f, 4.10040408e-01f, 2.40028761e-02f, 1.34891216e-02f, -5.19654602e-02f, -3.66093293e-02f,
        -6.73340261e-02f, -1.61597237e-01f, 9.34393853e-02f, 3.59185010e-01f, 3.77840936e-01f, 3.49639595e-01f, 2.50834793e-01f, 3.35994035e-01f,
        -1.00929834e-01f, -1.60149664e-01f, -4.64442372e-02f, -1.58718601e-01f, 1.47355497e-01f, -1.54074892e-01f, -1.59935907e-01f, 2.61495262e-02f,
        -1.97238214e-02f, 2.48331111e-02f, 2.97696471e-01f, -2.75223255e-01f, 9.37534496e-02f, 4.02209789e-01f, 3.93156350e-01f, 1.16696231e-01f,
        1.51239038e-01f, -5.95549196e-02f, -1.20495297e-02f, 3.54437232e-02f, -6.73452169e-02f, -1.64156891e-02f, -8.91605839e-02f, -8.56426917e-03f,
        1.08858146e-01f, -5.30894920e-02f, -5.33369444e-02f, 1.59215868e-01f, 1.95833072e-01f, 5.33507206e-02f, -6.44166619e-02f, -7.27709904e-02f,
        -3.56465429e-01f, -2.92197555e-01f, -9.18290988e-02f, 9.69215706e-02f, -2.47454308e-02f, 2.05680616e-02f, 1.12715311e-01f, -3.20292003e-02f,
        2.86445290e-01f, 5.69809854e-01f, 2.92808026e-01f, 1.46096706e-01f, 1.57377154e-01f, -4.48407568e-02f, -2.07976907e-01f, -1.42286658e-01f,
        6.45254552e-02f, -3.33294808e-03f, 6.30319938e-02f, 2.20407143e-01f, 3.77078056e-01f, 1.97105691e-01f, 6.66237175e-02f, -6.02819957e-02f,
        -6.46191835e-02f, 6.53371513e-02f, 1.23841375e-01f, 3.02559078e-01f, -5.51080555e-02f, -2.55484372e-01f, 5.38016818e-02f, 1.04863912e-01f,
        1.27560385e-02f, 1.99105576e-01f, -1.68395564e-01f, -1.38648450e-01f, -9.06659930e-04f, 1.57173529e-01f, 1.26935065e-01f, 7.39978552e-02f,
        -7.09508732e-02f, -7.25404844e-02f, -1.26265675e-01f, -1.10611416e-01f, -1.85728922e-01f, -1.59512073e-01f, 1.63493678e-02f, 2.47751236e-01f,
        3.41595083e-01f, 1.28029481e-01f, 6.08361093e-03f, -2.42496431e-02f, -2.48134658e-01f, -2.34309986e-01f, 3.77338217e-03f, 5.03916442e-02f,
        9.16752443e-02f, -2.81208813e-01f, 1.01074547e-01f, 2.39853472e-01f, -2.00170875e-02f, 2.43523940e-01f, -1.17144614e-01f, -2.33535513e-01f,
        2.45555546e-02f, 7.64513686e-02f, 3.23438868e-02f, 1.63759798e-01f, -1.88131154e-01f, -1.22599609e-01f, -6.21545501e-02f, -1.14593364e-01f,
        -1.63878366e-01f, -1.17481835e-01f, 1.73272878e-01f, 1.62073195e-01f, 3.02305013e-01f, 2.71660686e-01f, -1.76099855e-02f, -5.36359474e-03f,
        -1.29135931e-02f, -1.29751965e-01f, -2.05420982e-02f, -6.31788224e-02f, -2.34895036e-01f, -5.80539763e-01f, 1.70423731e-01f, 1.85716152e-01f,
        -4.88760956e-02f, 2.27405101e-01f, -4.05209482e-01f, -3.02064985e-01f, 1.47876531e-01f, 1.60530105e-01f, -1.30534517e-02f, 5.20988591e-02f,
        -2.30960608e-01f, -1.08598620e-01f, -8.06556568e-02f, -1.85211807e-01f, -1.80928841e-01f, -1.87359508e-02f, 1.20215788e-01f, 2.97364295e-01f,
        1.12220652e-01f, 1.54582441e-01f, -1.66270480e-01f, -2.22770199e-02f, -1.10786736e-01f, -2.62456983e-01f, -2.94516861e-01f, -1.91060647e-01f,
        -4.12553579e-01f, -7.75250435e-01f, -3.64875905e-02f, -4.07436937e-02f, -1.06341708e-02f, 1.83515206e-01f, 8.28809664e-02f, 3.57837789e-02f,
        1.15760639e-01f, 1.36200890e-01f, 6.32386729e-02f, 1.66369036e-01f, -1.94693170e-02f, -1.26657754e-01f, -2.23805174e-01f, -3.48577261e-01f,
        -2.99863279e-01f, -1.90928698e-01f, -3.12416442e-02f, 2.22045571e-01f, 1.25895619e-01f, -1.15206651e-01f, -2.32185334e-01f, -2.58237541e-01f,
        -2.93677092e-01f, -2.97614068e-01f, -8.85792673e-02f, -3.17260623e-01f, -5.60005486e-01f, -6.43294513e-01f, 1.36885256e-01f, 2.05496937e-01f,
        2.35558636e-02f, 1.98469281e-01f, 2.03953192e-01f, -4.71797436e-02f, 3.31655480e-02f, -1.26827970e-01f, 3.04135308e-02f, 4.06705439e-02f,
        -1.71798840e-01f, -1.10817701e-01f, -1.86684757e-01f, -4.20676142e-01f, -4.98892009e-01f, -2.42863417e-01f, 9.88577586e-03f, 2.86571980e-01f,
        1.79314762e-01f, -9.08531696e-02f, -2.85803199e-01f, -1.86343104e-01f, -3.25422376e-01f, -2.77623117e-01f, -1.59661442e-01f, -1.52769029e-01f,
        -8.18552896e-02f, -6.67803660e-02f, -2.33087651e-02f, 2.06168741e-01f, -3.48585099e-02f, 1.26889616e-01f, -2.84158289e-01f, 2.73292929e-01f,
        -3.14419381e-02f, -2.19965219e-01f, -1.86797351e-01f, -2.80003518e-01f, -1.45570755e-01f, -2.09473789e-01f, -3.19811344e-01f, -4.59207624e-01f,
        -4.82165188e-01f, -2.13685329e-03f, 3.15510243e-01f, 3.02335024e-01f, 2.08679307e-02f, -2.82833248e-01f, -3.71596575e-01f, -8.96217600e-02f,
        -1.93155438e-01f, -2.08726436e-01f, -1.62801936e-01f, -1.66644603e-01f, -2.78947443e-01f, -3.10656428e-01f, -6.90699577e-01f, 1.85088277e-01f,
        -5.92444092e-04f, -1.03898264e-01f, -4.03722554e-01f, 1.46635085e-01f, -1.88577697e-01f, -4.19563353e-01f, -4.83844697e-01f, -4.45148647e-01f,
        -3.09459686e-01f, -3.89542550e-01f, -2.66810983e-01f, -4.60811317e-01f, -1.93273306e-01f, 2.39752635e-01f, 2.76150435e-01f, 1.05126344e-01f,
        6.20396174e-02f, -2.77531415e-01f, -1.52200520e-01f, -1.00580387e-01f, -3.11253946e-02f, -1.71613824e-02f, 2.04187608e-03f, 5.54829836e-02f,
        2.10182811e-03f, 2.32612178e-01f, -8.99095014e-02f, 3.25597018e-01f, -3.92368324e-02f, -1.22752286e-01f, -1.00123771e-01f, -1.71121396e-02f,
        -5.08061945e-01f, -3.76959354e-01f, -4.13314223e-01f, -4.39268500e-01f, -3.44401598e-01f, -2.07287952e-01f, -1.17384218e-01f, -2.12081462e-01f,
        8.31831321e-02f, 2.60835171e-01f, 2.00050548e-01f, 8.38043466e-02f, 7.74317384e-02f, -1.11921042e-01f, -8.69337618e-02f, 7.31886998e-02f,
        1.60025746e-01f, 1.94460452e-01f, 5.90609312e-02f, 2.03359127e-02f, 2.18238130e-01f, 4.23730463e-01f, 1.67148590e-01f, 8.52789283e-02f,
        1.74933404e-01f, -1.25014663e-01f, -9.12113339e-02f, 9.28963646e-02f, -3.31068575e-01f, -6.46450818e-02f, 3.51954587e-02f, -1.65020049e-01f,
        -3.58411781e-02f, 1.57814231e-02f, -3.73737738e-02f, 7.73455203e-02f, 4.06482965e-01f, 2.22048730e-01f, 1.77349776e-01f, 2.55788378e-02f,
        1.31069180e-02f, -8.06485340e-02f, 5.21581545e-02f, 1.63455278e-01f, 9.63084027e-02f, 1.20486557e-01f, 1.21950805e-01f, -2.02217698e-03f,
        2.67215282e-01f, 1.57898068e-01f, 3.36890310e-01f, 2.12156251e-01f, 1.62188858e-01f, -1.31993499e-02f, -1.14304766e-01f, 7.24492688e-03f,
        -1.54814348e-01f, 1.39277086e-01f, 3.10151398e-01f, 1.03950493e-01f, -4.11321613e-04f, 1.05448008e-01f, 8.56484547e-02f, 3.25853437e-01f,
        3.76362681e-01f, 2.34644502e-01f, 1.71233311e-01f, -4.36841790e-03f, -6.55401126e-02f, 1.36524402e-02f, 1.52070150e-01f, 1.77198023e-01f,
        -1.47116080e-01f, 1.14265174e-01f, 7.06934333e-02f, 8.17777142e-02f, 3.55626971e-01f, -3.37302797e-02f, 4.68383551e-01f, 2.23612219e-01f,
        -1.25917047e-03f, -3.46482880e-02f, 1.53431416e-01f, 8.37387692e-04f, 4.23853509e-02f, 2.76947230e-01f, 2.96805263e-01f, 2.59593487e-01f,
        9.95575562e-02f, 3.18699837e-01f, 2.30923817e-01f, 2.08443314e-01f, 2.51089931e-01f, 2.71240145e-01f, 1.26475245e-01f, 8.78785253e-02f,
        -4.05247044e-03f, 8.33063647e-02f, 2.13942423e-01f, 2.26659328e-01f, -2.25293525e-02f, 1.85090914e-01f, 1.04235716e-01f, 1.93005994e-01f,
        3.54723483e-01f, -2.34492272e-02f, 3.00170720e-01f, -3.53720523e-02f, 3.31631862e-02f, 2.50569601e-02f, 3.18544418e-01f, 1.77198902e-01f,
        1.06628828e-01f, 1.86006576e-01f, 3.85474861e-01f, 1.93296552e-01f, 1.10237911e-01f, 3.40244979e-01f, 2.36125723e-01f, 1.67279571e-01f,
        2.02891544e-01f, 1.95782602e-01f, 1.68372676e-01f, 8.95446017e-02f, 2.96721682e-02f, -3.45120803e-02f, 4.42222320e-02f, 4.50035371e-02f,
        3.83545868e-02f, 2.72527784e-01f, 2.22737953e-01f, 2.45189205e-01f, 2.89571762e-01f, 3.32000464e-01f, 3.76360506e-01f, -3.22657675e-01f,
        8.39234889e-02f, 2.72867791e-02f, 2.87281156e-01f, 4.79030371e-01f, 1.34782165e-01f, 3.09745371e-01f, 1.81144252e-01f, 4.81893718e-02f,
        4.12296690e-02f, 1.87086046e-01f, 3.99171263e-02f, -4.50118594e-02f, 1.04646027e-01f, 1.34608150e-01f, -3.59460153e-02f, -4.34218254e-03f,
        -3.50413769e-02f, -6.42621368e-02f, 2.95827109e-02f, -1.89024245e-03f, 1.54175818e-01f, 1.77070200e-01f, -3.20450142e-02f, 2.34712616e-01f,
        4.34396774e-01f, 3.99681747e-01f, 4.92745131e-01f, 2.60121197e-01f, 8.44672620e-02f, -2.22455591e-01f, 1.02922037e-01f, 1.07783556e-01f,
        7.20696673e-02f, 7.76020214e-02f, 1.68462187e-01f, 1.21462464e-01f, -6.46534786e-02f, 5.07584363e-02f, -1.36969108e-02f, 1.93080343e-02f,
        -1.22793078e-01f, 1.77480467e-02f, -1.56399403e-02f, 2.22891234e-02f, 9.73759741e-02f, 1.22529037e-01f, -2.61434782e-02f, -5.51263839e-02f,
        7.02872798e-02f, 2.34204326e-02f, -4.19796370e-02f, 6.27088249e-02f, 1.77590996e-01f, 4.44458306e-01f, 1.79796040e-01f, 2.62176216e-01f,
        -5.88752329e-04f, -2.09265336e-01f, 2.10178211e-01f, 4.17130619e-01f, 1.58644014e-03f, 6.96436241e-02f, 1.93835884e-01f, 9.30589736e-02f,
        5.09706028e-02f, 1.03271656e-01f, -1.12034865e-01f, -1.49612715e-02f, -8.15294459e-02f, -1.00032026e-02f, -3.42598259e-02f, 1.30894277e-02f,
        2.43962422e-01f, 1.88245118e-01f, 3.51427272e-02f, -1.50898233e-01f, -3.28833424e-02f, -6.61206469e-02f, -8.40768218e-02f, 7.47286081e-02f,
        -1.62481919e-01f, 1.78043693e-01f, 1.32024318e-01f, 9.14811864e-02f, 1.69563457e-01f, 1.84856474e-01f, 4.13665742e-01f, 2.92301029e-01f,
        2.77130287e-02f, 2.53960997e-01f, -1.68394409e-02f, 9.30592790e-02f, 1.65945757e-02f, -7.27145225e-02f, -7.16363564e-02f, -1.14768885e-01f,
        4.19236254e-03f, -3.86443152e-03f, 1.91549912e-01f, 1.46604896e-01f, 2.17699662e-01f, 1.50642172e-01f, -9.93928313e-02f, -1.48324996e-01f,
        -1.74136981e-01f, -1.95642188e-01f, -1.21394053e-01f, -3.59356515e-02f, -2.96733379e-01f, -9.20973793e-02f, -3.34432423e-02f, -2.69809961e-02f,
        1.39013737e-01f, 1.23524047e-01f, 4.07678992e-01f, -5.06700948e-03f, 1.26234457e-01f, 2.28684619e-01f, -1.22717217e-01f, 3.74229020e-03f,
        -6.00261241e-03f, -5.78427203e-02f, -7.00441599e-02f, -8.16710666e-03f, -2.63630766e-02f, 3.82364392e-02f, 9.31494310e-02f, 1.34036705e-01f,
        1.99336082e-01f, 7.53436834e-02f, -1.23848252e-01f, -6.16918802e-02f, -1.27880201e-01f, -1.46798909e-01f, -1.61685224e-03f, -1.32512689e-01f,
        -3.87543112e-01f, -2.67329037e-01f, -1.24350749e-01f, -1.05538694e-02f, 7.17779994e-03f, 5.17774746e-03f, 3.66765678e-01f, 1.96575522e-02f,
        2.74545848e-01f, 4.85035367e-02f, -5.63651659e-02f, 5.62461130e-02f, -9.97093767e-02f, 3.21194530e-02f, 3.57792303e-02f, 1.26533182e-02f,
        7.06072599e-02f, 9.17342529e-02f, 1.47113740e-01f, 2.15625241e-02f, -1.20557100e-02f, -6.19840287e-02f, -1.47455588e-01f, -1.17369637e-01f,
        -7.52089992e-02f, -1.75136387e-01f, 1.02215633e-02f, -1.77300513e-01f, -4.94360954e-01f, -3.19507211e-01f, 6.03541061e-02f, 1.89441554e-02f,
        -2.71851774e-02f, 4.39524651e-04f, 2.17926309e-01f, -1.40980020e-01f, -1.43769840e-02f, -1.07526325e-01f, -7.16130286e-02f, -3.92967314e-02f,
        -2.51364745e-02f, 4.81488258e-02f, -1.15910202e-01f, -1.03259496e-02f, 4.02438156e-02f, -4.60578278e-02f, 2.33976226e-02f, -1.54544264e-01f,
        -2.21112315e-02f, 1.32560134e-01f, -9.68186259e-02f, -5.41991070e-02f, 1.56374395e-01f, 3.46518829e-02f, -1.96191758e-01f, -3.86599362e-01f,
        -1.21537156e-01f, 1.98144943e-01f, 1.61410332e-01f, 7.27060810e-03f, 9.62316617e-03f, 1.87583081e-02f, -1.26284987e-01f, 1.44297108e-01f,
        -7.89273977e-02f, -1.41167387e-01f, 5.04091792e-02f, 6.08327277e-02f, -1.16740637e-01f, -9.75046679e-02f, -1.73937246e-01f, 5.06865792e-02f,
        7.52571225e-02f, -2.18388066e-01f, -2.88584113e-01f, -1.92675993e-01f, -4.44621861e-01f, -1.12965666e-01f, -2.23709449e-01f, 4.59283441e-02f,
        2.93899328e-01f, -1.32931903e-01f, -1.09462522e-01f, 1.00232989e-01f, 8.07240512e-03f, 1.50057031e-02f, 7.75359496e-02f, -6.71235658e-03f,
        -3.13349515e-02f, 1.21752769e-02f, -3.55367176e-02f, -6.44172579e-02f, -2.81858683e-01f, -3.01681638e-01f, -3.15974891e-01f, 1.50109708e-01f,
        -1.03641720e-02f, -4.20539118e-02f, 7.78965726e-02f, 2.98344284e-01f, -4.11013514e-02f, 2.16046259e-01f, -2.49219730e-01f, -3.50621223e-01f,
        -3.83043498e-01f, -2.50559837e-01f, -3.00592813e-03f, -1.60489082e-01f, -3.94625753e-01f, -2.80299306e-01f, -2.43034825e-01f, -1.94328249e-01f,
        -1.23253940e-02f, 2.45279521e-02f, -2.52875388e-02f, 2.85750218e-02f, -1.38157476e-02f, -3.49920243e-02f, -2.17912253e-02f, -1.91275664e-02f,
        1.34807043e-02f, -2.49391180e-02f, 2.70524994e-02f, 9.01844352e-03f, -1.98898911e-02f, 1.67532526e-02f, 4.99086715e-02f, 1.74734425e-02f,
        -1.53452992e-01f, -2.21724853e-01f, -1.90291911e-01f, 3.09258681e-02f, 5.14941737e-02f, -4.20174934e-02f, -4.64676470e-02f, -2.68415455e-03f,
        -2.55941763e-03f, -1.79986224e-01f, -1.76468730e-01f, -9.83458012e-03f, -1.02921296e-02f, -1.08446237e-02f, 2.95998901e-03f, -1.97401270e-03f,
    },
    {
        7.94029981e-03f, 3.12513895e-02f, 3.07603814e-02f, 1.22861154e-02f, -2.70857103e-02f, -2.18476877e-02f, -2.35836655e-02f, 3.34918611e-02f,
        1.41227506e-02f, -2.77771875e-02f, 8.87099653e-03f, 3.02188210e-02f, -8.49573240e-02f, -8.21631998e-02f, -4.16222550e-02f, -3.67916971e-02f,
        6.53073192e-03f, -1.52969249e-02f, 2.16772147e-02f, -2.23893076e-02f, -1.58223044e-02f, -3.07347700e-02f, -2.14777738e-02f, 5.12599200e-03f,
        -1.30595565e-02f, -1.84161253e-02f, 2.64428072e-02f, 3.27869691e-02f, 2.82448567e-02f, -1.58723127e-02f, -1.24047026e-02f, 2.19223723e-02f,
        -7.72043318e-02f, -1.19375475e-02f, -1.64359987e-01f, -1.55204371e-01f, -1.55602649e-01f, -1.44764334e-01f, -1.48703054e-01f, -1.08509623e-01f,
        -1.69389814e-01f, -9.68996361e-02f, -1.08381417e-02f, -3.18440914e-01f, -3.10790032e-01f, -3.71654123e-01f, -2.58870780e-01f, -2.44001135e-01f,
        -2.20022127e-01f, -1.51693866e-01f, -2.61402041e-01f, -2.46194243e-01f, -3.28003168e-02f, 2.39175670e-02f, -2.40631029e-02f, 2.53663696e-02f,
        2.92951800e-02f, 4.10817191e-03f, -2.07951188e-01f, -2.85155803e-01f, -2.79927284e-01f, -5.31553514e-02f, -1.02753676e-01f, -1.74117759e-01f,
        -2.47580439e-01f, -1.98952988e-01f, -2.33609781e-01f, -3.40918511e-01f, -6.60098016e-01f, -5.52349150e-01f, -5.65006912e-01f, -5.40015280e-01f,
        -3.51881176e-01f, -5.17362766e-02f, -3.15104187e-01f, -2.74251699e-01f, -5.73650077e-02f, -3.88007075e-01f, -3.18191200e-01f, -3.48729461e-01f,
        -1.16896383e-01f, -1.13740981e-01f, -1.11441370e-02f, 2.39942707e-02f, 1.54679492e-02f, 2.56515555e-02f, 1.71338618e-01f, -2.59650648e-01f,
        -1.99780211e-01f, -3.45045000e-01f, -4.33378190e-01f, -4.76939142e-01f, -4.33182925e-01f, -5.35002291e-01f, -4.22150522e-01f, -3.97421211e-01f,
        -8.40221286e-01f, -1.09978628e+00f, -8.80376339e-01f, -3.87414604e-01f, -4.96670961e-01f, -2.79348016e-01f, -2.82968104e-01f, -2.15069264e-01f,
        -2.25155741e-01f, -1.71863899e-01f, -2.46060044e-02f, 6.10861592e-02f, -2.40463823e-01f, -2.34059215e-01f, -2.98232764e-01f, -9.25387256e-03f,
        -2.50635110e-02f, 5.62317222e-02f, 1.81849122e-01f, 2.73284853e-01f, -2.59092271e-01f, -2.89310127e-01f, -3.94530386e-01f, -3.02653611e-01f,
        -4.55366194e-01f, -7.09414303e-01f, -5.54428518e-01f, -2.42131978e-01f, -1.94314077e-01f, -3.69270235e-01f, -3.45375836e-01f, -2.92084813e-01f,
        -3.38702351e-01f, -1.26173541e-01f, -1.48938715e-01f, -3.11838031e-01f, -1.29628211e-01f, -3.84741500e-02f, 1.46854177e-01f, 1.24958925e-01f,
        1.12850957e-01f, 1.07820798e-02f, -1.82868727e-02f, -4.09939773e-02f, -2.58670151e-02f, -2.81712376e-02f, -9.87437218e-02f, -1.91961303e-02f,
        -2.33157679e-01f, -2.90358718e-02f, -1.04169346e-01f, -1.51823208e-01f, -1.53735578e-01f, -2.27965489e-01f, -2.55391389e-01f, 7.53759891e-02f,
        2.05232918e-01f, -1.11121051e-02f, 3.75028960e-02f, 2.88311131e-02f, -2.67482661e-02f, -2.66817082e-02f, -9.03485566e-02f, -3.12428921e-01f,
        -2.93017626e-01f, -1.09415531e-01f, -3.62414271e-02f, -5.44108897e-02f, 2.74794661e-02f, 7.36943111e-02f, -2.46567428e-01f, 7.67237768e-02f,
        2.49915347e-02f, -5.90197593e-02f, 2.24226728e-01f, 1.65790729e-02f, -1.14348046e-01f, -9.39024016e-02f, 1.37574913e-03f, -1.13569058e-01f,
        4.68009561e-02f, 7.74028227e-02f, 2.40325765e-03f, 1.20085336e-01f, 1.97199360e-01f, 1.53128222e-01f, 1.61049798e-01f, 1.54759347e-01f,
        1.49969876e-01f, 1.41876206e-01f, -1.09204881e-01f, -1.45434737e-01f, -4.58236150e-02f, 1.38554394e-01f, -7.83520713e-02f, 9.67809558e-02f,
        -1.07078537e-01f, -7.36810938e-02f, -1.52982026e-01f, -2.43407369e-01f, 4.40373737e-03f, 5.64624444e-02f, 2.32134029e-01f, 1.23216487e-01f,
        -1.48798808e-01f, -2.60067910e-01f, 2.88677793e-02f, -9.92877111e-02f, 6.93124160e-02f, 4.83081378e-02f, 3.66755128e-02f, 7.92634711e-02f,
        1.12919196e-01f, 1.87059864e-01f, 1.09844759e-01f, 6.29519448e-02f, 6.73738420e-02f, 4.33371663e-02f, -1.54339001e-01f, -5.46200834e-02f,
        -3.05927843e-02f, -3.56570594e-02f, 1.77730061e-02f, 1.84363917e-01f, 1.08894698e-01f, -9.76140276e-02f, -1.02464460e-01f, -2.53084093e-01f,
        -3.08692843e-01f, 1.27629712e-01f, 1.40118465e-01f, 1.75049976e-01f, -7.62179345e-02f, -6.21093884e-02f, 7.44359121e-02f, 8.30334350e-02f,
        1.91828176e-01f, 4.24042670e-03f, 4.61000502e-02f, 1.05736509e-01f, 1.48964152e-01f, 1.60458565e-01f, 1.68023318e-01f, 1.05441213e-01f,
        4.61896658e-02f, -8.81101489e-02f, 6.14097081e-02f, -1.12011142e-01f, -9.28410143e-02f, -4.01761346e-02f, 4.35613431e-02f, 7.99845159e-02f,
        1.55574322e-01f, 3.18846166e-01f, 1.63392991e-01f, 8.06046203e-02f, 1.76857054e-01f, 2.52846360e-01f, 3.22433077e-02f, 2.41100967e-01f,
        -2.69723590e-02f, 1.29491910e-01f, 2.07743883e-01f, 7.87864774e-02f, 6.71993867e-02f, 1.29169431e-02f, -3.69890667e-02f, 1.22875586e-01f,
        1.98363006e-01f, 2.43428275e-01f, 2.12101415e-01f, 2.05522120e-01f, 1.30297050e-01f, 8.10193717e-02f, 3.15133445e-02f, -1.00388959e-01f,
        7.74301440e-02f, 6.07757643e-02f, 1.41807154e-01f, 1.48796916e-01f, 2.97700800e-02f, 1.47096768e-01f, 9.41281542e-02f, 2.35071003e-01f,
        1.66467011e-01f, 3.16761583e-02f, -1.06680706e-01f, 1.22642182e-01f, 8.50455165e-02f, 7.34033361e-02f, 2.01704010e-01f, 4.08393219e-02f,
        3.27861086e-02f, -3.88490856e-02f, -6.64518848e-02f, 1.46636264e-02f, 8.14729035e-02f, 5.06332964e-02f, 1.56976536e-01f, 7.06119910e-02f,
        1.13079801e-01f, -1.11590968e-02f, -3.78514640e-02f, -4.76667061e-02f, 7.11691082e-02f, 4.36770692e-02f, 1.41044959e-01f, 2.76022293e-02f,
        3.80484824e-04f, 8.38466063e-02f, -8.38613212e-02f, 3.05512846e-01f, 4.24786918e-02f, -2.26267681e-01f, 4.23134834e-01f, 4.18646842e-01f,
        1.58870950e-01f, 1.82192013e-01f, 1.50229752e-01f, 7.01114237e-02f, 5.76305948e-02f, -6.33786200e-03f, 4.32113633e-02f, -1.63806062e-02f,
        1.42913952e-01f, 5.76800480e-02f, 1.07392177e-01f, 9.70811769e-02f, 5.94252124e-02f, 7.57613108e-02f, 6.03101663e-02f, 1.65764205e-02f,
        9.76344720e-02f, 1.37302950e-01f, 1.84455931e-01f, -8.73574689e-02f, 5.62941190e-03f, 6.13404159e-03f, 2.31170580e-01f, 2.28502512e-01f,
        3.10610030e-02f, 1.12033151e-01f, 5.32288849e-01f, 3.89127225e-01f, 2.65843987e-01f, 2.83457279e-01f, 7.08545074e-02f, 4.86347191e-02f,
        1.07557006e-01f, -5.46386056e-02f, -4.41483594e-02f, -1.09515540e-01f, 3.25174704e-02f, 7.69915879e-02f, -3.11995596e-02f, 1.76123500e-01f,
        6.08096607e-02f, 3.22716124e-02f, 1.19544953e-01f, 6.86930269e-02f, 1.99896827e-01f, 2.51826376e-01f, 1.46969423e-01f, 1.00102603e-01f,
        -5.65049648e-02f, -8.47065151e-02f, 9.78729650e-02f, 2.11267516e-01f, -2.68788517e-01f, 1.78461045e-01f, 3.95582318e-01f, 2.37481683e-01f,
        2.45905071e-01f, 2.42346272e-01f, 1.01513617e-01f, 1.31565019e-01f, 1.71348602e-01f, 4.61059436e-02f, -8.58849287e-03f, 1.23850964e-01f,
        8.76125023e-02f, 8.81326422e-02f, 1.01791285e-01f, 2.13487729e-01f, 1.00929685e-01f, 1.47139981e-01f, 1.27379879e-01f, -7.95389060e-03f,
        2.29714766e-01f, 2.86935985e-01f, 1.23843729e-01f, -1.74771786e-01f, -3.24111730e-01f, 1.13862701e-01f, 5.01467437e-02f, -3.71013284e-02f,
        -1.73928052e-01f, 2.54821211e-01f, 2.89317518e-01f, 1.86140835e-01f, -3.55052613e-02f, 4.18749936e-02f, 8.79791975e-02f, 1.62016228e-02f,
        6.86927065e-02f, -3.59037742e-02f, -3.82146277e-02f, 7.66600370e-02f, 1.92888364e-01f, 1.88014880e-01f, 2.41993412e-01f, 1.90117836e-01f,
        8.08216110e-02f, 2.35905752e-01f, 1.24403469e-01f, 1.86914548e-01f, 1.18416637e-01f, 8.35427344e-02f, 8.57090019e-03f, -4.26899008e-02f,
        -2.47525290e-01f, -4.18453515e-02f, -3.26798826e-01f, -8.33690315e-02f, -1.42624870e-01f, 1.11966245e-01f, 3.09545361e-02f, 4.44308937e-01f,
        -6.87943166e-03f, 3.60768437e-02f, 8.60295668e-02f, 4.41864505e-02f, 5.71547933e-02f, 2.09381394e-02f, 3.91155332e-02f, 6.43688142e-02f,
        5.21725491e-02f, 1.84386060e-01f, 1.89969420e-01f, 1.68325961e-01f, 5.79712354e-02f, 2.52534121e-01f, 9.36913937e-02f, -8.01227242e-03f,
        1.01155184e-01f, 5.93542382e-02f, 1.78969920e-01f, -4.18444201e-02f, -3.58554214e-01f, -4.07989889e-01f, 1.36248738e-01f, -9.30135623e-02f,
        5.41734137e-02f, 1.75726265e-01f, 1.74431235e-01f, 1.51843384e-01f, 2.84544248e-02f, -9.37570725e-03f, 1.40007108e-01f, 1.29680276e-01f,
        1.00851201e-01f, -4.44838479e-02f, 6.08958043e-02f, 3.64663452e-02f, 1.48985773e-01f, 2.14369521e-01f, 1.31747380e-01f, 1.12747654e-01f,
        -3.74266133e-03f, 1.86330721e-01f, 5.89961298e-02f, -1.61044881e-01f, -3.11632510e-02f, 1.62778962e-02f, -4.81390767e-02f, -4.78245467e-02f,
        -2.50146955e-01f, -5.60771644e-01f, -3.37126493e-01f, -9.50113162e-02f, 2.18834728e-03f, 9.69822928e-02f, 2.68180311e-01f, 9.60603580e-02f,
        -1.00033425e-01f, -8.34858343e-02f, 2.23228466e-02f, 1.85933113e-02f, -6.42366335e-03f, -2.47278139e-02f, -7.72282109e-02f, 8.62300210e-03f,
        9.68573540e-02f, 2.02490747e-01f, 1.72270462e-01f, 1.09628960e-01f, 7.65533000e-02f, 1.02246329e-01f, -1.17866822e-01f, -2.98843205e-01f,
        -1.68237358e-01f, -6.07092306e-02f, -2.49540731e-02f, -1.94756180e-01f, -2.25704238e-01f, -3.15204293e-01f, -1.23754621e-01f, -9.50911269e-02f,
        2.87772715e-01f, -3.14038247e-02f, 3.89231265e-01f, 8.15765411e-02f, -1.76155001e-01f, -1.54461056e-01f, -1.59131274e-01f, -1.15353592e-01f,
        -1.35549635e-01f, -2.77658969e-01f, -1.59816995e-01f, 6.86658919e-02f, -8.81037191e-02f, 5.95066808e-02f, 3.67624201e-02f, 5.04286215e-03f,
        -2.92296661e-03f, 4.08063196e-02f, -2.20856398e-01f, -2.27480471e-01f, -4.29739207e-02f, -3.19541572e-03f, -1.15311272e-01f, -3.99854124e-01f,
        -6.05511904e-01f, -1.56016618e-01f, 2.53628910e-01f, -3.09979498e-01f, -1.77311391e-01f, 2.47008786e-01f, 4.26106215e-01f, -2.41829708e-01f,
        -5.91715686e-02f, -3.84937942e-01f, -2.77347863e-01f, -2.45128319e-01f, -1.83996171e-01f, -3.38623881e-01f, -2.62188584e-01f, -1.75474003e-01f,
        -1.58707306e-01f, -9.34487209e-02f, -1.29636765e-01f, -9.94156227e-02f, 7.05254090e-04f, 1.88168027e-02f, -1.35837600e-01f, -1.60582095e-01f,
        -1.05009265e-01f, -6.06627278e-02f, -2.94954985e-01f, -4.73569661e-01f, -5.23525834e-01f, -2.21493885e-01f, -6.64711893e-02f, -2.54732907e-01f,
        2.82495730e-02f, 1.24730431e-01f, 3.76362085e-01f, -1.58638284e-01f, -1.45028815e-01f, -3.75282913e-01f, -3.64297748e-01f, -2.55222678e-01f,
        -1.72243387e-01f, -2.19663844e-01f, -1.86756745e-01f, -1.50540680e-01f, -1.53277114e-01f, -7.83269927e-02f, -3.27860825e-02f, -7.34990388e-02f,
        1.12128414e-01f, 2.20896415e-02f, -1.02292381e-01f, -1.25500739e-01f, -2.55014393e-02f, 1.52810570e-02f, -1.52625740e-01f, -2.05296770e-01f,
        -8.77080262e-02f, -1.10077247e-01f, -2.19702989e-01f, -6.81437328e-02f, -1.49319112e-01f, 1.21436134e-01f, 1.32570252e-01f, -2.89579686e-02f,
        4.16833833e-02f, -4.53044921e-02f, -2.34760925e-01f, -2.08853647e-01f, -4.24967818e-02f, -1.47290513e-01f, -4.93077114e-02f, -7.72638768e-02f,
        -6.69180974e-02f, -1.58329993e-01f, -9.17528570e-02f, -2.33672629e-03f, 5.93296923e-02f, 1.23574305e-02f, -1.21566460e-01f, -1.53882965e-01f,
        -1.45682395e-01f, 1.18321301e-02f, -1.03509448e-01f, -2.88097620e-01f, -9.26871747e-02f, -2.37192109e-01f, -4.15702492e-01f, -3.02166268e-02f,
        -2.07291901e-01f, -2.14073155e-02f, 1.37891993e-01f, -1.34273693e-01f, 1.12202466e-01f, -3.00879180e-02f, -3.97948623e-02f, -3.80997523e-03f,
        4.73256893e-02f, -1.10839657e-01f, -1.31288404e-03f, 1.29753575e-02f, -3.14619765e-02f, -4.59616855e-02f, 2.46752147e-02f, -7.68501908e-02f,
        -6.60279691e-02f, -3.67535949e-02f, -8.64843875e-02f, -1.47412613e-01f, -1.06218718e-01f, -8.39787200e-02f, -2.66085379e-02f, -2.50492275e-01f,
        -3.63429151e-02f, 4.82973941e-02f, -4.32291418e-01f, -3.29714417e-02f, -1.81647241e-02f, 2.41789445e-02f, -1.64206222e-01f, -1.47400647e-01f,
        -2.47700348e-01f, -1.61951110e-01f, 4.50562090e-02f, 1.09070398e-01f, 5.23144519e-03f, -1.23226456e-02f, 9.80051234e-02f, 1.08283781e-01f,
        3.11571360e-02f, 6.36741072e-02f, -6.33142591e-02f, -3.13227214e-02f, -4.25602868e-02f, -1.04741611e-01f, -2.64041632e-01f, -2.18653515e-01f,
        -7.83349499e-02f, 5.79511784e-02f, -1.25783116e-01f, 1.25523061e-02f, 6.93873689e-02f, 6.97207525e-02f, -3.85699093e-01f, 1.14132948e-02f,
        3.72227281e-03f, -1.04039777e-02f, 1.26819953e-01f, 1.30268633e-01f, 1.72955692e-01f, 1.43119439e-01f, 1.57318011e-01f, 3.16230506e-01f,
        1.93977743e-01f, 1.86822154e-02f, 1.18344143e-01f, 2.62339473e-01f, 8.15234520e-03f, 1.10105192e-02f, -2.74302363e-02f, -1.00766726e-01f,
        -2.20955864e-01f, -2.40295947e-01f, -2.69421875e-01f, 2.45579835e-02f, 1.01586916e-01f, 8.14161897e-02f, 1.50522083e-01f, 1.05464667e-01f,
        -1.54021576e-01f, -1.15288258e-01f, -8.17818865e-02f, 1.70496851e-02f, 1.85241848e-02f, -1.22999251e-02f, 1.38365895e-01f, -3.14034224e-02f,
        4.28951174e-01f, 5.69959879e-01f, 1.27561614e-02f, 5.78767918e-02f, 1.07450433e-01f, 6.07802011e-02f, 2.59492725e-01f, 2.07393438e-01f,
        -7.95952827e-02f, -3.29183154e-02f, 1.57158613e-01f, 4.83645685e-02f, 6.64770827e-02f, -1.02197453e-01f, -8.05672631e-03f, -3.12939696e-02f,
        8.70599747e-02f, -6.00305246e-03f, -2.29020402e-01f, -1.63964510e-01f, -2.00429559e-01f, 9.33087710e-03f, -7.79588297e-02f, -1.71894431e-02f,
        -1.26396418e-02f, -1.44967064e-02f, -2.18031462e-02f, 9.56441909e-02f, 4.07948047e-01f, 3.93846512e-01f, 3.85845423e-01f, 2.38267586e-01f,
        2.10109860e-01f, 4.21578497e-01f, 1.31508082e-01f, -1.17297374e-01f, -1.29914721e-02f, 2.59024322e-01f, 3.46604496e-01f, -2.99949590e-02f,
        -5.07019423e-02f, 1.96952119e-01f, 1.25192702e-01f, 4.27564111e-04f, 2.20788196e-01f, 3.28393489e-01f, 3.28485161e-01f, 3.71140510e-01f,
        3.36252153e-01f, 1.31207809e-01f, 1.05428547e-02f, -2.63677631e-02f, 3.28427888e-02f, 9.48662311e-03f, 1.87699869e-03f, 3.07194106e-02f,
        3.46076041e-02f, 9.31880474e-02f, 1.90667659e-01f, 1.57149211e-01f, 1.35545447e-01f, 1.54772058e-01f, 2.88647741e-01f, 1.29987434e-01f,
        3.24370041e-02f, 9.96553823e-02f, 3.25289577e-01f, 2.38359705e-01f, 2.17751369e-01f, 2.66057253e-01f, 3.66527885e-01f, 4.15564179e-01f,
        3.75532269e-01f, 4.79132414e-01f, 4.11444813e-01f, 8.76498967e-02f, 1.94455013e-02f, 3.93052772e-03f, -2.94649489e-02f, 2.44081467e-02f,
    },
    {
        2.24866718e-03f, 2.77557783e-02f, -8.52704421e-03f, 1.72534212e-03f, 5.52929938e-04f, -1.85785685e-02f, 1.23748183e-03f, -1.16864704e-02f,
        -7.70075433e-03f, -1.56025719e-02f, 8.39000568e-03f, -2.45875567e-02f, -9.53219831e-04f, 2.19121836e-02f, -2.51818821e-02f, -1.40197035e-02f,
        1.26315840e-02f, 1.73094869e-02f, -3.28724794e-02f, -7.51365162e-03f, -1.86666846e-03f, 2.51072496e-02f, 1.23469867e-02f, -4.95332479e-03f,
        4.11708280e-03f, -3.19332257e-02f, -2.15715691e-02f, -1.44867133e-02f, 2.51696631e-03f, -9.35337879e-03f, -2.63463855e-02f, 1.43561922e-02f,
        -2.68008243e-02f, 1.38683235e-02f, -2.87959296e-02f, -4.25508060e-02f, -3.75230573e-02f, -9.41382721e-02f, -1.58249199e-01f, -9.36333239e-02f,
        -9.19125602e-02f, -3.48938584e-01f, 8.91831294e-02f, 9.18989778e-02f, -2.41187230e-01f, -1.57609582e-01f, -2.06424132e-01f, -1.98620379e-01f,
        -2.72804111e-01f, -1.99826002e-01f, -1.98943838e-01f, -1.81563511e-01f, 2.20449679e-02f, -6.96478598e-03f, -3.25759128e-02f, 1.44973472e-02f,
        -3.34929377e-02f, 1.51581541e-02f, -9.44397785e-03f, -2.94467472e-02f, -1.34936199e-01f, -8.22492391e-02f, -2.42523123e-02f, -7.47598335e-02f,
        -9.76468176e-02f, -1.23588026e-01f, -1.09609090e-01f, -1.66359901e-01f, 1.87092543e-01f, 2.99219102e-01f, -7.90822282e-02f, -7.00731203e-02f,
        -4.20884453e-02f, -2.93378562e-01f, -2.97224849e-01f, -6.62900984e-01f, -5.44135928e-01f, -4.27149355e-01f, -3.05463880e-01f, -1.97203279e-01f,
        8.78110453e-02f, 1.29407167e-01f, -2.72689816e-02f, -3.16230617e-02f, -2.53016744e-02f, 3.48528884e-02f, 2.26020887e-01f, 1.38306379e-01f,
        -8.55200738e-02f, -3.31079543e-01f, -1.44992098e-01f, -5.64903438e-01f, -6.28528476e-01f, -3.60461831e-01f, -4.32877928e-01f, -5.01530290e-01f,
        -1.89078748e-01f, -1.93381295e-01f, -4.44561452e-01f, -3.86537850e-01f, -4.66830820e-01f, -1.80149242e-01f, -7.24754557e-02f, 8.16959590e-02f,
        4.57077436e-02f, -5.88719510e-02f, 1.71815231e-01f, 3.29229385e-01f, -1.02791730e-02f, -2.57878676e-02f, -1.97825223e-01f, -1.29565354e-02f,
        -2.42130216e-02f, 1.69102214e-02f, 2.30944932e-01f, 1.71671227e-01f, -2.96540745e-03f, -1.81544393e-01f, -1.35975376e-01f, -1.96910873e-01f,
        -6.64781108e-02f, -3.57744358e-02f, 8.61106366e-02f, 6.53125495e-02f, 2.61758447e-01f, 2.84123778e-01f, 1.45241603e-01f, -2.74896026e-02f,
        -7.28687942e-02f, 1.63609147e-01f, 2.56275505e-01f, 1.79820687e-01f, 1.62011430e-01f, 1.92620486e-01f, 2.49949098e-01f, 1.55508444e-01f,
        5.94015978e-02f, -2.62464315e-01f, -1.97483554e-01f, -3.28168631e-01f, 3.40520702e-02f, 1.75843872e-02f, 2.41427764e-01f, -1.30136430e-01f,
        -5.27838171e-02f, 2.75670260e-01f, 1.75231591e-01f, -3.52267511e-02f, -2.63698567e-02f, -3.87321375e-02f, -1.08998224e-01f, -1.01119675e-01f,
        2.39263698e-01f, 2.71140158e-01f, 5.70028462e-02f, -6.09030463e-02f, -8.12102184e-02f, -1.51190788e-01f, 6.03499040e-02f, 1.04276806e-01f,
        -4.95563447e-03f, 2.46685967e-01f, 1.03317641e-01f, 5.18900948e-03f, 3.01647305e-01f, 2.62754261e-01f, -2.76274264e-01f, -3.23637575e-01f,
        -8.49407166e-04f, 9.27499831e-02f, -1.38266340e-01f, 4.28717621e-02f, 3.34367961e-01f, 3.07473063e-01f, 1.23365752e-01f, -1.20593257e-01f,
        -2.42973566e-01f, -2.12287575e-01f, -1.60004348e-01f, -2.00425070e-02f, 2.36113697e-01f, 1.52075946e-01f, 6.60867319e-02f, -1.11678131e-01f,
        -3.42714816e-01f, -2.37291023e-01f, -8.59218985e-02f, 1.52368516e-01f, 1.52845725e-01f, 1.66654482e-01f, 1.17050372e-01f, 2.42213026e-01f,
        2.26533517e-01f, 2.61579931e-01f, -2.01920625e-02f, -9.10577402e-02f, 4.21326458e-02f, 3.39208096e-01f, 7.10475445e-02f, 1.47914559e-01f,
        2.10950181e-01f, 1.07625440e-01f, 8.15144405e-02f, 3.70624736e-02f, -2.16316044e-01f, -1.05320409e-01f, -2.96540949e-02f, -1.15331724e-01f,
        2.60764379e-02f, 1.35787101e-02f, 6.47368282e-02f, -1.18415624e-01f, -2.41938859e-01f, -1.29786640e-01f, 2.06216276e-02f, 1.02916546e-01f,
        1.51134253e-01f, 1.44251719e-01f, 1.52936891e-01f, 3.01878840e-01f, 1.10496722e-01f, -2.05534071e-01f, 5.78859933e-02f, -1.20281689e-01f,
        -1.93701804e-01f, 2.84538716e-01f, 2.16126785e-01f, 2.92746812e-01f, 3.67291152e-01f, 1.93391860e-01f, 1.41857639e-01f, 3.64451766e-01f,
        4.35423851e-03f, -4.61673588e-02f, -1.21394902e-01f, -1.11896247e-01f, 1.11767247e-01f, 1.55158833e-01f, 1.83719248e-02f, -1.56288266e-01f,
        -2.96549141e-01f, -9.85343158e-02f, -3.11293895e-03f, 1.31541446e-01f, 1.44706309e-01f, -5.15762810e-03f, 5.01801148e-02f, 2.30392247e-01f,
        1.08846754e-03f, -2.04557642e-01f, 3.07102650e-01f, 1.59045354e-01f, 3.80823128e-02f, 3.86112452e-01f, 2.51557201e-01f, 4.58253473e-01f,
        3.49426359e-01f, 1.10988021e-01f, 2.57930756e-01f, 2.67001033e-01f, 1.23115897e-01f, -3.14994864e-02f, -1.06124103e-01f, 7.73942843e-02f,
        1.77638620e-01f, 1.27006963e-01f, 1.47927865e-01f, -1.36493862e-01f, -1.84195131e-01f, 1.81928147e-02f, 1.13472030e-01f, 5.65805547e-02f,
        4.06260267e-02f, 8.86882991e-02f, -1.93212349e-02f, 2.06540257e-01f, -3.59183148e-04f, -1.65587053e-01f, 4.24438030e-01f, 2.86110759e-01f,
        5.52866161e-02f, 2.17892915e-01f, 3.97599965e-01f, 8.07226300e-02f, 2.74696410e-01f, 7.79773891e-02f, 2.41940320e-01f, 3.19652438e-01f,
        1.90065548e-01f, 1.10108010e-01f, 2.02076122e-01f, 2.63488680e-01f, 1.38281360e-01f, 1.58654258e-01f, -2.29198504e-02f, -1.36560127e-01f,
        -2.30218336e-01f, 3.40355188e-02f, 1.59659699e-01f, 9.65684503e-02f, -7.68961608e-02f, 7.64595810e-03f, -9.15561169e-02f, -8.88873637e-02f,
        -1.70454253e-02f, -2.83768982e-01f, 2.27859646e-01f, 4.20783073e-01f, 3.08503993e-02f, 3.21912877e-02f, 1.52957544e-01f, 5.26619628e-02f,
        2.93832034e-01f, 2.01800525e-01f, 2.88531244e-01f, 5.20309865e-01f, 3.72286111e-01f, 3.56563300e-01f, 1.31290615e-01f, 9.23516005e-02f,
        1.76358428e-02f, -9.49329231e-03f, -1.68223847e-02f, -1.94743410e-01f, -1.69402406e-01f, -1.55600335e-03f, 5.79277799e-02f, 3.56756011e-03f,
        -3.91322002e-02f, -1.32549420e-01f, 2.37944685e-02f, 5.51736094e-02f, -1.41603202e-01f, -1.89778760e-01f, 1.91789106e-01f, 4.47171330e-01f,
        3.79358269e-02f, 1.57232732e-01f, 3.46721709e-02f, -5.91700140e-04f, 7.17039704e-02f, -6.42976314e-02f, 1.40918612e-01f, 4.45591092e-01f,
        2.85798907e-01f, 1.28259107e-01f, -1.37268290e-01f, -2.56679147e-01f, 1.07426960e-02f, 1.50309084e-02f, 4.48922999e-02f, -9.70773622e-02f,
        -1.26615047e-01f, -1.16789173e-02f, 5.29172197e-02f, -6.88137785e-02f, -5.36825657e-02f, -4.64605652e-02f, -2.07909662e-03f, -2.33393069e-02f,
        9.45924670e-02f, 3.23933482e-01f, 3.55293751e-01f, 4.25146371e-01f, 2.13235244e-02f, 8.88540894e-02f, 2.12897107e-01f, -4.75746160e-03f,
        -1.06556423e-01f, -1.22345306e-01f, 1.01037594e-02f, 1.49250403e-01f, -1.91125702e-02f, -3.88510190e-02f, -2.50109255e-01f, -3.45465869e-01f,
        -1.76705018e-01f, 1.12100601e-01f, 1.50837809e-01f, 4.40199152e-02f, -3.12751196e-02f, 5.66696301e-02f, 7.43849501e-02f, 1.59104336e-02f,
        2.27381252e-02f, 3.20634395e-02f, -1.39416074e-02f, -1.16923027e-01f, -5.33830635e-02f, 8.55743438e-02f, 3.53125781e-01f, 1.08080186e-01f,
        3.04584242e-02f, 6.97539449e-02f, 2.44946077e-01f, -9.28288028e-02f, 3.01889591e-02f, -2.13349406e-02f, -1.98597968e-01f, -2.74439007e-01f,
        -1.90366685e-01f, -4.99732614e-01f, -4.91257399e-01f, -3.77279550e-01f, -8.49871859e-02f, 2.34384388e-01f, 2.34147280e-01f, -4.16561356e-03f,
        1.83530208e-02f, 1.10381539e-03f, -1.72149330e-01f, 9.40607712e-02f, 5.43142483e-02f, 4.30951566e-02f, 1.63638629e-02f, 1.71659049e-02f,
        -8.59468579e-02f, -2.73746282e-01f, 2.89098650e-01f, -9.78088938e-03f, 4.13138457e-02f, -9.50274691e-02f, 1.34937957e-01f, -2.38118768e-01f,
        -1.07902899e-01f, -2.97026575e-01f, -2.78098553e-01f, -5.98550737e-01f, -7.57219493e-01f, -5.71693838e-01f, -3.38992149e-01f, 7.55390571e-03f,
        2.03945443e-01f, 3.38156492e-01f, 1.69238120e-01f, 9.19546094e-03f, 4.03654762e-03f, -4.37637679e-02f, 6.77131936e-02f, -5.48339039e-02f,
        8.20200983e-03f, -5.06083444e-02f, 1.12991378e-01f, 1.80428952e-01f, 1.32086411e-01f, -4.31503475e-01f, -3.81097943e-01f, 7.09264213e-03f,
        9.94343311e-03f, -1.10569887e-01f, 7.48749226e-02f, -2.90208310e-01f, -5.36289930e-01f, -7.32634127e-01f, -5.62346637e-01f, -7.55739510e-01f,
        -7.78340936e-01f, -2.98144013e-01f, 1.08135283e-01f, 3.28651547e-01f, 3.74351978e-01f, 2.42918298e-01f, 8.30196515e-02f, -3.36413458e-02f,
        -5.04028983e-02f, 7.27193505e-02f, 1.14426769e-01f, 4.59943339e-02f, -1.46951631e-01f, -6.85292203e-03f, -1.10168271e-01f, 4.15899139e-03f,
        -7.26533979e-02f, -2.24089146e-01f, 5.61844930e-02f, 1.03370994e-02f, 2.57490426e-02f, -2.50457805e-02f, -2.82239722e-04f, -7.92619810e-02f,
        -4.87173319e-01f, -5.83775401e-01f, -5.42282164e-01f, -3.68029475e-01f, -2.68077701e-01f, -2.96897739e-02f, 2.34101057e-01f, 5.53632259e-01f,
        3.69881988e-01f, 1.45650283e-01f, 5.75701743e-02f, -1.61599547e-01f, -6.25156388e-02f, -4.51060594e-04f, 8.77803639e-02f, -4.22324277e-02f,
        -1.04449324e-01f, 1.07871823e-01f, 9.50398222e-02f, 1.41586810e-01f, -2.28480160e-01f, -1.54308796e-01f, 2.85117894e-01f, -2.52501905e-01f,
        1.58394575e-02f, 2.98470967e-02f, 1.99752986e-01f, 5.39240986e-02f, -4.19705063e-01f, -3.97487313e-01f, -3.08852285e-01f, -5.88122085e-02f,
        6.26934543e-02f, 3.15966845e-01f, 3.64640534e-01f, 2.18363121e-01f, 1.67723849e-01f, 3.08846142e-02f, -5.20671308e-02f, -1.23142891e-01f,
        -6.27988428e-02f, -5.62278852e-02f, -1.03261888e-01f, -1.21495575e-01f, -1.14553705e-01f, -7.67469406e-02f, -1.52922213e-01f, -9.08967108e-02f,
        -1.55741662e-01f, 6.98038936e-03f, 3.27589303e-01f, 2.03148291e-01f, 1.49703667e-01f, 2.93509196e-02f, -6.55717105e-02f, -2.87304401e-01f,
        -4.66045201e-01f, -5.73946297e-01f, -1.66934595e-01f, 1.80380374e-01f, 2.82839477e-01f, 3.01864415e-01f, 2.94408321e-01f, 1.84403971e-01f,
        -3.50297540e-02f, 2.69187125e-03f, 3.10849976e-02f, 5.08390553e-03f, 7.14687705e-02f, -1.89336449e-01f, -2.31255472e-01f, -1.24180228e-01f,
        -2.07995519e-01f, -2.72776514e-01f, -3.43735129e-01f, 3.94174643e-02f, 2.36211509e-01f, -3.73195745e-02f, 1.35630677e-02f, 2.49242559e-01f,
        1.68495402e-02f, -5.15588447e-02f, -1.17200777e-01f, -6.17647097e-02f, -5.57970762e-01f, -5.71958601e-01f, 8.09920020e-03f, 2.20757321e-01f,
        3.50571096e-01f, 2.21211106e-01f, 1.74232766e-01f, 1.91581264e-01f, 3.33916135e-02f, -1.16665997e-01f, -2.87471693e-02f, -2.02151742e-02f,
        -8.64389613e-02f, -1.96691185e-01f, -1.16654508e-01f, -5.82832396e-02f, -1.81391001e-01f, -2.39783689e-01f, -1.65783212e-01f, 1.02561623e-01f,
        1.81056503e-02f, -2.30852678e-01f, 7.09198043e-02f, 1.30787175e-02f, 1.49129018e-01f, -2.23348662e-01f, -2.17015043e-01f, 1.61456257e-01f,
        -2.06510052e-01f, -2.50086427e-01f, 9.61715877e-02f, 1.43095449e-01f, 1.79192156e-01f, 9.64437053e-02f, 1.10556185e-01f, 2.88293175e-02f,
        -5.81530947e-03f, -9.95558351e-02f, -2.17413343e-02f, -7.85453543e-02f, -1.84862360e-01f, -7.62857869e-03f, -6.50490001e-02f, 1.21940032e-01f,
        9.63032246e-02f, 3.89777124e-02f, -1.30851895e-01f, 1.46712944e-01f, -1.02539323e-01f, -2.71997571e-01f, -2.54380137e-01f, -1.40076950e-02f,
        1.57327399e-01f, 7.28680491e-02f, -2.52768099e-01f, -1.73312098e-01f, 1.62650883e-01f, 8.62411037e-02f, 1.29713610e-01f, 1.50201365e-01f,
        8.55208486e-02f, 4.12262138e-03f, -8.76164157e-03f, 6.17352985e-02f, -5.68681397e-02f, -8.76726210e-03f, 3.82482931e-02f, -4.47114594e-02f,
        3.73911150e-02f, -6.95478246e-02f, -8.79793987e-02f, 2.41317414e-02f, 2.88093090e-02f, -2.10879426e-02f, -8.59218910e-02f, 1.67411998e-01f,
        4.64231186e-02f, 1.53694123e-01f, 1.95049688e-01f, 1.46212624e-02f, 1.80944540e-02f, 1.78111680e-02f, -2.35416908e-02f, -5.54933846e-01f,
        8.52262154e-02f, -2.57206783e-02f, 1.71038643e-01f, 1.61475744e-02f, -3.39844935e-02f, 1.26686737e-01f, 5.46066314e-02f, 1.06761947e-01f,
        6.75775707e-02f, 1.35356054e-01f, 9.59189609e-02f, 9.44642350e-02f, 1.54118553e-01f, -1.36350533e-02f, -1.61187619e-01f, 1.34648919e-01f,
        1.91251673e-02f, -1.52018145e-01f, -5.05754501e-02f, -4.57115397e-02f, 9.38677266e-02f, 1.88208565e-01f, 3.16548347e-01f, -2.79831346e-02f,
        -3.43125053e-02f, 3.52643989e-02f, -1.08124204e-01f, -3.95290464e-01f, -3.81761670e-01f, -1.80491880e-01f, 1.10766321e-01f, -7.68809840e-02f,
        -7.23169968e-02f, -8.71207044e-02f, -6.41270429e-02f, 1.29902646e-01f, 4.35406156e-02f, 2.03464385e-02f, 7.51007572e-02f, 9.23744738e-02f,
        -2.21790969e-02f, -2.62351364e-01f, -1.95861399e-01f, 1.33663505e-01f, 2.30321273e-01f, 8.95675942e-02f, 1.33072391e-01f, -1.08006068e-01f,
        6.27617687e-02f, 1.18490636e-01f, 2.18209013e-01f, -1.78579874e-02f, 1.37208179e-02f, 1.60495006e-02f, -2.34898016e-01f, 3.27699333e-01f,
        6.89775497e-02f, -1.20914489e-01f, 6.34795278e-02f, -5.57621643e-02f, -1.78370342e-01f, -1.72579810e-01f, -8.80952701e-02f, -3.94800231e-02f,
        -6.25928715e-02f, -6.47645816e-02f, 7.57518783e-02f, 5.80748208e-02f, -1.11127615e-01f, -3.61189656e-02f, -1.17475465e-01f, -7.50965923e-02f,
        4.26438563e-02f, -2.68876627e-02f, 6.83363527e-02f, 2.11995929e-01f, 1.09565571e-01f, -1.65969446e-01f, 1.03918843e-01f, -3.35147269e-02f,
        3.36664878e-02f, -7.50250556e-03f, 1.77795067e-03f, -2.31530562e-01f, -3.62107903e-01f, 1.29879564e-01f, 1.89840972e-01f, 2.06978261e-01f,
        2.01461986e-02f, -2.19188794e-01f, -1.66864634e-01f, -7.81692043e-02f, -3.53518844e-01f, -1.59367561e-01f, -3.73601973e-01f, -4.09657300e-01f,
        -3.73492658e-01f, -3.26360762e-01f, -1.61377773e-01f, 1.38983026e-01f, -5.64893745e-02f, -2.95610428e-01f, -3.34135681e-01f, 2.39761341e-02f,
        -1.42605662e-01f, 1.88505903e-01f, 2.57421359e-02f, 2.70417668e-02f, -2.01454852e-02f, 1.12955607e-02f, 2.69712321e-02f, 3.01941670e-02f,
        2.05316946e-01f, 3.33623588e-01f, 1.45945907e-01f, -3.05072572e-02f, 5.74483760e-02f, 7.42323622e-02f, 3.33310395e-01f, 1.64749458e-01f,
        8.56602266e-02f, 4.11088407e-01f, 4.41514879e-01f, -7.25950394e-03f, 2.36967411e-02f, 4.18657847e-02f, -2.52403587e-01f, 2.43006758e-02f,
        -9.82950404e-02f, -2.61791706e-01f, -3.00179601e-01f, 1.98521204e-02f, -3.39932516e-02f, 2.67316364e-02f, -6.88390248e-03f, 8.59470665e-03f,
    },
    {
        2.56061666e-02f, 2.05189213e-02f, -3.22683416e-02f, -2.45860815e-02f, -2.62780283e-02f, 1.09988637e-02f, -3.33734043e-02f, -1.53818820e-02f,
        3.21066119e-02f, -3.36085968e-02f, -1.81701034e-04f, -2.81409640e-02f, 5.41396206e-03f, -1.77189335e-03f, 6.19112700e-03f, 3.49468701e-02f,
        1.73980892e-02f, -9.56308097e-04f, -3.38023901e-02f, -3.40489820e-02f, 2.70708613e-02f, -8.91161896e-03f, 1.62448734e-02f, 2.60286592e-02f,
        8.09483975e-03f, 2.67315656e-04f, 9.09664854e-03f, -7.90644996e-03f, 2.95716859e-02f, -2.91976221e-02f, 2.55223960e-02f, 3.43310200e-02f,
        -2.38963813e-02f, -2.90504843e-03f, -5.23437560e-03f, 1.24197118e-02f, 2.53701257e-03f, 1.29631355e-01f, 1.72582239e-01f, 9.40982103e-02f,
        2.52437919e-01f, 4.47552234e-01f, 4.17689651e-01f, 2.74181694e-01f, -2.93005258e-01f, -1.98740751e-01f, 2.02122718e-01f, 2.06095994e-01f,
        2.57190496e-01f, 2.24702209e-01f, 1.00055002e-01f, 6.67398870e-02f, -2.60775089e-02f, 1.87641867e-02f, -6.08960167e-03f, -5.96392527e-03f,
        3.95490974e-03f, -3.06298155e-02f, 1.50860576e-02f, 3.69896926e-02f, 2.84332126e-01f, 1.29344240e-01f, -2.59024184e-02f, 3.74863259e-02f,
        -4.48800847e-02f, -2.24849939e-01f, -2.54385650e-01f, -2.63877839e-01f, -3.28888655e-01f, -3.34118247e-01f, -3.34020436e-01f, -1.03980467e-01f,
        -1.39177456e-01f, -2.11243436e-01f, 7.81769492e-03f, 4.82687414e-01f, 4.03260708e-01f, 2.87591219e-01f, 4.02193457e-01f, 1.07626103e-01f,
        -8.72282237e-02f, 2.92849112e-02f, 2.39440203e-02f, -3.28990780e-02f, 3.09483968e-02f, 9.46025550e-03f, 6.24855645e-02f, 1.24032553e-02f,
        1.44779846e-01f, -2.27367301e-02f, -5.68080731e-02f, -2.22150773e-01f, -2.32638597e-01f, -1.76201895e-01f, -1.95740521e-01f, -7.49814361e-02f,
        1.30586892e-01f, -1.86209604e-01f, -1.79023132e-01f, -1.03160270e-01f, -6.09684959e-02f, 1.23076342e-01f, 1.75802618e-01f, 1.11141689e-01f,
        2.72753358e-01f, -2.71308161e-02f, -1.70406565e-01f, 4.05530222e-02f, 2.39844292e-01f, 1.59767047e-01f, 2.42673844e-01f, -4.69754077e-03f,
        2.11247988e-02f, 8.16123094e-03f, 7.44923055e-02f, 1.75061762e-01f, -9.96567979e-02f, 3.93642515e-01f, 2.73312181e-01f, -6.33823201e-02f,
        -2.99624920e-01f, -3.08459014e-01f, -3.38130891e-01f, -4.20775451e-02f, -1.47123247e-01f, -8.16849098e-02f, -2.59137750e-02f, 7.39983236e-03f,
        -1.25168130e-01f, -1.69302180e-01f, -1.34436935e-01f, -4.65449728e-02f, -1.50311843e-01f, -1.48134351e-01f, -7.82367736e-02f, 3.19112211e-01f,
        1.48332730e-01f, -1.95109770e-02f, -8.80947039e-02f, 2.58154362e-01f, -3.46893966e-02f, 3.04286741e-02f, 2.47011811e-01f, 2.47685581e-01f,
        -1.54045433e-01f, 3.68852466e-01f, 2.94098765e-01f, 2.30232198e-02f, -4.46729928e-01f, -1.37845278e-01f, -1.21094830e-01f, -2.16224551e-01f,
        -1.22197136e-01f, -4.99617122e-02f, -3.95333357e-02f, -6.69983169e-03f, -6.01780228e-02f, 6.95716217e-02f, -4.31109443e-02f, -4.06897534e-03f,
        -1.80602938e-01f, -2.55167872e-01f, -1.60670236e-01f, 2.02232718e-01f, 2.38140687e-01f, -3.37845266e-01f, 2.29963481e-01f, 4.32807535e-01f,
        -3.43550108e-02f, -1.39771178e-01f, 2.73506790e-01f, 2.31931254e-01f, 2.90736891e-02f, 2.84918398e-01f, 1.16649292e-01f, -1.09240748e-01f,
        -1.04622878e-01f, -8.66895020e-02f, -3.25029641e-02f, -6.65337741e-02f, -1.31682798e-01f, -7.13625783e-03f, -6.43623397e-02f, -2.28613131e-02f,
        7.57790953e-02f, 9.53819156e-02f, 1.21553391e-01f, 7.12610269e-03f, 1.03516765e-01f, -1.69986114e-01f, -1.87866744e-02f, 2.48648092e-01f,
        3.33382666e-01f, -1.90121248e-01f, 1.83456630e-01f, -1.29174978e-01f, -1.81147549e-02f, -2.80058235e-01f, 1.83163553e-01f, 2.73031026e-01f,
        4.21776399e-02f, -4.88209613e-02f, -2.51772672e-01f, -2.00430200e-01f, -3.28566849e-01f, -8.96362364e-02f, 2.44438518e-02f, -7.07016513e-02f,
        -2.30976790e-02f, -1.45713286e-02f, 2.46527523e-01f, 9.78757888e-02f, 9.14616734e-02f, 1.70053169e-01f, 9.23792552e-03f, 1.44733623e-01f,
        1.22028768e-01f, -1.05299652e-01f, 3.95965129e-02f, 2.49819279e-01f, -1.15388572e-01f, -2.53658414e-01f, 2.88515568e-01f, -8.50354806e-02f,
        8.77429023e-02f, -3.75843138e-01f, 1.60076097e-01f, 3.01499218e-01f, -3.30431275e-02f, -2.46995851e-01f, -2.37901837e-01f, -2.12963045e-01f,
        -2.34276935e-01f, -1.38455465e-01f, -1.00079544e-01f, -1.52385354e-01f, -4.27658893e-02f, 9.87056941e-02f, 3.69281799e-01f, 2.95391202e-01f,
        1.22665890e-01f, 8.84368122e-02f, 2.10878421e-02f, -3.19016129e-02f, -9.03329253e-02f, 3.84131260e-02f, -1.85249094e-02f, -3.94501805e-01f,
        6.18725568e-02f, 2.24824384e-01f, -1.51990414e-01f, -2.01623261e-01f, -4.81037907e-02f, 3.60344835e-02f, 2.85182148e-01f, -3.25172804e-02f,
        -1.33864537e-01f, -2.72663504e-01f, -1.02811821e-01f, -6.39230087e-02f, -1.26013339e-01f, -2.44597178e-02f, -1.61214337e-01f, -1.24896377e-01f,
        -1.40930355e-01f, 8.93373713e-02f, 2.78288692e-01f, 1.11106254e-01f, 8.38602260e-02f, 8.00960213e-02f, 1.98457595e-02f, -1.40325176e-02f,
        2.01050323e-02f, 2.64265519e-02f, 1.75593607e-02f, -1.39201656e-01f, 3.63578677e-01f, -5.11823483e-02f, -1.06281906e-01f, -5.01416959e-02f,
        -4.42254990e-02f, 1.91318512e-01f, -1.51487201e-01f, 1.11106522e-01f, 1.20793283e-01f, -1.67595252e-01f, -3.44125658e-01f, -3.00359488e-01f,
        -1.22056007e-01f, -2.68991202e-01f, -3.27498823e-01f, -1.09874569e-01f, -3.67199779e-02f, 1.07547238e-01f, 1.71045005e-01f, 3.98565605e-02f,
        4.16521244e-02f, -4.62899134e-02f, 4.74269837e-02f, 4.54871617e-02f, 1.32438317e-01f, 1.86374888e-03f, 2.28029028e-01f, 2.68374711e-01f,
        3.98326010e-01f, 4.27069187e-01f, 8.39006677e-02f, -2.22814783e-01f, -3.50448675e-02f, -6.19779639e-02f, -1.92222729e-01f, -2.50848681e-01f,
        2.52402008e-01f, 3.40370089e-02f, -2.02964067e-01f, -3.03874969e-01f, -3.64497937e-02f, -2.28578135e-01f, -2.22459152e-01f, -1.72507107e-01f,
        -9.75876860e-03f, 3.28596175e-01f, 1.77658349e-01f, 2.15189513e-02f, 4.88125756e-02f, 1.07503533e-01f, 1.66099563e-01f, -1.38314124e-02f,
        -1.03877798e-01f, -2.28843256e-03f, 1.19460754e-01f, 2.38008648e-01f, 1.02083489e-01f, 2.48611011e-02f, 3.91593307e-01f, -2.23025382e-01f,
        -2.77910549e-02f, -5.42078773e-03f, 1.12801842e-01f, -3.93001378e-01f, 1.09860539e-01f, -2.36104578e-01f, -3.82956386e-01f, -3.39271307e-01f,
        -1.52181789e-01f, -1.34659767e-01f, 8.74314923e-03f, 1.60783276e-01f, 2.37212136e-01f, 3.62510890e-01f, 2.88314819e-01f, 1.73328102e-01f,
        1.00619430e-02f, 5.82349338e-02f, 4.63563725e-02f, -5.20765595e-02f, -1.04139745e-01f, -1.77513659e-01f, -1.63920209e-01f, -1.20921291e-01f,
        -4.43484545e-01f, -1.56328082e-01f, 1.07379042e-01f, -6.67903423e-02f, 2.48637050e-01f, 1.93512868e-02f, -1.96860135e-01f, -3.95968825e-01f,
        -1.33620471e-01f, -5.85940123e-01f, -5.49819648e-01f, -2.96782792e-01f, -1.71852158e-03f, 8.47646147e-02f, 1.87412456e-01f, 2.30977565e-01f,
        4.12759423e-01f, 2.96600759e-01f, 3.04483563e-01f, 2.26178065e-01f, 1.03197642e-01f, 3.86390612e-02f, -1.15129076e-01f, 1.79755117e-03f,
        -5.07860482e-02f, -2.76516378e-01f, -4.47979927e-01f, -6.82534218e-01f, -4.64619875e-01f, -2.62148827e-01f, -1.20095588e-01f, 2.61880010e-01f,
        -9.64637101e-02f, 1.13894127e-01f, -7.02326745e-02f, -3.39946032e-01f, -3.79460782e-01f, -3.42259884e-01f, -4.30135459e-01f, -4.75998133e-01f,
        -1.26615033e-01f, 1.20973319e-01f, 1.51268259e-01f, 2.51973420e-01f, 3.96924913e-01f, 3.68903846e-01f, 3.31573457e-01f, 1.79291025e-01f,
        8.34522247e-02f, -9.32480767e-03f, -1.23867497e-01f, -3.17675695e-02f, 4.39720750e-02f, -1.09143786e-01f, -4.81718272e-01f, -6.38447225e-01f,
        -3.80406201e-01f, 7.19909221e-02f, -2.61602551e-01f, -3.05118654e-02f, -1.03176042e-01f, 1.43103302e-01f, 8.14690143e-02f, -2.77076751e-01f,
        -1.10937349e-01f, -1.59613192e-01f, -3.02759767e-01f, -3.83625507e-01f, -3.16850960e-01f, -2.68410712e-01f, 6.56195059e-02f, 1.12827338e-01f,
        3.76108587e-01f, 3.30106646e-01f, 2.94762462e-01f, 1.46152884e-01f, 2.12727770e-01f, 1.54448152e-01f, 1.36828884e-01f, -7.55588412e-02f,
        -2.15487015e-02f, -1.15896918e-01f, -3.41762722e-01f, -3.12166482e-01f, -8.53858665e-02f, 2.59137377e-02f, -2.00737059e-01f, -1.23064667e-01f,
        -4.48734649e-02f, 1.04437128e-01f, 4.09123302e-02f, -1.58887267e-01f, 2.63047129e-01f, 1.05105869e-01f, -2.04099357e-01f, -4.67559576e-01f,
        -5.39506376e-01f, -5.51848471e-01f, -1.15447737e-01f, 1.70392096e-01f, 3.05937827e-01f, 2.98016101e-01f, 1.18998632e-01f, 1.19051479e-01f,
        2.74577349e-01f, 1.18281648e-01f, 1.62869766e-01f, -1.81130707e-01f, -5.65405898e-02f, -4.65734988e-01f, -4.70978290e-01f, -1.35881379e-01f,
        -1.24952421e-01f, -1.48619026e-01f, -2.99956739e-01f, -8.39173272e-02f, 5.74201345e-04f, 9.07028988e-02f, -6.91831633e-02f, -1.72418982e-01f,
        2.56730616e-01f, -4.15376313e-02f, -2.18388885e-01f, -2.50101745e-01f, -4.75721031e-01f, -3.06416124e-01f, -1.77166611e-01f, 1.40879378e-02f,
        9.13521424e-02f, 9.97896567e-02f, 1.34286433e-01f, 1.80514976e-01f, 2.05734372e-01f, 1.79501653e-01f, 7.67210796e-02f, -1.15730040e-01f,
        -3.29081893e-01f, -5.01081586e-01f, -3.35730046e-01f, 4.83427681e-02f, -3.56174000e-02f, 4.83740829e-02f, 9.80909020e-02f, -1.11462839e-01f,
        -1.78113833e-01f, 4.55692448e-02f, 2.62691993e-02f, -3.88873547e-01f, -5.34909368e-02f, -1.35012031e-01f, -1.19818054e-01f, -2.07341418e-01f,
        -1.38311982e-01f, -2.74215758e-01f, -3.17539006e-01f, -5.47568984e-02f, 7.75987580e-02f, 1.21520370e-01f, 2.31210515e-01f, 2.47669354e-01f,
        1.80411682e-01f, 9.19223502e-02f, 2.67927889e-02f, -3.49646568e-01f, -5.93118191e-01f, -5.09171546e-01f, -3.97700965e-01f, -1.86051428e-01f,
        -1.84908938e-02f, 1.60224378e-01f, 3.59321296e-01f, 2.06319705e-01f, 2.87555605e-01f, -2.93121606e-01f, -1.29313618e-01f, -1.96635410e-01f,
        1.28013329e-04f, 9.69994888e-02f, 1.51901454e-01f, -5.42027615e-02f, -2.12989300e-01f, -3.27513129e-01f, -3.61966908e-01f, -2.53432840e-01f,
        -6.26104251e-02f, -3.48293670e-02f, 1.50195062e-01f, 1.49958983e-01f, 1.40539631e-01f, 1.95097908e-01f, 6.21878095e-02f, -3.70516628e-01f,
        -7.39945710e-01f, -6.68635190e-01f, -5.86770713e-01f, -2.63903648e-01f, 1.66645169e-01f, 3.25593770e-01f, 2.46649697e-01f, 2.85278797e-01f,
        -2.85108946e-02f, 1.62043497e-01f, -2.69542694e-01f, -3.27577084e-01f, 9.52427387e-02f, 2.16727540e-01f, 1.98563278e-01f, -2.48915539e-03f,
        -4.78402749e-02f, -1.53486818e-01f, -2.21015960e-01f, -2.77125448e-01f, -1.41921937e-01f, 3.80160138e-02f, 2.22861409e-01f, 7.66636953e-02f,
        2.05512866e-01f, 2.31402680e-01f, -6.70813620e-02f, -3.54437619e-01f, -8.03045392e-01f, -7.76874423e-01f, -4.36657667e-01f, -2.80078650e-01f,
        -3.09988372e-02f, -8.29000697e-02f, 2.35562786e-01f, 1.28929362e-01f, 2.11615488e-01f, 1.64963990e-01f, -2.05930099e-01f, -5.93293011e-02f,
        4.74714907e-03f, 1.98589504e-01f, 2.14355350e-01f, 9.30575728e-02f, 1.12011470e-02f, -5.91690540e-02f, -1.15334161e-01f, -1.45483822e-01f,
        -8.54903460e-02f, -1.68448109e-02f, 8.96598697e-02f, 6.29330426e-02f, 5.17029054e-02f, -8.56290013e-03f, -2.81821430e-01f, -5.96111596e-01f,
        -6.53515339e-01f, -5.80610096e-01f, -4.64469075e-01f, 2.42892429e-02f, 1.49951950e-01f, 9.48979780e-02f, -2.83721000e-01f, -1.17564071e-02f,
        1.77268714e-01f, 1.82979047e-01f, -1.36703864e-01f, 2.90985703e-02f, 3.94585282e-02f, 1.89979389e-01f, 2.50723094e-01f, 5.68965934e-02f,
        4.10841778e-02f, 1.22261748e-01f, 1.42159939e-01f, 8.22071433e-02f, 7.97791705e-02f, 4.50887680e-02f, 1.24298178e-01f, 1.02629617e-01f,
        -1.14361517e-01f, -2.31378317e-01f, -5.02220333e-01f, -4.79816347e-01f, -6.38241827e-01f, -6.00258648e-01f, -4.47382212e-01f, -7.55724683e-02f,
        7.86928087e-02f, -1.15813844e-01f, 2.10952654e-01f, 3.56637798e-02f, 1.56185105e-02f, -1.45444330e-02f, -2.11620227e-01f, -1.64373517e-01f,
        1.73868816e-02f, 8.99489149e-02f, -5.77401556e-02f, 1.11442722e-01f, 1.48586154e-01f, 6.19281158e-02f, 1.43845618e-01f, 2.14072570e-01f,
        2.08372384e-01f, 1.65794626e-01f, 1.13064311e-01f, -1.08649865e-01f, -2.94545531e-01f, -3.71467590e-01f, -4.77942497e-01f, -6.22634828e-01f,
        -6.22184932e-01f, -5.56139886e-01f, -1.46345764e-01f, -1.19690686e-01f, -1.22438997e-01f, -6.58397609e-03f, 2.53138095e-01f, 1.57394633e-02f,
        -2.03855336e-04f, 2.77414545e-03f, 2.04033908e-02f, 8.71386081e-02f, 2.17369318e-01f, 5.06414175e-01f, 1.15391640e-02f, 1.55912295e-01f,
        9.27573964e-02f, 1.37208953e-01f, 1.73859999e-01f, 1.35443389e-01f, 2.92970061e-01f, 2.47857228e-01f, 5.88770583e-03f, -1.43117830e-01f,
        -3.22268099e-01f, -4.59520727e-01f, -5.93202531e-01f, -6.43569112e-01f, -2.54857928e-01f, -1.09227359e-01f, 7.82793239e-02f, 3.14021736e-01f,
        3.62791903e-02f, 8.94495025e-02f, -4.08715494e-02f, -1.59452017e-02f, -1.95495617e-02f, -3.17525752e-02f, 9.06591117e-02f, 6.33490384e-02f,
        1.39380991e-01f, 4.73900646e-01f, -9.01312903e-02f, -7.30410963e-02f, 9.46712792e-02f, 4.40308973e-02f, -9.83394757e-02f, -3.49515118e-02f,
        5.76836839e-02f, -5.58416545e-02f, -2.06415012e-01f, -2.52057135e-01f, -1.65916204e-01f, -2.39983663e-01f, -3.67156476e-01f, -3.20969522e-01f,
        -2.92105496e-01f, -2.53093868e-01f, 1.23837478e-02f, 5.13034105e-01f, 2.70725116e-02f, -1.80777558e-03f, -1.30085843e-02f, 2.69196294e-02f,
        -3.15727703e-02f, 2.88814269e-02f, 1.32617243e-02f, 1.66781142e-01f, 4.66513604e-01f, 5.11459231e-01f, 4.22297239e-01f, 1.77779332e-01f,
        -8.58222321e-02f, 8.63090381e-02f, 1.89809740e-01f, 2.71550566e-01f, 2.09989488e-01f, 8.34279060e-02f, 2.89024115e-01f, 1.46729812e-01f,
        1.84803486e-01f, 3.62732589e-01f, 1.34253561e-01f, -4.27149199e-02f, -3.15805376e-02f, 1.90439727e-02f, 9.96629372e-02f, -6.92920983e-02f,
        -2.16494873e-02f, 1.12100512e-01f, 7.47698918e-03f, 2.75865756e-02f, -7.88513198e-03f, -2.83958390e-03f, -3.68776545e-03f, -3.29104215e-02f,
        -1.55656978e-01f, -2.24663019e-01f, 1.01461478e-01f, 1.29442722e-01f, 1.14745311e-01f, 6.22564964e-02f, 1.64115895e-02f, 1.26197740e-01f,
        2.17813011e-02f, -1.63094744e-01f, 4.68685985e-01f, 3.51585776e-01f, -1.03514614e-02f, -7.80270100e-02f, 1.83495536e-01f, 1.32587627e-02f,
        -4.65193018e-02f, 4.57630353e-03f, 4.37882077e-03f, 1.31540038e-02f, 1.64267272e-02f, 1.50897652e-02f, -1.83362328e-02f, 1.13350786e-02f,
    },
    {
        -6.01453520e-03f, 1.51763558e-02f, -2.15427466e-02f, 2.82369368e-02f, -2.61836648e-02f, -2.48836167e-02f, 1.72799155e-02f, -5.80670685e-03f,
        -4.31609154e-03f, 3.54148857e-02f, 2.22953409e-02f, 1.87801234e-02f, -2.56939158e-02f, 2.55027376e-02f, -2.93683037e-02f, -2.92399582e-02f,
        3.16865705e-02f, 8.49474221e-04f, -9.57600214e-03f, 2.70223804e-02f, -2.59017199e-03f, -6.92565553e-03f, -2.66225990e-02f, 9.97189060e-03f,
        2.62992829e-03f, -7.69863464e-03f, 1.07628144e-02f, 2.52257846e-02f, -2.66761277e-02f, 2.86191367e-02f, -3.46262753e-02f, 2.94931792e-02f,
        -2.30667256e-02f, -3.03693041e-02f, 1.25666298e-02f, 1.55727267e-02f, -2.41856799e-02f, 1.47640891e-02f, -1.31784845e-02f, 1.48290247e-02f,
        -1.17955375e-02f, -1.39695928e-02f, 4.70876321e-03f, -1.39539167e-02f, 2.01313645e-02f, 3.46151032e-02f, 2.85363235e-02f, 2.02734955e-02f,
        -3.48552726e-02f, 2.79715694e-02f, 2.42679715e-02f, 1.31111182e-02f, -2.15509329e-02f, -1.73503533e-03f, 3.24489288e-02f, 1.70411468e-02f,
        2.55633742e-02f, 2.70993672e-02f, -1.38313863e-02f, -1.98547039e-02f, 2.03363895e-02f, 2.17147022e-02f, -2.28721425e-02f, -2.38370858e-02f,
        -2.48452984e-02f, -5.16049005e-03f, -2.88714860e-02f, -5.51852584e-03f, -7.47425668e-03f, 1.60463639e-02f, -3.37833725e-02f, -1.23324990e-02f,
        1.54391862e-02f, 3.53150703e-02f, -7.40687363e-03f, 1.80070624e-02f, -2.57166084e-02f, 2.01438777e-02f, 1.01576075e-02f, 3.00497450e-02f,
        1.30446479e-02f, -1.23693570e-02f, -3.29301879e-03f, 3.04140188e-02f, 2.87026875e-02f, 2.26912722e-02f, 8.07865709e-03f, 3.19546722e-02f,
        2.24615522e-02f, -2.74102092e-02f, -1.81652065e-02f, -1.20217670e-02f, -9.51825827e-03f, -1.24199446e-02f, -2.93763336e-02f, 9.06598940e-03f,
        -1.60739478e-02f, 1.42985731e-02f, -1.74245127e-02f, 3.79220396e-03f, 2.46745273e-02f, -9.13871266e-03f, -2.61285529e-03f, -7.67336227e-03f,
        3.04716639e-02f, -5.92356175e-03f, 6.56264275e-03f, 2.59752609e-02f, -1.73672624e-02f, 1.74367987e-02f, -3.47471982e-02f, 2.13159770e-02f,
        -8.91901739e-03f, -9.37013514e-03f, 2.87373103e-02f, -6.23076782e-03f, 2.13807933e-02f, -6.56839833e-03f, 1.89350434e-02f, 5.78624383e-03f,
        -3.42558175e-02f, 3.05214487e-02f, -9.39180702e-03f, -2.59531438e-02f, 1.45300403e-02f, -7.14146346e-03f, 3.38871144e-02f, -3.39854807e-02f,
        -2.34805904e-02f, -1.38753280e-03f, -1.89173855e-02f, 2.95373406e-02f, 1.50134144e-02f, 1.50550678e-02f, 1.27243176e-02f, 5.89752197e-03f,
        2.42732055e-02f, 2.82598287e-03f, -2.30986252e-03f, 4.82778996e-03f, 2.54202299e-02f, -2.88538858e-02f, 2.71582864e-02f, 9.91460681e-03f,
        -1.60069652e-02f, 3.02498750e-02f, -1.98922418e-02f, -2.54470408e-02f, 3.16202361e-03f, 1.33971572e-02f, -2.11064275e-02f, -3.04603837e-02f,
        3.19615752e-03f, -1.50803756e-02f, -6.96247816e-03f, -1.18397512e-02f, -2.15731654e-02f, 3.14416885e-02f, 3.37293781e-02f, -8.30047112e-03f,
        -2.88418029e-02f, 1.07016787e-03f, -3.92432436e-02f, -2.53475457e-03f, 8.06581229e-03f, -2.25326978e-02f, 1.05672330e-03f, 2.79771425e-02f,
        1.15423650e-02f, -9.01100039e-03f, -3.40936780e-02f, 2.72282772e-02f, -2.74926908e-02f, -3.11021432e-02f, 2.73294598e-02f, -5.55510726e-03f,
        -1.78210139e-02f, -3.41026336e-02f, -5.47678815e-03f, -2.63913963e-02f, -8.54662992e-03f, -4.62886086e-03f, -1.82300042e-02f, -2.05840189e-02f,
        -2.70063821e-02f, 3.03950123e-02f, -1.49533711e-02f, 1.28210569e-02f, 1.83963915e-03f, -3.84981232e-03f, -1.36363925e-02f, -1.40401721e-02f,
        -1.34082008e-02f, 2.54730005e-02f, -3.18793505e-02f, 2.74020098e-02f, 2.23709978e-02f, 3.49914990e-02f, -6.65710680e-03f, 9.03806090e-03f,
        2.13520601e-03f, -8.03558715e-03f, -2.47491952e-02f, -3.51931714e-02f, 1.41068306e-02f, -1.61098521e-02f, -3.19660529e-02f, 2.34806482e-02f,
        -2.68230923e-02f, -1.22138746e-02f, -1.67057700e-02f, 4.27637249e-03f, -3.27970013e-02f, -2.20359061e-02f, 1.97937209e-02f, -2.77210958e-02f,
        6.63883844e-03f, -3.08490843e-02f, 5.48140705e-03f, 3.73047381e-03f, -3.73769142e-02f, -2.31316146e-02f, 1.16319582e-03f, 2.29582824e-02f,
        -1.15877260e-02f, -2.02067755e-02f, -2.69897580e-02f, 1.06302500e-02f, 1.49932876e-03f, -2.81871222e-02f, -4.02971692e-02f, 1.41924052e-02f,
        -3.54960631e-03f, -1.87331960e-02f, 1.59372613e-02f, -3.18513773e-02f, -4.66154888e-03f, -4.05076183e-02f, 2.14624871e-02f, 2.14739591e-02f,
        -4.39654924e-02f, 7.35274190e-03f, -2.53037922e-03f, 4.23056772e-03f, 6.80139894e-03f, -9.26758454e-04f, -3.91600886e-03f, -1.12201655e-02f,
        8.67818389e-03f, 4.15067896e-02f, -1.97930597e-02f, -5.14282472e-03f, 6.69845566e-03f, -1.43299531e-02f, -3.49608138e-02f, -1.72555111e-02f,
        -7.19950534e-03f, 3.51766497e-03f, 7.86419585e-03f, 2.42618266e-02f, -5.31281577e-03f, 6.90175779e-03f, -1.64136179e-02f, -4.02371548e-02f,
        -3.96187194e-02f, 2.48621907e-02f, 1.87962018e-02f, -3.47821265e-02f, -2.21790932e-03f, 1.59134623e-02f, -3.40862162e-02f, 2.17265245e-02f,
        -4.31333408e-02f, 2.25568209e-02f, -3.53355557e-02f, 1.67812742e-02f, 2.39006113e-02f, -2.54798047e-02f, 8.98597389e-03f, -2.99035031e-02f,
        2.76424102e-02f, 1.17795207e-02f, -8.93900730e-03f, 1.60384402e-02f, -3.03913448e-02f, -4.07783836e-02f, -2.39855871e-02f, -4.57088975e-03f,
        3.10319453e-03f, -3.64138111e-02f, -1.54076247e-02f, 2.10183263e-02f, -3.83954346e-02f, -3.86013910e-02f, -3.69811207e-02f, -1.73674747e-02f,
        1.73725393e-02f, -4.03235145e-02f, -2.13516355e-02f, -2.94047538e-02f, 1.66384503e-03f, -1.67269204e-02f, -2.76541263e-02f, 9.99337994e-03f,
        3.37707177e-02f, -2.51520872e-02f, -1.50121246e-02f, -2.45461613e-02f, -7.76397809e-03f, -2.95671839e-02f, -1.78848337e-02f, 1.48111582e-02f,
        1.27498060e-04f, 2.18799766e-02f, 2.07963046e-02f, -3.74800786e-02f, 2.52127033e-02f, -3.44731249e-02f, -1.51465079e-02f, 8.85804463e-03f,
        -2.86498107e-04f, -9.03262664e-03f, -4.28794548e-02f, -2.65630912e-02f, -3.76202054e-02f, 1.33936424e-02f, -2.74870228e-02f, 1.88610936e-03f,
        -1.41858328e-02f, 3.12337726e-02f, -5.31146815e-03f, 4.74786200e-03f, -2.23266836e-02f, -1.13746496e-02f, -7.63417967e-03f, -2.17523668e-02f,
        -2.20262166e-02f, 2.91106738e-02f, -3.51195484e-02f, 2.58486718e-04f, -3.52971852e-02f, 1.45411724e-03f, -3.68240895e-03f, 1.03204069e-03f,
        -3.51258181e-02f, -1.42421005e-02f, 7.27832690e-03f, -2.32751463e-02f, 1.09648947e-02f, -9.36717633e-03f, 2.10714038e-03f, 1.35688633e-02f,
        -1.05852382e-02f, -2.64062062e-02f, -1.65546313e-02f, -3.37672159e-02f, 6.34840224e-03f, 8.24348629e-03f, -1.95755307e-02f, 1.57673638e-02f,
        -3.64680924e-02f, -1.89872793e-04f, 2.45691463e-02f, -2.31381319e-02f, -3.40644903e-02f, 2.55153403e-02f, -1.94693338e-02f, 2.69547123e-02f,
        -1.60909276e-02f, 1.63778849e-02f, -4.48444532e-03f, -6.12531556e-04f, -2.46846005e-02f, -4.20410298e-02f, 2.57241186e-02f, 1.48893930e-02f,
        -2.28271876e-02f, -3.75735089e-02f, 1.74286589e-02f, -2.53217574e-02f, 2.74110809e-02f, -7.82472640e-03f, -6.15773397e-03f, 7.04576261e-03f,
        2.60695629e-02f, 2.18172860e-03f, -8.39467254e-03f, -2.15686560e-02f, -1.38158416e-02f, -3.22328545e-02f, 2.74449587e-03f, -3.01667005e-02f,
        -2.24527009e-02f, -9.71717574e-03f, 7.77265429e-03f, -8.00968707e-03f, -2.46431306e-02f, 1.70058869e-02f, 3.09513882e-02f, 2.05839034e-02f,
        -2.54858518e-03f, 3.81043414e-03f, -1.30735049e-02f, 1.07695088e-02f, 2.68392339e-02f, 5.75993792e-04f, 4.41439636e-03f, -1.69537757e-02f,
        -8.56282073e-04f, -1.70477014e-02f, -1.39915375e-02f, -3.74513790e-02f, 1.67133636e-03f, -2.95473845e-03f, 1.42176999e-02f, 7.23437965e-03f,
        -3.47956792e-02f, -6.49616122e-05f, -7.30922446e-03f, 1.63792633e-02f, -1.21168494e-02f, 2.88645588e-02f, 1.47919159e-03f, 3.87266814e-03f,
        5.48630767e-03f, 2.81131659e-02f, -3.15371230e-02f, -4.14257646e-02f, -1.81837976e-02f, 1.18816167e-03f, 9.64203663e-03f, -4.50626872e-02f,
        2.34697331e-02f, -2.72816084e-02f, -1.06067304e-03f, 2.59368382e-02f, 1.41490279e-02f, -2.17287820e-02f, 6.83100894e-03f, -1.30849965e-02f,
        2.09330954e-02f, -2.30237935e-02f, -8.03950801e-03f, 2.62654983e-02f, 3.52866910e-02f, -2.84999330e-02f, 3.16618010e-03f, -1.32884774e-02f,
        -2.10552141e-02f, -3.18401232e-02f, 2.93921363e-02f, -2.00116020e-02f, -9.95999202e-03f, -1.55699346e-02f, 1.58119388e-02f, -2.05456093e-02f,
        -3.86433536e-03f, -3.45680602e-02f, 1.72150433e-02f, -2.77505349e-02f, -1.56721957e-02f, 8.54743831e-03f, -2.35824492e-02f, -3.66574042e-02f,
        -2.53497567e-02f, -1.73208881e-02f, -3.29152308e-02f, -3.31645906e-02f, 2.28263568e-02f, -1.24541111e-02f, 1.91633366e-02f, 1.94472335e-02f,
        -1.59494877e-02f, 3.29260789e-02f, -1.02024805e-02f, 2.81970948e-04f, 1.65710077e-02f, -1.42468177e-02f, 1.05630271e-02f, 1.07753305e-02f,
        -1.04009602e-02f, -3.48587781e-02f, 2.28702798e-02f, 5.85077144e-03f, -3.45533038e-03f, -3.32246907e-02f, 2.69484357e-04f, 8.97727441e-03f,
        -8.58496502e-03f, -3.41744348e-02f, -3.72258388e-02f, -2.96843518e-02f, 4.73145535e-03f, -1.76757714e-03f, -1.79936979e-02f, -1.36354826e-02f,
        1.99862290e-02f, 1.80983040e-02f, 2.12597810e-02f, -2.58680508e-02f, 7.96578825e-03f, 2.17614584e-02f, 2.02282779e-02f, 2.51113586e-02f,
        9.46592167e-03f, 4.40442562e-03f, -1.19704297e-02f, -1.07528633e-02f, 7.79133243e-03f, 7.82012288e-03f, 1.07878633e-02f, -2.68382337e-02f,
        2.73298044e-02f, -9.75882693e-04f, -3.47485207e-02f, 7.90716149e-03f, 1.00974534e-02f, -4.41865176e-02f, -2.23278385e-02f, -2.58326884e-02f,
        -2.30613910e-03f, -3.18362974e-02f, 1.12327365e-02f, 3.23796389e-03f, -7.72099569e-03f, -3.14674117e-02f, -2.45342813e-02f, -3.45116705e-02f,
        -1.51408799e-02f, 3.37886848e-02f, 9.60030407e-03f, -1.34905670e-02f, -4.75434400e-03f, 6.11786917e-03f, -7.55114667e-03f, -1.74327251e-02f,
        3.66576165e-02f, -5.20895654e-03f, 2.62850095e-02f, -1.42239081e-03f, -1.12082819e-02f, 9.13038291e-03f, 5.87723078e-03f, -2.65264474e-02f,
        -5.31330891e-03f, 1.28582446e-02f, -7.54322065e-03f, 5.19633386e-03f, -3.54789197e-02f, 2.79245875e-03f, -1.15672275e-02f, -2.88128555e-02f,
        -3.54084931e-02f, -1.46816643e-02f, 1.18735619e-02f, -2.87244637e-02f, 3.36078070e-02f, -1.64995752e-02f, -2.31109411e-02f, -1.05836857e-02f,
        -1.10289548e-02f, -2.57098339e-02f, 1.60690546e-02f, 4.62687761e-03f, -2.17243657e-02f, 3.62261315e-03f, -3.98773849e-02f, -2.42448598e-02f,
        -2.51101970e-04f, -8.87982082e-03f, -2.88603269e-02f, -1.19203730e-02f, 2.63611134e-02f, -1.97102446e-02f, 4.91615105e-03f, -1.47819007e-02f,
        -3.34081538e-02f, -2.27075759e-02f, 6.53272029e-03f, 6.37341617e-03f, -1.55763496e-02f, 2.50289198e-02f, -4.76271287e-03f, 1.42729543e-02f,
        1.58368908e-02f, -2.03349981e-02f, -1.60126910e-02f, 1.98547915e-03f, -2.02215277e-02f, -8.74919072e-03f, 1.24178417e-02f, 1.68908313e-02f,
        3.52341644e-02f, -7.17127929e-03f, 1.35125844e-02f, -2.21776646e-02f, 1.49426181e-02f, -1.79284941e-02f, 6.63400302e-03f, 8.49584769e-03f,
        -3.42302024e-02f, -3.77400592e-02f, -2.98502799e-02f, -7.30887288e-03f, -2.39971243e-02f, -2.02632416e-02f, -1.64232007e-03f, 2.50768010e-03f,
        -2.73953769e-02f, -2.68751215e-02f, -1.46879908e-02f, -1.92653760e-02f, 2.90675201e-02f, -1.64820999e-03f, 2.31026150e-02f, -7.23326579e-03f,
        -3.34382616e-02f, 4.11710516e-03f, 3.28985266e-02f, -1.37648806e-02f, 2.30596960e-02f, 1.42972209e-02f, 4.72606719e-03f, 2.34689619e-02f,
        -2.24134736e-02f, -2.04584319e-02f, 1.87767427e-02f, 3.12023610e-02f, -7.82553665e-03f, -1.97110176e-02f, -1.30405929e-02f, 1.42230438e-02f,
        1.39164664e-02f, 1.00301495e-02f, -1.22660734e-02f, 2.69708354e-02f, -1.10509954e-02f, -3.96201350e-02f, -2.04608999e-02f, -3.22467163e-02f,
        -4.31922078e-03f, -1.59360003e-02f, -1.47022475e-02f, -2.45105475e-03f, 3.08772549e-03f, -1.57491397e-02f, 3.38386036e-02f, -7.89809600e-03f,
        -2.95347348e-03f, -2.45893002e-02f, -4.92951274e-03f, 6.25304878e-04f, -3.90485339e-02f, -2.08699573e-02f, 2.54108962e-02f, -2.14199815e-02f,
        5.62931923e-03f, -1.54982042e-02f, 1.19843427e-03f, -1.59232169e-02f, -1.33032370e-02f, -3.54562812e-02f, -5.59537299e-03f, -7.14173587e-03f,
        -3.09058698e-03f, -8.98985472e-03f, 2.58679017e-02f, -3.07266768e-02f, -8.34449753e-03f, 6.53691590e-04f, 1.46421082e-02f, 4.81570885e-03f,
        3.43333930e-04f, 1.10597573e-02f, 1.93001442e-02f, -1.04733836e-02f, 2.46715806e-02f, 1.78332664e-02f, 2.47786604e-02f, 4.29632515e-03f,
        -1.70816779e-02f, -3.78203019e-03f, -6.02012873e-03f, -2.71988362e-02f, 2.93705799e-02f, -5.81138767e-03f, -1.88081805e-02f, -5.77288819e-03f,
        3.87021899e-03f, 3.41106579e-03f, 5.95357316e-03f, -4.00836878e-02f, 6.26353780e-03f, -1.41974417e-02f, -1.42503604e-02f, 1.58038512e-02f,
        1.51208825e-02f, 2.28416175e-03f, 1.19927898e-02f, -1.58180855e-02f, -2.85998471e-02f, 3.76710296e-03f, -9.69278812e-03f, -2.66010463e-02f,
        -1.74198635e-02f, -3.07686292e-02f, -2.10152194e-03f, 5.97896054e-03f, 2.48817205e-02f, -3.23982798e-02f, -2.27837022e-02f, -2.65665501e-02f,
        6.87621534e-04f, 2.43650600e-02f, 2.53829826e-02f, -5.70079312e-03f, -1.04173087e-02f, -2.70319544e-02f, 3.39883082e-02f, 3.53889726e-02f,
        1.41142271e-02f, 2.11199783e-02f, -6.03789091e-03f, 6.47305697e-03f, -1.55761894e-02f, 1.69840083e-03f, -2.66377293e-02f, 1.50904097e-02f,
        -2.18903478e-02f, 1.26565024e-02f, 3.55857201e-02f, -2.27327570e-02f, -2.59296782e-02f, 2.53433324e-02f, 8.56105238e-03f, 8.57902318e-03f,
        2.31047235e-02f, 3.23467739e-02f, 4.07679752e-03f, -3.50387618e-02f, -8.28296319e-03f, -2.59608179e-02f, 1.06420694e-02f, -5.98942861e-03f,
        -2.16358453e-02f, 2.53521353e-02f, 1.51197240e-02f, -1.88062117e-02f, -1.76227912e-02f, 5.64058498e-03f, -2.21685823e-02f, -6.23017922e-03f,
        -1.89715624e-02f, 2.66002677e-02f, 2.79415064e-02f, 1.11367293e-02f, 3.34621109e-02f, 1.00163482e-02f, 1.23239942e-02f, 2.88425796e-02f,
        3.43963318e-02f, 2.33869255e-02f, -3.08405515e-02f, -4.64986451e-03f, -2.56773829e-03f, 2.54818797e-02f, 1.83112957e-02f, 2.96700932e-02f,
        2.58513317e-02f, 2.70722471e-02f, 1.60211213e-02f, -4.89983894e-03f, 2.19788663e-02f, -2.94405837e-02f, 3.25547196e-02f, -1.97070539e-02f,
        -3.11227404e-02f, 1.31422468e-02f, 2.10818760e-02f, 3.04608420e-03f, -1.47244260e-02f, -5.70424087e-03f, -2.47618929e-03f, -2.01852247e-03f,
    },
    {
        -3.06552649e-03f, -1.68704875e-02f, -2.24515647e-02f, 1.48166642e-02f, 2.95719840e-02f, 2.37131454e-02f, -6.77927583e-03f, 3.53610031e-02f,
        -1.92707777e-02f, 3.38038839e-02f, 1.54952966e-02f, 2.45951861e-02f, -1.37300063e-02f, 1.37952603e-02f, -7.04269856e-04f, 2.69312821e-02f,
        -1.81451142e-02f, 2.60227211e-02f, -1.80768929e-02f, -2.85598896e-02f, -3.34086195e-02f, -3.46675664e-02f, -2.03843080e-02f, 1.69190615e-02f,
        -1.30191147e-02f, -1.99121125e-02f, 2.93690711e-04f, 5.57247922e-03f, 3.02501656e-02f, -1.26984287e-02f, -3.19480672e-02f, -1.58545300e-02f,
        3.12810652e-02f, -2.50264555e-02f, -1.93988048e-02f, 2.92480625e-02f, -2.92489249e-02f, 1.69358216e-02f, -2.09468361e-02f, 2.89470591e-02f,
        -3.89150903e-03f, 8.58609378e-03f, -2.67435238e-03f, -3.07804998e-02f, -1.87095962e-02f, -2.58873403e-02f, -2.76970360e-02f, -1.38738919e-02f,
        -5.41171059e-03f, -1.22890007e-02f, 3.98237258e-04f, 1.26657747e-02f, -2.47593522e-02f, 1.49439611e-02f, -1.77956484e-02f, -2.74874531e-02f,
        -9.52687114e-03f, 2.38249712e-02f, -1.31844580e-02f, 4.69725206e-03f, -4.02658805e-03f, 8.15034658e-03f, -2.13636048e-02f, -3.07107829e-02f,
        1.02874003e-02f, 1.42166093e-02f, 6.60445914e-03f, 1.54862702e-02f, -1.24824215e-02f, 1.53701212e-02f, -3.40812802e-02f, -8.72370787e-03f,
        3.64932418e-03f, 2.18803659e-02f, 9.04282928e-03f, -2.78878072e-03f, 1.38564538e-02f, -4.87208366e-03f, 9.92631912e-03f, 2.58291960e-02f,
        1.24772154e-02f, 1.29126199e-02f, -2.59585828e-02f, -6.48887269e-03f, 2.96708755e-02f, 2.15342529e-02f, -2.29989551e-02f, 8.84175301e-04f,
        6.43057376e-03f, -1.15649067e-02f, -2.21320614e-02f, 2.69401930e-02f, -3.27269658e-02f, -1.29894540e-02f, -2.91861612e-02f, -2.48110350e-02f,
        4.76141786e-03f, 1.75034232e-03f, 1.95826124e-02f, 2.46817786e-02f, 1.26217874e-02f, -2.04293448e-02f, -1.30076703e-04f, -8.11356399e-03f,
        -9.19758901e-03f, -1.26040075e-02f, 1.15059540e-02f, 1.13776848e-02f, 1.13923550e-02f, -5.59301116e-03f, 2.95025110e-03f, -2.41090506e-02f,
        -1.33051351e-03f, 1.73666663e-02f, -3.14736031e-02f, 1.70620941e-02f, 3.08784805e-02f, 2.52544992e-02f, -3.16114016e-02f, -3.54246944e-02f,
        -5.35446312e-03f, 6.01870357e-04f, 1.10869482e-02f, -3.40024233e-02f, -3.48076336e-02f, 1.35394046e-03f, 8.69340915e-03f, -2.39984505e-02f,
        1.90076660e-02f, -3.95269096e-02f, -8.07221793e-03f, -1.05531383e-02f, 1.98558569e-02f, -2.38639042e-02f, 1.15811303e-02f, -3.37950513e-03f,
        1.92839727e-02f, 3.29624377e-02f, 1.21832639e-03f, 2.09175311e-02f, 1.99274346e-03f, -1.56368669e-02f, 2.35180557e-02f, 2.59505841e-03f,
        1.10614896e-02f, -2.67494339e-02f, -1.23785818e-02f, 1.16958786e-02f, -2.20794939e-02f, -3.10239326e-02f, -1.55108431e-02f, -7.51336105e-03f,
        -2.68768612e-02f, -3.23324129e-02f, 1.11912396e-02f, -1.28816087e-02f, 3.71346576e-03f, -9.74627025e-03f, -2.17409469e-02f, -4.01221737e-02f,
        2.04156991e-02f, -9.81585123e-03f, -6.24565175e-04f, -2.47160792e-02f, -3.03041991e-02f, 2.92835124e-02f, 2.07867064e-02f, 1.61735341e-03f,
        1.72977298e-02f, 7.80432299e-03f, 2.17682049e-02f, 2.23711226e-02f, -1.12857083e-02f, 1.60127282e-02f, 2.37954147e-02f, 1.45003421e-03f,
        2.33759452e-02f, 1.60754845e-03f, -4.13866714e-02f, 1.75120458e-02f, 1.36510609e-02f, 1.85710862e-02f, -5.87591622e-03f, -3.37900445e-02f,
        -2.25625914e-02f, -1.70126874e-02f, -3.89859453e-02f, -6.98640756e-03f, 2.07798127e-02f, -2.76063308e-02f, 1.13971746e-02f, -1.55974086e-02f,
        -2.66600028e-03f, -2.71381736e-02f, 2.02251263e-02f, 1.40040144e-02f, 5.43672219e-03f, -3.20771709e-03f, -8.84928554e-03f, 1.44121274e-02f,
        1.18469084e-02f, 2.66946293e-02f, -2.42305677e-02f, 2.78731203e-03f, 1.31671801e-02f, -3.15683968e-02f, -1.86403915e-02f, 5.70555124e-03f,
        -3.51827517e-02f, -5.04529383e-03f, -7.36997928e-03f, -1.73869208e-02f, -2.81610396e-02f, -9.50009911e-04f, 4.99725388e-03f, -3.75290476e-02f,
        -2.46533100e-02f, 1.03598069e-02f, -3.26948538e-02f, -7.18330266e-03f, -2.87594199e-02f, -2.77344789e-02f, -3.33579630e-03f, -3.02189812e-02f,
        -5.05460985e-03f, -1.10506639e-02f, 2.40441561e-02f, 1.65065750e-02f, -3.98412682e-02f, -9.94797237e-03f, -1.36655709e-02f, 1.99991893e-02f,
        4.68570134e-03f, -2.56102271e-02f, -3.03812642e-02f, -1.13508981e-02f, -4.12323475e-02f, -3.13408524e-02f, -1.70247164e-02f, 2.69892644e-02f,
        -3.74191292e-02f, 1.49362218e-02f, -3.54115702e-02f, 1.14469873e-02f, 1.68800503e-02f, -2.19483889e-04f, -1.57817248e-02f, -5.03613148e-03f,
        3.98352519e-02f, -2.03684233e-02f, 7.78264180e-03f, -3.45358178e-02f, 4.19714302e-03f, 1.56752989e-02f, -1.92619693e-02f, -1.74252968e-02f,
        2.47292444e-02f, -1.60938762e-02f, -3.09377965e-02f, -3.27563286e-02f, 1.96417905e-02f, -2.14872044e-02f, -1.35504398e-02f, -3.46122198e-02f,
        -1.53864140e-03f, -3.77962104e-04f, -1.39576159e-02f, -3.26373032e-03f, -2.77476460e-02f, 1.27474619e-02f, 1.59273390e-02f, -2.14543305e-02f,
        -2.39644833e-02f, -1.32728713e-02f, 2.63839420e-02f, -2.19143648e-02f, 4.04297821e-02f, 1.27760563e-02f, 6.20580465e-03f, 9.43630189e-03f,
        1.29657649e-02f, 3.07742469e-02f, -1.13892443e-02f, -3.58752534e-02f, 2.16775946e-02f, -1.27384756e-02f, 3.32227303e-03f, -3.66570130e-02f,
        2.42108852e-02f, 1.06564304e-03f, -2.54916791e-02f, -1.77519191e-02f, -3.11137997e-02f, -3.43995541e-02f, -1.54221496e-02f, -3.92729230e-02f,
        -4.04990911e-02f, -1.47390226e-02f, 4.15835250e-03f, -1.91511009e-02f, -9.62718681e-04f, -1.95711814e-02f, 1.27173238e-03f, -5.60707692e-03f,
        1.77866705e-02f, -7.35012954e-03f, -9.32190381e-03f, -1.91944633e-02f, -2.70131826e-02f, -5.29536232e-03f, 3.00286673e-02f, 1.48913451e-02f,
        -6.13622367e-03f, 9.18888766e-03f, -2.69985106e-02f, 2.54590269e-02f, -2.93314364e-02f, -1.21279145e-02f, -1.40585443e-02f, 1.31946206e-02f,
        -1.45725580e-03f, -4.00798917e-02f, -1.54128652e-02f, -3.59698422e-02f, -1.63445744e-04f, -2.45646480e-02f, -1.30264843e-02f, 6.27709366e-03f,
        1.25072459e-02f, 2.69122702e-05f, 2.60573830e-02f, -2.56957766e-02f, 4.17997316e-03f, 1.58404037e-02f, 3.30112390e-02f, -4.95547056e-03f,
        2.41254643e-03f, 2.28665471e-02f, -2.04852596e-03f, 3.27448286e-02f, -3.20479386e-02f, -2.21451167e-02f, 2.99908593e-03f, -2.70836279e-02f,
        2.20626518e-02f, -3.61366756e-02f, -2.88297199e-02f, -1.37816016e-02f, -1.37299849e-02f, -3.67062576e-02f, -9.67377797e-03f, -3.84837463e-02f,
        1.23162940e-02f, 1.07120611e-02f, -2.88668685e-02f, 7.16342544e-03f, -8.25429684e-04f, 1.54141048e-02f, 2.69952565e-02f, -2.42030174e-02f,
        3.06340121e-02f, -2.67592818e-03f, -1.90517232e-02f, 3.18316035e-02f, -2.41119321e-02f, 5.49685210e-03f, -1.13035571e-02f, 3.13070044e-03f,
        -1.08987466e-02f, 7.69655639e-03f, 4.85091330e-03f, -2.70591285e-02f, -3.55372429e-02f, -4.07975502e-02f, -2.20082011e-02f, 1.31101394e-02f,
        -3.51270400e-02f, -2.16258913e-02f, -3.10907029e-02f, 8.94208997e-03f, 2.03310978e-02f, -3.30898026e-03f, 4.81440919e-03f, -1.80961285e-03f,
        1.92511007e-02f, 2.38844492e-02f, 1.56606510e-02f, -2.96375658e-02f, 3.43120582e-02f, 1.83967128e-03f, 1.52821243e-02f, 1.44577324e-02f,
        1.27476379e-02f, -2.88372822e-02f, -9.42460634e-03f, -1.65052768e-02f, 1.29699381e-02f, 1.41706560e-02f, -2.51215752e-02f, -4.07038024e-03f,
        -1.05907619e-02f, -1.13274716e-02f, -3.13727707e-02f, -4.11235169e-02f, -4.36810218e-02f, -4.23146784e-02f, -3.76300663e-02f, 9.82512347e-03f,
        -3.82733648e-03f, -9.29290242e-03f, -3.70570607e-02f, 1.14166979e-02f, -3.94497700e-02f, -3.69908772e-02f, -4.09828275e-02f, -2.80349478e-02f,
        2.69679986e-02f, -1.91300176e-02f, 1.89707987e-02f, -1.85183939e-02f, 2.38922574e-02f, 1.76991485e-02f, 8.36290419e-03f, -2.95422897e-02f,
        1.32406726e-02f, 7.56745879e-03f, 1.80285610e-02f, -1.25975013e-02f, -1.19441273e-02f, 1.73035525e-02f, -3.29041667e-02f, 2.14364976e-02f,
        1.75837744e-02f, 1.05835544e-02f, 3.51589127e-03f, 2.31045354e-02f, -2.53851507e-02f, 1.26107095e-03f, 1.34347274e-03f, 1.23950085e-02f,
        1.37541359e-02f, 4.44537587e-03f, -3.86731252e-02f, -2.05526892e-02f, -8.75449181e-03f, -2.79064067e-02f, -1.40720364e-02f, -2.96017416e-02f,
        1.49966069e-02f, -4.29471210e-03f, -3.30206379e-03f, -4.96252999e-03f, 1.84685215e-02f, 1.33020971e-02f, -3.99672724e-02f, 5.75966621e-03f,
        -3.18763852e-02f, -1.74160656e-02f, -1.00576030e-02f, 2.50444692e-02f, -2.08892580e-02f, -4.07041460e-02f, -3.90503518e-02f, -3.61041203e-02f,
        7.64351524e-03f, -1.75697654e-02f, -1.13170706e-02f, -3.21060838e-03f, -9.60611645e-03f, -5.66465175e-03f, -1.38229039e-02f, -1.45264976e-02f,
        -2.75281966e-02f, -1.18905362e-02f, -3.05856783e-02f, 1.11014023e-02f, 6.60866499e-06f, -1.00132450e-03f, 1.12904608e-02f, 7.71554559e-03f,
        -3.19755152e-02f, -2.72744782e-02f, 9.78417415e-03f, -5.91909420e-03f, -7.97585864e-03f, -1.78113375e-02f, -1.10390084e-02f, 1.80131048e-02f,
        2.24420652e-02f, -2.37995759e-02f, 1.70427095e-02f, -3.96083035e-02f, -2.41352487e-02f, 5.73543180e-03f, 2.53155008e-02f, 3.63519066e-03f,
        2.55093966e-02f, -4.12979163e-02f, -1.18076401e-02f, -2.39485353e-02f, -2.99861878e-02f, -2.52882335e-02f, 1.63425803e-02f, 4.21569124e-03f,
        8.62675905e-03f, -1.72615051e-03f, -1.14697181e-02f, 1.17271766e-02f, 7.21505657e-03f, -2.34473832e-02f, -1.73074305e-02f, -6.03662524e-03f,
        3.98986302e-02f, 2.23796088e-02f, 2.11662464e-02f, -3.76382172e-02f, -3.67146917e-02f, -3.20958868e-02f, -1.32509274e-02f, -9.38195083e-03f,
        -5.21906232e-03f, -1.07488083e-02f, 7.60447420e-03f, -2.60556117e-04f, 6.83993753e-03f, -1.90811083e-02f, -3.56675200e-02f, 3.08875926e-02f,
        3.33430432e-02f, -8.93999822e-03f, -2.73514148e-02f, 2.70596184e-02f, -1.32163130e-02f, 8.37428123e-03f, -3.11976168e-02f, -1.60231218e-02f,
        3.04358453e-03f, 2.34477967e-03f, 3.85730453e-02f, -9.00063943e-03f, 7.01098377e-03f, -1.94304846e-02f, 2.93038297e-03f, 1.97366555e-03f,
        1.75233614e-02f, -3.14638354e-02f, -2.95375325e-02f, -3.54031324e-02f, 2.00453011e-04f, -7.83003401e-03f, 2.55926289e-02f, -2.11635809e-02f,
        2.49310210e-02f, -7.48371892e-03f, -2.32688542e-02f, 2.08622254e-02f, 2.55966671e-02f, -1.33663043e-02f, 9.20799002e-03f, 3.23218070e-02f,
        -1.36253610e-03f, -4.17232513e-06f, 2.24277191e-02f, 3.37202363e-02f, 3.41894664e-02f, 1.75357237e-03f, 1.37788814e-03f, 5.79293538e-03f,
        -6.33723568e-03f, 1.28146578e-02f, -4.35247906e-02f, -9.08122514e-04f, 1.88285043e-03f, -7.25438399e-03f, -3.84921357e-02f, 6.85645454e-03f,
        -2.91177840e-03f, -4.16445993e-02f, -7.39958091e-03f, -2.16410235e-02f, 1.05074106e-03f, -2.55790781e-02f, 2.36545019e-02f, -8.05653911e-03f,
        3.25303040e-02f, -3.10684107e-02f, -2.28383243e-02f, -8.12858343e-04f, 2.60096043e-02f, -3.56916413e-02f, 5.59874997e-03f, -1.72963701e-02f,
        -1.36461128e-02f, -3.06907669e-03f, 2.07850337e-02f, -1.48676652e-02f, 8.34170636e-03f, -3.56151983e-02f, -1.78265981e-02f, 8.95329844e-03f,
        -7.64021417e-03f, -1.53570147e-02f, 1.49078183e-02f, 1.95874367e-02f, -3.55693847e-02f, -1.98626295e-02f, -3.73019874e-02f, -2.69298833e-02f,
        2.36911476e-02f, -2.76550092e-02f, 2.16653030e-02f, -3.58492252e-03f, -2.99018417e-02f, 2.66015865e-02f, 1.53375566e-02f, -3.23793739e-02f,
        5.18577918e-03f, -3.29219066e-02f, 1.83031633e-02f, 2.73093693e-02f, -1.89428292e-02f, -3.06195039e-02f, 1.40387928e-02f, -1.24011561e-03f,
        -3.63686271e-02f, -2.30257064e-02f, -5.95523464e-03f, -1.91582292e-02f, -1.34092066e-02f, -3.42461951e-02f, 8.74970295e-03f, 1.80121027e-02f,
        -2.14953441e-02f, -4.14819792e-02f, 5.24878921e-03f, -4.63351561e-03f, -3.25820372e-02f, 2.38043778e-02f, 2.43290160e-02f, 1.40279476e-02f,
        1.89438481e-02f, -9.76424664e-03f, 2.55798884e-02f, -5.48860803e-03f, -9.62344371e-03f, -1.12969410e-02f, -1.07229613e-02f, 2.45472081e-02f,
        -2.86284741e-02f, -2.60913260e-02f, 5.71777578e-03f, 2.40090070e-03f, 1.94974081e-03f, -1.08247623e-03f, 3.48714851e-02f, 6.88649761e-03f,
        -8.98169074e-03f, 2.45800950e-02f, 5.82920806e-03f, -3.30306552e-02f, 5.70298918e-03f, -2.01042946e-02f, -1.84889603e-02f, -2.33606827e-02f,
        -1.56453494e-02f, -1.21011422e-03f, -2.68945713e-02f, -2.20800396e-02f, -1.67608056e-02f, -3.41897458e-03f, -1.18326806e-02f, 1.34170055e-04f,
        -4.24249098e-03f, -1.75854098e-02f, 3.41556631e-02f, 2.91185044e-02f, 1.34105757e-02f, -1.02904998e-02f, -5.16221859e-03f, 2.53837928e-02f,
        -3.26604024e-02f, 1.39083862e-02f, -2.03793198e-02f, 2.26276666e-02f, -2.34317109e-02f, 3.54831922e-03f, -1.65742915e-02f, 2.47108601e-02f,
        2.50165630e-02f, -4.12790142e-02f, -2.72943433e-02f, -3.77367698e-02f, 1.96817573e-02f, -2.20867014e-03f, -2.46811528e-02f, -5.26896492e-03f,
        1.62363648e-02f, 2.64677219e-02f, 2.55049951e-02f, 3.39878239e-02f, -1.85112916e-02f, -1.56144165e-02f, 1.12594441e-02f, -2.87986845e-02f,
        1.82685964e-02f, 3.19456793e-02f, -3.15199047e-02f, -3.15216966e-02f, 2.14659981e-02f, -2.37129778e-02f, 1.31730400e-02f, 2.01378465e-02f,
        1.31006278e-02f, 3.88309639e-03f, 7.47165130e-03f, -4.69449768e-03f, 2.48271748e-02f, 3.51640694e-02f, 3.42740007e-02f, -5.34195453e-04f,
        6.71920925e-03f, 9.67296213e-03f, 1.44316927e-02f, -2.53039189e-02f, -8.19093920e-03f, -8.52856040e-03f, 2.31070109e-02f, -8.68194923e-03f,
        3.12088542e-02f, -1.22206006e-02f, -1.76066849e-02f, -3.32363620e-02f, 5.75711578e-03f, 7.01642409e-03f, -2.43104398e-02f, -1.07732210e-02f,
        3.62725928e-03f, 2.52452902e-02f, -1.89092718e-02f, -1.55570041e-02f, -3.02786026e-02f, -1.93793867e-02f, -8.46340880e-03f, -1.70773547e-02f,
        -3.41045037e-02f, -7.73872621e-03f, 2.79114060e-02f, 8.09587538e-03f, 3.33247595e-02f, 2.07369439e-02f, 2.09606737e-02f, 9.09287483e-04f,
        2.97393650e-04f, -2.42955443e-02f, -3.52072418e-02f, 6.94329292e-03f, 1.95886642e-02f, -2.72805914e-02f, -2.12672409e-02f, 2.10128948e-02f,
        1.77219696e-02f, -3.00923437e-02f, -3.12680900e-02f, 1.26613379e-02f, 6.88577443e-03f, -2.50778496e-02f, -2.59515643e-03f, 3.13484706e-02f,
        2.33799219e-04f, 9.68243927e-03f, 1.43649168e-02f, -6.82512298e-03f, 1.48735978e-02f, -3.05992924e-02f, -7.08764419e-03f, 4.54064831e-03f,
        -3.11631113e-02f, -2.66437232e-02f, -2.31081434e-02f, 5.58843836e-03f, -1.68694947e-02f, 8.52987915e-03f, 3.15085314e-02f, -6.52934052e-03f,
    },
    {
        2.62149051e-03f, -2.44896170e-02f, -3.44377272e-02f, -2.20946725e-02f, 3.32461931e-02f, 1.24519691e-02f, 2.99680866e-02f, -1.71710514e-02f,
        -2.17375159e-03f, -3.52586471e-02f, -3.33785266e-02f, 3.45995538e-02f, 4.98888008e-02f, 5.07787131e-02f, -3.26173827e-02f, -2.04639658e-02f,
        -1.72144435e-02f, 1.58212818e-02f, -2.84191091e-02f, 8.76735151e-03f, 1.33975707e-02f, -1.64230466e-02f, 2.16419250e-03f, -2.46373806e-02f,
        -3.75512987e-04f, 1.74396634e-02f, -2.35355273e-03f, 7.20187277e-03f, 1.92082785e-02f, -4.29270416e-03f, -2.49086916e-02f, 1.56426169e-02f,
        9.11856592e-02f, 1.72941491e-01f, 2.83128083e-01f, 3.11290056e-01f, 2.91857630e-01f, 2.23222062e-01f, 2.26690218e-01f, 1.81357205e-01f,
        3.34970713e-01f, 6.34729326e-01f, 5.89506328e-01f, 4.90513206e-01f, 6.71734452e-01f, 5.71864188e-01f, 4.46746141e-01f, 2.53176302e-01f,
        1.48635954e-01f, 3.96587029e-02f, 2.00336240e-02f, 2.61554606e-02f, 1.49899349e-03f, -1.98645480e-02f, 1.06269121e-03f, 1.33523010e-02f,
        2.31781602e-02f, 1.35337375e-02f, 1.18375257e-01f, 1.03816725e-02f, 2.15297595e-01f, 1.23003006e-01f, 1.49782673e-01f, 4.02500123e-01f,
        -3.48287486e-02f, -2.31671557e-01f, -1.63018852e-01f, 6.91416860e-02f, -2.79947501e-02f, 4.16212261e-01f, 1.99222252e-01f, 4.01924670e-01f,
        6.09547257e-01f, 5.25766969e-01f, 6.41410053e-01f, 5.90120196e-01f, 4.60055143e-01f, 7.46431351e-02f, 9.27876756e-02f, 2.17761192e-02f,
        1.42777096e-02f, -2.87683867e-02f, -2.91975699e-02f, 3.55556868e-02f, -2.24442631e-02f, -3.14134359e-02f, 1.95639536e-01f, 1.24151319e-01f,
        2.27889061e-01f, 2.43703306e-01f, 2.28123605e-01f, 6.03040121e-02f, 1.51252806e-01f, -1.27064120e-02f, -7.69063458e-02f, -7.19914436e-02f,
        -7.65293837e-02f, 1.51603475e-01f, 3.08535606e-01f, 3.12007010e-01f, 2.34936669e-01f, 1.76244751e-01f, 1.70587227e-01f, 4.21895623e-01f,
        3.14307630e-01f, 6.23317733e-02f, -1.32675156e-01f, -2.12542579e-01f, -1.14995755e-01f, -7.83357844e-02f, 5.20932376e-02f, 2.51426697e-02f,
        -3.52422073e-02f, 2.57291384e-02f, 1.56457707e-01f, 3.68292153e-01f, 2.27559000e-01f, 3.52308452e-01f, -5.84073737e-02f, -2.61354953e-01f,
        1.69697419e-01f, 1.97704867e-01f, 2.75572389e-01f, 1.00442156e-01f, 2.35542525e-02f, -4.44241464e-02f, 6.08163513e-02f, 2.36711860e-01f,
        8.89137536e-02f, -1.27468805e-03f, -1.62941515e-02f, -9.90294442e-02f, -6.92965984e-02f, 2.93177515e-01f, 3.21257114e-01f, 3.63083519e-02f,
        -1.82301641e-01f, 3.36747095e-02f, 7.66360387e-02f, 1.19297765e-02f, 2.75709741e-02f, 3.18944417e-02f, 1.40937969e-01f, -3.78440581e-02f,
        -2.19306737e-01f, 1.95104763e-01f, 5.23961112e-02f, 7.19229924e-03f, 1.24760173e-01f, 1.81831539e-01f, 7.36977234e-02f, 1.22294773e-03f,
        -2.39999704e-02f, 5.85584641e-02f, 1.05548771e-02f, 1.35519341e-01f, 8.34393054e-02f, 4.84367274e-02f, 1.27186432e-01f, 2.58230716e-01f,
        9.63524170e-03f, -1.28031047e-02f, 1.88442886e-01f, 2.28322327e-01f, -1.62345856e-01f, -2.23476127e-01f, -7.24421889e-02f, 4.35680822e-02f,
        -1.89811941e-02f, 1.60751175e-02f, -2.79182434e-01f, -2.00142428e-01f, -1.40490960e-02f, 1.20162785e-01f, -2.89927758e-02f, 2.43408382e-02f,
        3.30811813e-02f, 4.72949725e-03f, 1.10795088e-01f, 4.35637943e-02f, -5.86454384e-02f, -2.38862522e-02f, 1.45491501e-02f, 1.65222555e-01f,
        2.01395750e-01f, 1.66046962e-01f, 2.07412168e-01f, 2.48875648e-01f, 1.09927773e-01f, -9.53493547e-03f, 8.10312703e-02f, 3.04293651e-02f,
        1.31037205e-01f, 1.53369978e-01f, 1.55237585e-01f, 4.29339744e-02f, 1.03933224e-02f, 1.11734308e-01f, -2.08886027e-01f, -2.09607407e-01f,
        -4.93123271e-02f, 1.17693581e-01f, 1.90557097e-03f, -4.60999943e-02f, -1.33504316e-01f, 1.00633167e-02f, 1.49266094e-01f, 1.05910949e-01f,
        4.11266834e-02f, 6.50006550e-05f, 2.01841250e-01f, 1.67176381e-01f, 2.71243751e-01f, 1.84301853e-01f, 1.93232119e-01f, 2.17667148e-01f,
        2.34652117e-01f, 5.02577126e-02f, -5.90413287e-02f, -1.55599847e-01f, 9.94656160e-02f, 2.38502026e-01f, 3.47730845e-01f, 3.81908044e-02f,
        4.05180529e-02f, 1.35411158e-01f, -8.11493471e-02f, -1.45429030e-01f, -2.75613576e-01f, -1.87957823e-01f, -1.77598760e-01f, -1.31270498e-01f,
        -3.72212790e-02f, 1.00473300e-01f, 1.16911372e-02f, -1.38699263e-02f, 8.57386217e-02f, 5.47697395e-02f, 1.17538199e-01f, 1.48131102e-01f,
        8.36634561e-02f, -3.12166177e-02f, -6.15413599e-02f, -7.55752847e-02f, -6.66840449e-02f, -6.64029792e-02f, -1.63715035e-01f, -3.39532882e-01f,
        -2.04088703e-01f, -1.34289905e-01f, 4.40885872e-01f, 2.53004972e-02f, 8.26321021e-02f, 1.78495482e-01f, -1.38001740e-01f, 5.41329496e-02f,
        1.07800618e-01f, -2.08328769e-01f, -4.17339895e-03f, 7.80552328e-02f, 4.09212485e-02f, 8.38850066e-02f, -6.15785457e-02f, 7.38715678e-02f,
        2.09547952e-01f, 1.94289640e-01f, -3.02848965e-03f, -2.50123769e-01f, -3.62145752e-01f, -3.64631891e-01f, -3.61314833e-01f, -3.77716362e-01f,
        -2.38854572e-01f, -3.15511167e-01f, -2.64129311e-01f, -4.86857533e-01f, -2.46082470e-01f, -1.04719676e-01f, 3.04435760e-01f, 2.20165402e-01f,
        9.11387950e-02f, 1.48443565e-01f, -2.08689123e-02f, 2.46029630e-01f, 1.25342617e-02f, -1.81199834e-01f, -1.33155420e-01f, -2.57574674e-02f,
        -2.49011349e-03f, 7.43475631e-02f, 5.84126785e-02f, 1.67667776e-01f, 1.37689903e-01f, 2.00738125e-02f, -3.18125516e-01f, -2.75798440e-01f,
        -3.27088177e-01f, -3.12501848e-01f, -4.77331430e-01f, -3.18417400e-01f, -2.97681928e-01f, -4.48859006e-01f, -5.13521969e-01f, -6.88507915e-01f,
        -4.57467109e-01f, -1.63424104e-01f, 2.43053332e-01f, 3.04031640e-01f, 1.17372788e-01f, 2.05470055e-01f, 3.12121987e-01f, 4.59259339e-02f,
        -3.28517221e-02f, 9.63686500e-03f, -1.45588055e-01f, -2.54445732e-01f, -9.93401036e-02f, 5.29176220e-02f, 1.79304346e-01f, -1.43398046e-02f,
        -8.25248510e-02f, -2.08258256e-01f, -2.33646229e-01f, -2.00791374e-01f, -9.64945853e-02f, -1.14916869e-01f, -1.12546243e-01f, -2.40855083e-01f,
        -2.50769198e-01f, -3.86957884e-01f, -5.37329555e-01f, -4.67254877e-01f, -4.42381322e-01f, -3.55493426e-01f, 1.67023063e-01f, 2.74754792e-01f,
        1.12845816e-01f, 1.29205570e-01f, 1.08899996e-01f, -3.01725715e-01f, -1.91198036e-01f, 7.29803964e-02f, 8.03790838e-02f, -7.69845545e-02f,
        2.53394735e-03f, 2.12269887e-01f, 1.93862766e-01f, -2.42716856e-02f, -1.94149703e-01f, -2.28518724e-01f, -7.99815431e-02f, -7.99762234e-02f,
        -3.09294909e-02f, -1.22640125e-01f, 4.50330488e-02f, -1.60061836e-01f, -8.14456642e-02f, -1.57688618e-01f, -7.71138519e-02f, -6.62319809e-02f,
        -3.74353141e-01f, -3.55941266e-01f, 1.56802252e-01f, 2.83070832e-01f, -1.42386854e-02f, -2.31827945e-02f, 1.52212888e-01f, -2.78819889e-01f,
        -3.40700485e-02f, 6.99116662e-02f, 1.19135581e-01f, -3.68734710e-02f, 4.28822674e-02f, 9.02606323e-02f, -2.01455480e-03f, -1.88400492e-01f,
        -1.14619978e-01f, -2.22731128e-01f, 2.89535504e-02f, 7.30073154e-02f, 1.53772626e-02f, -8.73290747e-02f, -1.35339737e-01f, -1.89904664e-02f,
        -1.28058612e-01f, -1.32459223e-01f, -8.44488740e-02f, 3.61430757e-02f, 5.97363375e-02f, -4.40462291e-01f, -1.06229521e-01f, 1.97656527e-02f,
        2.08576918e-01f, 1.74710169e-01f, 3.60610068e-01f, -2.64456183e-01f, 3.96993421e-02f, -1.17838852e-01f, -2.17555612e-01f, -1.77266911e-01f,
        1.00937046e-01f, 8.03794786e-02f, 2.25256532e-02f, -1.99406967e-01f, -9.08666998e-02f, -3.52959670e-02f, 8.42805356e-02f, 2.24445745e-01f,
        9.44344625e-02f, -3.90763953e-02f, 2.47842679e-03f, -7.61511996e-02f, 1.69882700e-02f, 2.85838880e-02f, 3.71526927e-01f, 4.77518201e-01f,
        5.18952966e-01f, -3.25360596e-01f, -3.11494172e-01f, -2.05700114e-01f, 1.57323629e-01f, 1.62460595e-01f, 1.96424514e-01f, -2.02330157e-01f,
        3.22125889e-02f, 7.37742782e-02f, -3.44673514e-01f, -2.91842341e-01f, -7.15613440e-02f, 3.84075418e-02f, 8.27563927e-02f, -4.10375372e-02f,
        -4.81762327e-02f, -4.24812287e-02f, 4.10391996e-03f, 7.75555074e-02f, -1.16437795e-02f, -3.92846614e-02f, 1.18769467e-01f, -8.52217823e-02f,
        -2.44029611e-02f, 1.42719314e-01f, 3.60549390e-01f, 3.25613022e-01f, 3.16313356e-01f, -2.81605065e-01f, -3.00029684e-02f, -1.42739832e-01f,
        8.71878117e-03f, 1.36342362e-01f, 1.73174262e-01f, 1.22503027e-01f, 3.81586030e-02f, 1.22732716e-02f, -3.42714339e-01f, -2.48520985e-01f,
        -1.19466595e-01f, -7.07890615e-02f, -1.03099748e-01f, -1.29065141e-02f, -1.03914447e-01f, -2.17778102e-01f, -5.98838218e-02f, 3.28935049e-02f,
        -9.01715010e-02f, -1.14377551e-02f, 4.45238315e-02f, -4.24730331e-02f, -1.97349995e-01f, 2.75816023e-03f, 2.71504879e-01f, 1.29928246e-01f,
        2.08067074e-01f, -3.87529373e-01f, -5.42430222e-01f, -1.64692700e-01f, -9.06940922e-03f, 8.23279172e-02f, 1.14847058e-02f, 2.18895555e-01f,
        -2.31634557e-01f, -1.46677330e-01f, -1.93143040e-01f, -4.35709916e-02f, -1.87244955e-02f, -2.68239766e-01f, -2.77629703e-01f, -1.58832505e-01f,
        -2.52391338e-01f, -3.17462385e-01f, -8.92765447e-02f, 6.97640106e-02f, -1.45676255e-01f, -1.03331141e-01f, -3.25074196e-02f, -2.82687205e-03f,
        -5.49166389e-02f, 1.45003110e-01f, 2.85024464e-01f, 1.07573986e-01f, 2.09857374e-01f, -5.49405515e-01f, -4.04205829e-01f, -3.09051633e-01f,
        2.55593401e-03f, 2.08022147e-02f, 2.99703591e-02f, 3.91719311e-01f, -9.93043184e-02f, -5.18788956e-02f, -6.16819598e-02f, -5.57838790e-02f,
        -1.04461029e-01f, -2.88696408e-01f, -3.29771668e-01f, -2.13871568e-01f, -3.46898764e-01f, -3.97445917e-01f, -1.48840308e-01f, 2.63938047e-02f,
        1.21320441e-01f, 9.26034003e-02f, -5.76682724e-02f, 6.06848300e-02f, 1.64971992e-01f, 2.64068782e-01f, 2.66916156e-01f, 1.87534600e-01f,
        1.47466855e-02f, -4.46173996e-01f, -4.39254701e-01f, -4.07625884e-01f, 1.33298337e-02f, 1.30427346e-01f, 4.67781983e-02f, 5.04343390e-01f,
        1.32637426e-01f, 1.31018505e-01f, 2.45428178e-03f, -8.44814479e-02f, 9.25335009e-03f, -4.49099727e-02f, -1.25383824e-01f, -1.50144827e-02f,
        -1.30979791e-01f, -5.05629778e-01f, -1.92456305e-01f, 8.13491568e-02f, 1.04024969e-01f, 1.27238575e-02f, 3.02348770e-02f, 1.23167038e-01f,
        3.02602142e-01f, 2.63864696e-01f, 2.43977264e-01f, 3.78753960e-01f, 3.32909644e-01f, -1.38545796e-01f, -4.53159034e-01f, -2.69274682e-01f,
        8.31940025e-03f, 4.59703170e-02f, -6.26470000e-02f, 3.64570946e-01f, 2.37698629e-01f, 2.94835437e-02f, -4.10443172e-02f, 2.94683129e-02f,
        1.28634572e-01f, 1.93705380e-01f, 4.40407880e-02f, 6.12233169e-02f, -1.61798313e-01f, -1.75111771e-01f, -6.74055442e-02f, 1.20730229e-01f,
        4.22778130e-02f, 1.57222688e-01f, 2.51640290e-01f, 2.91719228e-01f, 2.74353057e-01f, 1.89895913e-01f, 2.45088756e-01f, 1.50749609e-01f,
        2.42835149e-01f, -6.57861531e-02f, -4.18479234e-01f, 1.23715037e-02f, -2.92754695e-02f, 8.08003917e-02f, -4.71976288e-02f, 1.50827467e-01f,
        2.77555853e-01f, 1.41435713e-01f, 8.98129493e-02f, 1.42870262e-01f, 1.87873736e-01f, -6.67153485e-03f, 4.21191566e-02f, 9.11764875e-02f,
        1.34198904e-01f, 4.40381393e-02f, 1.21554524e-01f, 1.42015964e-01f, 8.19435418e-02f, 3.55993607e-03f, 2.25318328e-01f, 2.61813521e-01f,
        2.10874215e-01f, 1.87575698e-01f, 1.35956064e-01f, -1.18680760e-01f, 4.08574045e-02f, -3.93755078e-01f, -2.96194166e-01f, 6.18208572e-02f,
        7.06427544e-03f, 1.14508323e-01f, -2.11563379e-01f, -1.42401904e-01f, 1.39030278e-01f, 1.86795801e-01f, 3.00976876e-02f, -7.33755752e-02f,
        6.97396174e-02f, -8.72913003e-02f, -4.65820096e-02f, 1.86527558e-02f, 1.21027825e-03f, 9.43780690e-02f, 6.49223626e-02f, 1.06359273e-01f,
        1.08142279e-01f, 9.46544260e-02f, 2.07682580e-01f, 3.03808331e-01f, 2.74821043e-01f, 1.87686875e-01f, 1.27503902e-01f, 4.51443978e-02f,
        -2.98732460e-01f, -1.48967475e-01f, -1.37407452e-01f, 6.07436784e-02f, -1.31876040e-02f, 2.50694454e-02f, 1.34134710e-01f, 5.42559624e-02f,
        -4.82798107e-02f, 8.81295186e-03f, 1.75645426e-01f, 9.72261652e-02f, -2.56953631e-02f, 2.63411701e-02f, 4.23787348e-02f, 7.56659894e-04f,
        -6.61961809e-02f, 4.60299477e-02f, 1.66708812e-01f, 1.50820702e-01f, 9.69851092e-02f, 2.09794015e-01f, 2.50561953e-01f, 1.72144383e-01f,
        5.01874313e-02f, -8.91124383e-02f, -3.71271104e-01f, -3.48024815e-01f, -1.43952414e-01f, -1.46308437e-01f, 9.32804681e-03f, 3.02369632e-02f,
        -1.78659186e-02f, 1.56910792e-02f, 2.02919357e-02f, 3.15512359e-01f, 1.15885474e-01f, -1.80762619e-01f, -3.61489542e-02f, 2.69331455e-01f,
        6.40081391e-02f, 7.40648806e-02f, 1.67930156e-01f, 4.07969989e-02f, 1.04878051e-02f, 1.01733170e-01f, 6.50689006e-02f, 1.69978827e-01f,
