#include "ModelData.h"

const float g_model_hidden_weights[64][784] = {
    {
        -2.71595567e-02f, 1.38119496e-02f, -3.55898850e-02f, 3.08946855e-02f, 2.01149024e-02f, -6.87672384e-03f, -1.52159166e-02f, -3.02386601e-02f,
        1.59068182e-02f, 2.82476805e-02f, -2.08697114e-02f, 1.15102194e-02f, 1.78102255e-02f, -2.48507806e-03f, 1.40475202e-02f, 1.08103994e-02f,
        7.98093155e-03f, 4.00373712e-03f, 2.62748823e-03f, 1.40156224e-03f, -3.03264577e-02f, 1.04505345e-02f, 2.54795477e-02f, 7.22872466e-03f,
        3.28686200e-02f, -1.25184450e-02f, -2.17815693e-02f, 6.31612912e-03f, -2.02397797e-02f, -1.93638001e-02f, -2.83440799e-02f, -2.36198567e-02f,
        3.58557664e-02f, -3.42578106e-02f, -1.57396719e-02f, 2.58176532e-02f, 2.00221911e-02f, -5.55347018e-02f, 9.39836353e-03f, 6.96588457e-02f,
        8.74527823e-03f, 3.08389161e-02f, 2.08710939e-01f, -1.50442794e-01f, -2.02329800e-01f, -2.35334843e-01f, -3.46236713e-02f, 4.03109118e-02f,
        1.05904818e-01f, 3.31971422e-02f, -3.89067503e-03f, 3.38100158e-02f, 2.78913341e-02f, -3.54039297e-03f, -3.44845466e-02f, 1.42576471e-02f,
        -2.18294151e-02f, -1.50604937e-02f, -2.88873110e-02f, 1.13241561e-01f, 1.10522650e-01f, 1.41607940e-01f, 2.51820266e-01f, 2.98294067e-01f,
        5.27505577e-01f, 6.25455081e-01f, 5.67631543e-01f, 4.18474197e-01f, 3.87967169e-01f, 5.31239867e-01f, 3.85106951e-01f, 6.71032608e-01f,
        5.77098429e-01f, 5.35538852e-01f, 4.64387983e-01f, 3.99662822e-01f, 2.14188337e-01f, 1.05123080e-01f, 6.33513853e-02f, 5.82686327e-02f,
        2.17735648e-01f, 1.75262004e-01f, 1.94858760e-03f, 1.88674778e-02f, -2.72159651e-03f, -1.95215046e-02f, 3.27058792e-01f, 3.01168375e-02f,
        -7.58665726e-02f, -9.55362543e-02f, 1.00532547e-02f, 4.42341208e-01f, 5.85185587e-02f, 4.82576229e-02f, -2.90487017e-02f, -1.26356622e-02f,
        -6.81057125e-02f, -1.62707388e-01f, 9.24215019e-02f, 3.39994788e-01f, 3.60052794e-01f, 3.29944998e-01f, 2.32600749e-01f, 3.71274024e-01f,
        -8.01546350e-02f, -1.40862241e-01f, -2.82369070e-02f, -1.61048412e-01f, 1.33836150e-01f, -1.54074892e-01f, -1.59935907e-01f, 2.61495262e-02f,
        -1.97238214e-02f, 2.48331111e-02f, 2.97696471e-01f, -2.92593867e-01f, 7.56029114e-02f, 3.92463446e-01f, 3.84235620e-01f, 1.50177285e-01f,
        1.85981482e-01f, -3.39973904e-02f, 1.33830663e-02f, 3.42542417e-02f, -6.80214241e-02f, -1.72977615e-02f, -8.98903981e-02f, -2.62750331e-02f,
        9.01960880e-02f, -7.27385059e-02f, -7.32469708e-02f, 1.91638812e-01f, 2.15615839e-01f, 7.50810951e-02f, -4.88557592e-02f, -8.66659209e-02f,
        -3.74067366e-01f, -2.98756123e-01f, -9.18014571e-02f, 9.69215706e-02f, -2.47454308e-02f, 2.05680616e-02f, 1.01931207e-01f, -4.66695428e-02f,
        2.71274924e-01f, 5.63045859e-01f, 2.81203002e-01f, 1.36613622e-01f, 1.94845751e-01f, -1.92792267e-02f, -2.08606184e-01f, -1.43726885e-01f,
        6.15095720e-02f, -9.09925159e-03f, 5.69812357e-02f, 2.18698531e-01f, 3.61819357e-01f, 1.80177584e-01f, 4.82001267e-02f, -3.77384014e-02f,
        -5.51182665e-02f, 7.85902515e-02f, 1.40307948e-01f, 3.11950922e-01f, -5.86546957e-02f, -2.51617938e-01f, 6.56946376e-02f, 1.04875699e-01f,
        1.27560385e-02f, 1.99105576e-01f, -1.78221226e-01f, -1.49606213e-01f, 6.27580751e-03f, 1.49090782e-01f, 1.10952176e-01f, 6.94996715e-02f,
        -7.38809034e-02f, -7.89465085e-02f, -1.34869859e-01f, -1.19978189e-01f, -1.96281180e-01f, -1.68157205e-01f, 9.66483355e-03f, 2.49448210e-01f,
        3.43438894e-01f, 1.14475101e-01f, -7.69241014e-03f, -2.25199778e-02f, -2.49762222e-01f, -2.34658450e-01f, 1.53943431e-02f, 4.67016697e-02f,
        8.88065845e-02f, -2.63050735e-01f, 1.12209111e-01f, 2.52402812e-01f, -2.00170875e-02f, 2.49035135e-01f, -1.36260435e-01f, -2.40266606e-01f,
        5.68237007e-02f, 8.95333961e-02f, 2.98690889e-02f, 1.69473842e-01f, -1.87406674e-01f, -1.30877882e-01f, -7.33413547e-02f, -1.24457099e-01f,
        -1.68077856e-01f, -1.22212037e-01f, 1.69281065e-01f, 1.61615625e-01f, 3.03377330e-01f, 2.55835354e-01f, -3.23679000e-02f, -4.29907301e-03f,
        -2.34100651e-02f, -1.32838190e-01f, -1.93416849e-02f, -7.09797069e-02f, -2.36632466e-01f, -5.92759013e-01f, 1.84203506e-01f, 1.98226988e-01f,
        -4.88760956e-02f, 2.27405101e-01f, -4.18030590e-01f, -2.90933758e-01f, 1.73403651e-01f, 1.75053373e-01f, -2.33153403e-02f, 4.09354679e-02f,
        -2.18129426e-01f, -1.23136245e-01f, -9.07890201e-02f, -1.90651491e-01f, -1.87076375e-01f, -2.22007651e-02f, 1.12942830e-01f, 2.95402616e-01f,
        1.09359317e-01f, 1.35937274e-01f, -1.59381375e-01f, -2.87946444e-02f, -1.21059708e-01f, -2.69859582e-01f, -3.08016390e-01f, -1.96805820e-01f,
        -4.26325470e-01f, -7.84957170e-01f, -2.47983206e-02f, -4.07436937e-02f, -1.06341708e-02f, 1.74535617e-01f, 9.97369587e-02f, 4.91138957e-02f,
        1.34448051e-01f, 1.27170205e-01f, 5.12358434e-02f, 1.80047661e-01f, -1.14881517e-02f, -1.41396970e-01f, -2.28059202e-01f, -3.55477333e-01f,
        -3.28524441e-01f, -1.98121831e-01f, -3.45086083e-02f, 2.20449418e-01f, 1.22510694e-01f, -1.08872451e-01f, -2.20314920e-01f, -2.52768427e-01f,
        -3.05276006e-01f, -3.10641974e-01f, -1.05342954e-01f, -3.31553429e-01f, -5.85010648e-01f, -6.61998391e-01f, 1.46153286e-01f, 2.05496937e-01f,
        2.35558636e-02f, 1.88843548e-01f, 2.15096742e-01f, -4.30378467e-02f, 4.19418961e-02f, -1.47613913e-01f, 1.29095176e-02f, 5.35763763e-02f,
        -1.60564601e-01f, -1.19971655e-01f, -1.91344649e-01f, -4.47026014e-01f, -5.23731351e-01f, -2.50038564e-01f, 9.03283432e-03f, 2.86288321e-01f,
        1.76071450e-01f, -8.61279219e-02f, -2.83733338e-01f, -1.82380378e-01f, -3.34925771e-01f, -2.91129172e-01f, -1.73186034e-01f, -1.66585401e-01f,
        -9.54391807e-02f, -8.32143128e-02f, -3.69900651e-02f, 2.06168741e-01f, -3.48585099e-02f, 1.26925662e-01f, -2.77254879e-01f, 2.90807247e-01f,
        -2.65234094e-02f, -2.40235969e-01f, -1.75408915e-01f, -2.69129992e-01f, -1.23770759e-01f, -2.16508001e-01f, -3.23575705e-01f, -4.87732440e-01f,
        -4.91006732e-01f, -9.75667126e-03f, 3.16138506e-01f, 3.00939888e-01f, 1.81462453e-03f, -2.77287990e-01f, -3.57402802e-01f, -7.01578259e-02f,
        -1.73502728e-01f, -1.89924359e-01f, -1.73646972e-01f, -1.82059631e-01f, -2.93218851e-01f, -3.17790627e-01f, -7.05481231e-01f, 1.83713213e-01f,
        -5.92444092e-04f, -1.03632912e-01f, -4.12268847e-01f, 1.67770565e-01f, -1.90090850e-01f, -4.06508625e-01f, -4.72887069e-01f, -4.28435296e-01f,
        -2.87682027e-01f, -3.75475198e-01f, -2.88924366e-01f, -4.92606670e-01f, -2.05203146e-01f, 2.34083146e-01f, 2.76199311e-01f, 1.06220461e-01f,
        6.41750097e-02f, -2.60100663e-01f, -1.39702082e-01f, -8.54588896e-02f, -1.36240469e-02f, -7.69173668e-04f, 1.83097981e-02f, 4.56706882e-02f,
        -1.40552809e-02f, 2.32759207e-01f, -1.07534267e-01f, 3.21871221e-01f, -3.92368324e-02f, -1.22337453e-01f, -9.97099355e-02f, 7.54697388e-03f,
        -5.14990211e-01f, -3.63197118e-01f, -4.00778025e-01f, -4.20283437e-01f, -3.28776032e-01f, -2.14181960e-01f, -1.22083582e-01f, -2.18971521e-01f,
        9.81421918e-02f, 2.63485312e-01f, 2.05078885e-01f, 8.60799327e-02f, 7.97912776e-02f, -9.86164734e-02f, -7.49473274e-02f, 8.65025595e-02f,
        1.76487312e-01f, 2.10069448e-01f, 7.56747872e-02f, 1.12661812e-02f, 2.03210562e-01f, 4.15511549e-01f, 1.49387121e-01f, 8.52789283e-02f,
        1.74933404e-01f, -1.24759920e-01f, -9.07965004e-02f, 1.18883036e-01f, -3.12711775e-01f, -4.97102663e-02f, 5.12183532e-02f, -1.48203388e-01f,
        -2.19149813e-02f, 2.50948388e-02f, -3.07134371e-02f, 9.22995582e-02f, 4.00809199e-01f, 2.21777961e-01f, 1.77149191e-01f, 2.64064185e-02f,
        3.81141491e-02f, -6.81953877e-02f, 6.23976737e-02f, 1.72363207e-01f, 1.09818481e-01f, 1.38216272e-01f, 1.14611283e-01f, -1.34536596e-02f,
        2.53407061e-01f, 1.75597563e-01f, 3.48843545e-01f, 2.12156251e-01f, 1.62188858e-01f, -1.31822051e-02f, -1.26242265e-01f, 2.77869664e-02f,
        -1.34976983e-01f, 1.57583639e-01f, 3.27031106e-01f, 1.19056731e-01f, 1.21300928e-02f, 1.15594037e-01f, 9.34859440e-02f, 3.39113712e-01f,
        3.67992163e-01f, 2.33313128e-01f, 1.69964939e-01f, -3.09067429e-03f, -4.51070182e-02f, 2.41787564e-02f, 1.61868125e-01f, 1.71536312e-01f,
        -1.58385769e-01f, 1.11638732e-01f, 6.94415942e-02f, 8.50867704e-02f, 3.54208350e-01f, -3.44098695e-02f, 4.78531659e-01f, 2.23612219e-01f,
        -1.25917047e-03f, -3.90018821e-02f, 1.35531276e-01f, 1.35243603e-03f, 6.34588450e-02f, 2.97863722e-01f, 3.15266877e-01f, 2.73955137e-01f,
        1.11803465e-01f, 3.25302511e-01f, 2.43363887e-01f, 2.21431002e-01f, 2.40748316e-01f, 2.66534626e-01f, 1.21348813e-01f, 8.52659941e-02f,
        2.16427114e-04f, 6.78506792e-02f, 2.04919472e-01f, 2.21011862e-01f, -3.58945429e-02f, 1.81639239e-01f, 9.67034772e-02f, 1.86046839e-01f,
        3.39222074e-01f, -3.65536399e-02f, 2.79182017e-01f, -3.53720523e-02f, 3.31631862e-02f, 2.16672290e-02f, 3.01893950e-01f, 1.91309109e-01f,
        1.28350809e-01f, 2.08749607e-01f, 4.05866623e-01f, 2.09029689e-01f, 1.20778657e-01f, 3.49631190e-01f, 2.47721091e-01f, 1.80611968e-01f,
        1.94212064e-01f, 1.91382572e-01f, 1.64624199e-01f, 6.31565154e-02f, 3.56854349e-02f, -4.29684073e-02f, 3.41832303e-02f, 3.03225815e-02f,
        2.01772992e-02f, 2.63139039e-01f, 2.28513256e-01f, 2.52345890e-01f, 2.93647289e-01f, 3.40521127e-01f, 3.90010506e-01f, -3.37228894e-01f,
        8.39234889e-02f, 2.65792105e-02f, 2.70761758e-01f, 4.87757742e-01f, 1.58755645e-01f, 3.32129210e-01f, 2.02664763e-01f, 6.50387555e-02f,
        5.13878986e-02f, 1.79600805e-01f, 3.66330184e-02f, -3.10035590e-02f, 1.00378782e-01f, 1.29456773e-01f, -3.87919173e-02f, -2.44636629e-02f,
        -4.31425646e-02f, -6.67992607e-02f, 2.24237312e-02f, -2.03511044e-02f, 1.35322914e-01f, 1.67438179e-01f, -3.34673300e-02f, 2.41607189e-01f,
        4.35359955e-01f, 4.13824916e-01f, 5.06107688e-01f, 2.59106368e-01f, 8.44672620e-02f, -2.22455591e-01f, 9.73241106e-02f, 1.06075265e-01f,
        9.38739404e-02f, 1.01630993e-01f, 1.76503763e-01f, 1.06214061e-01f, -8.24039876e-02f, 3.85518298e-02f, -1.94348395e-02f, 1.19958222e-02f,
        -1.23325758e-01f, 1.46130947e-02f, -1.72718372e-02f, 3.93565856e-02f, 9.48223993e-02f, 1.29208684e-01f, -3.26122306e-02f, -7.58050308e-02f,
        5.62209487e-02f, 2.18945015e-02f, -4.54104878e-02f, 5.42954206e-02f, 1.69855341e-01f, 4.15868104e-01f, 1.56963557e-01f, 2.61549830e-01f,
        -5.88752329e-04f, -2.02126160e-01f, 2.06950605e-01f, 4.29804921e-01f, 2.19939668e-02f, 9.10598412e-02f, 1.99332982e-01f, 8.93038586e-02f,
        4.24446277e-02f, 9.49107856e-02f, -1.19774684e-01f, -2.08819006e-02f, -8.05665553e-02f, -1.31672993e-02f, -3.86955738e-02f, 2.88590882e-02f,
        2.53701270e-01f, 1.96038842e-01f, 2.51797531e-02f, -1.61029235e-01f, -3.76278721e-02f, -6.87534735e-02f, -9.76791605e-02f, 5.98817579e-02f,
        -1.73032701e-01f, 1.88879281e-01f, 1.20321058e-01f, 9.14811864e-02f, 1.69563457e-01f, 1.93819985e-01f, 4.20724601e-01f, 3.21036339e-01f,
        5.28706536e-02f, 2.79841751e-01f, -1.55237649e-06f, 1.08609803e-01f, 1.96128823e-02f, -6.04992583e-02f, -6.31617233e-02f, -1.15956396e-01f,
        5.61604602e-03f, -6.04579132e-03f, 1.86806634e-01f, 1.58236369e-01f, 2.31368646e-01f, 1.54505059e-01f, -1.03261784e-01f, -1.52266786e-01f,
        -1.84398159e-01f, -2.07001641e-01f, -1.37127653e-01f, -5.10094948e-02f, -3.06129903e-01f, -9.81041342e-02f, -4.73659858e-02f, -2.69809961e-02f,
        1.39013737e-01f, 1.23524047e-01f, 4.25639898e-01f, 2.04696115e-02f, 1.50434047e-01f, 2.30241776e-01f, -1.17364071e-01f, 2.06950027e-02f,
        -6.69254150e-05f, -4.98938374e-02f, -4.89859283e-02f, -6.87920302e-03f, -2.39746477e-02f, 3.60223539e-02f, 8.88763070e-02f, 1.45995602e-01f,
        2.09282145e-01f, 7.93043450e-02f, -1.27378672e-01f, -6.93827271e-02f, -1.40913337e-01f, -1.56808093e-01f, -1.27047012e-02f, -1.40216812e-01f,
        -3.93354386e-01f, -2.85600364e-01f, -1.24350823e-01f, -1.05538694e-02f, 7.17779994e-03f, 5.17774746e-03f, 3.66958708e-01f, 2.69059371e-02f,
        2.73057997e-01f, 3.28719206e-02f, -6.89932033e-02f, 3.87202390e-02f, -1.09243579e-01f, 3.78140695e-02f, 3.48559804e-02f, 1.21301757e-02f,
        7.30837658e-02f, 8.90829489e-02f, 1.50930122e-01f, 3.46251652e-02f, -7.66126346e-03f, -6.18224367e-02f, -1.55938089e-01f, -1.18845791e-01f,
        -7.29429796e-02f, -1.90041244e-01f, -1.47034111e-03f, -1.91868871e-01f, -5.08870006e-01f, -3.34464967e-01f, 6.03541061e-02f, 1.89441554e-02f,
        -2.71851774e-02f, 4.39524651e-04f, 2.17926309e-01f, -1.53563261e-01f, -4.13090475e-02f, -1.27150014e-01f, -9.33575407e-02f, -5.81959970e-02f,
        -2.88735796e-02f, 4.97681275e-02f, -1.18353024e-01f, -1.27677079e-02f, 4.19772826e-02f, -4.76077683e-02f, 3.56108844e-02f, -1.37361541e-01f,
        -2.90627126e-02f, 1.20987453e-01f, -1.00997113e-01f, -3.88783477e-02f, 1.61583960e-01f, 2.39395276e-02f, -2.07234576e-01f, -3.98760259e-01f,
        -1.31732643e-01f, 1.98144943e-01f, 1.61410332e-01f, 7.27060810e-03f, 9.62316617e-03f, 1.87583081e-02f, -1.26284987e-01f, 1.44297108e-01f,
        -9.57773328e-02f, -1.52743936e-01f, 5.53729497e-02f, 7.94279501e-02f, -1.05216689e-01f, -8.78634751e-02f, -1.74275875e-01f, 4.44692485e-02f,
        6.66505247e-02f, -2.02759013e-01f, -2.65166909e-01f, -1.96268931e-01f, -4.53042895e-01f, -1.23759873e-01f, -2.25243524e-01f, 5.87794110e-02f,
        3.05556595e-01f, -1.13761477e-01f, -1.34884581e-01f, 7.80269578e-02f, -5.05440775e-03f, 1.50057031e-02f, 7.75359496e-02f, -6.71235658e-03f,
        -3.13349515e-02f, 1.21752769e-02f, -3.55367176e-02f, -6.44172579e-02f, -2.81858683e-01f, -3.01681638e-01f, -2.99993515e-01f, 1.68709382e-01f,
        8.95600207e-03f, -1.23978388e-02f, 9.52285528e-02f, 3.11459929e-01f, -4.44757193e-02f, 2.14338809e-01f, -2.53319621e-01f, -3.66038978e-01f,
        -3.92467022e-01f, -2.81356990e-01f, -3.77384908e-02f, -1.63928345e-01f, -3.92673135e-01f, -2.95615315e-01f, -2.57423043e-01f, -2.08688974e-01f,
        -1.23253940e-02f, 2.45279521e-02f, -2.52875388e-02f, 2.85750218e-02f, -1.38157476e-02f, -3.49920243e-02f, -2.17912253e-02f, -1.91275664e-02f,
        1.34807043e-02f, -2.49391180e-02f, 2.70524994e-02f, 9.01844352e-03f, -1.98898911e-02f, 1.67532526e-02f, 4.99086715e-02f, 1.74734425e-02f,
        -1.53452992e-01f, -2.21724853e-01f, -1.90291911e-01f, 3.09258681e-02f, 5.14941737e-02f, -4.20174934e-02f, -4.64676470e-02f, -2.68415455e-03f,
        -2.55941763e-03f, -1.79986224e-01f, -1.76468730e-01f, -9.83458012e-03f, -1.02921296e-02f, -1.08446237e-02f, 2.95998901e-03f, -1.97401270e-03f,
    },
    {
        7.94029981e-03f, 3.12513895e-02f, 3.07603814e-02f, 1.22861154e-02f, -2.70857103e-02f, -2.18476877e-02f, -2.35836655e-02f, 3.34918611e-02f,
        1.41227506e-02f, -2.77771875e-02f, 8.87099653e-03f, 3.02188210e-02f, -8.49573240e-02f, -8.21631998e-02f, -4.16222550e-02f, -3.67916971e-02f,
        6.53073192e-03f, -1.52969249e-02f, 2.16772147e-02f, -2.23893076e-02f, -1.58223044e-02f, -3.07347700e-02f, -2.14777738e-02f, 5.12599200e-03f,
        -1.30595565e-02f, -1.84161253e-02f, 2.64428072e-02f, 3.27869691e-02f, 2.82448567e-02f, -1.58723127e-02f, -1.24047026e-02f, 2.19223723e-02f,
        -7.72043318e-02f, -1.19375475e-02f, -1.64359987e-01f, -1.55204371e-01f, -1.55602649e-01f, -1.44764334e-01f, -1.48703054e-01f, -1.08509623e-01f,
        -1.69790938e-01f, -9.89294499e-02f, -1.18126078e-02f, -3.28792751e-01f, -3.21623474e-01f, -3.83167386e-01f, -2.61548877e-01f, -2.44197622e-01f,
        -2.20022127e-01f, -1.51693866e-01f, -2.68977016e-01f, -2.53779560e-01f, -3.28003168e-02f, 2.39175670e-02f, -2.40631029e-02f, 2.53663696e-02f,
        2.92951800e-02f, 4.10817191e-03f, -2.07951188e-01f, -2.85155803e-01f, -2.79927284e-01f, -5.31553514e-02f, -1.02753676e-01f, -1.74117759e-01f,
        -2.47602552e-01f, -1.98952988e-01f, -2.47172803e-01f, -3.54560256e-01f, -6.33176565e-01f, -5.25630355e-01f, -5.83954990e-01f, -5.81442952e-01f,
        -3.85980338e-01f, -7.65001550e-02f, -3.17002088e-01f, -2.76509523e-01f, -6.62935972e-02f, -3.95361066e-01f, -3.25763971e-01f, -3.56306791e-01f,
        -1.16896383e-01f, -1.13740981e-01f, -1.11441370e-02f, 2.39942707e-02f, 1.54679492e-02f, 2.56515555e-02f, 1.71338618e-01f, -2.59650648e-01f,
        -1.99780211e-01f, -3.45045000e-01f, -4.44321454e-01f, -4.85529512e-01f, -4.23259318e-01f, -5.26839495e-01f, -4.33089525e-01f, -3.69892925e-01f,
        -8.13696921e-01f, -1.07628858e+00f, -8.54895473e-01f, -3.96462947e-01f, -5.22923768e-01f, -2.90186554e-01f, -2.98353374e-01f, -2.37176150e-01f,
        -2.43183956e-01f, -1.84493497e-01f, -2.73031462e-02f, 6.45871907e-02f, -2.25815877e-01f, -2.34059215e-01f, -2.98232764e-01f, -9.25387256e-03f,
        -2.50635110e-02f, 5.62317222e-02f, 1.81849122e-01f, 2.73284853e-01f, -2.58623034e-01f, -2.80182183e-01f, -3.74503314e-01f, -3.12985122e-01f,
        -4.61334914e-01f, -7.31941640e-01f, -5.29637873e-01f, -2.16803223e-01f, -1.69611424e-01f, -3.47989023e-01f, -3.29443067e-01f, -3.01281989e-01f,
        -3.48297507e-01f, -1.23310462e-01f, -1.40433535e-01f, -3.26878637e-01f, -1.45470396e-01f, -5.10745905e-02f, 1.49477631e-01f, 1.26903191e-01f,
        1.20342679e-01f, -3.11775017e-03f, -1.83002613e-02f, -4.09939773e-02f, -2.58670151e-02f, -2.81712376e-02f, -1.09214187e-01f, -2.79596914e-02f,
        -2.13141188e-01f, 2.84852623e-03f, -1.10498644e-01f, -1.58463299e-01f, -1.61156639e-01f, -2.31766045e-01f, -2.37861797e-01f, 8.75219703e-02f,
        2.14179352e-01f, -1.18219387e-02f, 3.76189798e-02f, 2.34529674e-02f, -3.89195047e-02f, -3.00671104e-02f, -9.45815817e-02f, -3.26931566e-01f,
        -3.12390625e-01f, -1.32859319e-01f, -5.50633892e-02f, -8.14009234e-02f, 2.10088678e-03f, 4.42106202e-02f, -2.50473529e-01f, 7.67140165e-02f,
        2.49915347e-02f, -5.90197593e-02f, 2.14458466e-01f, 2.24252213e-02f, -8.54668021e-02f, -6.71757311e-02f, -6.88503496e-05f, -1.13831289e-01f,
        4.89176400e-02f, 1.00660458e-01f, 1.46150934e-02f, 1.27778009e-01f, 1.98968202e-01f, 1.52716339e-01f, 1.52479663e-01f, 1.40456989e-01f,
        1.42428219e-01f, 1.20801620e-01f, -1.36433929e-01f, -1.71585128e-01f, -6.41268119e-02f, 1.24160044e-01f, -1.01725399e-01f, 6.23794459e-02f,
        -1.38827473e-01f, -9.52708572e-02f, -1.55912101e-01f, -2.44143158e-01f, 4.40390222e-03f, 7.60690421e-02f, 2.23434642e-01f, 1.42927885e-01f,
        -1.05474658e-01f, -2.30766147e-01f, 4.09975126e-02f, -8.82694498e-02f, 7.53873065e-02f, 7.06695691e-02f, 5.29832244e-02f, 8.08735937e-02f,
        1.13054700e-01f, 1.83336407e-01f, 9.98938158e-02f, 5.25990166e-02f, 6.06631562e-02f, 1.83467828e-02f, -1.83249921e-01f, -7.06325769e-02f,
        -2.55679376e-02f, -3.92942131e-02f, 4.34464542e-03f, 1.69513643e-01f, 8.89961421e-02f, -9.20270905e-02f, -9.81628224e-02f, -2.53151596e-01f,
        -3.08692604e-01f, 1.45156220e-01f, 1.52657822e-01f, 2.09463313e-01f, -4.11263779e-02f, -5.44936769e-02f, 7.66617954e-02f, 9.04756635e-02f,
        2.13857651e-01f, 2.47709937e-02f, 6.47578463e-02f, 1.06850393e-01f, 1.47991732e-01f, 1.53438061e-01f, 1.61867961e-01f, 1.00419186e-01f,
        4.07583900e-02f, -1.11824349e-01f, 4.15743552e-02f, -1.23223178e-01f, -8.22479278e-02f, -4.47156169e-02f, 4.31350842e-02f, 9.34583396e-02f,
        1.32371992e-01f, 3.07313114e-01f, 1.55453354e-01f, 6.60741031e-02f, 1.76857054e-01f, 2.71227688e-01f, 5.83030954e-02f, 2.75245905e-01f,
        1.79933850e-03f, 1.25750333e-01f, 2.04009727e-01f, 1.09191269e-01f, 9.23794284e-02f, 3.07311043e-02f, -2.24988945e-02f, 1.29882932e-01f,
        1.88844770e-01f, 2.37701550e-01f, 2.07142979e-01f, 2.01088563e-01f, 1.30295590e-01f, 5.79510480e-02f, 1.44655295e-02f, -1.10802092e-01f,
        7.89557993e-02f, 5.70363216e-02f, 1.48662224e-01f, 1.63138032e-01f, 4.36545014e-02f, 1.57854587e-01f, 7.61802718e-02f, 2.16306716e-01f,
        1.66467011e-01f, 4.39642966e-02f, -9.25669596e-02f, 1.52235657e-01f, 9.31683183e-02f, 7.72696584e-02f, 2.21464276e-01f, 7.22423121e-02f,
        5.72630875e-02f, -2.31490862e-02f, -5.16750328e-02f, -2.20233327e-04f, 6.65283874e-02f, 4.30864505e-02f, 1.52964979e-01f, 6.58181012e-02f,
        1.19713686e-01f, -2.25831419e-02f, -4.64794561e-02f, -6.18940480e-02f, 5.32178171e-02f, 3.65556702e-02f, 1.34742573e-01f, 2.06568986e-02f,
        8.02463293e-03f, 9.45421234e-02f, -9.35400054e-02f, 2.95449853e-01f, 4.24786918e-02f, -2.23235175e-01f, 4.40416962e-01f, 4.51586872e-01f,
        1.63101330e-01f, 1.85652241e-01f, 1.82382733e-01f, 1.00563742e-01f, 7.78771341e-02f, 1.37041770e-02f, 4.83216345e-02f, -2.78785210e-02f,
        1.43036023e-01f, 5.35272695e-02f, 1.06743984e-01f, 8.56462121e-02f, 3.15882824e-02f, 5.45868948e-02f, 6.85289875e-02f, 1.48990508e-02f,
        1.02844715e-01f, 1.54693618e-01f, 1.79915503e-01f, -8.73926356e-02f, 1.99652486e-03f, 3.06657515e-02f, 2.35349774e-01f, 2.29469866e-01f,
        3.10610030e-02f, 1.22085914e-01f, 5.49485683e-01f, 4.06487375e-01f, 2.66607195e-01f, 3.11182022e-01f, 9.87904146e-02f, 6.99664429e-02f,
        1.28074273e-01f, -4.08874974e-02f, -5.58526069e-02f, -1.19030870e-01f, 3.54392119e-02f, 8.06432292e-02f, -3.41371074e-02f, 1.61166966e-01f,
        3.57564278e-02f, 1.86502617e-02f, 1.22850470e-01f, 6.93689659e-02f, 2.00733989e-01f, 2.65310109e-01f, 1.69074595e-01f, 9.92605165e-02f,
        -5.16917259e-02f, -8.34382474e-02f, 9.11689103e-02f, 2.14159653e-01f, -2.68788517e-01f, 1.90266594e-01f, 4.17140037e-01f, 2.57901520e-01f,
        2.42927745e-01f, 2.69467950e-01f, 1.27296790e-01f, 1.49725437e-01f, 1.88827842e-01f, 4.12717462e-02f, -1.84680726e-02f, 1.15193613e-01f,
        8.96472186e-02f, 9.00934786e-02f, 9.08504203e-02f, 1.98561624e-01f, 7.97694996e-02f, 1.43415287e-01f, 1.32159546e-01f, -3.86295584e-03f,
        2.31592312e-01f, 3.01728308e-01f, 1.50187299e-01f, -1.86174035e-01f, -3.46371651e-01f, 1.06166296e-01f, 4.42079902e-02f, -3.71013284e-02f,
        -1.73928052e-01f, 2.64647156e-01f, 3.05569530e-01f, 2.12769106e-01f, -9.85747855e-03f, 6.52703717e-02f, 1.07209794e-01f, 3.63760665e-02f,
        7.58590847e-02f, -3.49429175e-02f, -3.85881141e-02f, 8.41207951e-02f, 1.95085809e-01f, 1.84187487e-01f, 2.26502031e-01f, 1.73662797e-01f,
        6.83887005e-02f, 2.39814684e-01f, 1.30801633e-01f, 1.92447916e-01f, 1.20963991e-01f, 1.03036761e-01f, 8.86122871e-04f, -5.66958636e-02f,
        -2.71443635e-01f, -3.55691127e-02f, -3.48659933e-01f, -8.33690315e-02f, -1.42624870e-01f, 1.13357916e-01f, 4.19919901e-02f, 4.82175112e-01f,
        2.19883826e-02f, 5.67102656e-02f, 1.04931965e-01f, 6.52205721e-02f, 6.39242381e-02f, 2.38725208e-02f, 4.53802161e-02f, 7.59495795e-02f,
        5.54663204e-02f, 1.72804847e-01f, 1.71829298e-01f, 1.55876771e-01f, 5.78161478e-02f, 2.55589873e-01f, 9.30362791e-02f, -2.60473900e-02f,
        8.94523412e-02f, 5.77955283e-02f, 1.77540645e-01f, -5.14441691e-02f, -3.75328660e-01f, -4.08163130e-01f, 1.41308174e-01f, -9.24846306e-02f,
        5.41734137e-02f, 1.78092584e-01f, 1.89457953e-01f, 1.81199282e-01f, 6.06986210e-02f, 1.10990806e-02f, 1.62193537e-01f, 1.57838181e-01f,
        1.11109719e-01f, -3.83972339e-02f, 6.79220632e-02f, 4.20572273e-02f, 1.43411011e-01f, 2.00259775e-01f, 1.11117624e-01f, 9.81571227e-02f,
        -1.86733007e-02f, 1.86106622e-01f, 4.56263088e-02f, -1.76005572e-01f, -3.50590833e-02f, 1.15565201e-02f, -5.99002056e-02f, -5.73631823e-02f,
        -2.73533344e-01f, -5.81177354e-01f, -3.58813375e-01f, -9.40651670e-02f, 2.18834728e-03f, 1.02493629e-01f, 2.84897804e-01f, 1.25734523e-01f,
        -6.75937384e-02f, -6.17859811e-02f, 4.51890714e-02f, 4.25743237e-02f, 5.45254676e-03f, -1.86214205e-02f, -7.69687071e-02f, 4.88871802e-03f,
        8.86758044e-02f, 1.86646610e-01f, 1.52103931e-01f, 8.42497274e-02f, 6.12259731e-02f, 1.02882512e-01f, -1.20460510e-01f, -3.13597292e-01f,
        -1.79866508e-01f, -5.85966669e-02f, -2.34556552e-02f, -1.95534691e-01f, -2.31942162e-01f, -3.10394347e-01f, -1.16006799e-01f, -1.08964354e-01f,
        2.87772715e-01f, -2.87071522e-02f, 4.05737847e-01f, 1.05311498e-01f, -1.44884914e-01f, -1.29139721e-01f, -1.36877239e-01f, -9.37585533e-02f,
        -1.26613379e-01f, -2.93709010e-01f, -1.71305284e-01f, 6.78821877e-02f, -9.30269361e-02f, 4.22942266e-02f, 1.41548607e-02f, -2.23950800e-02f,
        -1.79858133e-02f, 3.92619222e-02f, -2.18577504e-01f, -2.30178967e-01f, -4.85257134e-02f, 3.52876238e-03f, -1.06822945e-01f, -4.07347381e-01f,
        -6.22767866e-01f, -1.39028221e-01f, 2.61569887e-01f, -3.38547856e-01f, -1.77311391e-01f, 2.47008786e-01f, 4.21367466e-01f, -2.30318010e-01f,
        -3.34146656e-02f, -3.84768218e-01f, -2.79100478e-01f, -2.43690506e-01f, -1.91314608e-01f, -3.47876072e-01f, -2.70356774e-01f, -1.75502643e-01f,
        -1.62171990e-01f, -1.12477407e-01f, -1.47202134e-01f, -1.20390110e-01f, -1.05146840e-02f, 2.29188167e-02f, -1.29239589e-01f, -1.56551719e-01f,
        -1.03942446e-01f, -5.47811054e-02f, -2.86781371e-01f, -4.82265145e-01f, -5.40799737e-01f, -2.35802397e-01f, -6.71140850e-02f, -2.78627604e-01f,
        2.82495730e-02f, 1.24730431e-01f, 3.96028548e-01f, -1.58417910e-01f, -1.26896873e-01f, -3.74852568e-01f, -3.56996864e-01f, -2.54687101e-01f,
        -1.81442693e-01f, -2.28324935e-01f, -1.92615345e-01f, -1.50129303e-01f, -1.62130222e-01f, -9.53816921e-02f, -4.60886322e-02f, -9.39360261e-02f,
        1.07723244e-01f, 2.86558475e-02f, -9.28176790e-02f, -1.26390383e-01f, -1.95294656e-02f, 2.26628724e-02f, -1.41057476e-01f, -2.03764275e-01f,
        -8.00699145e-02f, -9.64613110e-02f, -2.12004572e-01f, -6.81934878e-02f, -1.49319112e-01f, 1.21436134e-01f, 1.50540903e-01f, -3.25102694e-02f,
        4.89106029e-02f, -4.82037775e-02f, -2.34612375e-01f, -2.13997215e-01f, -5.18871658e-02f, -1.60972908e-01f, -6.86618835e-02f, -8.86585861e-02f,
        -8.32174495e-02f, -1.78296432e-01f, -1.05430625e-01f, -2.06240527e-02f, 5.43963313e-02f, 2.29232293e-02f, -1.17450781e-01f, -1.55766398e-01f,
        -1.43412843e-01f, 1.92566700e-02f, -9.02597979e-02f, -2.86515504e-01f, -9.21419561e-02f, -2.15348512e-01f, -4.26204860e-01f, -3.02166268e-02f,
        -2.07291901e-01f, -2.14073155e-02f, 1.49761140e-01f, -1.43557325e-01f, 1.08354516e-01f, -3.16444486e-02f, -5.15383296e-02f, -1.35424770e-02f,
        4.61049899e-02f, -1.17575198e-01f, -4.66219801e-03f, 2.03185808e-03f, -4.49288748e-02f, -5.76461889e-02f, 1.56561602e-02f, -9.05713513e-02f,
        -6.15522265e-02f, -2.52536945e-02f, -7.88171291e-02f, -1.48892701e-01f, -1.10640496e-01f, -8.14820006e-02f, -1.99394878e-02f, -2.58107841e-01f,
        -3.96859199e-02f, 6.76667765e-02f, -4.32922930e-01f, -3.29714417e-02f, -1.81647241e-02f, 2.41789445e-02f, -1.62740514e-01f, -1.53669819e-01f,
        -2.58321047e-01f, -1.67273700e-01f, 3.96511368e-02f, 1.04117170e-01f, -1.30304070e-02f, -3.57229002e-02f, 9.26759392e-02f, 1.04117975e-01f,
        1.92968454e-02f, 4.62163053e-02f, -1.01037435e-01f, -6.18110001e-02f, -4.80554998e-02f, -9.53639746e-02f, -2.56824046e-01f, -2.17791110e-01f,
        -8.28732476e-02f, 6.20502941e-02f, -1.19026370e-01f, 2.63329763e-02f, 7.55207092e-02f, 7.88725466e-02f, -3.88193488e-01f, 1.14132948e-02f,
        3.72227281e-03f, -1.04039777e-02f, 1.26819953e-01f, 1.17014594e-01f, 1.78952679e-01f, 1.54017314e-01f, 1.70339540e-01f, 3.23594928e-01f,
        1.87848195e-01f, -9.51142143e-03f, 1.16014935e-01f, 2.56064504e-01f, -1.18446467e-03f, -6.68936773e-05f, -7.01064244e-02f, -1.34081408e-01f,
        -2.42565140e-01f, -2.34546542e-01f, -2.55212486e-01f, 2.90058441e-02f, 1.01936817e-01f, 8.88474360e-02f, 1.58712596e-01f, 1.13940701e-01f,
        -1.66672438e-01f, -1.28100425e-01f, -8.17818865e-02f, 1.70496851e-02f, 1.85241848e-02f, -1.22999251e-02f, 1.38365895e-01f, -1.59783754e-02f,
        4.42380875e-01f, 5.78799188e-01f, 2.94782259e-02f, 6.90312311e-02f, 9.95358378e-02f, 3.78905348e-02f, 2.33202353e-01f, 2.30864614e-01f,
        -6.55919686e-02f, -5.24971113e-02f, 1.41411006e-01f, 4.09932472e-02f, 7.35110193e-02f, -8.49433690e-02f, 9.37406626e-03f, -2.19562519e-02f,
        9.56447348e-02f, 4.58085313e-02f, -1.79052249e-01f, -1.32896617e-01f, -1.77128464e-01f, 9.33087710e-03f, -7.79588297e-02f, -1.71894431e-02f,
        -1.26396418e-02f, -1.44967064e-02f, -2.18031462e-02f, 9.65870842e-02f, 4.22943294e-01f, 4.04267877e-01f, 3.95840764e-01f, 2.45300427e-01f,
        2.00134963e-01f, 4.09664840e-01f, 1.20345183e-01f, -1.00459509e-01f, 8.95264000e-03f, 2.61579096e-01f, 3.41753066e-01f, -4.30995747e-02f,
        -6.26337975e-02f, 2.02879786e-01f, 1.32362172e-01f, -2.21508613e-04f, 2.30971768e-01f, 3.59980911e-01f, 3.54284763e-01f, 3.87594283e-01f,
        3.36252153e-01f, 1.31207809e-01f, 1.05428547e-02f, -2.63677631e-02f, 3.28427888e-02f, 9.48662311e-03f, 1.87699869e-03f, 3.07194106e-02f,
        3.46076041e-02f, 9.30995718e-02f, 1.90619871e-01f, 1.43208370e-01f, 1.20792791e-01f, 1.37836292e-01f, 2.72831976e-01f, 1.14111610e-01f,
        2.15670802e-02f, 1.15779273e-01f, 3.14113379e-01f, 2.38172546e-01f, 2.20967978e-01f, 2.72798002e-01f, 3.81525815e-01f, 4.24632967e-01f,
        3.61329019e-01f, 4.92093801e-01f, 4.31502461e-01f, 8.76498967e-02f, 1.94455013e-02f, 3.93052772e-03f, -2.94649489e-02f, 2.44081467e-02f,
    },
    {
        2.24866718e-03f, 2.77557783e-02f, -8.52704421e-03f, 1.72534212e-03f, 5.52929938e-04f, -1.85785685e-02f, 1.23748183e-03f, -1.16864704e-02f,
        -7.70075433e-03f, -1.56025719e-02f, 8.39000568e-03f, -2.45875567e-02f, -9.53219831e-04f, 2.19121836e-02f, -2.51818821e-02f, -1.40197035e-02f,
        1.26315840e-02f, 1.73094869e-02f, -3.28724794e-02f, -7.51365162e-03f, -1.86666846e-03f, 2.51072496e-02f, 1.23469867e-02f, -4.95332479e-03f,
        4.11708280e-03f, -3.19332257e-02f, -2.15715691e-02f, -1.44867133e-02f, 2.51696631e-03f, -9.35337879e-03f, -2.63463855e-02f, 1.43561922e-02f,
        -2.68008243e-02f, 1.38683235e-02f, -2.87959296e-02f, -4.25508060e-02f, -3.75230573e-02f, -9.41382721e-02f, -1.58249199e-01f, -9.36333239e-02f,
        -9.21564102e-02f, -3.50253284e-01f, 7.32854530e-02f, 7.48340860e-02f, -2.55540073e-01f, -1.57609582e-01f, -2.06424132e-01f, -1.98620379e-01f,
        -2.72804111e-01f, -1.99826002e-01f, -1.98943838e-01f, -1.81563511e-01f, 2.20449679e-02f, -6.96478598e-03f, -3.25759128e-02f, 1.44973472e-02f,
        -3.34929377e-02f, 1.51581541e-02f, -9.44397785e-03f, -2.94467472e-02f, -1.34936199e-01f, -8.22492391e-02f, -2.42523123e-02f, -7.47596323e-02f,
        -9.76450965e-02f, -9.15141106e-02f, -7.74352327e-02f, -1.40062273e-01f, 2.03503892e-01f, 3.15480232e-01f, -7.70168453e-02f, -6.86520785e-02f,
        -4.09326851e-02f, -2.97245473e-01f, -3.08966517e-01f, -6.80251539e-01f, -5.59896767e-01f, -4.33246583e-01f, -3.05466056e-01f, -1.84559122e-01f,
        9.87976417e-02f, 1.29407167e-01f, -2.72689816e-02f, -3.16230617e-02f, -2.53016744e-02f, 3.48528884e-02f, 2.26020887e-01f, 1.38306379e-01f,
        -8.55200738e-02f, -3.18065524e-01f, -1.30070940e-01f, -5.47512174e-01f, -5.95049500e-01f, -3.27739686e-01f, -4.17500198e-01f, -4.86053437e-01f,
        -1.85983837e-01f, -1.89881682e-01f, -4.41020161e-01f, -3.82799804e-01f, -4.64506298e-01f, -1.80454195e-01f, -7.48656392e-02f, 9.73378941e-02f,
        4.77465503e-02f, -6.84143305e-02f, 1.86275005e-01f, 3.46005440e-01f, 3.08180257e-04f, -2.57878676e-02f, -1.97825223e-01f, -1.29565354e-02f,
        -2.42130216e-02f, 1.69102214e-02f, 2.30944932e-01f, 1.71671227e-01f, 1.18323881e-02f, -1.89718962e-01f, -1.49667948e-01f, -1.64818481e-01f,
        -2.92014759e-02f, -1.79258976e-02f, 1.04473390e-01f, 6.66750446e-02f, 2.63492703e-01f, 2.86302060e-01f, 1.44918710e-01f, -3.26030664e-02f,
        -8.12782273e-02f, 1.54005498e-01f, 2.51330346e-01f, 1.67163983e-01f, 1.45119905e-01f, 1.80794597e-01f, 2.54343510e-01f, 1.64118633e-01f,
        6.22979216e-02f, -2.76793301e-01f, -1.97494537e-01f, -3.28168631e-01f, 3.40520702e-02f, 1.75843872e-02f, 2.33138636e-01f, -1.41603529e-01f,
        -6.28269985e-02f, 2.79514998e-01f, 1.68681845e-01f, -4.23171557e-02f, -2.58873254e-02f, -2.60962714e-02f, -1.07059278e-01f, -1.00302063e-01f,
        2.31140763e-01f, 2.60582179e-01f, 5.08281812e-02f, -6.33144006e-02f, -8.26937631e-02f, -1.57921374e-01f, 5.84085844e-02f, 8.63695368e-02f,
        -2.34186314e-02f, 2.34560430e-01f, 1.07847385e-01f, 9.99472011e-03f, 2.91188121e-01f, 2.48806179e-01f, -2.90877223e-01f, -3.23649943e-01f,
        -8.49407166e-04f, 9.27499831e-02f, -1.48451418e-01f, 2.68951636e-02f, 3.26399416e-01f, 2.92727828e-01f, 1.09240733e-01f, -1.31996468e-01f,
        -2.36044407e-01f, -2.13344634e-01f, -1.65627643e-01f, -3.09476033e-02f, 2.29754642e-01f, 1.45715460e-01f, 5.76741397e-02f, -1.15650639e-01f,
        -3.45178783e-01f, -2.36968443e-01f, -7.50769153e-02f, 1.71121016e-01f, 1.59185484e-01f, 1.54244825e-01f, 1.14015110e-01f, 2.37744689e-01f,
        2.17646196e-01f, 2.43272036e-01f, -3.17397900e-02f, -9.02067050e-02f, 4.21323776e-02f, 3.54724079e-01f, 5.56583069e-02f, 1.29910067e-01f,
        2.23331317e-01f, 1.01971455e-01f, 6.89834803e-02f, 3.39744650e-02f, -2.10801065e-01f, -1.09291747e-01f, -3.61234620e-02f, -1.12468742e-01f,
        3.02700754e-02f, 1.90688726e-02f, 6.15638755e-02f, -1.29557908e-01f, -2.52126873e-01f, -1.34753704e-01f, 3.43043543e-02f, 1.21661559e-01f,
        1.58485249e-01f, 1.44266695e-01f, 1.34044871e-01f, 2.97227442e-01f, 1.07456192e-01f, -2.06798360e-01f, 5.70517704e-02f, -1.24638721e-01f,
        -1.93702891e-01f, 3.00309390e-01f, 2.30247289e-01f, 3.16818178e-01f, 3.92101377e-01f, 2.08712652e-01f, 1.37203053e-01f, 3.62655401e-01f,
        1.25414319e-03f, -5.69252372e-02f, -1.15352951e-01f, -9.54354703e-02f, 1.20380059e-01f, 1.56245187e-01f, 1.01563837e-02f, -1.64068490e-01f,
        -3.02951574e-01f, -1.00656122e-01f, 1.24202417e-02f, 1.44588619e-01f, 1.50438398e-01f, -1.47803072e-02f, 4.55947407e-02f, 2.32595921e-01f,
        3.11453268e-03f, -1.99714914e-01f, 3.00212264e-01f, 1.55058339e-01f, 3.80821563e-02f, 4.05279040e-01f, 2.73101658e-01f, 4.79905427e-01f,
        3.75565112e-01f, 1.39580905e-01f, 2.66965657e-01f, 2.59996086e-01f, 1.20256066e-01f, -3.93662639e-02f, -9.50542465e-02f, 9.15909484e-02f,
        1.82656229e-01f, 1.17253028e-01f, 1.45681813e-01f, -1.32716402e-01f, -1.84215054e-01f, 2.25653201e-02f, 1.18047103e-01f, 6.34449348e-02f,
        3.29075977e-02f, 7.71547928e-02f, -1.85590722e-02f, 2.11391166e-01f, 4.82753059e-03f, -1.53552875e-01f, 4.08194155e-01f, 2.84791976e-01f,
        5.52866161e-02f, 2.35283449e-01f, 4.09972280e-01f, 9.22406837e-02f, 2.93248355e-01f, 9.41333324e-02f, 2.52238125e-01f, 3.14001381e-01f,
        1.80353150e-01f, 1.03134140e-01f, 2.09602445e-01f, 2.72533506e-01f, 1.45304248e-01f, 1.57329634e-01f, -1.69950146e-02f, -1.36784643e-01f,
        -2.29654372e-01f, 4.41329032e-02f, 1.52588636e-01f, 9.59002525e-02f, -8.80826265e-02f, 6.28569722e-03f, -9.36051384e-02f, -8.63556564e-02f,
        -1.11121051e-02f, -2.70009309e-01f, 2.16228783e-01f, 4.20783073e-01f, 3.08503993e-02f, 3.46931852e-02f, 1.60699889e-01f, 5.29790483e-02f,
        2.97925174e-01f, 2.04739138e-01f, 2.90635020e-01f, 5.16419768e-01f, 3.70797336e-01f, 3.52957875e-01f, 1.39753252e-01f, 1.00165814e-01f,
        2.61932909e-02f, -2.43613101e-03f, -1.61278192e-02f, -2.03316301e-01f, -1.66380748e-01f, 3.99616221e-03f, 4.67836857e-02f, -3.04997200e-03f,
        -4.26892750e-02f, -1.34056911e-01f, 2.46365070e-02f, 6.19451106e-02f, -1.12001672e-01f, -1.68650165e-01f, 1.73039928e-01f, 4.48733687e-01f,
        3.79358269e-02f, 1.58503726e-01f, 3.83085720e-02f, -3.04436404e-03f, 6.88251629e-02f, -6.79090545e-02f, 1.33612588e-01f, 4.37805086e-01f,
        2.82649994e-01f, 1.29727021e-01f, -1.35780290e-01f, -2.57691264e-01f, 8.25107284e-03f, 2.21102852e-02f, 4.51262668e-02f, -9.97674689e-02f,
        -1.25317022e-01f, -2.42986772e-02f, 4.32899445e-02f, -7.89166763e-02f, -5.40766455e-02f, -4.16531526e-02f, 7.84589164e-03f, -1.61546208e-02f,
        1.19950324e-01f, 3.46947789e-01f, 3.43904555e-01f, 4.29461390e-01f, 2.13235244e-02f, 8.90499875e-02f, 2.24352688e-01f, -8.05551372e-03f,
        -1.11493774e-01f, -1.22625887e-01f, 4.08076588e-03f, 1.36239320e-01f, -2.67139357e-02f, -4.79222052e-02f, -2.69500673e-01f, -3.48762512e-01f,
        -1.79633081e-01f, 1.13379590e-01f, 1.51386112e-01f, 4.54119593e-02f, -3.29291113e-02f, 4.00438346e-02f, 6.39890656e-02f, 7.45071843e-03f,
        1.68403611e-02f, 3.65547650e-02f, -3.82514414e-03f, -1.10616863e-01f, -5.17555550e-02f, 1.05106816e-01f, 3.41684431e-01f, 1.08080186e-01f,
        3.04584242e-02f, 6.97539449e-02f, 2.45583028e-01f, -1.05675958e-01f, 3.09329201e-02f, -2.33613029e-02f, -2.02174589e-01f, -2.82498300e-01f,
        -1.92630991e-01f, -5.14767289e-01f, -5.19213200e-01f, -3.86936665e-01f, -8.72627348e-02f, 2.36708686e-01f, 2.35194430e-01f, -1.58948603e-03f,
        2.44767275e-02f, -1.00105973e-02f, -1.83295250e-01f, 8.74862969e-02f, 4.90744933e-02f, 4.16021533e-02f, 3.12328488e-02f, 2.55701896e-02f,
        -7.67558813e-02f, -2.55959302e-01f, 3.04889798e-01f, -9.78088938e-03f, 4.13138457e-02f, -9.50274691e-02f, 1.34937957e-01f, -2.38291994e-01f,
        -9.49621499e-02f, -3.17804515e-01f, -2.92465568e-01f, -5.96788645e-01f, -7.69542873e-01f, -5.87586284e-01f, -3.51151794e-01f, 4.23958106e-03f,
        1.95428908e-01f, 3.29287827e-01f, 1.61945313e-01f, 9.55197960e-03f, 5.94059890e-03f, -4.66324873e-02f, 6.01592325e-02f, -5.11718094e-02f,
        5.86552778e-03f, -5.11901639e-02f, 1.15912087e-01f, 1.80175439e-01f, 1.45771727e-01f, -4.37917411e-01f, -4.01853383e-01f, 7.08671706e-03f,
        9.94343311e-03f, -1.10569887e-01f, 7.48749226e-02f, -2.97115058e-01f, -5.31964898e-01f, -7.50838637e-01f, -5.85466504e-01f, -7.66544759e-01f,
        -7.91833520e-01f, -2.99102038e-01f, 1.15015537e-01f, 3.28729093e-01f, 3.59705746e-01f, 2.26486698e-01f, 7.04082474e-02f, -4.18491773e-02f,
        -5.42950891e-02f, 7.83467814e-02f, 1.22585729e-01f, 5.01514524e-02f, -1.49363741e-01f, -9.71385860e-04f, -1.15782954e-01f, -1.41340448e-03f,
        -7.88555816e-02f, -2.44199827e-01f, 5.30655943e-02f, 1.03262486e-02f, 2.57490426e-02f, -2.50457805e-02f, -2.82239722e-04f, -1.00320771e-01f,
        -5.03172457e-01f, -6.04160726e-01f, -5.54558277e-01f, -3.70715588e-01f, -2.74328530e-01f, -2.63597313e-02f, 2.44649127e-01f, 5.62491834e-01f,
        3.69258195e-01f, 1.36276498e-01f, 4.61049080e-02f, -1.76187426e-01f, -6.57803863e-02f, 1.45603316e-02f, 1.01744257e-01f, -4.21389714e-02f,
        -1.09284922e-01f, 1.21309862e-01f, 1.03032283e-01f, 1.38624266e-01f, -2.23177597e-01f, -1.51913315e-01f, 3.00680280e-01f, -2.62337208e-01f,
        1.58394575e-02f, 2.98470967e-02f, 2.00980291e-01f, 3.59468572e-02f, -4.27464962e-01f, -4.07460988e-01f, -3.14098179e-01f, -6.78765699e-02f,
        6.38580993e-02f, 3.20677310e-01f, 3.73765677e-01f, 2.28319168e-01f, 1.60021171e-01f, 1.90815404e-02f, -6.42804280e-02f, -1.38728276e-01f,
        -6.47092015e-02f, -3.66031453e-02f, -9.60854590e-02f, -1.26765087e-01f, -1.24803834e-01f, -6.84925020e-02f, -1.48830235e-01f, -1.00327924e-01f,
        -1.61209121e-01f, 1.55105870e-02f, 3.42870355e-01f, 2.14902520e-01f, 1.49703667e-01f, 2.93509196e-02f, -4.62912992e-02f, -3.04082811e-01f,
        -4.51765180e-01f, -5.74533105e-01f, -1.72367439e-01f, 1.65892124e-01f, 2.82056630e-01f, 3.01612139e-01f, 3.06217432e-01f, 1.87790543e-01f,
        -5.36381342e-02f, -1.24872671e-02f, 2.05860604e-02f, -5.63585199e-03f, 7.67229721e-02f, -1.68438956e-01f, -2.26070076e-01f, -1.24630176e-01f,
        -2.13687360e-01f, -2.58631110e-01f, -3.44742894e-01f, 3.64894196e-02f, 2.43109271e-01f, -4.83054146e-02f, -4.87836031e-03f, 2.67057121e-01f,
        1.68495402e-02f, -5.97976893e-02f, -1.12694740e-01f, -4.77462225e-02f, -5.28018475e-01f, -5.67946374e-01f, 1.36037227e-02f, 2.14910462e-01f,
        3.57238561e-01f, 2.43679985e-01f, 1.90466553e-01f, 1.95539072e-01f, 1.74173284e-02f, -1.27523512e-01f, -4.07159030e-02f, -2.89910976e-02f,
        -8.71337056e-02f, -1.75187767e-01f, -1.16333574e-01f, -5.67174368e-02f, -1.81043550e-01f, -2.33926684e-01f, -1.61031529e-01f, 1.18044920e-01f,
        3.66826989e-02f, -2.39876553e-01f, 6.42863661e-02f, 1.30168060e-02f, 1.49129018e-01f, -2.33341619e-01f, -2.28432789e-01f, 1.77176654e-01f,
        -1.96424320e-01f, -2.39322707e-01f, 1.06146321e-01f, 1.62221998e-01f, 1.95903674e-01f, 1.18615612e-01f, 1.24641106e-01f, 3.01920846e-02f,
        -1.80534460e-02f, -1.08275168e-01f, -3.11794002e-02f, -8.48441720e-02f, -1.84710428e-01f, 3.10033490e-03f, -6.76108524e-02f, 1.24806568e-01f,
        9.18089822e-02f, 4.22555469e-02f, -1.11294776e-01f, 1.65507987e-01f, -8.87149274e-02f, -2.58286089e-01f, -2.57655382e-01f, -1.40076950e-02f,
        1.57327399e-01f, 7.28680491e-02f, -2.58565187e-01f, -1.56728223e-01f, 1.80043802e-01f, 8.91983658e-02f, 1.55339181e-01f, 1.79003432e-01f,
        1.06461637e-01f, 1.64780896e-02f, 2.88647832e-03f, 6.84085190e-02f, -5.76386787e-02f, -1.20514473e-02f, 2.87788399e-02f, -5.07760011e-02f,
        5.44347763e-02f, -5.70830777e-02f, -8.79636928e-02f, 2.59308927e-02f, 3.01872641e-02f, -2.13926379e-02f, -5.46649098e-02f, 1.89885363e-01f,
        6.41155243e-02f, 1.68392181e-01f, 1.87060326e-01f, 1.46212624e-02f, 1.80944540e-02f, 1.78111680e-02f, -2.35794950e-02f, -5.62916517e-01f,
        9.65600833e-02f, -2.78487671e-02f, 1.97705165e-01f, 2.99289282e-02f, -2.34278012e-02f, 1.42494678e-01f, 6.69616088e-02f, 1.12541974e-01f,
        6.90193996e-02f, 1.26917005e-01f, 8.26767907e-02f, 8.11760649e-02f, 1.80653647e-01f, 2.85393535e-03f, -1.64104655e-01f, 1.42478466e-01f,
        1.88391916e-02f, -1.54661313e-01f, -2.01600641e-02f, -1.56322177e-02f, 1.22222573e-01f, 1.98683560e-01f, 3.07943344e-01f, -2.79831346e-02f,
        -3.43125053e-02f, 3.52643989e-02f, -1.08124204e-01f, -4.09043789e-01f, -3.76859218e-01f, -1.77496314e-01f, 1.29854813e-01f, -6.77367747e-02f,
        -6.36160895e-02f, -7.52282441e-02f, -5.41775152e-02f, 1.32682323e-01f, 3.64930630e-02f, 1.16352662e-02f, 6.76730201e-02f, 9.51042771e-02f,
        2.39367437e-04f, -2.37156644e-01f, -1.89267963e-01f, 1.32952690e-01f, 2.40864605e-01f, 1.01533778e-01f, 1.50639385e-01f, -1.20049074e-01f,
        6.55332804e-02f, 1.10874481e-01f, 2.18209013e-01f, -1.78579874e-02f, 1.37208179e-02f, 1.60495006e-02f, -2.34898016e-01f, 3.44870120e-01f,
        9.62191448e-02f, -1.12498499e-01f, 7.30816126e-02f, -5.38670793e-02f, -1.73226520e-01f, -1.62949488e-01f, -7.55544528e-02f, -4.64924686e-02f,
        -7.12206736e-02f, -6.94390312e-02f, 7.95170516e-02f, 7.65719414e-02f, -9.16288570e-02f, -2.13620290e-02f, -1.28976926e-01f, -7.61602074e-02f,
        5.42434901e-02f, -1.48771331e-02f, 6.47473112e-02f, 2.16341317e-01f, 9.73621681e-02f, -1.65969446e-01f, 1.03918843e-01f, -3.35147269e-02f,
        3.36664878e-02f, -7.50250556e-03f, 1.77795067e-03f, -2.47361213e-01f, -3.65066737e-01f, 1.44546315e-01f, 1.96721047e-01f, 1.98500186e-01f,
        6.83971122e-03f, -2.24213853e-01f, -1.71713382e-01f, -8.90476853e-02f, -3.62786978e-01f, -1.70647711e-01f, -3.81141782e-01f, -4.03720319e-01f,
        -3.54144871e-01f, -3.04502487e-01f, -1.50748253e-01f, 1.54232115e-01f, -4.20774594e-02f, -2.96094388e-01f, -3.42039466e-01f, 1.54017601e-02f,
        -1.42605662e-01f, 1.88505903e-01f, 2.57421359e-02f, 2.70417668e-02f, -2.01454852e-02f, 1.12955607e-02f, 2.69712321e-02f, 3.01941670e-02f,
        2.05316946e-01f, 3.36322218e-01f, 1.55055359e-01f, -1.84808373e-02f, 7.43410811e-02f, 9.07231644e-02f, 3.49695951e-01f, 1.81147784e-01f,
        1.02270149e-01f, 4.58903700e-01f, 4.64654833e-01f, 6.98269159e-03f, 3.21936943e-02f, 6.45439774e-02f, -2.35718653e-01f, 3.93002369e-02f,
        -8.34742188e-02f, -2.46978521e-01f, -3.00179601e-01f, 1.98521204e-02f, -3.39932516e-02f, 2.67316364e-02f, -6.88390248e-03f, 8.59470665e-03f,
    },
    {
        2.56061666e-02f, 2.05189213e-02f, -3.22683416e-02f, -2.45860815e-02f, -2.62780283e-02f, 1.09988637e-02f, -3.33734043e-02f, -1.53818820e-02f,
        3.21066119e-02f, -3.36085968e-02f, -1.81701034e-04f, -2.81409640e-02f, 5.41396206e-03f, -1.77189335e-03f, 6.19112700e-03f, 3.49468701e-02f,
        1.73980892e-02f, -9.56308097e-04f, -3.38023901e-02f, -3.40489820e-02f, 2.70708613e-02f, -8.91161896e-03f, 1.62448734e-02f, 2.60286592e-02f,
        8.09483975e-03f, 2.67315656e-04f, 9.09664854e-03f, -7.90644996e-03f, 2.95716859e-02f, -2.91976221e-02f, 2.55223960e-02f, 3.43310200e-02f,
        -2.38963813e-02f, -2.90504843e-03f, -5.23437560e-03f, 1.24197118e-02f, 2.53701257e-03f, 1.29631355e-01f, 1.72582239e-01f, 9.40982103e-02f,
        2.52437919e-01f, 4.47552234e-01f, 4.34326053e-01f, 2.89917529e-01f, -2.83460557e-01f, -1.88460708e-01f, 2.02163905e-01f, 2.06398815e-01f,
        2.57934958e-01f, 2.25023940e-01f, 1.00069061e-01f, 6.67398870e-02f, -2.60775089e-02f, 1.87641867e-02f, -6.08960167e-03f, -5.96392527e-03f,
        3.95490974e-03f, -3.06298155e-02f, 1.50860576e-02f, 3.69896926e-02f, 2.84332126e-01f, 1.29344240e-01f, -2.59024184e-02f, 3.74863259e-02f,
        -2.33875904e-02f, -2.02458784e-01f, -2.31937930e-01f, -2.58512676e-01f, -3.43885094e-01f, -3.51908654e-01f, -3.16048920e-01f, -7.77990296e-02f,
        -1.11553878e-01f, -1.83011055e-01f, 2.98740361e-02f, 5.01664221e-01f, 4.01953489e-01f, 2.95963734e-01f, 4.11034197e-01f, 9.36752856e-02f,
        -1.01003826e-01f, 2.92849112e-02f, 2.39440203e-02f, -3.28990780e-02f, 3.09483968e-02f, 9.46025550e-03f, 6.24855645e-02f, 1.24032553e-02f,
        1.44779846e-01f, -3.55913453e-02f, -6.97438866e-02f, -2.00660825e-01f, -2.10830703e-01f, -1.54396787e-01f, -1.75631255e-01f, -5.43229580e-02f,
        1.57482237e-01f, -1.62311524e-01f, -1.57043323e-01f, -8.12138095e-02f, -3.89023982e-02f, 1.49875313e-01f, 2.04547822e-01f, 1.32075146e-01f,
        2.52023548e-01f, -3.70392837e-02f, -1.87276989e-01f, 2.95045692e-02f, 2.53596753e-01f, 1.59767047e-01f, 2.42673844e-01f, -4.69754077e-03f,
        2.11247988e-02f, 8.16123094e-03f, 7.44923055e-02f, 1.75061762e-01f, -8.42022300e-02f, 3.73075753e-01f, 2.69008607e-01f, -4.16704901e-02f,
        -2.79760510e-01f, -2.89988369e-01f, -3.21075022e-01f, -1.63304601e-02f, -1.25079155e-01f, -6.31526113e-02f, -5.53905219e-03f, 2.79035140e-02f,
        -1.05990976e-01f, -1.47705629e-01f, -1.08284049e-01f, -2.32491549e-02f, -1.28389627e-01f, -1.28025487e-01f, -7.05288500e-02f, 3.22691828e-01f,
        1.51265323e-01f, -9.72771458e-03f, -8.80947039e-02f, 2.58154362e-01f, -3.46893966e-02f, 3.04286741e-02f, 2.57268906e-01f, 2.59451121e-01f,
        -1.67319238e-01f, 3.41558039e-01f, 2.81890064e-01f, 8.16668104e-03f, -4.27630544e-01f, -1.20604947e-01f, -9.83304456e-02f, -1.98761806e-01f,
        -1.04322366e-01f, -3.61022726e-02f, -2.72671320e-02f, 8.21799226e-03f, -4.33452576e-02f, 9.33106169e-02f, -1.73577089e-02f, 1.57334339e-02f,
        -1.81016639e-01f, -2.31782407e-01f, -1.34696245e-01f, 2.27568418e-01f, 2.37713084e-01f, -3.40636164e-01f, 2.17552930e-01f, 4.32817429e-01f,
        -3.43550108e-02f, -1.39771178e-01f, 2.84026802e-01f, 2.48347238e-01f, 4.71618660e-02f, 2.81682223e-01f, 1.10118985e-01f, -1.21763773e-01f,
        -1.17597111e-01f, -6.57159165e-02f, -2.19080206e-02f, -6.78564310e-02f, -1.37023523e-01f, -1.45970844e-02f, -7.51487315e-02f, -1.27583593e-02f,
        8.64325017e-02f, 1.16464183e-01f, 1.42209694e-01f, -2.59101484e-03f, 1.00950912e-01f, -1.66620046e-01f, 4.14526369e-03f, 2.75208652e-01f,
        3.45247477e-01f, -1.72192052e-01f, 1.91871315e-01f, -1.35420814e-01f, -1.81144085e-02f, -2.75999099e-01f, 1.87024489e-01f, 2.84026116e-01f,
        4.87347953e-02f, -4.81762066e-02f, -2.59837359e-01f, -1.99903265e-01f, -3.34226519e-01f, -6.28501028e-02f, 3.59104238e-02f, -7.17801228e-02f,
        -2.04179548e-02f, -6.08794950e-03f, 2.52254039e-01f, 1.11710995e-01f, 1.00694276e-01f, 1.81503952e-01f, 2.61822958e-02f, 1.31644338e-01f,
        1.17263131e-01f, -1.09059364e-01f, 5.44119366e-02f, 2.69576460e-01f, -9.93388742e-02f, -2.17654794e-01f, 2.88713574e-01f, -9.71078426e-02f,
        8.77443030e-02f, -3.69863153e-01f, 1.61713466e-01f, 3.11033040e-01f, -1.30558554e-02f, -2.61140317e-01f, -2.54998803e-01f, -2.22573727e-01f,
        -2.47682378e-01f, -1.13675915e-01f, -9.33350772e-02f, -1.59740672e-01f, -3.70244607e-02f, 1.05323575e-01f, 3.76169950e-01f, 3.06911826e-01f,
        1.33752927e-01f, 1.00066088e-01f, 3.66639383e-02f, -4.77305129e-02f, -1.08473137e-01f, 2.19331514e-02f, -1.10408803e-02f, -3.89999390e-01f,
        8.23891535e-02f, 2.49005079e-01f, -1.42669082e-01f, -1.95718691e-01f, -4.81035709e-02f, 5.53222932e-02f, 2.82269776e-01f, -1.86071284e-02f,
        -9.71180275e-02f, -2.83965230e-01f, -1.17867865e-01f, -6.96016252e-02f, -1.29776970e-01f, -1.31539872e-03f, -1.54942989e-01f, -1.28592193e-01f,
        -1.31624222e-01f, 1.05924658e-01f, 2.97450185e-01f, 1.18255168e-01f, 9.44651589e-02f, 8.67415071e-02f, 3.63682173e-02f, -3.19241881e-02f,
        -3.00151552e-03f, 1.00354915e-02f, 2.97306702e-02f, -1.29587412e-01f, 3.70472193e-01f, -3.16980071e-02f, -8.30327049e-02f, -3.26927528e-02f,
        -4.42254990e-02f, 2.12982669e-01f, -1.41113117e-01f, 1.27209514e-01f, 1.48964033e-01f, -1.66824356e-01f, -3.15461278e-01f, -2.76625007e-01f,
        -1.12244137e-01f, -2.47243419e-01f, -3.27449173e-01f, -1.08061858e-01f, -3.28265354e-02f, 1.15512960e-01f, 1.88120872e-01f, 4.66880091e-02f,
        4.95387800e-02f, -3.78027968e-02f, 4.32883203e-02f, 3.22040282e-02f, 1.12252906e-01f, -4.77459002e-03f, 2.42686242e-01f, 2.72222370e-01f,
        3.87383193e-01f, 4.19506609e-01f, 9.99930352e-02f, -2.13127464e-01f, -3.50448675e-02f, -6.19779639e-02f, -1.72138631e-01f, -2.37754181e-01f,
        2.72139639e-01f, 5.15547842e-02f, -1.79153636e-01f, -2.76404411e-01f, -2.68254392e-02f, -2.10292369e-01f, -2.24167168e-01f, -1.72967076e-01f,
        -1.15166176e-02f, 3.35030228e-01f, 1.94041401e-01f, 2.76694521e-02f, 5.42176627e-02f, 1.19648300e-01f, 1.63867638e-01f, -3.20455134e-02f,
        -1.22374669e-01f, -7.62370648e-03f, 1.25198379e-01f, 2.37791091e-01f, 8.35894123e-02f, 1.25831971e-02f, 4.11626875e-01f, -2.24120051e-01f,
        -2.77910549e-02f, -5.42078773e-03f, 1.26694664e-01f, -3.88093293e-01f, 1.32366091e-01f, -2.24493921e-01f, -3.58085781e-01f, -3.12864393e-01f,
        -1.32771671e-01f, -1.42395139e-01f, 1.56867988e-02f, 1.69157192e-01f, 2.43277594e-01f, 3.61918062e-01f, 3.04984927e-01f, 1.81056440e-01f,
        1.88575331e-02f, 7.22186789e-02f, 4.42333184e-02f, -6.62765428e-02f, -1.19088225e-01f, -1.80462450e-01f, -1.62357718e-01f, -1.30956069e-01f,
        -4.58611965e-01f, -1.32366866e-01f, 1.24776073e-01f, -6.99003041e-02f, 2.48637050e-01f, 1.93512868e-02f, -1.87460423e-01f, -4.12813872e-01f,
        -1.24778345e-01f, -5.80764711e-01f, -5.49239397e-01f, -2.77481437e-01f, 1.43556921e-02f, 7.77122006e-02f, 1.82312697e-01f, 2.29727834e-01f,
        4.06270653e-01f, 3.17572981e-01f, 3.18909913e-01f, 2.34807029e-01f, 1.10887952e-01f, 2.57129800e-02f, -1.15562968e-01f, -9.18895286e-03f,
        -5.88975400e-02f, -2.76871711e-01f, -4.43516076e-01f, -6.76384807e-01f, -4.62685168e-01f, -2.57595718e-01f, -1.14372484e-01f, 2.61880010e-01f,
        -9.64637101e-02f, 1.13894127e-01f, -8.05256590e-02f, -3.36897016e-01f, -3.71261656e-01f, -3.29575896e-01f, -4.31576461e-01f, -4.67341751e-01f,
        -1.17361605e-01f, 1.18703283e-01f, 1.48616165e-01f, 2.49430716e-01f, 4.14581567e-01f, 3.93313169e-01f, 3.46517593e-01f, 1.87582061e-01f,
        8.89361873e-02f, -1.18941525e-02f, -1.25378609e-01f, -3.34682651e-02f, 4.09838296e-02f, -1.02407284e-01f, -4.71083939e-01f, -6.23065233e-01f,
        -3.72014284e-01f, 7.65194073e-02f, -2.43101329e-01f, -3.05118654e-02f, -1.03176042e-01f, 1.43103302e-01f, 8.15122649e-02f, -2.56980777e-01f,
        -1.02407314e-01f, -1.45576179e-01f, -2.99057841e-01f, -3.80388886e-01f, -2.94694394e-01f, -2.56049484e-01f, 6.90776482e-02f, 1.06712446e-01f,
        3.94282818e-01f, 3.49775493e-01f, 3.04975986e-01f, 1.54121459e-01f, 2.24120662e-01f, 1.54407397e-01f, 1.40813053e-01f, -7.24966452e-02f,
        -2.01215409e-02f, -1.10629052e-01f, -3.29537243e-01f, -2.96037614e-01f, -7.36953840e-02f, 2.66311634e-02f, -1.78247377e-01f, -1.20994508e-01f,
        -4.48734649e-02f, 9.98905674e-02f, 5.34695573e-02f, -1.31823167e-01f, 2.68317103e-01f, 1.17479250e-01f, -1.86427876e-01f, -4.52800393e-01f,
        -5.29800117e-01f, -5.46818078e-01f, -1.18322603e-01f, 1.59531534e-01f, 3.12511325e-01f, 3.14525008e-01f, 1.25490144e-01f, 1.31899744e-01f,
        2.89261371e-01f, 1.15975544e-01f, 1.58653080e-01f, -1.82399452e-01f, -4.76042517e-02f, -4.67422783e-01f, -4.80031133e-01f, -1.52043596e-01f,
        -1.37091115e-01f, -1.61885411e-01f, -3.09708863e-01f, -8.04605708e-02f, 5.74201345e-04f, 9.14381668e-02f, -5.35495989e-02f, -1.51188105e-01f,
        2.69066989e-01f, -3.02560963e-02f, -2.06755206e-01f, -2.43939236e-01f, -4.75279987e-01f, -3.02299976e-01f, -1.78167894e-01f, -8.73435289e-03f,
        8.38196054e-02f, 1.07129857e-01f, 1.40556350e-01f, 1.93684220e-01f, 2.25392774e-01f, 1.74686715e-01f, 5.46683781e-02f, -1.28832787e-01f,
        -3.23934853e-01f, -4.99455690e-01f, -3.24848592e-01f, 5.95369227e-02f, -2.27539241e-02f, 6.68178871e-02f, 1.14723042e-01f, -1.00188293e-01f,
        -1.78113833e-01f, 4.72983830e-02f, 4.32168581e-02f, -3.84749562e-01f, -3.89856808e-02f, -1.27581298e-01f, -1.16865948e-01f, -2.07022265e-01f,
        -1.39225870e-01f, -2.64928699e-01f, -3.17173988e-01f, -8.14243183e-02f, 8.90890583e-02f, 1.26347199e-01f, 2.39325330e-01f, 2.60553509e-01f,
        1.73049450e-01f, 8.20860267e-02f, 4.56185220e-03f, -3.68094951e-01f, -5.87036073e-01f, -4.88662660e-01f, -3.77299994e-01f, -1.76829383e-01f,
        -5.03104692e-03f, 1.81508511e-01f, 3.77058595e-01f, 2.31252924e-01f, 2.87555605e-01f, -2.93121606e-01f, -1.11721613e-01f, -1.94697350e-01f,
        5.96481096e-03f, 9.78396982e-02f, 1.47203416e-01f, -5.93920127e-02f, -2.12074354e-01f, -3.29743326e-01f, -3.73396575e-01f, -2.60425687e-01f,
        -5.06558083e-02f, -2.92197149e-02f, 1.56500727e-01f, 1.57802671e-01f, 1.31078005e-01f, 1.88945517e-01f, 4.40419577e-02f, -3.93422097e-01f,
        -7.50214159e-01f, -6.78159773e-01f, -5.84859312e-01f, -2.77160764e-01f, 1.53633952e-01f, 3.10813576e-01f, 2.46649697e-01f, 3.11014056e-01f,
        -2.85108946e-02f, 1.67642698e-01f, -2.50212252e-01f, -3.11644673e-01f, 1.03905678e-01f, 2.19580680e-01f, 1.87956750e-01f, -8.18205252e-03f,
        -6.22483529e-02f, -1.64361075e-01f, -2.31327906e-01f, -2.84732610e-01f, -1.33399114e-01f, 4.17806767e-02f, 2.36391693e-01f, 8.90554786e-02f,
        2.00650960e-01f, 2.19292507e-01f, -9.21134651e-02f, -3.81380767e-01f, -8.24502647e-01f, -7.99831569e-01f, -4.26321298e-01f, -2.91177899e-01f,
        -4.42487411e-02f, -6.74542040e-02f, 2.35579923e-01f, 1.28979921e-01f, 2.11615488e-01f, 1.72697216e-01f, -1.85405582e-01f, -4.55759503e-02f,
        1.84441824e-02f, 2.05285981e-01f, 2.15999112e-01f, 7.72514865e-02f, -6.39086775e-03f, -7.50223622e-02f, -1.24879383e-01f, -1.55630931e-01f,
        -8.21177363e-02f, -1.38581749e-02f, 1.02032438e-01f, 6.93601072e-02f, 2.49334630e-02f, -2.86761876e-02f, -3.09494734e-01f, -6.25526369e-01f,
        -6.73112929e-01f, -6.00133240e-01f, -4.59567755e-01f, 3.46976370e-02f, 1.52102470e-01f, 1.09142520e-01f, -2.73200482e-01f, -1.17564071e-02f,
        1.77268714e-01f, 1.82979047e-01f, -1.23090699e-01f, 2.33779233e-02f, 4.82515208e-02f, 1.97286054e-01f, 2.46681720e-01f, 4.36018296e-02f,
        2.83719786e-02f, 1.10197999e-01f, 1.24201186e-01f, 7.30187520e-02f, 8.46204385e-02f, 5.05859554e-02f, 1.34347022e-01f, 1.03810914e-01f,
        -1.48396939e-01f, -2.56388277e-01f, -5.27067125e-01f, -4.97412592e-01f, -6.53975785e-01f, -6.13350391e-01f, -4.45093483e-01f, -8.30854103e-02f,
        7.11039379e-02f, -1.23483568e-01f, 2.10952654e-01f, 3.56637798e-02f, 1.56185105e-02f, -1.45444330e-02f, -2.11603031e-01f, -1.72863647e-01f,
        2.10094955e-02f, 7.97954053e-02f, -6.81616887e-02f, 1.05966553e-01f, 1.44471750e-01f, 6.23443127e-02f, 1.54385135e-01f, 2.17057422e-01f,
        2.21055508e-01f, 1.79219276e-01f, 1.17920369e-01f, -1.02189034e-01f, -3.19834799e-01f, -3.86896342e-01f, -4.75363970e-01f, -6.08238459e-01f,
        -5.95686972e-01f, -5.29913068e-01f, -1.25653535e-01f, -1.15966640e-01f, -1.30222872e-01f, -1.41855804e-02f, 2.53138095e-01f, 1.57394633e-02f,
        -2.03855336e-04f, 2.77414545e-03f, 2.04033908e-02f, 8.54958892e-02f, 2.22460717e-01f, 5.17273486e-01f, 6.80200849e-03f, 1.47759423e-01f,
        8.93076658e-02f, 1.48168311e-01f, 1.92597806e-01f, 1.38549685e-01f, 3.14551026e-01f, 2.67911464e-01f, 2.05783453e-02f, -1.29041016e-01f,
        -3.42245936e-01f, -4.72558081e-01f, -5.83943725e-01f, -6.18239224e-01f, -2.34584123e-01f, -9.98020098e-02f, 6.90151602e-02f, 3.37393165e-01f,
        3.62791903e-02f, 8.94495025e-02f, -4.08715494e-02f, -1.59452017e-02f, -1.95495617e-02f, -3.17525752e-02f, 9.06591117e-02f, 6.83021322e-02f,
        1.32672861e-01f, 4.78186041e-01f, -7.20544234e-02f, -5.48317060e-02f, 9.16953385e-02f, 3.72694619e-02f, -1.12643965e-01f, -9.80934221e-03f,
        8.06989893e-02f, -3.48790698e-02f, -1.84425160e-01f, -2.46982455e-01f, -1.61501944e-01f, -2.33730733e-01f, -3.58267426e-01f, -3.24104249e-01f,
        -2.92787373e-01f, -2.72842169e-01f, 5.36926836e-03f, 5.36036015e-01f, 4.54540178e-02f, -1.80777558e-03f, -1.30085843e-02f, 2.69196294e-02f,
        -3.15727703e-02f, 2.88814269e-02f, 1.32617243e-02f, 1.78933606e-01f, 4.74517256e-01f, 5.04629970e-01f, 4.34140176e-01f, 1.92867681e-01f,
        -9.35123563e-02f, 7.64422715e-02f, 1.74972907e-01f, 2.66547412e-01f, 2.07283199e-01f, 8.37241039e-02f, 3.01808506e-01f, 1.45538211e-01f,
        1.90720126e-01f, 4.21820164e-01f, 1.72452927e-01f, -2.77664140e-02f, -3.15805376e-02f, 1.34961102e-02f, 1.18075661e-01f, -5.13164960e-02f,
        -2.16494873e-02f, 1.12100512e-01f, 7.47698918e-03f, 2.75865756e-02f, -7.88513198e-03f, -2.83958390e-03f, -3.68776545e-03f, -3.29104215e-02f,
        -1.55656978e-01f, -2.25383475e-01f, 9.93016735e-02f, 1.12228386e-01f, 9.77535695e-02f, 4.47226763e-02f, 5.53889142e-04f, 1.10205635e-01f,
        1.06327357e-02f, -1.47957131e-01f, 4.58991826e-01f, 3.55848253e-01f, -8.22609349e-04f, -7.80270100e-02f, 1.83495536e-01f, 1.32587627e-02f,
        -4.65193018e-02f, 4.57630353e-03f, 4.37882077e-03f, 1.31540038e-02f, 1.64267272e-02f, 1.50897652e-02f, -1.83362328e-02f, 1.13350786e-02f,
    },
    {
        -6.01453520e-03f, 1.51763558e-02f, -2.15427466e-02f, 2.82369368e-02f, -2.61836648e-02f, -2.48836167e-02f, 1.72799155e-02f, -5.80670685e-03f,
        -4.31609154e-03f, 3.54148857e-02f, 2.22953409e-02f, 1.87801234e-02f, -2.56939158e-02f, 2.55027376e-02f, -2.93683037e-02f, -2.92399582e-02f,
        3.16865705e-02f, 8.49474221e-04f, -9.57600214e-03f, 2.70223804e-02f, -2.59017199e-03f, -6.92565553e-03f, -2.66225990e-02f, 9.97189060e-03f,
        2.62992829e-03f, -7.69863464e-03f, 1.07628144e-02f, 2.52257846e-02f, -2.66761277e-02f, 2.86191367e-02f, -3.46262753e-02f, 2.94931792e-02f,
        -2.30667256e-02f, -3.03693041e-02f, 1.25666298e-02f, 1.55727267e-02f, -2.41856799e-02f, 1.47640891e-02f, -1.31784845e-02f, 1.48290247e-02f,
        -1.17955375e-02f, -1.39695928e-02f, 4.70876321e-03f, -1.39539167e-02f, 2.01313645e-02f, 3.46151032e-02f, 2.85363235e-02f, 2.02734955e-02f,
        -3.48552726e-02f, 2.79715694e-02f, 2.42679715e-02f, 1.31111182e-02f, -2.15509329e-02f, -1.73503533e-03f, 3.24489288e-02f, 1.70411468e-02f,
        2.55633742e-02f, 2.70993672e-02f, -1.38313863e-02f, -1.98547039e-02f, 2.03363895e-02f, 2.17147022e-02f, -2.28721425e-02f, -2.38370858e-02f,
        -2.48452984e-02f, -5.16049005e-03f, -2.88714860e-02f, -5.51852584e-03f, -7.47425668e-03f, 1.60463639e-02f, -3.37833725e-02f, -1.23324990e-02f,
        1.54391862e-02f, 3.53150703e-02f, -7.40687363e-03f, 1.80070624e-02f, -2.57166084e-02f, 2.01438777e-02f, 1.01576075e-02f, 3.00497450e-02f,
        1.30446479e-02f, -1.23693570e-02f, -3.29301879e-03f, 3.04140188e-02f, 2.87026875e-02f, 2.26912722e-02f, 8.07865709e-03f, 3.19546722e-02f,
        2.24615522e-02f, -2.74102092e-02f, -1.81652065e-02f, -1.20217670e-02f, -9.51825827e-03f, -1.24199446e-02f, -2.93763336e-02f, 9.06598940e-03f,
        -1.60739478e-02f, 1.42985731e-02f, -1.74245127e-02f, 3.79220396e-03f, 2.46745273e-02f, -9.13871266e-03f, -2.61285529e-03f, -7.67336227e-03f,
        3.04716639e-02f, -5.92356175e-03f, 6.56264275e-03f, 2.59752609e-02f, -1.73672624e-02f, 1.74367987e-02f, -3.47471982e-02f, 2.13159770e-02f,
        -8.91901739e-03f, -9.37013514e-03f, 2.87373103e-02f, -6.23076782e-03f, 2.13807933e-02f, -6.56839833e-03f, 1.89350434e-02f, 5.78624383e-03f,
        -3.42558175e-02f, 3.05214487e-02f, -9.39180702e-03f, -2.59531438e-02f, 1.45300403e-02f, -7.14146346e-03f, 3.38871144e-02f, -3.39854807e-02f,
        -2.34805904e-02f, -1.38753280e-03f, -1.89173855e-02f, 2.95373406e-02f, 1.50134144e-02f, 1.50550678e-02f, 1.27243176e-02f, 5.89752197e-03f,
        2.42732055e-02f, 2.82598287e-03f, -2.30986252e-03f, 4.82778996e-03f, 2.54202299e-02f, -2.88538858e-02f, 2.71582864e-02f, 9.91460681e-03f,
        -1.60069652e-02f, 3.02498750e-02f, -1.98922418e-02f, -2.54470408e-02f, 3.16202361e-03f, 1.33971572e-02f, -2.11064275e-02f, -3.04603837e-02f,
        3.19615752e-03f, -1.50803756e-02f, -6.96247816e-03f, -1.18397512e-02f, -2.15731654e-02f, 3.14416885e-02f, 3.37293781e-02f, -8.30047112e-03f,
        -2.88418029e-02f, 1.07016787e-03f, -3.92432436e-02f, -2.53475457e-03f, 8.06581229e-03f, -2.25326978e-02f, 1.05672330e-03f, 2.79771425e-02f,
        1.15423650e-02f, -9.01100039e-03f, -3.40936780e-02f, 2.72282772e-02f, -2.74926908e-02f, -3.11021432e-02f, 2.73294598e-02f, -5.55510726e-03f,
        -1.78210139e-02f, -3.41026336e-02f, -5.47678815e-03f, -2.63913963e-02f, -8.54662992e-03f, -4.62886086e-03f, -1.82300042e-02f, -2.05840189e-02f,
        -2.70063821e-02f, 3.03950123e-02f, -1.49533711e-02f, 1.28210569e-02f, 1.83963915e-03f, -3.84981232e-03f, -1.36363925e-02f, -1.40401721e-02f,
        -1.34082008e-02f, 2.54730005e-02f, -3.18793505e-02f, 2.74020098e-02f, 2.23709978e-02f, 3.49914990e-02f, -6.65710680e-03f, 9.03806090e-03f,
        2.13520601e-03f, -8.03558715e-03f, -2.47491952e-02f, -3.51931714e-02f, 1.41068306e-02f, -1.61098521e-02f, -3.19660529e-02f, 2.34806482e-02f,
        -2.68230923e-02f, -1.22138746e-02f, -1.67057700e-02f, 4.27637249e-03f, -3.27970013e-02f, -2.20359061e-02f, 1.97937209e-02f, -2.77210958e-02f,
        6.63883844e-03f, -3.08490843e-02f, 5.48140705e-03f, 3.73047381e-03f, -3.73769142e-02f, -2.31316146e-02f, 1.16319582e-03f, 2.29582824e-02f,
        -1.15877260e-02f, -2.02067755e-02f, -2.69897580e-02f, 1.06302500e-02f, 1.49932876e-03f, -2.81871222e-02f, -4.02971692e-02f, 1.41924052e-02f,
        -3.54960631e-03f, -1.87331960e-02f, 1.59372613e-02f, -3.18513773e-02f, -4.66154888e-03f, -4.05076183e-02f, 2.14624871e-02f, 2.14739591e-02f,
        -4.39654924e-02f, 7.35274190e-03f, -2.53037922e-03f, 4.23056772e-03f, 6.80139894e-03f, -9.26758454e-04f, -3.91600886e-03f, -1.12201655e-02f,
        8.67818389e-03f, 4.15067896e-02f, -1.97930597e-02f, -5.14282472e-03f, 6.69845566e-03f, -1.43299531e-02f, -3.49608138e-02f, -1.72555111e-02f,
        -7.19950534e-03f, 3.51766497e-03f, 7.86419585e-03f, 2.42618266e-02f, -5.31281577e-03f, 6.90175779e-03f, -1.64136179e-02f, -4.02371548e-02f,
        -3.96187194e-02f, 2.48621907e-02f, 1.87962018e-02f, -3.47821265e-02f, -2.21790932e-03f, 1.59134623e-02f, -3.40862162e-02f, 2.17265245e-02f,
        -4.31333408e-02f, 2.25568209e-02f, -3.53355557e-02f, 1.67812742e-02f, 2.39006113e-02f, -2.54798047e-02f, 8.98597389e-03f, -2.99035031e-02f,
        2.76424102e-02f, 1.17795207e-02f, -8.93900730e-03f, 1.60384402e-02f, -3.03913448e-02f, -4.07783836e-02f, -2.39855871e-02f, -4.57088975e-03f,
        3.10319453e-03f, -3.64138111e-02f, -1.54076247e-02f, 2.10183263e-02f, -3.83954346e-02f, -3.86013910e-02f, -3.69811207e-02f, -1.73674747e-02f,
        1.73725393e-02f, -4.03235145e-02f, -2.13516355e-02f, -2.94047538e-02f, 1.66384503e-03f, -1.67269204e-02f, -2.76541263e-02f, 9.99337994e-03f,
        3.37707177e-02f, -2.51520872e-02f, -1.50121246e-02f, -2.45461613e-02f, -7.76397809e-03f, -2.95671839e-02f, -1.78848337e-02f, 1.48111582e-02f,
        1.27498060e-04f, 2.18799766e-02f, 2.07963046e-02f, -3.74800786e-02f, 2.52127033e-02f, -3.44731249e-02f, -1.51465079e-02f, 8.85804463e-03f,
        -2.86498107e-04f, -9.03262664e-03f, -4.28794548e-02f, -2.65630912e-02f, -3.76202054e-02f, 1.33936424e-02f, -2.74870228e-02f, 1.88610936e-03f,
        -1.41858328e-02f, 3.12337726e-02f, -5.31146815e-03f, 4.74786200e-03f, -2.23266836e-02f, -1.13746496e-02f, -7.63417967e-03f, -2.17523668e-02f,
        -2.20262166e-02f, 2.91106738e-02f, -3.51195484e-02f, 2.58486718e-04f, -3.52971852e-02f, 1.45411724e-03f, -3.68240895e-03f, 1.03204069e-03f,
        -3.51258181e-02f, -1.42421005e-02f, 7.27832690e-03f, -2.32751463e-02f, 1.09648947e-02f, -9.36717633e-03f, 2.10714038e-03f, 1.35688633e-02f,
        -1.05852382e-02f, -2.64062062e-02f, -1.65546313e-02f, -3.37672159e-02f, 6.34840224e-03f, 8.24348629e-03f, -1.95755307e-02f, 1.57673638e-02f,
        -3.64680924e-02f, -1.89872793e-04f, 2.45691463e-02f, -2.31381319e-02f, -3.40644903e-02f, 2.55153403e-02f, -1.94693338e-02f, 2.69547123e-02f,
        -1.60909276e-02f, 1.63778849e-02f, -4.48444532e-03f, -6.12531556e-04f, -2.46846005e-02f, -4.20410298e-02f, 2.57241186e-02f, 1.48893930e-02f,
        -2.28271876e-02f, -3.75735089e-02f, 1.74286589e-02f, -2.53217574e-02f, 2.74110809e-02f, -7.82472640e-03f, -6.15773397e-03f, 7.04576261e-03f,
        2.60695629e-02f, 2.18172860e-03f, -8.39467254e-03f, -2.15686560e-02f, -1.38158416e-02f, -3.22328545e-02f, 2.74449587e-03f, -3.01667005e-02f,
        -2.24527009e-02f, -9.71717574e-03f, 7.77265429e-03f, -8.00968707e-03f, -2.46431306e-02f, 1.70058869e-02f, 3.09513882e-02f, 2.05839034e-02f,
        -2.54858518e-03f, 3.81043414e-03f, -1.30735049e-02f, 1.07695088e-02f, 2.68392339e-02f, 5.75993792e-04f, 4.41439636e-03f, -1.69537757e-02f,
        -8.56282073e-04f, -1.70477014e-02f, -1.39915375e-02f, -3.74513790e-02f, 1.67133636e-03f, -2.95473845e-03f, 1.42176999e-02f, 7.23437965e-03f,
        -3.47956792e-02f, -6.49616122e-05f, -7.30922446e-03f, 1.63792633e-02f, -1.21168494e-02f, 2.88645588e-02f, 1.47919159e-03f, 3.87266814e-03f,
        5.48630767e-03f, 2.81131659e-02f, -3.15371230e-02f, -4.14257646e-02f, -1.81837976e-02f, 1.18816167e-03f, 9.64203663e-03f, -4.50626872e-02f,
        2.34697331e-02f, -2.72816084e-02f, -1.06067304e-03f, 2.59368382e-02f, 1.41490279e-02f, -2.17287820e-02f, 6.83100894e-03f, -1.30849965e-02f,
        2.09330954e-02f, -2.30237935e-02f, -8.03950801e-03f, 2.62654983e-02f, 3.52866910e-02f, -2.84999330e-02f, 3.16618010e-03f, -1.32884774e-02f,
        -2.10552141e-02f, -3.18401232e-02f, 2.93921363e-02f, -2.00116020e-02f, -9.95999202e-03f, -1.55699346e-02f, 1.58119388e-02f, -2.05456093e-02f,
        -3.86433536e-03f, -3.45680602e-02f, 1.72150433e-02f, -2.77505349e-02f, -1.56721957e-02f, 8.54743831e-03f, -2.35824492e-02f, -3.66574042e-02f,
        -2.53497567e-02f, -1.73208881e-02f, -3.29152308e-02f, -3.31645906e-02f, 2.28263568e-02f, -1.24541111e-02f, 1.91633366e-02f, 1.94472335e-02f,
        -1.59494877e-02f, 3.29260789e-02f, -1.02024805e-02f, 2.81970948e-04f, 1.65710077e-02f, -1.42468177e-02f, 1.05630271e-02f, 1.07753305e-02f,
        -1.04009602e-02f, -3.48587781e-02f, 2.28702798e-02f, 5.85077144e-03f, -3.45533038e-03f, -3.32246907e-02f, 2.69484357e-04f, 8.97727441e-03f,
        -8.58496502e-03f, -3.41744348e-02f, -3.72258388e-02f, -2.96843518e-02f, 4.73145535e-03f, -1.76757714e-03f, -1.79936979e-02f, -1.36354826e-02f,
        1.99862290e-02f, 1.80983040e-02f, 2.12597810e-02f, -2.58680508e-02f, 7.96578825e-03f, 2.17614584e-02f, 2.02282779e-02f, 2.51113586e-02f,
        9.46592167e-03f, 4.40442562e-03f, -1.19704297e-02f, -1.07528633e-02f, 7.79133243e-03f, 7.82012288e-03f, 1.07878633e-02f, -2.68382337e-02f,
        2.73298044e-02f, -9.75882693e-04f, -3.47485207e-02f, 7.90716149e-03f, 1.00974534e-02f, -4.41865176e-02f, -2.23278385e-02f, -2.58326884e-02f,
        -2.30613910e-03f, -3.18362974e-02f, 1.12327365e-02f, 3.23796389e-03f, -7.72099569e-03f, -3.14674117e-02f, -2.45342813e-02f, -3.45116705e-02f,
        -1.51408799e-02f, 3.37886848e-02f, 9.60030407e-03f, -1.34905670e-02f, -4.75434400e-03f, 6.11786917e-03f, -7.55114667e-03f, -1.74327251e-02f,
        3.66576165e-02f, -5.20895654e-03f, 2.62850095e-02f, -1.42239081e-03f, -1.12082819e-02f, 9.13038291e-03f, 5.87723078e-03f, -2.65264474e-02f,
        -5.31330891e-03f, 1.28582446e-02f, -7.54322065e-03f, 5.19633386e-03f, -3.54789197e-02f, 2.79245875e-03f, -1.15672275e-02f, -2.88128555e-02f,
        -3.54084931e-02f, -1.46816643e-02f, 1.18735619e-02f, -2.87244637e-02f, 3.36078070e-02f, -1.64995752e-02f, -2.31109411e-02f, -1.05836857e-02f,
        -1.10289548e-02f, -2.57098339e-02f, 1.60690546e-02f, 4.62687761e-03f, -2.17243657e-02f, 3.62261315e-03f, -3.98773849e-02f, -2.42448598e-02f,
        -2.51101970e-04f, -8.87982082e-03f, -2.88603269e-02f, -1.19203730e-02f, 2.63611134e-02f, -1.97102446e-02f, 4.91615105e-03f, -1.47819007e-02f,
        -3.34081538e-02f, -2.27075759e-02f, 6.53272029e-03f, 6.37341617e-03f, -1.55763496e-02f, 2.50289198e-02f, -4.76271287e-03f, 1.42729543e-02f,
        1.58368908e-02f, -2.03349981e-02f, -1.60126910e-02f, 1.98547915e-03f, -2.02215277e-02f, -8.74919072e-03f, 1.24178417e-02f, 1.68908313e-02f,
        3.52341644e-02f, -7.17127929e-03f, 1.35125844e-02f, -2.21776646e-02f, 1.49426181e-02f, -1.79284941e-02f, 6.63400302e-03f, 8.49584769e-03f,
        -3.42302024e-02f, -3.77400592e-02f, -2.98502799e-02f, -7.30887288e-03f, -2.39971243e-02f, -2.02632416e-02f, -1.64232007e-03f, 2.50768010e-03f,
        -2.73953769e-02f, -2.68751215e-02f, -1.46879908e-02f, -1.92653760e-02f, 2.90675201e-02f, -1.64820999e-03f, 2.31026150e-02f, -7.23326579e-03f,
        -3.34382616e-02f, 4.11710516e-03f, 3.28985266e-02f, -1.37648806e-02f, 2.30596960e-02f, 1.42972209e-02f, 4.72606719e-03f, 2.34689619e-02f,
        -2.24134736e-02f, -2.04584319e-02f, 1.87767427e-02f, 3.12023610e-02f, -7.82553665e-03f, -1.97110176e-02f, -1.30405929e-02f, 1.42230438e-02f,
        1.39164664e-02f, 1.00301495e-02f, -1.22660734e-02f, 2.69708354e-02f, -1.10509954e-02f, -3.96201350e-02f, -2.04608999e-02f, -3.22467163e-02f,
        -4.31922078e-03f, -1.59360003e-02f, -1.47022475e-02f, -2.45105475e-03f, 3.08772549e-03f, -1.57491397e-02f, 3.38386036e-02f, -7.89809600e-03f,
        -2.95347348e-03f, -2.45893002e-02f, -4.92951274e-03f, 6.25304878e-04f, -3.90485339e-02f, -2.08699573e-02f, 2.54108962e-02f, -2.14199815e-02f,
        5.62931923e-03f, -1.54982042e-02f, 1.19843427e-03f, -1.59232169e-02f, -1.33032370e-02f, -3.54562812e-02f, -5.59537299e-03f, -7.14173587e-03f,
        -3.09058698e-03f, -8.98985472e-03f, 2.58679017e-02f, -3.07266768e-02f, -8.34449753e-03f, 6.53691590e-04f, 1.46421082e-02f, 4.81570885e-03f,
        3.43333930e-04f, 1.10597573e-02f, 1.93001442e-02f, -1.04733836e-02f, 2.46715806e-02f, 1.78332664e-02f, 2.47786604e-02f, 4.29632515e-03f,
        -1.70816779e-02f, -3.78203019e-03f, -6.02012873e-03f, -2.71988362e-02f, 2.93705799e-02f, -5.81138767e-03f, -1.88081805e-02f, -5.77288819e-03f,
        3.87021899e-03f, 3.41106579e-03f, 5.95357316e-03f, -4.00836878e-02f, 6.26353780e-03f, -1.41974417e-02f, -1.42503604e-02f, 1.58038512e-02f,
        1.51208825e-02f, 2.28416175e-03f, 1.19927898e-02f, -1.58180855e-02f, -2.85998471e-02f, 3.76710296e-03f, -9.69278812e-03f, -2.66010463e-02f,
        -1.74198635e-02f, -3.07686292e-02f, -2.10152194e-03f, 5.97896054e-03f, 2.48817205e-02f, -3.23982798e-02f, -2.27837022e-02f, -2.65665501e-02f,
        6.87621534e-04f, 2.43650600e-02f, 2.53829826e-02f, -5.70079312e-03f, -1.04173087e-02f, -2.70319544e-02f, 3.39883082e-02f, 3.53889726e-02f,
        1.41142271e-02f, 2.11199783e-02f, -6.03789091e-03f, 6.47305697e-03f, -1.55761894e-02f, 1.69840083e-03f, -2.66377293e-02f, 1.50904097e-02f,
        -2.18903478e-02f, 1.26565024e-02f, 3.55857201e-02f, -2.27327570e-02f, -2.59296782e-02f, 2.53433324e-02f, 8.56105238e-03f, 8.57902318e-03f,
        2.31047235e-02f, 3.23467739e-02f, 4.07679752e-03f, -3.50387618e-02f, -8.28296319e-03f, -2.59608179e-02f, 1.06420694e-02f, -5.98942861e-03f,
        -2.16358453e-02f, 2.53521353e-02f, 1.51197240e-02f, -1.88062117e-02f, -1.76227912e-02f, 5.64058498e-03f, -2.21685823e-02f, -6.23017922e-03f,
        -1.89715624e-02f, 2.66002677e-02f, 2.79415064e-02f, 1.11367293e-02f, 3.34621109e-02f, 1.00163482e-02f, 1.23239942e-02f, 2.88425796e-02f,
        3.43963318e-02f, 2.33869255e-02f, -3.08405515e-02f, -4.64986451e-03f, -2.56773829e-03f, 2.54818797e-02f, 1.83112957e-02f, 2.96700932e-02f,
        2.58513317e-02f, 2.70722471e-02f, 1.60211213e-02f, -4.89983894e-03f, 2.19788663e-02f, -2.94405837e-02f, 3.25547196e-02f, -1.97070539e-02f,
        -3.11227404e-02f, 1.31422468e-02f, 2.10818760e-02f, 3.04608420e-03f, -1.47244260e-02f, -5.70424087e-03f, -2.47618929e-03f, -2.01852247e-03f,
    },
    {
        -3.06552649e-03f, -1.68704875e-02f, -2.24515647e-02f, 1.48166642e-02f, 2.95719840e-02f, 2.37131454e-02f, -6.77927583e-03f, 3.53610031e-02f,
        -1.92707777e-02f, 3.38038839e-02f, 1.54952966e-02f, 2.45951861e-02f, -1.37300063e-02f, 1.37952603e-02f, -7.04269856e-04f, 2.69312821e-02f,
        -1.81451142e-02f, 2.60227211e-02f, -1.80768929e-02f, -2.85598896e-02f, -3.34086195e-02f, -3.46675664e-02f, -2.03843080e-02f, 1.69190615e-02f,
        -1.30191147e-02f, -1.99121125e-02f, 2.93690711e-04f, 5.57247922e-03f, 3.02501656e-02f, -1.26984287e-02f, -3.19480672e-02f, -1.58545300e-02f,
        3.12810652e-02f, -2.50264555e-02f, -1.93988048e-02f, 2.92480625e-02f, -2.92489249e-02f, 1.69358216e-02f, -2.09468361e-02f, 2.89470591e-02f,
        -3.89150903e-03f, 8.58609378e-03f, -2.67435238e-03f, -3.07804998e-02f, -1.87095962e-02f, -2.58873403e-02f, -2.76970360e-02f, -1.38738919e-02f,
        -5.41171059e-03f, -1.22890007e-02f, 3.98237258e-04f, 1.26657747e-02f, -2.47593522e-02f, 1.49439611e-02f, -1.77956484e-02f, -2.74874531e-02f,
        -9.52687114e-03f, 2.38249712e-02f, -1.31844580e-02f, 4.69725206e-03f, -4.02658805e-03f, 8.15034658e-03f, -2.13636048e-02f, -3.07107829e-02f,
        1.02874003e-02f, 1.42166093e-02f, 6.60445914e-03f, 1.54862702e-02f, -1.24824215e-02f, 1.53701212e-02f, -3.40812802e-02f, -8.72370787e-03f,
        3.64932418e-03f, 2.18803659e-02f, 9.04282928e-03f, -2.78878072e-03f, 1.38564538e-02f, -4.87208366e-03f, 9.92631912e-03f, 2.58291960e-02f,
        1.24772154e-02f, 1.29126199e-02f, -2.59585828e-02f, -6.48887269e-03f, 2.96708755e-02f, 2.15342529e-02f, -2.29989551e-02f, 8.84175301e-04f,
        6.43057376e-03f, -1.15649067e-02f, -2.21320614e-02f, 2.69401930e-02f, -3.27269658e-02f, -1.29894540e-02f, -2.91861612e-02f, -2.48110350e-02f,
        4.76141786e-03f, 1.75034232e-03f, 1.95826124e-02f, 2.46817786e-02f, 1.26217874e-02f, -2.04293448e-02f, -1.30076703e-04f, -8.11356399e-03f,
        -9.19758901e-03f, -1.26040075e-02f, 1.15059540e-02f, 1.13776848e-02f, 1.13923550e-02f, -5.59301116e-03f, 2.95025110e-03f, -2.41090506e-02f,
        -1.33051351e-03f, 1.73666663e-02f, -3.14736031e-02f, 1.70620941e-02f, 3.08784805e-02f, 2.52544992e-02f, -3.16114016e-02f, -3.54246944e-02f,
        -5.35446312e-03f, 6.01870357e-04f, 1.10869482e-02f, -3.40024233e-02f, -3.48076336e-02f, 1.35394046e-03f, 8.69340915e-03f, -2.39984505e-02f,
        1.90076660e-02f, -3.95269096e-02f, -8.07221793e-03f, -1.05531383e-02f, 1.98558569e-02f, -2.38639042e-02f, 1.15811303e-02f, -3.37950513e-03f,
        1.92839727e-02f, 3.29624377e-02f, 1.21832639e-03f, 2.09175311e-02f, 1.99274346e-03f, -1.56368669e-02f, 2.35180557e-02f, 2.59505841e-03f,
        1.10614896e-02f, -2.67494339e-02f, -1.23785818e-02f, 1.16958786e-02f, -2.20794939e-02f, -3.10239326e-02f, -1.55108431e-02f, -7.51336105e-03f,
        -2.68768612e-02f, -3.23324129e-02f, 1.11912396e-02f, -1.28816087e-02f, 3.71346576e-03f, -9.74627025e-03f, -2.17409469e-02f, -4.01221737e-02f,
        2.04156991e-02f, -9.81585123e-03f, -6.24565175e-04f, -2.47160792e-02f, -3.03041991e-02f, 2.92835124e-02f, 2.07867064e-02f, 1.61735341e-03f,
        1.72977298e-02f, 7.80432299e-03f, 2.17682049e-02f, 2.23711226e-02f, -1.12857083e-02f, 1.60127282e-02f, 2.37954147e-02f, 1.45003421e-03f,
        2.33759452e-02f, 1.60754845e-03f, -4.13866714e-02f, 1.75120458e-02f, 1.36510609e-02f, 1.85710862e-02f, -5.87591622e-03f, -3.37900445e-02f,
        -2.25625914e-02f, -1.70126874e-02f, -3.89859453e-02f, -6.98640756e-03f, 2.07798127e-02f, -2.76063308e-02f, 1.13971746e-02f, -1.55974086e-02f,
        -2.66600028e-03f, -2.71381736e-02f, 2.02251263e-02f, 1.40040144e-02f, 5.43672219e-03f, -3.20771709e-03f, -8.84928554e-03f, 1.44121274e-02f,
        1.18469084e-02f, 2.66946293e-02f, -2.42305677e-02f, 2.78731203e-03f, 1.31671801e-02f, -3.15683968e-02f, -1.86403915e-02f, 5.70555124e-03f,
        -3.51827517e-02f, -5.04529383e-03f, -7.36997928e-03f, -1.73869208e-02f, -2.81610396e-02f, -9.50009911e-04f, 4.99725388e-03f, -3.75290476e-02f,
        -2.46533100e-02f, 1.03598069e-02f, -3.26948538e-02f, -7.18330266e-03f, -2.87594199e-02f, -2.77344789e-02f, -3.33579630e-03f, -3.02189812e-02f,
        -5.05460985e-03f, -1.10506639e-02f, 2.40441561e-02f, 1.65065750e-02f, -3.98412682e-02f, -9.94797237e-03f, -1.36655709e-02f, 1.99991893e-02f,
        4.68570134e-03f, -2.56102271e-02f, -3.03812642e-02f, -1.13508981e-02f, -4.12323475e-02f, -3.13408524e-02f, -1.70247164e-02f, 2.69892644e-02f,
        -3.74191292e-02f, 1.49362218e-02f, -3.54115702e-02f, 1.14469873e-02f, 1.68800503e-02f, -2.19483889e-04f, -1.57817248e-02f, -5.03613148e-03f,
        3.98352519e-02f, -2.03684233e-02f, 7.78264180e-03f, -3.45358178e-02f, 4.19714302e-03f, 1.56752989e-02f, -1.92619693e-02f, -1.74252968e-02f,
        2.47292444e-02f, -1.60938762e-02f, -3.09377965e-02f, -3.27563286e-02f, 1.96417905e-02f, -2.14872044e-02f, -1.35504398e-02f, -3.46122198e-02f,
        -1.53864140e-03f, -3.77962104e-04f, -1.39576159e-02f, -3.26373032e-03f, -2.77476460e-02f, 1.27474619e-02f, 1.59273390e-02f, -2.14543305e-02f,
        -2.39644833e-02f, -1.32728713e-02f, 2.63839420e-02f, -2.19143648e-02f, 4.04297821e-02f, 1.27760563e-02f, 6.20580465e-03f, 9.43630189e-03f,
        1.29657649e-02f, 3.07742469e-02f, -1.13892443e-02f, -3.58752534e-02f, 2.16775946e-02f, -1.27384756e-02f, 3.32227303e-03f, -3.66570130e-02f,
        2.42108852e-02f, 1.06564304e-03f, -2.54916791e-02f, -1.77519191e-02f, -3.11137997e-02f, -3.43995541e-02f, -1.54221496e-02f, -3.92729230e-02f,
        -4.04990911e-02f, -1.47390226e-02f, 4.15835250e-03f, -1.91511009e-02f, -9.62718681e-04f, -1.95711814e-02f, 1.27173238e-03f, -5.60707692e-03f,
        1.77866705e-02f, -7.35012954e-03f, -9.32190381e-03f, -1.91944633e-02f, -2.70131826e-02f, -5.29536232e-03f, 3.00286673e-02f, 1.48913451e-02f,
        -6.13622367e-03f, 9.18888766e-03f, -2.69985106e-02f, 2.54590269e-02f, -2.93314364e-02f, -1.21279145e-02f, -1.40585443e-02f, 1.31946206e-02f,
        -1.45725580e-03f, -4.00798917e-02f, -1.54128652e-02f, -3.59698422e-02f, -1.63445744e-04f, -2.45646480e-02f, -1.30264843e-02f, 6.27709366e-03f,
        1.25072459e-02f, 2.69122702e-05f, 2.60573830e-02f, -2.56957766e-02f, 4.17997316e-03f, 1.58404037e-02f, 3.30112390e-02f, -4.95547056e-03f,
        2.41254643e-03f, 2.28665471e-02f, -2.04852596e-03f, 3.27448286e-02f, -3.20479386e-02f, -2.21451167e-02f, 2.99908593e-03f, -2.70836279e-02f,
        2.20626518e-02f, -3.61366756e-02f, -2.88297199e-02f, -1.37816016e-02f, -1.37299849e-02f, -3.67062576e-02f, -9.67377797e-03f, -3.84837463e-02f,
        1.23162940e-02f, 1.07120611e-02f, -2.88668685e-02f, 7.16342544e-03f, -8.25429684e-04f, 1.54141048e-02f, 2.69952565e-02f, -2.42030174e-02f,
        3.06340121e-02f, -2.67592818e-03f, -1.90517232e-02f, 3.18316035e-02f, -2.41119321e-02f, 5.49685210e-03f, -1.13035571e-02f, 3.13070044e-03f,
        -1.08987466e-02f, 7.69655639e-03f, 4.85091330e-03f, -2.70591285e-02f, -3.55372429e-02f, -4.07975502e-02f, -2.20082011e-02f, 1.31101394e-02f,
        -3.51270400e-02f, -2.16258913e-02f, -3.10907029e-02f, 8.94208997e-03f, 2.03310978e-02f, -3.30898026e-03f, 4.81440919e-03f, -1.80961285e-03f,
        1.92511007e-02f, 2.38844492e-02f, 1.56606510e-02f, -2.96375658e-02f, 3.43120582e-02f, 1.83967128e-03f, 1.52821243e-02f, 1.44577324e-02f,
        1.27476379e-02f, -2.88372822e-02f, -9.42460634e-03f, -1.65052768e-02f, 1.29699381e-02f, 1.41706560e-02f, -2.51215752e-02f, -4.07038024e-03f,
        -1.05907619e-02f, -1.13274716e-02f, -3.13727707e-02f, -4.11235169e-02f, -4.36810218e-02f, -4.23146784e-02f, -3.76300663e-02f, 9.82512347e-03f,
        -3.82733648e-03f, -9.29290242e-03f, -3.70570607e-02f, 1.14166979e-02f, -3.94497700e-02f, -3.69908772e-02f, -4.09828275e-02f, -2.80349478e-02f,
        2.69679986e-02f, -1.91300176e-02f, 1.89707987e-02f, -1.85183939e-02f, 2.38922574e-02f, 1.76991485e-02f, 8.36290419e-03f, -2.95422897e-02f,
        1.32406726e-02f, 7.56745879e-03f, 1.80285610e-02f, -1.25975013e-02f, -1.19441273e-02f, 1.73035525e-02f, -3.29041667e-02f, 2.14364976e-02f,
        1.75837744e-02f, 1.05835544e-02f, 3.51589127e-03f, 2.31045354e-02f, -2.53851507e-02f, 1.26107095e-03f, 1.34347274e-03f, 1.23950085e-02f,
        1.37541359e-02f, 4.44537587e-03f, -3.86731252e-02f, -2.05526892e-02f, -8.75449181e-03f, -2.79064067e-02f, -1.40720364e-02f, -2.96017416e-02f,
        1.49966069e-02f, -4.29471210e-03f, -3.30206379e-03f, -4.96252999e-03f, 1.84685215e-02f, 1.33020971e-02f, -3.99672724e-02f, 5.75966621e-03f,
        -3.18763852e-02f, -1.74160656e-02f, -1.00576030e-02f, 2.50444692e-02f, -2.08892580e-02f, -4.07041460e-02f, -3.90503518e-02f, -3.61041203e-02f,
        7.64351524e-03f, -1.75697654e-02f, -1.13170706e-02f, -3.21060838e-03f, -9.60611645e-03f, -5.66465175e-03f, -1.38229039e-02f, -1.45264976e-02f,
        -2.75281966e-02f, -1.18905362e-02f, -3.05856783e-02f, 1.11014023e-02f, 6.60866499e-06f, -1.00132450e-03f, 1.12904608e-02f, 7.71554559e-03f,
        -3.19755152e-02f, -2.72744782e-02f, 9.78417415e-03f, -5.91909420e-03f, -7.97585864e-03f, -1.78113375e-02f, -1.10390084e-02f, 1.80131048e-02f,
        2.24420652e-02f, -2.37995759e-02f, 1.70427095e-02f, -3.96083035e-02f, -2.41352487e-02f, 5.73543180e-03f, 2.53155008e-02f, 3.63519066e-03f,
        2.55093966e-02f, -4.12979163e-02f, -1.18076401e-02f, -2.39485353e-02f, -2.99861878e-02f, -2.52882335e-02f, 1.63425803e-02f, 4.21569124e-03f,
        8.62675905e-03f, -1.72615051e-03f, -1.14697181e-02f, 1.17271766e-02f, 7.21505657e-03f, -2.34473832e-02f, -1.73074305e-02f, -6.03662524e-03f,
        3.98986302e-02f, 2.23796088e-02f, 2.11662464e-02f, -3.76382172e-02f, -3.67146917e-02f, -3.20958868e-02f, -1.32509274e-02f, -9.38195083e-03f,
        -5.21906232e-03f, -1.07488083e-02f, 7.60447420e-03f, -2.60556117e-04f, 6.83993753e-03f, -1.90811083e-02f, -3.56675200e-02f, 3.08875926e-02f,
        3.33430432e-02f, -8.93999822e-03f, -2.73514148e-02f, 2.70596184e-02f, -1.32163130e-02f, 8.37428123e-03f, -3.11976168e-02f, -1.60231218e-02f,
        3.04358453e-03f, 2.34477967e-03f, 3.85730453e-02f, -9.00063943e-03f, 7.01098377e-03f, -1.94304846e-02f, 2.93038297e-03f, 1.97366555e-03f,
        1.75233614e-02f, -3.14638354e-02f, -2.95375325e-02f, -3.54031324e-02f, 2.00453011e-04f, -7.83003401e-03f, 2.55926289e-02f, -2.11635809e-02f,
        2.49310210e-02f, -7.48371892e-03f, -2.32688542e-02f, 2.08622254e-02f, 2.55966671e-02f, -1.33663043e-02f, 9.20799002e-03f, 3.23218070e-02f,
        -1.36253610e-03f, -4.17232513e-06f, 2.24277191e-02f, 3.37202363e-02f, 3.41894664e-02f, 1.75357237e-03f, 1.37788814e-03f, 5.79293538e-03f,
        -6.33723568e-03f, 1.28146578e-02f, -4.35247906e-02f, -9.08122514e-04f, 1.88285043e-03f, -7.25438399e-03f, -3.84921357e-02f, 6.85645454e-03f,
        -2.91177840e-03f, -4.16445993e-02f, -7.39958091e-03f, -2.16410235e-02f, 1.05074106e-03f, -2.55790781e-02f, 2.36545019e-02f, -8.05653911e-03f,
        3.25303040e-02f, -3.10684107e-02f, -2.28383243e-02f, -8.12858343e-04f, 2.60096043e-02f, -3.56916413e-02f, 5.59874997e-03f, -1.72963701e-02f,
        -1.36461128e-02f, -3.06907669e-03f, 2.07850337e-02f, -1.48676652e-02f, 8.34170636e-03f, -3.56151983e-02f, -1.78265981e-02f, 8.95329844e-03f,
        -7.64021417e-03f, -1.53570147e-02f, 1.49078183e-02f, 1.95874367e-02f, -3.55693847e-02f, -1.98626295e-02f, -3.73019874e-02f, -2.69298833e-02f,
        2.36911476e-02f, -2.76550092e-02f, 2.16653030e-02f, -3.58492252e-03f, -2.99018417e-02f, 2.66015865e-02f, 1.53375566e-02f, -3.23793739e-02f,
        5.18577918e-03f, -3.29219066e-02f, 1.83031633e-02f, 2.73093693e-02f, -1.89428292e-02f, -3.06195039e-02f, 1.40387928e-02f, -1.24011561e-03f,
        -3.63686271e-02f, -2.30257064e-02f, -5.95523464e-03f, -1.91582292e-02f, -1.34092066e-02f, -3.42461951e-02f, 8.74970295e-03f, 1.80121027e-02f,
        -2.14953441e-02f, -4.14819792e-02f, 5.24878921e-03f, -4.63351561e-03f, -3.25820372e-02f, 2.38043778e-02f, 2.43290160e-02f, 1.40279476e-02f,
        1.89438481e-02f, -9.76424664e-03f, 2.55798884e-02f, -5.48860803e-03f, -9.62344371e-03f, -1.12969410e-02f, -1.07229613e-02f, 2.45472081e-02f,
        -2.86284741e-02f, -2.60913260e-02f, 5.71777578e-03f, 2.40090070e-03f, 1.94974081e-03f, -1.08247623e-03f, 3.48714851e-02f, 6.88649761e-03f,
        -8.98169074e-03f, 2.45800950e-02f, 5.82920806e-03f, -3.30306552e-02f, 5.70298918e-03f, -2.01042946e-02f, -1.84889603e-02f, -2.33606827e-02f,
        -1.56453494e-02f, -1.21011422e-03f, -2.68945713e-02f, -2.20800396e-02f, -1.67608056e-02f, -3.41897458e-03f, -1.18326806e-02f, 1.34170055e-04f,
        -4.24249098e-03f, -1.75854098e-02f, 3.41556631e-02f, 2.91185044e-02f, 1.34105757e-02f, -1.02904998e-02f, -5.16221859e-03f, 2.53837928e-02f,
        -3.26604024e-02f, 1.39083862e-02f, -2.03793198e-02f, 2.26276666e-02f, -2.34317109e-02f, 3.54831922e-03f, -1.65742915e-02f, 2.47108601e-02f,
        2.50165630e-02f, -4.12790142e-02f, -2.72943433e-02f, -3.77367698e-02f, 1.96817573e-02f, -2.20867014e-03f, -2.46811528e-02f, -5.26896492e-03f,
        1.62363648e-02f, 2.64677219e-02f, 2.55049951e-02f, 3.39878239e-02f, -1.85112916e-02f, -1.56144165e-02f, 1.12594441e-02f, -2.87986845e-02f,
        1.82685964e-02f, 3.19456793e-02f, -3.15199047e-02f, -3.15216966e-02f, 2.14659981e-02f, -2.37129778e-02f, 1.31730400e-02f, 2.01378465e-02f,
        1.31006278e-02f, 3.88309639e-03f, 7.47165130e-03f, -4.69449768e-03f, 2.48271748e-02f, 3.51640694e-02f, 3.42740007e-02f, -5.34195453e-04f,
        6.71920925e-03f, 9.67296213e-03f, 1.44316927e-02f, -2.53039189e-02f, -8.19093920e-03f, -8.52856040e-03f, 2.31070109e-02f, -8.68194923e-03f,
        3.12088542e-02f, -1.22206006e-02f, -1.76066849e-02f, -3.32363620e-02f, 5.75711578e-03f, 7.01642409e-03f, -2.43104398e-02f, -1.07732210e-02f,
        3.62725928e-03f, 2.52452902e-02f, -1.89092718e-02f, -1.55570041e-02f, -3.02786026e-02f, -1.93793867e-02f, -8.46340880e-03f, -1.70773547e-02f,
        -3.41045037e-02f, -7.73872621e-03f, 2.79114060e-02f, 8.09587538e-03f, 3.33247595e-02f, 2.07369439e-02f, 2.09606737e-02f, 9.09287483e-04f,
        2.97393650e-04f, -2.42955443e-02f, -3.52072418e-02f, 6.94329292e-03f, 1.95886642e-02f, -2.72805914e-02f, -2.12672409e-02f, 2.10128948e-02f,
        1.77219696e-02f, -3.00923437e-02f, -3.12680900e-02f, 1.26613379e-02f, 6.88577443e-03f, -2.50778496e-02f, -2.59515643e-03f, 3.13484706e-02f,
        2.33799219e-04f, 9.68243927e-03f, 1.43649168e-02f, -6.82512298e-03f, 1.48735978e-02f, -3.05992924e-02f, -7.08764419e-03f, 4.54064831e-03f,
        -3.11631113e-02f, -2.66437232e-02f, -2.31081434e-02f, 5.58843836e-03f, -1.68694947e-02f, 8.52987915e-03f, 3.15085314e-02f, -6.52934052e-03f,
    },
    {
        2.62149051e-03f, -2.44896170e-02f, -3.44377272e-02f, -2.20946725e-02f, 3.32461931e-02f, 1.24519691e-02f, 2.99680866e-02f, -1.71710514e-02f,
        -2.17375159e-03f, -3.52586471e-02f, -3.33785266e-02f, 3.45995538e-02f, 4.98888008e-02f, 5.07787131e-02f, -3.26173827e-02f, -2.04639658e-02f,
        -1.72144435e-02f, 1.58212818e-02f, -2.84191091e-02f, 8.76735151e-03f, 1.33975707e-02f, -1.64230466e-02f, 2.16419250e-03f, -2.46373806e-02f,
        -3.75512987e-04f, 1.74396634e-02f, -2.35355273e-03f, 7.20187277e-03f, 1.92082785e-02f, -4.29270416e-03f, -2.49086916e-02f, 1.56426169e-02f,
        9.11856592e-02f, 1.72941491e-01f, 2.83128083e-01f, 3.11290264e-01f, 2.91860133e-01f, 2.17074275e-01f, 2.20792815e-01f, 1.78738311e-01f,
        3.30340147e-01f, 6.51157975e-01f, 6.11583054e-01f, 5.09468853e-01f, 6.84142828e-01f, 5.88102400e-01f, 4.61470246e-01f, 2.61646837e-01f,
        1.49509102e-01f, 3.98844518e-02f, 2.00336240e-02f, 2.61554606e-02f, 1.49899349e-03f, -1.98645480e-02f, 1.06269121e-03f, 1.33523010e-02f,
        2.31781602e-02f, 1.35337375e-02f, 1.18375257e-01f, 1.03816725e-02f, 2.15298906e-01f, 1.23020127e-01f, 1.49861261e-01f, 4.02528971e-01f,
        -1.42201446e-02f, -2.13458210e-01f, -1.44822091e-01f, 4.25769687e-02f, -4.23391759e-02f, 4.01040435e-01f, 1.73344880e-01f, 4.10835326e-01f,
        6.18529618e-01f, 5.39889693e-01f, 6.63491607e-01f, 5.89632809e-01f, 4.54439431e-01f, 8.38493928e-02f, 1.00501984e-01f, 2.39983927e-02f,
        1.56303458e-02f, -2.87683867e-02f, -2.91975699e-02f, 3.55556868e-02f, -2.24442631e-02f, -3.14134359e-02f, 1.95639536e-01f, 1.24151319e-01f,
        2.16236472e-01f, 2.26117253e-01f, 2.08831698e-01f, 8.09091404e-02f, 1.69439211e-01f, 5.41634439e-03f, -6.31403103e-02f, -5.68283089e-02f,
        -6.70858324e-02f, 1.58046812e-01f, 3.11989337e-01f, 3.17588568e-01f, 2.43661687e-01f, 1.86249673e-01f, 1.86196938e-01f, 4.42397684e-01f,
        3.38786870e-01f, 8.34598690e-02f, -1.37657747e-01f, -2.10315973e-01f, -1.17727369e-01f, -7.83357844e-02f, 5.20932376e-02f, 2.51426697e-02f,
        -3.52422073e-02f, 2.57291384e-02f, 1.56457707e-01f, 3.86888832e-01f, 2.46671438e-01f, 3.50998789e-01f, -6.88873157e-02f, -2.43601039e-01f,
        1.88046664e-01f, 2.11676896e-01f, 2.89941430e-01f, 1.10339373e-01f, 3.18024643e-02f, -4.05369289e-02f, 6.54742047e-02f, 2.43796691e-01f,
        9.67493579e-02f, 1.10675683e-02f, -4.37834440e-03f, -7.49172568e-02f, -4.14366685e-02f, 3.19070429e-01f, 3.37995470e-01f, 2.96302810e-02f,
        -2.01864287e-01f, 2.39214823e-02f, 7.66967088e-02f, 1.19297765e-02f, 2.75709741e-02f, 3.18944417e-02f, 1.40937969e-01f, -4.06996645e-02f,
        -2.13971213e-01f, 1.93667516e-01f, 5.30513003e-02f, 2.04474516e-02f, 1.44788608e-01f, 1.97000086e-01f, 8.31567645e-02f, 9.24905017e-03f,
        -1.50245652e-02f, 6.32663518e-02f, 1.16603281e-02f, 1.38082400e-01f, 9.07847062e-02f, 6.04043677e-02f, 1.40715957e-01f, 2.83800125e-01f,
        3.82245332e-02f, 1.37077048e-02f, 2.04753220e-01f, 2.28381276e-01f, -1.66427895e-01f, -2.26154119e-01f, -6.20337687e-02f, 4.35952842e-02f,
        -1.89811941e-02f, 1.60751175e-02f, -2.76839048e-01f, -1.85635999e-01f, 1.10230204e-02f, 1.44553259e-01f, -1.10326847e-02f, 4.05893475e-02f,
        2.64389627e-02f, -1.19743412e-02f, 9.34681073e-02f, 2.15025023e-02f, -8.15883130e-02f, -4.51602824e-02f, -5.42810885e-03f, 1.69948131e-01f,
        2.06055492e-01f, 1.74512818e-01f, 2.17301175e-01f, 2.65429467e-01f, 1.30374968e-01f, 9.38290916e-03f, 9.42183509e-02f, 2.69849095e-02f,
        1.29817963e-01f, 1.64216116e-01f, 1.68717071e-01f, 4.30843011e-02f, 1.03933224e-02f, 1.13742121e-01f, -2.00941861e-01f, -1.93434775e-01f,
        -2.21071150e-02f, 1.43252835e-01f, 2.08059922e-02f, -3.16902548e-02f, -1.42653510e-01f, -1.43905589e-03f, 1.36744127e-01f, 8.77687782e-02f,
        3.07272412e-02f, -1.38683403e-02f, 1.93802819e-01f, 1.74479365e-01f, 2.79068708e-01f, 1.90764725e-01f, 2.01914176e-01f, 2.26540759e-01f,
        2.52938122e-01f, 6.62444159e-02f, -4.74426411e-02f, -1.61327064e-01f, 1.08181320e-01f, 2.55973279e-01f, 3.69573921e-01f, 3.93419825e-02f,
        4.05180529e-02f, 1.40244350e-01f, -9.39699784e-02f, -1.15753755e-01f, -2.44424507e-01f, -1.66619435e-01f, -1.67498633e-01f, -1.37563601e-01f,
        -4.41023856e-02f, 9.14574862e-02f, -3.40378378e-03f, -3.01240273e-02f, 8.04984272e-02f, 5.12733459e-02f, 1.09381080e-01f, 1.56890333e-01f,
        9.12611783e-02f, -2.80937608e-02f, -5.05414493e-02f, -7.52431527e-02f, -6.34737089e-02f, -4.90624830e-02f, -1.49263993e-01f, -3.43801647e-01f,
        -1.93562403e-01f, -1.15075551e-01f, 4.53746319e-01f, 2.66068857e-02f, 8.26321021e-02f, 1.81185558e-01f, -1.32611260e-01f, 7.64585510e-02f,
        1.29806474e-01f, -1.98314935e-01f, 1.12818001e-04f, 7.18308091e-02f, 2.85492428e-02f, 6.91459030e-02f, -7.55326748e-02f, 5.54463677e-02f,
        1.95920795e-01f, 1.87695101e-01f, 3.12432670e-03f, -2.44942874e-01f, -3.57028693e-01f, -3.59054357e-01f, -3.50803107e-01f, -3.75013530e-01f,
        -2.29487479e-01f, -2.97605515e-01f, -2.54231870e-01f, -4.89365369e-01f, -2.63700724e-01f, -8.66040587e-02f, 3.14926445e-01f, 2.20165402e-01f,
        9.11387950e-02f, 1.48856103e-01f, -1.74075738e-02f, 2.64841914e-01f, 2.35051326e-02f, -1.73294291e-01f, -1.26044050e-01f, -2.87979674e-02f,
        -5.78305032e-03f, 5.86828254e-02f, 4.02970724e-02f, 1.53231636e-01f, 1.24962054e-01f, 8.25960841e-03f, -3.10388058e-01f, -2.69721448e-01f,
        -3.25588852e-01f, -3.04149985e-01f, -4.79831815e-01f, -3.05930853e-01f, -2.73681968e-01f, -4.31942612e-01f, -5.12259126e-01f, -6.99096560e-01f,
        -4.74943966e-01f, -1.81585461e-01f, 2.43053332e-01f, 3.04031640e-01f, 1.17372788e-01f, 2.00339884e-01f, 3.28206539e-01f, 5.53646013e-02f,
        -3.34784016e-02f, 1.07942773e-02f, -1.39317229e-01f, -2.54276067e-01f, -8.77739117e-02f, 4.10853475e-02f, 1.63397521e-01f, -2.71915402e-02f,
        -9.68830064e-02f, -2.26603776e-01f, -2.25990042e-01f, -1.95616201e-01f, -9.40329432e-02f, -1.03619263e-01f, -1.06173150e-01f, -2.27776498e-01f,
        -2.26066872e-01f, -3.61443996e-01f, -5.31297445e-01f, -4.67884779e-01f, -4.60303098e-01f, -3.74600619e-01f, 1.67023063e-01f, 2.74754792e-01f,
        1.12845816e-01f, 1.16066515e-01f, 9.82063934e-02f, -2.97639400e-01f, -1.93954393e-01f, 6.13289103e-02f, 8.18948820e-02f, -6.11630455e-02f,
        2.42690183e-02f, 2.17364088e-01f, 1.76370949e-01f, -3.92345525e-02f, -2.09055468e-01f, -2.47606233e-01f, -7.32544288e-02f, -7.67321438e-02f,
        -2.70402133e-02f, -1.03084043e-01f, 5.80389835e-02f, -1.47082165e-01f, -5.50181530e-02f, -1.28810585e-01f, -6.07623607e-02f, -6.19058833e-02f,
        -3.98025215e-01f, -3.84744287e-01f, 1.56802252e-01f, 2.83070832e-01f, -1.42386854e-02f, -3.77040766e-02f, 1.38300806e-01f, -2.70405948e-01f,
        -3.22510265e-02f, 6.00342453e-02f, 1.17204987e-01f, -3.18031348e-02f, 5.91892302e-02f, 8.79287347e-02f, -7.88469706e-03f, -1.97466910e-01f,
        -1.24740586e-01f, -2.15648532e-01f, 3.63330059e-02f, 7.68253654e-02f, 2.00209469e-02f, -8.65740031e-02f, -1.21849738e-01f, -3.83098144e-04f,
        -9.49139223e-02f, -1.04352102e-01f, -6.79701120e-02f, 4.71030325e-02f, 2.82530636e-02f, -4.49449867e-01f, -1.06229521e-01f, 1.97656527e-02f,
        2.08576918e-01f, 1.61589369e-01f, 3.46130222e-01f, -2.45992050e-01f, 5.08653931e-02f, -1.19702704e-01f, -2.19319046e-01f, -1.78675756e-01f,
        1.14562549e-01f, 8.34175870e-02f, 1.29381679e-02f, -2.17191800e-01f, -1.12943873e-01f, -2.53369864e-02f, 9.16738734e-02f, 2.27327183e-01f,
        1.04568124e-01f, -1.80833302e-02f, 2.27418710e-02f, -6.06670715e-02f, 4.57445495e-02f, 6.30909950e-02f, 3.96181881e-01f, 4.85014141e-01f,
        5.04757464e-01f, -3.32013547e-01f, -3.11494172e-01f, -2.05700114e-01f, 1.57323629e-01f, 1.59422308e-01f, 2.08372295e-01f, -2.07643658e-01f,
        4.23190780e-02f, 7.81854168e-02f, -3.47305655e-01f, -2.97329068e-01f, -5.66077232e-02f, 4.65060920e-02f, 6.56476691e-02f, -6.96036220e-02f,
        -6.59126043e-02f, -3.17752324e-02f, 8.83069634e-03f, 8.14257562e-02f, 3.93331330e-03f, -3.45038287e-02f, 1.38638511e-01f, -7.33926594e-02f,
        -4.05202247e-03f, 1.78621382e-01f, 3.87925744e-01f, 3.36938649e-01f, 3.21336389e-01f, -2.68380642e-01f, -1.51765458e-02f, -1.42739832e-01f,
        8.71878117e-03f, 1.36342362e-01f, 1.88175678e-01f, 1.41973466e-01f, 3.12386174e-02f, 1.97736360e-02f, -3.40712041e-01f, -2.57178009e-01f,
        -1.20127417e-01f, -8.18938091e-02f, -1.19483612e-01f, -3.28037664e-02f, -1.22131459e-01f, -2.09789947e-01f, -5.75116575e-02f, 3.94186750e-02f,
        -7.40597174e-02f, -1.93032697e-02f, 4.15814146e-02f, -4.04299498e-02f, -1.93554997e-01f, 1.77776013e-02f, 2.90759325e-01f, 1.36430874e-01f,
        2.13961631e-01f, -3.77909869e-01f, -5.44709623e-01f, -1.64692700e-01f, -9.06940922e-03f, 8.23279172e-02f, 2.52564177e-02f, 2.41412759e-01f,
        -2.27604419e-01f, -1.30908996e-01f, -1.86676055e-01f, -5.65700158e-02f, -2.98217237e-02f, -2.85860479e-01f, -2.92679936e-01f, -1.74722254e-01f,
        -2.75644720e-01f, -3.12390596e-01f, -7.96254203e-02f, 7.73960873e-02f, -1.24292158e-01f, -1.13295324e-01f, -4.99016792e-02f, -1.23045938e-02f,
        -6.03763275e-02f, 1.46053210e-01f, 2.95198083e-01f, 1.19940318e-01f, 2.23112404e-01f, -5.43009222e-01f, -4.04205829e-01f, -3.09051633e-01f,
        2.55593401e-03f, 2.08022147e-02f, 5.09260334e-02f, 4.22939867e-01f, -8.43699053e-02f, -3.64407115e-02f, -5.76619022e-02f, -6.88280836e-02f,
        -1.19799152e-01f, -3.03718060e-01f, -3.46375495e-01f, -2.34158218e-01f, -3.44164461e-01f, -3.92473221e-01f, -1.41041160e-01f, 3.92409042e-02f,
        1.27225444e-01f, 8.73604417e-02f, -6.64072111e-02f, 4.72717546e-02f, 1.69629022e-01f, 2.74134427e-01f, 2.79821128e-01f, 2.04594865e-01f,
        2.95825228e-02f, -4.42489207e-01f, -4.46934432e-01f, -4.07625884e-01f, 1.33298337e-02f, 1.30427346e-01f, 7.07926601e-02f, 5.32678604e-01f,
        1.51497185e-01f, 1.45152643e-01f, 4.39117942e-03f, -8.73811990e-02f, 3.47690511e-04f, -5.15305251e-02f, -1.35299161e-01f, -3.30925770e-02f,
        -1.20498538e-01f, -5.01400888e-01f, -1.84792429e-01f, 1.04000404e-01f, 1.08120978e-01f, 1.73450075e-02f, 2.91280039e-02f, 1.16744921e-01f,
        3.10775995e-01f, 2.70239830e-01f, 2.63977379e-01f, 3.96997958e-01f, 3.49750102e-01f, -1.40557811e-01f, -4.63217944e-01f, -2.69274682e-01f,
        8.31940025e-03f, 5.57683520e-02f, -3.02901510e-02f, 3.95589679e-01f, 2.58713841e-01f, 4.63576801e-02f, -3.51853557e-02f, 4.39778939e-02f,
        1.35612458e-01f, 2.00889453e-01f, 4.26356569e-02f, 4.13168445e-02f, -1.53449506e-01f, -1.72225296e-01f, -5.74049391e-02f, 1.43434882e-01f,
        5.98013103e-02f, 1.58339441e-01f, 2.51000404e-01f, 2.89858937e-01f, 2.74221510e-01f, 1.96984962e-01f, 2.65057355e-01f, 1.60698175e-01f,
        2.56235003e-01f, -5.29664792e-02f, -4.27957535e-01f, 1.25051858e-02f, -2.92754695e-02f, 9.19632092e-02f, -2.80009303e-02f, 1.66173965e-01f,
        3.04597974e-01f, 1.68250978e-01f, 1.18217662e-01f, 1.58184350e-01f, 1.97475195e-01f, 5.98933967e-03f, 4.89607081e-02f, 7.61417523e-02f,
        1.39122292e-01f, 4.90695834e-02f, 1.29023775e-01f, 1.58070415e-01f, 7.76774287e-02f, -7.83953164e-03f, 2.14887232e-01f, 2.54886091e-01f,
        2.09449619e-01f, 1.90302253e-01f, 1.45197496e-01f, -1.19725488e-01f, 3.50244492e-02f, -3.82175386e-01f, -3.05212915e-01f, 6.18208572e-02f,
        7.06427544e-03f, 1.14508323e-01f, -2.17710659e-01f, -1.38119847e-01f, 1.61346376e-01f, 2.11324304e-01f, 5.22810742e-02f, -4.78590876e-02f,
        7.79566765e-02f, -7.67465234e-02f, -4.84594963e-02f, 2.36241752e-03f, 5.79746906e-03f, 9.85411629e-02f, 7.22724870e-02f, 1.15749143e-01f,
        8.67702588e-02f, 7.35607743e-02f, 1.98689416e-01f, 2.97561467e-01f, 2.72808522e-01f, 1.91272914e-01f, 1.25433624e-01f, 3.12600881e-02f,
        -3.27088267e-01f, -1.59275219e-01f, -1.37429804e-01f, 6.07436784e-02f, -1.31876040e-02f, 2.50694454e-02f, 1.39470533e-01f, 7.18371943e-02f,
        -3.45190242e-02f, -3.09067778e-03f, 1.93800673e-01f, 1.14298232e-01f, -2.49692220e-02f, 3.12568583e-02f, 2.97821052e-02f, -2.00371500e-02f,
        -5.93502633e-02f, 5.40402941e-02f, 1.75859466e-01f, 1.62990049e-01f, 6.95519522e-02f, 1.87169045e-01f, 2.35764936e-01f, 1.61972269e-01f,
        4.51089069e-02f, -1.02161333e-01f, -3.83346200e-01f, -3.71255219e-01f, -1.65350810e-01f, -1.63084194e-01f, 9.32804681e-03f, 3.02369632e-02f,
        -1.78659186e-02f, 1.56910792e-02f, 2.02919357e-02f, 3.19327652e-01f, 1.35793954e-01f, -1.76700875e-01f, -2.49776579e-02f, 2.82120496e-01f,
        7.59688392e-02f, 6.75409734e-02f, 1.49958283e-01f, 1.70741230e-02f, 1.75115429e-02f, 1.08309358e-01f, 7.52694160e-02f, 1.79815605e-01f,
