#include "PerceptronData.h"

const float g_perceptron_weights[PERCEPTRON_CLASS_COUNT][PERCEPTRON_INPUT_SIZE] = {
    {
        1.83949508e-02f, -2.07286328e-04f, 7.28688017e-03f, 5.66149503e-03f, -2.09313426e-02f, -9.14182514e-03f, -2.84167789e-02f, 1.16015412e-02f,
        -1.25782024e-02f, -8.15919973e-03f, 3.07105444e-02f, 3.51389758e-02f, 2.18044966e-02f, 2.14622803e-02f, -1.08785359e-02f, 2.40590853e-05f,
        2.60617957e-02f, -1.71542987e-02f, 2.30950750e-02f, 3.06385793e-02f, 3.16694491e-02f, -9.85853374e-04f, 2.71569304e-02f, 5.89201227e-03f,
        1.64158493e-02f, 2.29611993e-03f, -1.04478430e-02f, -3.39863673e-02f, 2.83652805e-02f, 7.63153285e-03f, -1.93844102e-02f, 2.87676789e-02f,
        -1.97301283e-02f, 7.45651405e-03f, 8.74784589e-03f, -3.28496769e-02f, 9.71133541e-03f, -3.24468501e-02f, 3.59940249e-03f, -1.86800286e-02f,
        -1.33857867e-02f, 1.80602074e-02f, -8.42352398e-03f, 2.25315224e-02f, 3.39455134e-03f, 5.14670787e-03f, -1.55032557e-02f, -3.11486386e-02f,
        9.29162197e-04f, 2.82374467e-03f, -1.14008654e-02f, -2.46308036e-02f, -2.02528033e-02f, 1.84599459e-02f, -3.01998481e-03f, 3.87049466e-03f,
        -3.41972522e-02f, -2.31684074e-02f, -2.20258744e-03f, -2.18398608e-02f, -1.85468588e-02f, 2.80079469e-02f, -1.29463803e-02f, 2.39369590e-02f,
        -2.92034764e-02f, -2.01791301e-02f, -2.44138073e-02f, -3.39399627e-03f, -4.89520058e-02f, -4.33313809e-02f, -2.24567149e-02f, -7.30091855e-02f,
        -4.37612943e-02f, -2.31932066e-02f, -5.56136146e-02f, 1.08954972e-02f, -4.10494842e-02f, -1.80327017e-02f, 2.48098336e-02f, 2.98884064e-02f,
        -4.39935084e-03f, -2.12736130e-02f, -1.58070419e-02f, 5.26409596e-04f, 1.42498352e-02f, -2.23204046e-02f, 3.28477062e-02f, -2.60164011e-02f,
        -3.51137035e-02f, -3.01012583e-02f, -4.31006551e-02f, -5.42289391e-02f, -2.27263924e-02f, -5.71165495e-02f, -5.91836609e-02f, -5.21658640e-03f,
        -4.43157740e-02f, 1.66856851e-02f, -5.33372983e-02f, -3.77319418e-02f, -4.62813042e-02f, -4.01742794e-02f, -1.31982908e-01f, -1.12598427e-01f,
        -4.78939526e-02f, -9.19619575e-02f, -3.23943794e-02f, -4.08295952e-02f, -4.26276699e-02f, -3.62883881e-02f, -2.03315597e-02f, -1.96056962e-02f,
        -3.51678580e-02f, -2.11140532e-02f, 2.12364420e-02f, 5.30104619e-03f, -1.38402320e-02f, -4.97528464e-02f, -4.26576547e-02f, -1.02748601e-02f,
        -3.20861526e-02f, -2.12091096e-02f, 7.29473401e-03f, -1.89718828e-02f, -4.88660894e-02f, -1.48387514e-02f, -3.37907597e-02f, -4.47191484e-03f,
        -1.94123965e-02f, -7.32396450e-03f, -5.39648421e-02f, -7.35446364e-02f, -8.87640640e-02f, -6.22670390e-02f, -5.59854507e-02f, -6.67749345e-02f,
        -3.73150669e-02f, -1.34280901e-02f, 2.55672429e-02f, -6.85653137e-03f, -3.11530326e-02f, 3.39303128e-02f, -3.35581228e-02f, 2.48351358e-02f,
        -4.36992869e-02f, -2.56051961e-02f, -5.86667731e-02f, -3.87489013e-02f, -3.66302058e-02f, -1.94065422e-02f, 3.82040627e-02f, 1.19211096e-02f,
        -4.11234610e-03f, 1.25219911e-01f, 1.84610695e-01f, 1.68166712e-01f, 1.38885245e-01f, 1.68231517e-01f, 1.70019180e-01f, 3.16781104e-02f,
        1.54595021e-02f, -7.25043123e-04f, -4.01863530e-02f, -5.89514636e-02f, -7.63025507e-02f, -7.56192282e-02f, -3.93726490e-02f, -2.75552385e-02f,
        1.28704906e-02f, 1.24863097e-02f, 4.25790343e-03f, -3.26763429e-02f, -2.01398097e-02f, -4.46310826e-02f, -5.76668009e-02f, -4.02455144e-02f,
        -6.76301941e-02f, -1.13982484e-01f, -1.72807705e-02f, 5.55847995e-02f, -1.54658686e-03f, 1.45222276e-01f, 9.70425606e-02f, 6.97933137e-02f,
        1.75646946e-01f, 1.94274321e-01f, 1.89676881e-01f, 1.44155622e-01f, 5.92774712e-02f, 1.46593422e-01f, 1.17040023e-01f, -2.74964515e-02f,
        -1.29621595e-01f, -8.20600167e-02f, -6.35970803e-03f, -2.69476324e-02f, -6.01183530e-03f, 2.51677521e-02f, 1.86255365e-03f, 1.01390788e-02f,
        -2.55252398e-05f, -2.86243856e-03f, -3.65371816e-02f, -7.06460625e-02f, -1.22429565e-01f, -2.81750951e-02f, 1.05036302e-02f, 3.62729877e-02f,
        3.19571346e-02f, 5.57780787e-02f, 7.10559860e-02f, 1.01907328e-01f, 1.43615335e-01f, 2.07262069e-01f, 2.15898454e-01f, 1.34331867e-01f,
        3.34567316e-02f, 9.23828408e-02f, 1.42138243e-01f, 7.63545930e-02f, -1.22112371e-01f, -1.18305311e-01f, -3.89813352e-03f, -9.08663031e-03f,
        3.06384396e-02f, 2.21707113e-02f, 8.46006349e-03f, 3.97644052e-03f, -4.03168537e-02f, -5.76274805e-02f, -3.82575728e-02f, -8.96940380e-02f,
        -6.41899183e-02f, 1.06934933e-02f, 2.00763308e-02f, 1.42634846e-02f, 7.44328201e-02f, 6.92957565e-02f, 9.13420990e-02f, 1.93265393e-01f,
        2.63975799e-01f, 2.35924482e-01f, 1.87271759e-01f, 8.21642652e-02f, 6.58766404e-02f, 6.99952319e-02f, 1.41992867e-01f, 1.90396875e-01f,
        1.67687815e-02f, -8.99368450e-02f, -5.36648221e-02f, -3.44447382e-02f, -2.41718087e-02f, 2.23782379e-02f, -1.99121214e-03f, -3.63952555e-02f,
        -2.58350018e-02f, -4.57564443e-02f, -6.04106896e-02f, -5.30667454e-02f, -3.43351662e-02f, 3.85605497e-03f, 2.51959264e-02f, -3.98402251e-02f,
        1.81342550e-02f, 1.08283550e-01f, 9.66221541e-02f, 7.46639399e-03f, 1.57453299e-01f, 2.20178023e-01f, 2.56375462e-01f, 2.01573461e-01f,
        8.22464153e-02f, 3.30554396e-02f, 1.31194592e-01f, 2.61965007e-01f, 6.79055452e-02f, -1.33585319e-01f, -1.51796890e-02f, 5.54153137e-03f,
        -4.87864856e-03f, 2.69539040e-02f, -4.14203759e-03f, 2.42948048e-02f, -2.57787034e-02f, -1.62769221e-02f, -8.06761757e-02f, -7.76684284e-02f,
        -2.03050356e-02f, 1.73388887e-02f, -7.49308467e-02f, 3.35696489e-02f, 8.50230083e-03f, 6.23124316e-02f, -3.24568227e-02f, -1.10214822e-01f,
        -6.44245893e-02f, 1.47249743e-01f, 2.06851289e-01f, 1.24272443e-01f, 1.08796597e-01f, 5.12265153e-02f, 1.90503284e-01f, 2.70088613e-01f,
        1.50084049e-01f, -9.28681046e-02f, -7.12944046e-02f, 2.68961005e-02f, 9.98928770e-03f, -1.65881179e-02f, 1.99029744e-02f, -2.00844426e-02f,
        -7.04828203e-02f, -1.03137821e-01f, -8.77920073e-03f, -1.40154548e-02f, 9.30071226e-04f, -4.12523672e-02f, -3.60356048e-02f, -1.23852352e-02f,
        -2.57642027e-02f, -6.49829581e-02f, -3.07636172e-01f, -4.23418760e-01f, -3.77765507e-01f, -1.36386484e-01f, 3.62689421e-02f, 8.89184326e-02f,
        1.27230719e-01f, 1.86125562e-01f, 2.59424925e-01f, 3.21747720e-01f, 1.76644757e-01f, -5.98659180e-02f, -4.33344319e-02f, 4.90426924e-03f,
        3.13409530e-02f, -7.43947132e-03f, -3.35928686e-02f, -3.83704454e-02f, -5.84291704e-02f, -3.33962180e-02f, 1.09312758e-01f, 4.29708995e-02f,
        1.40736327e-02f, -2.18312759e-02f, 4.44598459e-02f, 2.39939592e-03f, 4.18776534e-02f, -1.16297632e-01f, -4.18912381e-01f, -6.11590743e-01f,
        -5.47244012e-01f, -1.94934726e-01f, -5.54236323e-02f, 1.46959769e-02f, 3.76836136e-02f, 1.42189950e-01f, 2.81156838e-01f, 3.44283521e-01f,
        2.16745630e-01f, -2.66115163e-02f, 2.44539008e-02f, -7.69702159e-03f, -8.42830166e-03f, 7.68906809e-03f, -2.21663043e-02f, -7.94043019e-03f,
        -7.93788582e-02f, 2.36481670e-02f, 1.50820270e-01f, 1.30767927e-01f, 7.02317059e-02f, 5.55107221e-02f, 1.08010001e-01f, 1.28711730e-01f,
        4.85192565e-03f, -3.21105331e-01f, -5.16485035e-01f, -6.26536965e-01f, -5.32002687e-01f, -2.23829210e-01f, -9.83198360e-02f, -5.11480272e-02f,
        -1.14203058e-01f, 5.51596582e-02f, 2.23852545e-01f, 3.50528419e-01f, 2.22400412e-01f, 4.17226627e-02f, -3.59847606e-03f, 2.58776024e-02f,
        -4.00028657e-03f, 2.13991441e-02f, 2.56550591e-02f, -5.50768301e-02f, -3.59731019e-02f, 1.25966161e-01f, 1.93776533e-01f, 2.65471548e-01f,
        1.36871889e-01f, 1.94152951e-01f, 1.47196174e-01f, 1.32474855e-01f, -3.68463132e-03f, -3.30456167e-01f, -5.97493172e-01f, -6.23094797e-01f,
        -5.10471225e-01f, -2.28178948e-01f, -8.31547230e-02f, -1.12560615e-01f, -3.71254534e-02f, 1.41594291e-01f, 2.05141366e-01f, 2.84813523e-01f,
        2.40372822e-01f, 1.06623378e-02f, -2.19687801e-02f, 2.39056125e-02f, -1.97078772e-02f, -1.78840049e-02f, -2.75797211e-02f, 4.50947229e-03f,
        -6.20083930e-03f, 2.18399927e-01f, 1.78678691e-01f, 2.46656388e-01f, 2.11124912e-01f, 1.94419056e-01f, 2.40768313e-01f, 5.18472716e-02f,
        -1.55002087e-01f, -4.84433174e-01f, -6.65452003e-01f, -5.53875744e-01f, -4.11805719e-01f, -1.82118475e-01f, -5.80653399e-02f, -4.54467908e-02f,
        7.95288458e-02f, 9.56561714e-02f, 1.74126074e-01f, 2.37802714e-01f, 1.59430072e-01f, -2.50779502e-02f, 3.00799031e-02f, -2.30890177e-02f,
        1.27886813e-02f, 6.47729903e-04f, -4.01054160e-04f, -1.97617300e-02f, -6.91102538e-03f, 1.90558404e-01f, 1.85541034e-01f, 2.17537135e-01f,
        2.09757298e-01f, 2.20280528e-01f, 2.18739510e-01f, 7.61726573e-02f, -2.76330531e-01f, -6.04172766e-01f, -5.89489579e-01f, -4.37337339e-01f,
        -2.41534457e-01f, -8.05010870e-02f, 3.41231152e-02f, 3.20788361e-02f, 7.77801275e-02f, 1.40058756e-01f, 1.42545715e-01f, 1.87298894e-01f,
        6.41870648e-02f, -4.23769802e-02f, -3.60728391e-02f, -5.22575807e-03f, -3.14462781e-02f, -6.39857678e-03f, -2.16026120e-02f, -5.74027970e-02f,
        -3.33102909e-03f, 1.80732414e-01f, 2.28608832e-01f, 1.66970372e-01f, 1.24535345e-01f, 2.47300118e-01f, 2.98520893e-01f, 1.46586886e-02f,
        -2.34906048e-01f, -5.31907082e-01f, -4.97816056e-01f, -3.46596956e-01f, -1.15391009e-01f, 5.02044745e-02f, 2.39185449e-02f, 1.68430191e-02f,
        1.10415220e-01f, 4.76664715e-02f, 1.27865165e-01f, 9.81684625e-02f, 3.63258980e-02f, -5.77958599e-02f, 7.47629255e-03f, -2.64804643e-02f,
        1.82624292e-02f, 1.51885441e-02f, -2.93018166e-02f, -4.62321453e-02f, -2.05223188e-02f, 1.16851062e-01f, 1.73210204e-01f, 1.63860023e-01f,
        1.71522021e-01f, 2.34709263e-01f, 2.99128771e-01f, 5.14769256e-02f, -2.35728532e-01f, -3.94173831e-01f, -3.57409745e-01f, -1.88732773e-01f,
        -8.16800147e-02f, 9.18771606e-03f, -2.84019187e-02f, 2.18926277e-02f, -1.68341771e-03f, 5.59322499e-02f, 1.28544867e-01f, 7.06866011e-03f,
        -1.50295505e-02f, 1.09214312e-03f, -3.22332904e-02f, -2.06069294e-02f, -3.29077244e-02f, 2.32825838e-02f, -2.35068370e-02f, -7.02558011e-02f,
        -4.40976657e-02f, 1.16910182e-01f, 1.65650681e-01f, 1.71790987e-01f, 1.88972324e-01f, 1.80331975e-01f, 2.94839054e-01f, 2.49523744e-01f,
        7.34542683e-02f, -1.56034559e-01f, -1.41735181e-01f, -8.17041472e-02f, -7.18607903e-02f, -1.49359424e-02f, 5.25270263e-03f, -2.24226955e-02f,
        -7.91095011e-03f, 4.98242751e-02f, 9.27985758e-02f, -4.30558771e-02f, -1.72445234e-02f, -4.74571884e-02f, -2.94302851e-02f, 1.36179542e-02f,
        2.80421562e-02f, -2.98196245e-02f, -3.84903550e-02f, -5.06956317e-02f, -4.10621986e-02f, 1.00769356e-01f, 1.21417873e-01f, 1.38491645e-01f,
        1.05924383e-01f, 1.58950642e-01f, 2.89439917e-01f, 3.38884026e-01f, 2.55261838e-01f, 7.27731735e-02f, 1.71218999e-02f, -2.65814885e-02f,
        -5.49324136e-03f, -5.57799786e-02f, -9.27016065e-02f, -1.06386803e-01f, -3.15786600e-02f, 4.93706157e-03f, -1.68603510e-02f, -2.40492597e-02f,
        -3.52363884e-02f, -5.26255183e-03f, -1.04323253e-02f, 3.36070582e-02f, 2.62966175e-02f, 7.55724497e-03f, 1.97228137e-02f, -1.33916531e-02f,
        -3.95297334e-02f, 2.82852352e-02f, 9.98319760e-02f, 9.49855894e-02f, 8.54258016e-02f, 1.11681156e-01f, 1.91354826e-01f, 2.99375921e-01f,
        1.75489143e-01f, 8.04729834e-02f, 2.34061349e-02f, -5.96601656e-03f, -5.23348413e-02f, -8.76695067e-02f, -1.42387256e-01f, -1.38162464e-01f,
        -5.08581065e-02f, -5.23713939e-02f, -1.19968364e-02f, -5.76971397e-02f, -4.57638502e-02f, -3.97094496e-04f, -2.00099163e-02f, -6.86845044e-03f,
        -5.73170022e-04f, -1.60797127e-02f, -1.47672445e-02f, -2.29649004e-02f, -6.77941144e-02f, 9.18323919e-03f, 9.62640196e-02f, 5.80323152e-02f,
        1.49562255e-01f, 1.10258222e-01f, 1.73635662e-01f, 2.11215571e-01f, 1.77289978e-01f, 2.53539503e-01f, 1.44446701e-01f, 1.09882168e-01f,
        2.44514681e-02f, -5.20012155e-02f, -9.05424282e-02f, -9.26737487e-02f, -1.11760072e-01f, -8.29015747e-02f, -5.96750043e-02f, -1.88659097e-03f,
        -3.01401801e-02f, -1.75861139e-02f, 2.00662743e-02f, -3.09277195e-02f, 2.03410909e-02f, -3.32087539e-02f, 1.98109392e-02f, -1.63232181e-02f,
        -9.02478322e-02f, -3.03067919e-02f, -2.80140266e-02f, 4.17894199e-02f, 5.04867435e-02f, 1.55203268e-01f, 2.49871731e-01f, 2.94537365e-01f,
        2.79149055e-01f, 2.63353378e-01f, 2.22949326e-01f, 1.24668546e-01f, 9.31166857e-03f, -4.23312336e-02f, -1.31451949e-01f, -1.65158719e-01f,
        -1.51026234e-01f, -8.98740292e-02f, -4.98670563e-02f, 1.38047868e-02f, -2.82977540e-02f, 2.01417189e-02f, -9.09757393e-04f, -4.12203744e-03f,
        9.65971500e-03f, -7.20656849e-03f, 2.06843559e-02f, 8.42369720e-03f, -3.26788612e-02f, -3.00822663e-03f, -2.34507956e-02f, -9.01942700e-02f,
        -4.46331948e-02f, -4.75787669e-02f, -4.05546091e-02f, -1.72364376e-02f, 5.37001118e-02f, 8.98040310e-02f, 1.71946529e-02f, -6.21375591e-02f,
        -1.14355884e-01f, -1.10897526e-01f, -1.49918497e-01f, -1.52593881e-01f, -9.08229426e-02f, -4.71552163e-02f, -3.12517695e-02f, -5.26801962e-03f,
        -1.23175224e-02f, -1.23862214e-02f, -3.02025327e-03f, 2.44587064e-02f, 7.43469223e-03f, 3.64764780e-03f, 3.58694792e-03f, 2.23968308e-02f,
        3.83686414e-03f, 8.02719314e-03f, -9.25886817e-03f, -6.82312325e-02f, -9.06706974e-02f, -1.46635860e-01f, -1.55772641e-01f, -1.73430309e-01f,
        -2.07595617e-01f, -1.53761104e-01f, -1.66261747e-01f, -1.54216856e-01f, -1.14079557e-01f, -9.28695425e-02f, -1.21754795e-01f, -5.65924868e-02f,
        -4.60895561e-02f, -1.38251949e-02f, -5.00640050e-02f, 7.64892437e-03f, 2.76118740e-02f, 9.84548707e-04f, 2.49393135e-02f, 1.14215910e-02f,
        -9.89217497e-03f, -3.45316008e-02f, -1.67837106e-02f, -1.35539062e-02f, 2.19482128e-02f, 2.62377486e-02f, -4.04733345e-02f, -3.76870073e-02f,
        -1.07028577e-02f, -3.59499753e-02f, -3.75473201e-02f, -2.94817816e-02f, -3.63681130e-02f, -7.41044208e-02f, -8.00057054e-02f, -7.20805004e-02f,
        -2.75005354e-03f, -6.85762474e-03f, -2.00505238e-02f, 3.11746285e-03f, -1.59790777e-02f, -4.80143726e-03f, 2.04989053e-02f, 1.12687312e-02f,
        2.12932704e-03f, 3.16008404e-02f, 3.04768346e-02f, 1.94517225e-02f, -1.95312388e-02f, 3.56042013e-03f, -1.66739449e-02f, -5.52798249e-03f,
        2.84376852e-02f, 1.13912039e-02f, 6.68375194e-03f, -5.03812953e-05f, 1.35204233e-02f, 3.15880170e-04f, -1.62526071e-02f, -5.39459288e-03f,
        -2.53604318e-04f, 1.34244412e-02f, -1.13617803e-03f, -1.01028401e-02f, 2.26210970e-02f, -4.02795756e-03f, -4.74754069e-03f, -2.74932496e-02f,
        6.56577805e-03f, 2.36663129e-02f, -2.83213500e-02f, 2.18727179e-02f, -1.33583471e-02f, 4.76368889e-03f, 3.56161036e-02f, 6.24764338e-03f,
    },
    {
        -1.22224856e-02f, -1.02977026e-02f, -3.27602737e-02f, 1.87164545e-03f, 6.66217506e-03f, 5.76677918e-03f, 8.47649947e-03f, -1.58993192e-02f,
        3.30000632e-02f, -3.38743143e-02f, 3.45688798e-02f, 1.69738978e-02f, -1.72680505e-02f, -1.57234352e-02f, -1.87575910e-02f, 2.05387250e-02f,
        -2.32836865e-02f, 3.16194929e-02f, -1.85158476e-03f, -3.29601020e-03f, 2.14953311e-02f, 8.33766535e-03f, -6.44836202e-03f, -1.26863252e-02f,
        3.27001475e-02f, 6.36969507e-03f, -1.95577741e-05f, 8.44295323e-03f, -1.58205684e-02f, -1.82281788e-02f, 3.45448442e-02f, 7.66795501e-03f,
        2.31644176e-02f, 1.86338648e-02f, -3.40045542e-02f, 7.83394556e-03f, -2.48462800e-02f, 2.04438320e-03f, 2.71953344e-02f, 1.39278010e-03f,
        -7.76088983e-03f, -2.40034005e-03f, 1.61991525e-03f, 1.53224007e-03f, 2.68134531e-02f, 3.41391307e-03f, -2.63497811e-02f, 3.95293208e-03f,
        2.64856387e-02f, -1.14826970e-02f, -1.21788485e-02f, 1.72064938e-02f, -2.73743793e-02f, 3.25688086e-02f, -1.41669009e-02f, -2.43651625e-02f,
        -1.61151383e-02f, 1.18743069e-02f, 1.63874105e-02f, -6.05967175e-03f, 3.06228325e-02f, 3.25880852e-03f, -6.98523782e-03f, 2.21597608e-02f,
        -3.11465580e-02f, 9.03102662e-03f, -4.90452768e-03f, -1.14615308e-02f, 1.00065880e-02f, 1.75290946e-02f, 2.23821625e-02f, 8.26533064e-02f,
        5.57377599e-02f, -8.79528467e-03f, -3.79995666e-02f, 2.46288255e-02f, -1.85781755e-02f, -2.37905029e-02f, 3.04023959e-02f, 1.31066544e-02f,
        3.13379578e-02f, -1.65063608e-02f, 1.09331794e-02f, -3.17688808e-02f, 9.43987072e-03f, -3.50775197e-03f, 2.65551414e-02f, 1.60104372e-02f,
        8.17746017e-03f, 2.02244613e-02f, 3.01104281e-02f, -4.37505171e-03f, -2.11499035e-02f, -4.09050211e-02f, -9.74178910e-02f, -7.85651058e-02f,
        -5.57340272e-02f, -2.88464837e-02f, -3.84679809e-02f, 2.57021040e-02f, 4.38879766e-02f, -6.63311854e-02f, -6.36416748e-02f, -1.72848571e-02f,
        -4.11250107e-02f, -3.02861203e-02f, -1.94426198e-02f, -4.46699187e-02f, -8.00383464e-03f, 1.77411176e-02f, 3.76440142e-03f, 2.21473984e-02f,
        1.11759491e-02f, 1.42411666e-03f, 1.65432412e-02f, 3.51854153e-02f, 3.17274109e-02f, -2.64337845e-02f, 2.09564622e-02f, -5.19273616e-02f,
        -2.27236301e-02f, -3.80923040e-02f, -4.40505110e-02f, -5.88657744e-02f, -8.37014057e-03f, 1.23593844e-01f, 1.21605255e-01f, 1.34750545e-01f,
        4.49033305e-02f, -7.06484728e-03f, 2.16140691e-02f, 8.82023424e-02f, 9.66134816e-02f, 7.32001513e-02f, 8.64104629e-02f, 2.28237528e-02f,
        -5.12027927e-02f, 7.94729497e-03f, -2.31733136e-02f, 3.23973894e-02f, 1.22547708e-02f, -3.06224078e-03f, -1.48255029e-03f, 1.49158947e-02f,
        -1.40638063e-02f, 1.84222218e-02f, -2.23910194e-02f, -8.29312056e-02f, -9.40812677e-02f, -1.63959846e-01f, -1.43939868e-01f, -1.08666472e-01f,
        -5.80481812e-02f, 5.50316870e-02f, 1.01285487e-01f, 1.06592953e-01f, 1.94635300e-03f, -9.30776075e-02f, -2.89915986e-02f, 4.84400913e-02f,
        1.09807074e-01f, 1.70736372e-01f, 1.46747723e-01f, 1.04440942e-01f, 2.60004997e-02f, -5.57181239e-02f, -1.07247597e-02f, -3.25368494e-02f,
        1.08780339e-02f, -6.89418567e-03f, 2.15491336e-02f, -1.95660926e-02f, 7.83192832e-03f, -5.04443534e-02f, -6.62340298e-02f, -8.98144618e-02f,
        -1.98577508e-01f, -2.39161551e-01f, -1.86833158e-01f, -8.37898031e-02f, -1.34403110e-01f, -1.07927211e-01f, -1.07865945e-01f, -1.63021728e-01f,
        -2.09401265e-01f, -1.81595638e-01f, -5.72980978e-02f, -2.11443547e-02f, 9.98777375e-02f, 1.23744220e-01f, 1.01289518e-01f, 2.25384906e-03f,
        -1.98200196e-02f, -3.14146727e-02f, -5.83430892e-03f, 7.05034100e-03f, 3.12829390e-02f, 3.50227021e-02f, -2.39368305e-02f, 7.12945871e-03f,
        -4.06012125e-02f, -3.39951292e-02f, -9.96752009e-02f, -1.28354892e-01f, -2.02865556e-01f, -2.58449584e-01f, -2.46974483e-01f, -2.21179381e-01f,
        -1.07927829e-01f, -1.17118962e-01f, -1.66271091e-01f, -2.47141659e-01f, -1.93870708e-01f, -2.05576122e-01f, -1.25450864e-01f, 1.91329990e-03f,
        2.35786848e-02f, -2.68131997e-02f, -5.16133048e-02f, -8.48233104e-02f, -1.01691045e-01f, -4.10404578e-02f, 7.45308166e-03f, -1.91059615e-02f,
        -2.33440436e-02f, -3.34992036e-02f, 1.26261134e-02f, -1.19155468e-02f, -2.14752816e-02f, -7.43687600e-02f, -1.36433631e-01f, -1.26892805e-01f,
        -2.19633028e-01f, -2.97946095e-01f, -2.41616279e-01f, -2.08204940e-01f, -1.02057762e-01f, -6.18658327e-02f, -1.09472284e-02f, -1.60948671e-02f,
        -1.17858171e-01f, -2.25143900e-04f, -7.29227439e-02f, -6.38764650e-02f, -9.68725383e-02f, -1.41310573e-01f, -1.58605725e-01f, -2.36864209e-01f,
        -1.67942241e-01f, -4.61384691e-02f, 1.09252492e-02f, 2.71740486e-03f, 6.02674019e-03f, -2.97811888e-02f, -2.03619320e-02f, 8.48466810e-03f,
        -1.13051366e-02f, -6.04875460e-02f, -8.49053189e-02f, -1.52538970e-01f, -2.00936750e-01f, -2.06152961e-01f, -1.80999145e-01f, -8.02517608e-02f,
        -7.89773241e-02f, 5.93689941e-02f, 2.05254287e-01f, 3.25575352e-01f, 1.26661405e-01f, 8.27454776e-03f, -6.51074722e-02f, -1.96467564e-01f,
        -2.04648763e-01f, -2.39887595e-01f, -2.94330597e-01f, -2.11085573e-01f, -1.36582837e-01f, -9.75655839e-02f, 2.60128900e-02f, -2.46027075e-02f,
        -1.91873852e-02f, -1.76066137e-03f, 6.10571168e-03f, -2.29756776e-02f, -3.24382037e-02f, -1.06105246e-01f, -1.06021635e-01f, -1.45606533e-01f,
        -1.59266576e-01f, -1.91114455e-01f, -1.31750911e-01f, -5.71097471e-02f, -2.58832909e-02f, 1.77864134e-01f, 4.48536187e-01f, 5.27098954e-01f,
        1.92397177e-01f, 3.49926874e-02f, -1.62260264e-01f, -1.89518064e-01f, -2.77759403e-01f, -2.61510104e-01f, -1.96529001e-01f, -2.04475999e-01f,
        -1.09895445e-01f, -7.27997124e-02f, -1.77539326e-02f, 9.68382694e-03f, 1.48981167e-02f, 3.21087539e-02f, 2.23360676e-02f, -2.85585672e-02f,
        -3.65636237e-02f, -1.78983044e-02f, -6.29667789e-02f, -1.27827018e-01f, -1.28838703e-01f, -1.63579985e-01f, -1.42232716e-01f, -1.50623739e-01f,
        -7.25655705e-02f, 2.04592526e-01f, 6.08582497e-01f, 5.85790992e-01f, 2.04961911e-01f, -2.65981480e-02f, -8.07280391e-02f, -1.57196388e-01f,
        -1.71091422e-01f, -1.41534343e-01f, -9.33444872e-02f, -7.75071010e-02f, -3.47820371e-02f, -4.75970432e-02f, -1.26325944e-02f, 3.40804979e-02f,
        -3.14825244e-04f, 3.30025144e-02f, -1.66686848e-02f, -2.04410069e-02f, 1.47188446e-02f, -4.20750938e-02f, -3.33978795e-02f, -7.78492093e-02f,
        -7.83904940e-02f, -1.48540750e-01f, -2.76410311e-01f, -3.24176967e-01f, -1.29816294e-01f, 2.31451288e-01f, 7.44605064e-01f, 4.96087104e-01f,
        1.10965990e-01f, 2.28200722e-02f, -8.40860754e-02f, -1.74922645e-01f, -1.47223070e-01f, -1.13938466e-01f, -7.65023306e-02f, -4.46827672e-02f,
        -2.08303593e-02f, 2.10952554e-02f, -1.80356000e-02f, -8.90992396e-03f, 2.26180386e-02f, -3.14699300e-02f, -3.09547093e-02f, 1.45838102e-02f,
        3.19135934e-02f, 5.34125930e-03f, -6.63568228e-02f, -7.63782337e-02f, -9.08095837e-02f, -1.77058145e-01f, -4.15777862e-01f, -4.61700112e-01f,
        -1.27261221e-01f, 2.90632337e-01f, 6.34452224e-01f, 3.95530999e-01f, 1.04856245e-01f, -3.25662037e-03f, -2.16655806e-01f, -2.29772836e-01f,
        -1.66183949e-01f, -8.71129110e-02f, -5.06496467e-02f, -7.31831864e-02f, -4.92769815e-02f, -4.54735570e-02f, 8.05513188e-03f, 2.99918819e-02f,
        -9.11412761e-03f, 1.54581550e-03f, 1.94265451e-02f, 2.60391869e-02f, -2.06478965e-03f, 7.99640547e-03f, -5.81792220e-02f, -1.14452936e-01f,
        -9.98153910e-02f, -2.07195669e-01f, -4.56503779e-01f, -4.66502517e-01f, -1.00978218e-01f, 3.58298659e-01f, 5.65160632e-01f, 3.51302952e-01f,
        6.88114315e-02f, -1.89770669e-01f, -3.03511143e-01f, -2.47814164e-01f, -1.46715194e-01f, -8.08662027e-02f, -7.79613405e-02f, -6.99012950e-02f,
        -5.04801907e-02f, -1.70992855e-02f, -1.45989349e-02f, -2.04262305e-02f, -1.60426311e-02f, -3.49637009e-02f, -8.78916774e-03f, 2.98766512e-02f,
        -7.71006802e-03f, -5.67372181e-02f, -1.21022150e-01f, -1.43404335e-01f, -1.00059390e-01f, -2.42611825e-01f, -3.23456407e-01f, -2.30195731e-01f,
        5.56386970e-02f, 3.79973322e-01f, 5.62619150e-01f, 2.08818540e-01f, -4.84075360e-02f, -3.70083094e-01f, -3.55198324e-01f, -2.45370582e-01f,
        -2.00205699e-01f, -1.48483917e-01f, -8.83270726e-02f, -5.28095737e-02f, -2.21115979e-03f, -1.78018492e-02f, 1.41906599e-03f, 1.10964496e-02f,
        1.82156079e-02f, -3.34018259e-03f, 3.42612304e-02f, -1.65230408e-02f, 1.25735038e-04f, -6.84172288e-02f, -1.25102669e-01f, -1.86469316e-01f,
        -1.70627311e-01f, -1.84769660e-01f, -1.69700742e-01f, -1.08325295e-01f, -3.65562588e-02f, 3.51025432e-01f, 5.26237011e-01f, 5.40863648e-02f,
        -1.89909831e-01f, -4.63101953e-01f, -3.65026981e-01f, -2.84107774e-01f, -1.94063365e-01f, -1.13416806e-01f, -1.05978832e-01f, -7.98700303e-02f,
        -3.47106121e-02f, 3.85381444e-03f, 1.78002962e-03f, 2.70751808e-02f, 3.54401581e-02f, 1.81804236e-03f, 4.81529598e-04f, 1.08123077e-02f,
        -2.55404357e-02f, -1.05549797e-01f, -2.39850417e-01f, -2.28719473e-01f, -2.26117864e-01f, -1.31584406e-01f, -1.58960335e-02f, -7.68076256e-02f,
        6.50913492e-02f, 3.81783426e-01f, 4.09144282e-01f, -3.75608914e-02f, -2.83249676e-01f, -3.72976094e-01f, -3.03698629e-01f, -2.00484827e-01f,
        -1.71369076e-01f, -7.79202357e-02f, -8.97263587e-02f, -8.44495967e-02f, -2.99466383e-02f, -3.71354930e-02f, 2.85576675e-02f, -3.13081294e-02f,
        1.97059382e-02f, 2.80687213e-02f, -3.55570614e-02f, 8.92655365e-03f, -4.87738959e-02f, -1.36509776e-01f, -2.74144620e-01f, -2.93442219e-01f,
        -1.41312853e-01f, -1.29374312e-02f, -8.75033662e-02f, -6.67645782e-02f, 8.03475901e-02f, 2.22928524e-01f, 1.63810536e-01f, -1.10236622e-01f,
        -2.80600131e-01f, -1.95976153e-01f, -1.07085951e-01f, -1.00461155e-01f, -4.27542627e-02f, -7.67851397e-02f, -9.59809944e-02f, -6.76379353e-02f,
        -5.85017465e-02f, -2.49739829e-02f, -2.18497105e-02f, 1.90006196e-02f, 7.33671524e-03f, 3.02909352e-02f, -3.61396186e-02f, -1.08922729e-02f,
        -7.66049325e-02f, -1.69092983e-01f, -2.51620561e-01f, -1.82369351e-01f, -8.80368575e-02f, -1.97234773e-03f, -1.75912417e-02f, -2.33566985e-02f,
        1.92871923e-03f, 1.27257004e-01f, 4.02802005e-02f, -3.07081472e-02f, -4.71841218e-03f, -4.26460020e-02f, 3.74220349e-02f, 1.75627936e-02f,
        2.81438734e-02f, -5.72645199e-03f, -2.12060995e-02f, -4.27406095e-02f, 7.48284720e-03f, 1.28283375e-03f, -2.22930964e-02f, 1.23694139e-02f,
        -2.47330852e-02f, 1.71652716e-02f, -1.92098115e-02f, -3.94264609e-02f, -2.94001065e-02f, -1.50490060e-01f, -6.00027032e-02f, 7.34391203e-03f,
        4.59782705e-02f, 6.00952879e-02f, 4.30754237e-02f, 3.68499607e-02f, 4.54196967e-02f, -1.55685227e-02f, 1.40877748e-02f, -2.58596689e-02f,
        9.27127302e-02f, 1.68100506e-01f, 1.91383407e-01f, 7.07181916e-02f, 3.04800496e-02f, 1.83574390e-02f, -7.39295334e-02f, -2.36916319e-02f,
        2.14400869e-02f, 2.48873122e-02f, 2.06258278e-02f, -3.08928899e-02f, 3.25350873e-02f, -2.47104820e-02f, -2.16403734e-02f, -2.07546670e-02f,
        3.03800367e-02f, 9.66682211e-02f, 1.70933455e-01f, 1.26993299e-01f, 9.45409089e-02f, 7.85727426e-02f, 1.08675882e-01f, -5.44672534e-02f,
        -1.57087103e-01f, -1.47178620e-01f, -3.00350245e-02f, 4.80274372e-02f, 6.00401424e-02f, 1.60956398e-01f, 1.64131463e-01f, 1.00581639e-01f,
        2.03348417e-02f, 4.46816981e-02f, -9.81387496e-02f, -4.96491529e-02f, 2.63734460e-02f, 1.21900849e-02f, -5.25702536e-03f, 2.69065686e-02f,
        1.72647908e-02f, 2.62502097e-02f, -2.03668736e-02f, 1.18954619e-02f, 7.80892149e-02f, 2.47152001e-01f, 2.41649985e-01f, 1.76916569e-01f,
        1.01195931e-01f, 3.90891694e-02f, -6.88910410e-02f, -2.30617329e-01f, -3.24683011e-01f, -2.73951918e-01f, -9.21113789e-02f, 2.21192557e-02f,
        9.82009098e-02f, 1.70984924e-01f, 1.52643397e-01f, 6.58857599e-02f, -4.10545524e-03f, -2.67170649e-02f, -7.91949630e-02f, -2.82665668e-03f,
        2.75747925e-02f, 3.72465998e-02f, -2.48991288e-02f, -2.67007742e-02f, 6.50072470e-03f, -1.13032013e-03f, 3.40331197e-02f, 9.23901331e-03f,
        1.53094865e-02f, 1.78683907e-01f, 1.77536175e-01f, 9.12993103e-02f, 3.24918851e-02f, -8.68351199e-03f, -1.04021393e-01f, -1.53792426e-01f,
        -1.04516692e-01f, -1.84989616e-01f, -1.52288392e-01f, 1.48487752e-02f, 9.75453332e-02f, 1.59284726e-01f, 7.13900328e-02f, 2.65976135e-02f,
        -4.64400947e-02f, -7.49590173e-02f, -4.15117443e-02f, -4.39139158e-02f, 2.73551960e-02f, 4.15793620e-03f, 2.18359474e-02f, 1.52820796e-02f,
        -2.27072127e-02f, -2.26189792e-02f, 3.09606306e-02f, -1.27726207e-02f, -1.81093365e-02f, 3.02310307e-02f, 1.91253219e-02f, -4.62051742e-02f,
        -1.12809107e-01f, -1.20251261e-01f, -2.23960891e-01f, -2.22855717e-01f, -2.42571697e-01f, -2.36929491e-01f, -2.35329837e-01f, -1.77934945e-01f,
        -1.55473635e-01f, -5.30626141e-02f, 2.38474719e-02f, 9.50803701e-03f, -3.14272642e-02f, -3.32844704e-02f, -4.51717265e-02f, 6.14294643e-03f,
        2.80423015e-02f, 1.56752672e-02f, -2.34939866e-02f, 1.56096704e-02f, -8.54905136e-03f, 7.80735910e-03f, 1.62564032e-02f, 2.70658433e-02f,
        -1.53189320e-02f, 4.38491581e-03f, -1.27975326e-02f, -4.71377932e-02f, -7.32784942e-02f, -1.07816041e-01f, -1.84805721e-01f, -1.71122119e-01f,
        -1.84335500e-01f, -2.04605058e-01f, -1.52981639e-01f, -1.37485951e-01f, -1.47347569e-01f, -5.52275330e-02f, -3.19708399e-02f, 4.22990555e-03f,
        -7.59968627e-03f, 3.30278054e-02f, 1.80882914e-03f, 2.14920789e-02f, -6.98131509e-03f, -3.08724474e-02f, 2.87835319e-02f, 1.43376812e-02f,
        -2.32740343e-02f, 5.45043871e-03f, -2.17536837e-02f, 1.12679470e-02f, -1.24258697e-02f, -2.64215246e-02f, -1.19740041e-02f, -5.08279959e-03f,
        -4.51741144e-02f, -3.96693423e-02f, -8.57273489e-03f, -2.56803334e-02f, -5.11621796e-02f, -3.17639746e-02f, -5.00837564e-02f, -5.88672794e-02f,
        -5.35448641e-03f, -4.55434807e-02f, -8.62655044e-03f, -2.80885026e-02f, -3.57748903e-02f, -6.77230244e-04f, -1.56250466e-02f, -3.42361145e-02f,
        -9.90670081e-03f, -1.95865519e-02f, 2.27427483e-02f, -1.45371053e-02f, 3.94957513e-03f, 1.63956024e-02f, 2.71558650e-02f, -3.18361223e-02f,
        -3.44041884e-02f, -7.58078462e-03f, -1.13816289e-02f, 8.47894792e-03f, -2.92005818e-02f, -1.34283267e-02f, 9.79296491e-03f, 2.14448925e-02f,
        1.19431345e-02f, 2.42546741e-02f, 3.40136215e-02f, 2.19931304e-02f, 3.14527191e-02f, -1.14054112e-02f, 1.88679490e-02f, -1.02209114e-02f,
        1.04210461e-02f, -5.95029676e-03f, 1.70249641e-02f, -7.00129988e-03f, 1.69501603e-02f, -2.18530688e-02f, -3.23896296e-02f, 3.21722142e-02f,
    },
    {
        1.98573619e-02f, 3.11308093e-02f, 2.82568447e-02f, 2.20328681e-02f, -3.14898714e-02f, 3.14182378e-02f, -2.08255202e-02f, -1.73714757e-02f,
        -2.39121281e-02f, -2.04404257e-02f, 2.19901428e-02f, -4.54087369e-03f, -3.47727202e-02f, -3.47729735e-02f, 1.62114501e-02f, -2.23054476e-02f,
        1.35421157e-02f, -6.95047714e-03f, 2.21555233e-02f, 1.73301697e-02f, -1.85828172e-02f, 7.19240308e-03f, -2.35370286e-02f, 8.46714154e-03f,
        3.47438492e-02f, 3.53770517e-02f, 2.32451782e-03f, 2.82191597e-02f, 3.06324698e-02f, -1.96355209e-03f, -2.86228508e-02f, -2.54457947e-02f,
        2.47569382e-02f, -4.33565862e-03f, -1.37929851e-02f, -3.42922993e-02f, 2.31415015e-02f, -3.35008372e-03f, -2.14541331e-02f, -2.94625182e-02f,
        1.93802882e-02f, 2.51876134e-02f, -6.57780794e-03f, -4.73615434e-03f, 2.28736866e-02f, -4.83621843e-04f, 2.12904289e-02f, -3.90510187e-02f,
        -1.29662007e-02f, 1.99265499e-02f, -1.01554440e-02f, 3.30233946e-02f, 1.10314637e-02f, -3.89546901e-03f, 1.38224550e-02f, -1.84458382e-02f,
        -2.11295858e-03f, -2.83347461e-02f, -3.56474333e-02f, 3.17970254e-02f, -3.19444984e-02f, -3.48344706e-02f, -3.47879194e-02f, -9.68104287e-04f,
        -2.80100498e-02f, 3.97745073e-02f, 3.80518287e-02f, 4.50100899e-02f, 3.06311087e-03f, 5.64064384e-02f, 4.01281677e-02f, 2.93200351e-02f,
        5.92405722e-02f, 3.47173996e-02f, -4.57513854e-02f, -1.64516065e-02f, -4.38194163e-03f, -2.92968694e-02f, 1.70847941e-02f, -3.74500342e-02f,
        -6.68677781e-03f, 3.67294662e-02f, -1.65244099e-02f, -3.23714428e-02f, -2.20645815e-02f, 2.50922032e-02f, -2.79288050e-02f, 3.47046964e-02f,
        -3.26902904e-02f, -3.27142589e-02f, 3.26603018e-02f, -2.46206322e-03f, 3.89940292e-02f, 1.22655697e-01f, 1.80780008e-01f, 1.91213250e-01f,
        2.02088475e-01f, 2.73775399e-01f, 1.54900879e-01f, 1.08191848e-01f, 1.25020087e-01f, 2.25436445e-02f, -5.49439639e-02f, -6.74695447e-02f,
        -1.11476228e-01f, -8.48719478e-02f, -4.88200970e-02f, -7.59682506e-02f, 5.78734092e-03f, -1.36263510e-02f, 1.94376521e-02f, 1.88773088e-02f,
        -3.34449597e-02f, 3.41798738e-02f, 1.11286680e-03f, 2.47731227e-02f, -1.90880951e-02f, 1.97195839e-02f, 3.97581682e-02f, 2.60808021e-02f,
        1.33271486e-01f, 2.47241795e-01f, 2.16889545e-01f, 2.45993659e-01f, 2.97970921e-01f, 1.80952758e-01f, 1.65361166e-01f, 1.32491156e-01f,
        6.83080554e-02f, 9.41548944e-02f, 8.52577388e-03f, -8.32955092e-02f, -1.19283684e-01f, -1.68315962e-01f, -1.47013858e-01f, -1.00902811e-01f,
        -3.00123356e-02f, 1.02404738e-02f, 2.89721061e-02f, 1.81740243e-02f, 3.83038446e-03f, -2.01254878e-02f, -1.62522285e-03f, 8.06497689e-03f,
        1.17630186e-03f, 3.80632989e-02f, 4.27142642e-02f, 1.32238090e-01f, 1.90182269e-01f, 2.19467074e-01f, 2.40848631e-01f, 2.54511088e-01f,
        2.32389495e-01f, 2.06934735e-01f, 2.20088392e-01f, 2.06974864e-01f, 2.76827157e-01f, 2.16947421e-01f, 1.39033884e-01f, -1.23007456e-02f,
        -2.77562924e-02f, -5.53369969e-02f, -1.44629687e-01f, -1.34558082e-01f, -9.93919373e-02f, -4.86158468e-02f, -2.52991263e-02f, -3.47562432e-02f,
        -3.38266790e-02f, -2.73925904e-02f, -1.60622224e-02f, 3.41054462e-02f, 5.30427881e-03f, 4.08194549e-02f, 1.32671580e-01f, 1.82870269e-01f,
        1.66480079e-01f, 1.66326910e-01f, 1.18837111e-01f, 6.35327026e-02f, 4.19811048e-02f, 5.77088185e-02f, 1.12682171e-01f, 8.93775374e-02f,
        9.56087261e-02f, 4.93531749e-02f, 3.25819962e-02f, -4.36675027e-02f, -5.72652034e-02f, -9.02729556e-02f, -1.40943408e-01f, -2.13043854e-01f,
        -8.36672038e-02f, -1.81453209e-02f, -3.33320629e-03f, -2.74095498e-02f, 1.27108525e-02f, -1.33770015e-02f, 3.66345681e-02f, -8.43971781e-03f,
        7.99331069e-02f, 1.19472317e-01f, 1.71165317e-01f, 1.07695594e-01f, 1.09355018e-01f, 4.01673131e-02f, 1.59974881e-02f, 8.03719237e-02f,
        -3.01129068e-03f, 8.74382555e-02f, 2.61461064e-02f, -8.32952093e-03f, -4.53442149e-02f, -1.52242810e-01f, -9.49313119e-02f, -6.07591420e-02f,
        -7.10369051e-02f, -2.62330897e-04f, -3.77917103e-02f, -2.38013044e-01f, -1.33133739e-01f, -4.31988984e-02f, 2.04267055e-02f, 1.29247867e-02f,
        2.48790700e-02f, 1.87594015e-02f, 1.67019349e-02f, 4.21305485e-02f, 9.34667960e-02f, 1.09450400e-01f, 1.48248062e-01f, 1.20921098e-01f,
        7.07972348e-02f, 9.66595039e-02f, 1.55747652e-01f, 1.36358738e-01f, 3.56682763e-02f, 4.65262793e-02f, 1.21484585e-01f, 7.19663203e-02f,
        -8.88587628e-03f, -1.50359822e-02f, -6.40491322e-02f, 4.02498990e-02f, -1.04635507e-02f, -2.83090193e-02f, -3.94145735e-02f, -1.12624452e-01f,
        -1.82196721e-01f, -5.03063053e-02f, -2.63829920e-02f, 2.17769314e-02f, 1.57151632e-02f, -5.35875745e-03f, 2.11994760e-02f, 1.30799776e-02f,
        1.01065032e-01f, 1.37391448e-01f, 3.71855050e-02f, -1.21815717e-02f, -1.46543849e-02f, 6.49327859e-02f, 1.46976113e-01f, 9.45847407e-02f,
        1.97993815e-02f, 9.45007801e-02f, 1.24624714e-01f, 1.60759374e-01f, 1.11543670e-01f, 3.77277955e-02f, 7.78931975e-02f, 9.10091493e-03f,
        -8.49793758e-03f, -2.86991205e-02f, -4.79359068e-02f, -1.16565540e-01f, -1.77541882e-01f, -3.96677069e-02f, -1.57578266e-03f, -2.74634697e-02f,
        -1.40922433e-02f, -6.33095345e-03f, 2.43210830e-02f, 2.83410735e-02f, -2.12834924e-02f, 7.33447894e-02f, 3.42055261e-02f, -1.15586028e-01f,
        -7.76228383e-02f, -1.00601099e-01f, -1.00676887e-01f, -1.18257649e-01f, -1.52607858e-01f, -2.47275800e-01f, -9.93605331e-02f, -8.94795433e-02f,
        1.02862697e-02f, 6.46820590e-02f, 5.52431382e-02f, -1.35333566e-02f, -2.40838211e-02f, -6.99566826e-02f, -4.64407727e-02f, -8.18852410e-02f,
        -1.05983682e-01f, -3.90591063e-02f, -2.31383909e-02f, 1.98527295e-02f, -2.19923328e-03f, 5.87703846e-03f, -2.05697138e-02f, -2.01019458e-02f,
        -4.22428846e-02f, -1.12647802e-01f, -2.03631938e-01f, -3.33365262e-01f, -3.91184419e-01f, -4.03921664e-01f, -5.26647031e-01f, -4.96812135e-01f,
        -5.70729017e-01f, -6.02643430e-01f, -4.20902103e-01f, -2.72352844e-01f, -1.63920149e-01f, -1.65666386e-01f, -7.28126243e-02f, 7.24618956e-02f,
        -4.24585529e-02f, -7.05525919e-04f, -9.07027349e-02f, -1.29842848e-01f, -7.11854175e-02f, 4.41911966e-02f, -1.33990142e-02f, -2.33282652e-02f,
        6.51859865e-03f, 7.98951089e-03f, -2.24609822e-02f, -1.59556642e-02f, -8.64771232e-02f, -3.08553904e-01f, -5.03608525e-01f, -6.18985057e-01f,
        -4.58659559e-01f, -4.97258335e-01f, -4.64368373e-01f, -4.77168113e-01f, -5.12159944e-01f, -4.27232355e-01f, -3.79048795e-01f, -3.45896900e-01f,
        -2.62346953e-01f, -2.22772405e-01f, -1.21191353e-01f, 6.01968281e-02f, -4.15229835e-02f, -3.02041359e-02f, -1.31168887e-01f, -1.75118595e-01f,
        2.59444788e-02f, 1.14963286e-01f, 5.23226559e-02f, -2.39162855e-02f, -1.91035755e-02f, -1.39022293e-02f, -2.08952315e-02f, -6.44109398e-02f,
        -1.74972951e-01f, -4.06011909e-01f, -6.00959361e-01f, -5.13766527e-01f, -3.65221590e-01f, -2.60805994e-01f, -1.79275274e-01f, -7.06363320e-02f,
        -1.07111432e-01f, -4.03832085e-02f, -6.81971908e-02f, -2.28462264e-01f, -2.27808103e-01f, -1.51541010e-01f, -1.21224530e-01f, -6.27667531e-02f,
        -5.18384650e-02f, -5.41872382e-02f, -1.38594687e-01f, -7.98489377e-02f, 8.85036215e-02f, 1.56001821e-01f, 6.83406517e-02f, 2.24978179e-02f,
        -1.57629512e-02f, 1.87447295e-02f, 3.66353127e-03f, -6.43587438e-03f, -1.07479587e-01f, -3.36319268e-01f, -2.72916824e-01f, -1.81733876e-01f,
        -9.25260261e-02f, -3.50371562e-02f, -3.27628702e-02f, 6.70783445e-02f, 6.16757721e-02f, 1.71219066e-01f, 4.69444916e-02f, -8.46144781e-02f,
        -9.04074460e-02f, -1.20740414e-01f, -7.45187998e-02f, -1.08512759e-01f, -4.45605852e-02f, -1.01115562e-01f, -9.25720334e-02f, 6.95117144e-03f,
        9.65740532e-02f, 1.46834776e-01f, 1.28187522e-01f, -2.29029055e-03f, -3.40626873e-02f, -2.65072454e-02f, -9.06919653e-04f, 4.09134990e-03f,
        1.38824219e-02f, 4.93218366e-04f, 6.84516504e-02f, 8.59583020e-02f, 7.87122101e-02f, 2.39690337e-02f, 3.91429663e-02f, 8.38448294e-03f,
        2.51481198e-02f, 1.78855792e-01f, 8.61003324e-02f, 1.15416432e-02f, -2.61468794e-02f, -7.97162727e-02f, -7.59091079e-02f, -8.83753374e-02f,
        -1.39209226e-01f, -1.05854899e-01f, -1.47790715e-01f, -2.75814719e-02f, 2.11924419e-01f, 2.60464817e-01f, 9.33527723e-02f, 1.70101486e-02f,
        -3.11687458e-02f, 2.11421493e-02f, 2.87368093e-02f, 8.31197202e-02f, 1.45025074e-01f, 1.88704178e-01f, 1.85108840e-01f, 8.60179067e-02f,
        -1.82248503e-02f, 8.76435041e-02f, 8.11575204e-02f, 1.57890543e-01f, 2.76632100e-01f, 2.76135951e-01f, 1.05480395e-01f, 4.22928631e-02f,
        1.35422021e-01f, 8.10835138e-02f, 5.90363797e-03f, 2.80014734e-04f, -2.20786836e-02f, 1.05987661e-01f, 8.62916484e-02f, 1.09842971e-01f,
        3.00293356e-01f, 3.60664368e-01f, 1.93330750e-01f, -4.14859457e-03f, -3.44405919e-02f, -5.89864096e-04f, -4.85920534e-03f, 8.74875635e-02f,
        2.30055407e-01f, 2.55839646e-01f, 2.25210875e-01f, 1.21883810e-01f, 9.26715806e-02f, 1.34598315e-01f, 1.90941781e-01f, 2.50814319e-01f,
        3.06227565e-01f, 2.32311651e-01f, 8.58813822e-02f, 6.65567368e-02f, 5.67471050e-02f, 4.17794213e-02f, 5.76069169e-02f, 6.56676060e-03f,
        2.81850137e-02f, 1.03769071e-01f, 1.69269189e-01f, 2.21667498e-01f, 3.65976274e-01f, 4.12255943e-01f, 7.01037720e-02f, -2.61332411e-02f,
        -1.83495246e-02f, 2.92428248e-02f, -4.09536362e-02f, 9.35843736e-02f, 2.59903252e-01f, 3.11193824e-01f, 2.00128198e-01f, 2.64543146e-01f,
        1.14002407e-01f, 1.10450998e-01f, 2.40361392e-01f, 1.99907824e-01f, 2.95806110e-01f, 2.65413731e-01f, 1.19028263e-01f, 2.50596292e-02f,
        9.95986834e-02f, 1.18790165e-01f, 9.29941610e-02f, 8.66529197e-02f, 4.37899828e-02f, 1.36631280e-01f, 2.15731502e-01f, 3.37346017e-01f,
        4.31439012e-01f, 2.74622738e-01f, 7.30494708e-02f, -1.53526915e-02f, -2.71376804e-03f, 6.33002026e-03f, -3.50286663e-02f, -6.00586180e-03f,
        2.09852859e-01f, 2.02338040e-01f, 1.98835060e-01f, 3.04821968e-01f, 2.19062209e-01f, 2.30997220e-01f, 2.38333583e-01f, 2.34882578e-01f,
        2.46822327e-01f, 2.44476065e-01f, 1.20913334e-01f, 9.62908715e-02f, 9.90331694e-02f, 1.30053535e-01f, 7.53478631e-02f, 2.02237908e-03f,
        1.07793771e-01f, 1.40258864e-01f, 2.62698054e-01f, 2.90608287e-01f, 2.65728354e-01f, 2.28888214e-01f, 3.28561142e-02f, -2.89444569e-02f,
        3.18083130e-02f, 2.64032744e-03f, -5.60011528e-03f, 4.82137613e-02f, 1.97061181e-01f, 2.10227862e-01f, 1.86898649e-01f, 2.93677568e-01f,
        2.52956867e-01f, 2.03556582e-01f, 1.98799357e-01f, 2.04188615e-01f, 1.68484300e-01f, 7.11857229e-02f, 2.41083149e-02f, 6.82059526e-02f,
        5.03868498e-02f, 4.08918746e-02f, 1.19216822e-01f, 1.92975476e-01f, 1.32244378e-01f, 2.37531513e-01f, 2.35407203e-01f, 2.98540473e-01f,
        2.24757373e-01f, 1.29856110e-01f, 1.80958230e-02f, 4.00142092e-03f, 9.79672093e-03f, 1.03724375e-03f, 2.98417266e-02f, 2.94064786e-02f,
        1.26246959e-01f, 1.56406596e-01f, 1.36058211e-01f, 1.54577211e-01f, 8.14718157e-02f, 1.94279715e-01f, 1.40416250e-01f, 1.25852630e-01f,
        4.47406918e-02f, 6.45027906e-02f, 1.58530008e-02f, -5.18504456e-02f, 5.87456115e-02f, 1.01697333e-01f, 1.98036417e-01f, 2.66109794e-01f,
        1.18368320e-01f, 2.02519104e-01f, 2.21356750e-01f, 2.54163533e-01f, 2.06442535e-01f, 3.26543525e-02f, 3.15882489e-02f, 2.64239516e-02f,
        2.37856787e-02f, -2.91224327e-02f, 2.46503726e-02f, -3.43174022e-03f, 1.07997440e-01f, 4.06237170e-02f, 1.28385723e-01f, 1.87283486e-01f,
        1.99030712e-01f, 2.20127687e-01f, 1.54306546e-01f, 1.34428293e-01f, 2.71476619e-02f, -2.16778181e-02f, -9.31616127e-02f, -1.16841108e-01f,
        -3.89141105e-02f, 5.86069003e-02f, 1.76961467e-01f, 1.64967611e-01f, 1.84677795e-01f, 2.31133610e-01f, 1.95338264e-01f, 1.42236486e-01f,
        5.70890158e-02f, 1.76690947e-02f, 1.44578451e-02f, 2.49049198e-02f, 3.32284532e-02f, 3.29752602e-02f, -2.34813262e-02f, -2.20103823e-02f,
        8.35853256e-03f, -3.20525356e-02f, -2.66106371e-02f, 8.21834896e-03f, 4.70342115e-02f, 3.70944734e-03f, -1.77824832e-02f, 4.93051149e-02f,
        -1.18804341e-02f, -8.66955519e-02f, -6.06109798e-02f, -8.30951408e-02f, -6.28564209e-02f, -2.69045029e-03f, 1.50078133e-01f, 1.74316645e-01f,
        1.64420649e-01f, 1.84320614e-01f, 1.26492545e-01f, 7.94174001e-02f, 4.25470956e-02f, 3.70888710e-02f, -4.12500557e-03f, 2.89481133e-03f,
        -2.76114736e-02f, 2.65820734e-02f, -3.53509262e-02f, -3.19947153e-02f, -2.74659451e-02f, -1.01512827e-01f, -1.33811697e-01f, -1.85513511e-01f,
        -1.76540315e-01f, -1.73868701e-01f, -1.58334419e-01f, -1.49883166e-01f, -5.15338629e-02f, -5.13775907e-02f, 4.98056263e-02f, -4.94568162e-02f,
        -1.23771988e-02f, 2.12517157e-02f, 4.17820700e-02f, 2.17768643e-02f, -2.63277106e-02f, 4.83826697e-02f, 2.14467496e-02f, -1.28245503e-02f,
        2.48199999e-02f, 1.08897174e-02f, -5.98816248e-03f, -2.38992069e-02f, 1.54548250e-02f, 1.09386481e-02f, 2.91457046e-02f, 1.52684581e-02f,
        -4.91095334e-02f, -6.33810237e-02f, -4.58333939e-02f, -1.23677857e-01f, -1.35177597e-01f, -1.50738239e-01f, -1.51483014e-01f, -1.55463055e-01f,
        -8.23854804e-02f, -1.27957210e-01f, -3.52353044e-02f, -1.56512875e-02f, -2.91188043e-02f, -8.77578408e-02f, -7.42094815e-02f, -8.01185295e-02f,
        -6.65582716e-02f, -5.26431799e-02f, -6.59817248e-04f, -3.20093818e-02f, -1.28581915e-02f, 1.66488774e-02f, 3.72115262e-02f, 3.20262648e-02f,
        -3.48428078e-02f, 1.58087537e-03f, 2.47007608e-02f, 1.81161631e-02f, -1.56239863e-03f, 2.48130281e-02f, 2.43724827e-02f, -1.22996802e-02f,
        -8.01309571e-03f, -2.87839323e-02f, -3.39326821e-03f, -1.16524007e-02f, -5.80757717e-03f, -4.54587582e-03f, -4.34144847e-02f, 1.00899264e-02f,
        -5.84522029e-03f, -5.41336462e-02f, -4.03078534e-02f, -4.36085239e-02f, -1.92494818e-03f, -3.05188671e-02f, -1.95159540e-02f, -1.03315739e-02f,
        -3.51545364e-02f, 2.21521799e-02f, -3.56570706e-02f, 1.36182308e-02f, 3.13975997e-02f, -1.19223595e-02f, 3.27766128e-02f, 2.21045949e-02f,
        -1.58428412e-03f, 1.64312113e-03f, -3.35925706e-02f, -6.95446739e-03f, 2.73079053e-03f, 2.84705008e-03f, 2.78086308e-02f, 2.73310137e-03f,
        -2.80855373e-02f, 2.94458177e-02f, 3.41259968e-03f, 3.11358776e-02f, 1.74772134e-03f, 2.18001269e-02f, -1.62197128e-02f, 1.67785138e-02f,
        -1.05781155e-02f, -3.74761014e-03f, -3.50725092e-03f, -1.99886542e-02f, 2.76441686e-02f, 1.59953758e-02f, -2.05487665e-02f, 2.55528800e-02f,
    },
    {
        2.18316317e-02f, -1.57897919e-03f, -2.72196904e-03f, 4.35502455e-03f, 7.15144351e-03f, -1.38785001e-02f, 3.09741460e-02f, -3.25342268e-03f,
        2.12123133e-02f, 1.77302249e-02f, -1.42362081e-02f, -7.32408278e-03f, -2.10714266e-02f, -2.11792183e-03f, 2.22589215e-03f, 9.42533836e-03f,
        -1.04264319e-02f, 2.62666121e-03f, -2.97731347e-02f, -7.67790526e-03f, -1.72409974e-02f, -3.40291336e-02f, -1.47448350e-02f, -1.86257791e-02f,
        -2.19553169e-02f, 2.55784206e-02f, -6.93952292e-03f, 1.94795392e-02f, 2.49106288e-02f, -1.12101007e-02f, -1.76811218e-03f, -2.52498649e-02f,
        1.45295146e-03f, -1.02940407e-02f, -4.56394581e-03f, 2.15059128e-02f, -2.48115137e-02f, -1.13119753e-02f, 3.10474150e-02f, -2.91358829e-02f,
        -2.43094042e-02f, -2.87364200e-02f, 2.32311822e-02f, 3.03784162e-02f, -1.23511152e-02f, 2.93714929e-05f, -1.99789386e-02f, -1.10561484e-02f,
        -2.67364793e-02f, -1.75319593e-02f, -5.18757384e-03f, 3.27772684e-02f, -8.05135816e-04f, -3.49046513e-02f, 1.94142796e-02f, -2.40191575e-02f,
        6.68949261e-03f, 6.48180023e-03f, -3.54346149e-02f, 3.34614106e-02f, 2.04107706e-02f, 7.33555586e-04f, -2.16871146e-02f, -1.78865809e-02f,
        -4.34007467e-04f, 8.28859489e-03f, -1.99394883e-04f, -5.85879805e-03f, -6.46111043e-03f, 4.61503817e-03f, 2.41360366e-02f, -1.94701776e-02f,
        1.06345667e-02f, -2.52198707e-02f, 9.36663151e-03f, -1.62729844e-02f, 2.83842627e-02f, -2.57073361e-02f, -2.25412380e-02f, 4.43760958e-03f,
        3.09800971e-02f, 5.35572926e-03f, -3.30619812e-02f, 2.39948481e-02f, -8.17999244e-03f, -2.63789091e-02f, 3.13554034e-02f, -1.05833849e-02f,
        2.33765058e-02f, 3.53346802e-02f, 2.03848779e-02f, -8.45782086e-03f, 4.93431389e-02f, 1.59977973e-02f, 5.55461608e-02f, 1.46674976e-01f,
        1.56226858e-01f, 1.50980666e-01f, 2.06364349e-01f, 1.93412080e-01f, 1.51213214e-01f, 1.32597283e-01f, 1.58432811e-01f, 7.10169673e-02f,
        7.02992007e-02f, -4.80466435e-04f, -4.92553338e-02f, 1.84098165e-02f, -8.25556170e-04f, -1.11918151e-02f, 2.56253965e-02f, 3.46626453e-02f,
        -2.32087038e-02f, 4.78073256e-03f, -2.09948281e-03f, 3.44864316e-02f, 3.47770527e-02f, 9.95918587e-02f, 1.20795675e-01f, 1.32300660e-01f,
        1.76326603e-01f, 1.78648487e-01f, 2.64238358e-01f, 2.86440909e-01f, 2.90653944e-01f, 2.98841089e-01f, 2.58620739e-01f, 2.31531620e-01f,
        2.19392553e-01f, 1.25764713e-01f, 1.58681437e-01f, 6.58714846e-02f, -5.13189770e-02f, -1.26045510e-01f, -7.68984258e-02f, -8.02035257e-02f,
        -3.21199633e-02f, -2.53594164e-02f, 1.73199978e-02f, -1.39019918e-02f, 2.94370838e-02f, 1.05433427e-02f, 1.21944202e-02f, 5.28366901e-02f,
        9.11294073e-02f, 1.37569800e-01f, 2.12109700e-01f, 2.48111367e-01f, 1.84533402e-01f, 1.71100706e-01f, 1.99129879e-01f, 1.39381692e-01f,
        9.14605334e-02f, 6.10007159e-02f, 6.48467988e-02f, 1.15049995e-01f, 1.53585225e-01f, 5.90678630e-03f, 3.39342132e-02f, -1.60842109e-02f,
        -7.12026954e-02f, -1.57642007e-01f, -1.70184657e-01f, -1.81240708e-01f, -4.18422520e-02f, -4.05913517e-02f, 7.94753805e-03f, 2.68074498e-02f,
        -2.75149010e-02f, 3.45962122e-02f, 3.47644240e-02f, 4.23150957e-02f, 1.28847450e-01f, 2.02580288e-01f, 2.12840468e-01f, 1.76887035e-01f,
        1.39440641e-01f, 1.94858730e-01f, 1.85040787e-01f, 1.01263352e-01f, 7.88577273e-02f, 1.82517380e-01f, 1.26252279e-01f, 1.31492883e-01f,
        1.80901513e-01f, 8.58549848e-02f, 1.11975193e-01f, -2.00472050e-03f, -1.10251056e-02f, -5.44585325e-02f, -1.42428383e-01f, -1.96467772e-01f,
        -6.91023916e-02f, -5.73185496e-02f, -7.14278664e-04f, -1.93159189e-02f, -2.81155966e-02f, 5.06006507e-03f, -3.75702828e-02f, 4.62996401e-02f,
        1.99366227e-01f, 2.10912883e-01f, 1.82815760e-01f, 8.29932466e-02f, 2.26064418e-02f, 9.71339270e-02f, 3.43632698e-02f, 3.93643826e-02f,
        1.13951631e-01f, 1.34805962e-01f, 1.63851872e-01f, 1.70870170e-01f, 6.16213158e-02f, 9.09020826e-02f, 6.98032230e-02f, 9.88611579e-02f,
        4.82875966e-02f, -4.50096577e-02f, -6.92832470e-02f, -1.61075607e-01f, -1.04321785e-01f, -2.47916044e-03f, -2.45427303e-02f, 3.03118806e-02f,
        6.19345112e-03f, 1.88025869e-02f, 1.59858484e-02f, 5.43223470e-02f, 2.20492497e-01f, 1.93395630e-01f, 1.66850358e-01f, 4.20391820e-02f,
        3.31251025e-02f, 1.48709007e-02f, 4.58695516e-02f, 1.71034951e-02f, 4.23075184e-02f, 7.64564425e-02f, 1.69949085e-01f, 1.99437335e-01f,
        8.10403377e-02f, 1.26621902e-01f, 1.38535261e-01f, 1.22633375e-01f, 1.29515752e-01f, 1.13170192e-01f, 3.81117538e-02f, -2.26807892e-01f,
        -1.40383005e-01f, -6.11905903e-02f, 6.79645780e-03f, -4.70416062e-03f, -1.88169349e-02f, 1.12411175e-02f, -3.10961008e-02f, 9.04234499e-02f,
        2.13202149e-01f, 1.10470124e-01f, 1.22521989e-01f, 3.31690758e-02f, -2.49230415e-02f, -9.21450034e-02f, -1.49229690e-01f, -2.97485709e-01f,
        -2.54216433e-01f, -5.17267548e-02f, 1.73511863e-01f, 3.10421139e-01f, 2.29537591e-01f, 1.60183683e-01f, 1.07525818e-01f, 1.28851309e-01f,
        2.69224554e-01f, 1.87659889e-01f, 7.64161423e-02f, -1.42712682e-01f, -1.54007822e-01f, -3.96555103e-03f, -5.15016867e-03f, -1.45426886e-02f,
        2.02462953e-02f, 2.12407615e-02f, -8.88596009e-03f, 7.67232403e-02f, 9.44687054e-02f, -1.05292071e-02f, -5.09570986e-02f, -1.25619233e-01f,
        -2.22258538e-01f, -3.81449699e-01f, -4.08741355e-01f, -4.32016283e-01f, -3.60194206e-01f, -1.83727015e-02f, 2.08981514e-01f, 2.00472444e-01f,
        2.04905480e-01f, 1.85983121e-01f, 1.96552202e-01f, 2.00596318e-01f, 2.28932291e-01f, 8.99691358e-02f, -3.68861045e-04f, -1.13431647e-01f,
        -6.92006275e-02f, -1.83440205e-02f, 3.77712771e-03f, -3.19057405e-02f, -1.58484112e-02f, -9.03262571e-03f, 1.02239922e-02f, 7.28684664e-02f,
        4.61418461e-03f, -1.41645759e-01f, -2.29293391e-01f, -3.79434586e-01f, -4.24955398e-01f, -3.32577258e-01f, -3.17181110e-01f, -1.91901445e-01f,
        -1.12051070e-01f, 1.18967615e-01f, 1.91515386e-01f, 2.02588469e-01f, 8.67753103e-02f, 1.71404749e-01f, 1.73755169e-01f, 1.73967689e-01f,
        1.56259835e-01f, -2.87009049e-02f, -9.48289558e-02f, -6.88091591e-02f, -7.85112381e-02f, -3.28750648e-02f, -8.75535607e-03f, 1.76067241e-02f,
        -9.79595352e-03f, -8.37475713e-03f, -8.45339242e-03f, -2.10953620e-03f, -4.55777459e-02f, -1.87528864e-01f, -2.96042532e-01f, -3.55769485e-01f,
        -3.25197518e-01f, -1.35050833e-01f, -2.54317094e-02f, -5.29757962e-02f, 6.74533024e-02f, 1.24323428e-01f, 3.27293426e-01f, 1.37067378e-01f,
        7.25182742e-02f, 7.89351091e-02f, 1.16214536e-01f, 1.73294600e-02f, -8.85488391e-02f, -2.22585812e-01f, -1.74565136e-01f, -1.41994700e-01f,
        -6.44412264e-02f, 2.71899737e-02f, -7.64035992e-03f, 1.62524804e-02f, -1.61488599e-03f, -3.65008488e-02f, -1.73862954e-03f, -3.15760300e-02f,
        -7.18649849e-02f, -2.06473291e-01f, -2.61824906e-01f, -2.74116188e-01f, -2.10431933e-01f, -1.00095697e-01f, -1.32215738e-01f, -1.21166378e-01f,
        6.34069815e-02f, 2.05525383e-01f, 1.93488955e-01f, -3.19766365e-02f, 7.48941004e-02f, 8.99558067e-02f, 1.05687529e-01f, -9.88094807e-02f,
        -2.62466520e-01f, -2.76662469e-01f, -2.44372144e-01f, -1.03425317e-01f, -4.33029383e-02f, 2.01366134e-02f, -5.71141904e-03f, 9.22108814e-03f,
        -3.09145376e-02f, 3.41625065e-02f, -7.98275042e-03f, -1.86540987e-02f, -1.69835649e-02f, -1.62913188e-01f, -2.14267462e-01f, -2.92832822e-01f,
        -2.14991152e-01f, -7.48712644e-02f, -1.72266707e-01f, -1.64060012e-01f, 7.51832202e-02f, 1.18266776e-01f, 8.47186297e-02f, 4.65859510e-02f,
        -1.01830708e-02f, 3.12947854e-02f, 3.89904864e-02f, -7.88360760e-02f, -1.36035621e-01f, -6.51167855e-02f, -1.37303516e-01f, -8.33425671e-02f,
        -5.34662344e-02f, 1.80782634e-03f, 1.11572882e-02f, -5.44681447e-04f, -1.85309257e-02f, -3.20794759e-03f, 3.19311917e-02f, -9.58178286e-03f,
        6.66395761e-03f, -7.13439956e-02f, -1.83468178e-01f, -2.58105963e-01f, -2.30279297e-01f, -2.16195107e-01f, -1.65834934e-01f, -4.12770584e-02f,
        7.09538162e-02f, 1.45060033e-01f, 1.13191858e-01f, 2.60743126e-02f, -4.87112105e-02f, -4.99323532e-02f, -2.05315407e-02f, 9.33260843e-02f,
        1.51572257e-01f, 1.04007617e-01f, 8.85716900e-02f, 4.61858325e-02f, -1.47041157e-02f, -8.67355056e-03f, 1.48957064e-02f, 1.00928769e-02f,
        -1.64295733e-02f, -4.62816004e-03f, 5.49947768e-02f, 6.75799847e-02f, 1.32180274e-01f, 6.15114812e-03f, -8.60322788e-02f, -1.88400462e-01f,
        -2.59434462e-01f, -2.41793022e-01f, -2.09145829e-01f, -1.28818884e-01f, 7.57753942e-03f, 1.09154738e-01f, -5.63466176e-03f, -1.19648032e-01f,
        -1.52481779e-01f, -2.19467040e-02f, 1.71694010e-01f, 1.79597974e-01f, 1.40403450e-01f, 1.96940377e-01f, 1.71568125e-01f, 1.33151248e-01f,
        3.42417881e-02f, -5.18205902e-03f, -2.69357711e-02f, -7.06385402e-03f, -1.17609166e-02f, -1.46370362e-02f, 3.68906222e-02f, 1.41504973e-01f,
        1.87283292e-01f, 4.71328311e-02f, -4.59333695e-02f, -1.02329254e-01f, -2.09549934e-01f, -4.03407753e-01f, -4.70906973e-01f, -3.93555343e-01f,
        -2.33220086e-01f, -2.05791965e-01f, -2.85536140e-01f, -1.75286949e-01f, 2.20307317e-02f, 1.33772284e-01f, 9.91614237e-02f, 2.52197832e-01f,
        9.08106342e-02f, 1.62051231e-01f, 2.30265290e-01f, 1.74136266e-01f, -4.81893755e-02f, -6.66883141e-02f, -8.98820069e-03f, 1.11855790e-02f,
        8.08426365e-03f, 2.74506398e-02f, 3.75037245e-03f, 2.10853413e-01f, 2.12395251e-01f, 2.18788207e-01f, 7.06989169e-02f, -7.43803978e-02f,
        -1.36256918e-01f, -2.84425855e-01f, -3.62120628e-01f, -3.82597923e-01f, -3.58184099e-01f, -3.43789607e-01f, -2.65853733e-01f, 1.38336392e-02f,
        2.03644648e-01f, 1.89096481e-01f, 1.67873710e-01f, 2.03499615e-01f, 1.36821643e-01f, 2.86647439e-01f, 2.89726526e-01f, 7.36012086e-02f,
        -6.38717040e-02f, -1.13829989e-02f, -2.47598402e-02f, -1.82342497e-04f, 3.19734998e-02f, 1.90420337e-02f, 2.25514825e-02f, 2.61039495e-01f,
        3.11818302e-01f, 2.66667008e-01f, 1.57124847e-01f, 5.27217127e-02f, -4.04286291e-03f, -7.26957470e-02f, -1.47016436e-01f, -2.49622434e-01f,
        -2.35324636e-01f, -1.56731650e-01f, -5.73048480e-02f, 5.48673980e-02f, 1.50224209e-01f, 2.61603504e-01f, 2.26359293e-01f, 1.78014010e-01f,
        1.23830296e-01f, 2.77604520e-01f, 1.35313824e-01f, 2.53653564e-02f, -7.04111308e-02f, -5.54321371e-02f, 2.80821230e-02f, -6.01804303e-03f,
        -9.85400565e-03f, 1.84603538e-02f, 1.82907868e-04f, 2.46264368e-01f, 2.56393582e-01f, 2.34661922e-01f, 2.38154367e-01f, 1.79497272e-01f,
        1.69513732e-01f, 1.32049114e-01f, -4.24468778e-02f, -1.56382352e-01f, -2.54626393e-01f, -1.01748697e-01f, 3.53401564e-02f, 3.93964350e-02f,
        8.77452344e-02f, 1.48260921e-01f, 1.97495908e-01f, 1.48293719e-01f, 2.19787747e-01f, 1.26834422e-01f, -6.36323122e-03f, -1.91779174e-02f,
        -5.96206151e-02f, 7.53020495e-03f, -3.65265757e-02f, -1.47031257e-02f, 4.95773274e-03f, 1.77670002e-03f, 2.26316415e-03f, 1.07813679e-01f,
        1.94128618e-01f, 1.78633451e-01f, 1.83242649e-01f, 8.97194073e-02f, 1.05673797e-01f, -4.12436835e-02f, -5.96278943e-02f, -1.37682110e-01f,
        -8.56220797e-02f, -6.59648776e-02f, -5.96903712e-02f, 8.82279966e-03f, 8.05864036e-02f, 7.97289014e-02f, 1.68590218e-01f, 1.87165216e-01f,
        9.73039865e-02f, -1.27804652e-02f, -5.70830107e-02f, -6.56234995e-02f, -2.83337981e-02f, -1.60303582e-02f, 1.78210437e-03f, 4.31974838e-03f,
        -1.19768959e-02f, 1.78004224e-02f, 5.17953560e-02f, 1.08120441e-01f, 1.33911222e-01f, 1.31284565e-01f, 1.42072991e-01f, 3.74109708e-02f,
        -2.11110916e-02f, 2.15175562e-02f, 4.22982946e-02f, 3.20267491e-02f, -7.48736188e-02f, -5.54435067e-02f, -7.38134608e-02f, 3.38749401e-02f,
        4.85222079e-02f, 4.54901233e-02f, 9.82241780e-02f, 1.43245488e-01f, 5.00409640e-02f, -9.20645520e-02f, -7.18889534e-02f, -6.44008592e-02f,
        -6.65330840e-03f, 4.79377387e-03f, -6.02581492e-03f, 3.54188532e-02f, -1.19795259e-02f, -3.34468894e-02f, -7.93025736e-03f, 9.46624503e-02f,
        2.01812342e-01f, 1.85704455e-01f, 2.22303987e-01f, 1.49711698e-01f, 1.60820801e-02f, 8.76441076e-02f, 6.02433644e-02f, 7.51651078e-02f,
        -3.71231288e-02f, 8.16336926e-03f, -3.59235965e-02f, -2.56147161e-02f, -9.24300849e-02f, 5.69603294e-02f, 1.36147991e-01f, 1.16870273e-02f,
        -2.67974474e-02f, -7.05024749e-02f, -5.81743233e-02f, -2.38890406e-02f, -1.12110032e-02f, 1.82537753e-02f, -3.09421197e-02f, -6.35125488e-03f,
        -1.33096743e-02f, 1.95262097e-02f, -2.80024149e-02f, 3.06887031e-02f, 1.12337999e-01f, 1.55573085e-01f, 2.56187618e-01f, 3.29306901e-01f,
        2.49286279e-01f, 2.23477617e-01f, 2.59965509e-01f, 2.52070367e-01f, 2.06034139e-01f, 2.20517933e-01f, 1.91138580e-01f, 7.60536566e-02f,
        1.27233267e-01f, 4.11643945e-02f, -5.40146604e-02f, -6.09177798e-02f, -6.11817427e-02f, -4.16257866e-02f, -2.80438140e-02f, 1.71440206e-02f,
        -2.55682077e-02f, 3.18663009e-02f, -3.18056978e-02f, 1.04228631e-02f, 2.59701274e-02f, -1.61226224e-02f, 2.47549266e-02f, -1.50059932e-03f,
        1.05142500e-03f, 7.29143620e-02f, 6.89200014e-02f, 1.72783077e-01f, 2.67206639e-01f, 2.67909050e-01f, 3.41666132e-01f, 3.46573830e-01f,
        3.59604120e-01f, 2.81215638e-01f, 2.06534028e-01f, 7.93264955e-02f, 7.38421455e-02f, 1.38299074e-02f, -3.76656018e-02f, -1.02561461e-02f,
        -2.97700632e-02f, -1.30685437e-02f, -4.44467412e-03f, -1.46812722e-02f, 3.47163752e-02f, -2.80080643e-02f, -1.36625348e-02f, 9.13798809e-03f,
        1.10429898e-02f, -2.87553333e-02f, 1.82432532e-02f, 1.06886979e-02f, 1.42892702e-02f, 2.32988838e-02f, -1.35823553e-02f, 4.02472466e-02f,
        -4.18873999e-04f, -3.12928110e-02f, 1.16414009e-02f, 1.07322372e-02f, 2.51463056e-02f, -1.24857714e-02f, -3.27003114e-02f, 6.04360644e-03f,
        -8.82899947e-03f, -2.87666246e-02f, -2.48765554e-02f, -3.00258845e-02f, 9.67199914e-03f, -3.18046920e-02f, -2.65742484e-02f, 2.44272873e-02f,
        9.59634129e-03f, -3.21935937e-02f, 9.05241072e-03f, -2.62370557e-02f, 2.58679055e-02f, 2.13707723e-02f, 2.19170190e-02f, -1.72544643e-03f,
        3.38466316e-02f, -3.33030857e-02f, -1.32570381e-03f, -1.08442027e-02f, 1.26043856e-02f, -3.12225875e-02f, -3.28101441e-02f, 1.65184531e-02f,
        2.18261499e-02f, 3.30770831e-03f, 2.91016307e-02f, -3.36491689e-02f, -5.27669629e-03f, -2.69662812e-02f, -2.98292227e-02f, -9.83591378e-03f,
        2.91545354e-02f, -4.71421797e-03f, 1.97444614e-02f, -6.25652028e-03f, 3.89106572e-05f, 1.80134289e-02f, 1.41098686e-02f, 2.28475444e-02f,
    },
    {
        -2.57887840e-02f, -3.51375602e-02f, -2.01200545e-02f, 1.07939206e-02f, 4.21315432e-04f, 3.61970812e-03f, -7.66343810e-03f, 3.18884440e-02f,
        -1.03445146e-02f, -2.49381252e-02f, 2.51850784e-02f, 2.95425244e-02f, -2.25849450e-02f, -1.95146911e-02f, -2.66625918e-02f, -2.08958872e-02f,
        -2.61001512e-02f, 7.40441680e-03f, 1.30364224e-02f, 2.85705887e-02f, 2.45218426e-02f, -2.68322583e-02f, -7.07551837e-03f, -7.85053708e-03f,
        -2.79833861e-02f, 1.72730647e-02f, 2.02433728e-02f, -2.99249440e-02f, 4.99698892e-03f, -2.57818662e-02f, 2.75048949e-02f, -3.53329070e-02f,
        2.55652666e-02f, -1.98850874e-02f, 5.45254024e-03f, -3.54293287e-02f, -3.96041572e-02f, -8.70591402e-03f, -2.74927150e-02f, -4.39680442e-02f,
        -4.57182489e-02f, -3.96183729e-02f, -2.70478398e-04f, 3.31140961e-03f, -2.07916200e-02f, -3.15526053e-02f, 2.45437864e-02f, -8.67387280e-03f,
        2.96936333e-02f, 2.90675983e-02f, 2.38885283e-02f, -1.50130428e-02f, -1.21242199e-02f, 5.40938228e-04f, -3.03726643e-02f, -2.29337737e-02f,
        2.98522040e-03f, 3.52433734e-02f, -3.17803561e-03f, 1.78887844e-02f, 2.09111627e-02f, 1.71377175e-02f, -1.89846698e-02f, -1.35426428e-02f,
        -5.54298498e-02f, -2.18259823e-02f, -1.11827694e-01f, -1.12461582e-01f, -1.56284571e-01f, -1.41453058e-01f, -9.95948091e-02f, -8.47050399e-02f,
        -9.06643420e-02f, -7.28113651e-02f, -2.67451685e-02f, -1.06878774e-02f, 2.14158278e-02f, -4.03389782e-02f, 4.62909183e-03f, 2.69559249e-02f,
        -1.97810605e-02f, 6.14650548e-03f, 7.51635060e-03f, 1.70029476e-02f, -3.51247303e-02f, -1.72823425e-02f, 3.30985747e-02f, -1.49085000e-03f,
        -3.23839299e-02f, 3.23476386e-03f, -1.94846075e-02f, -3.18315551e-02f, -6.65458739e-02f, -1.14153564e-01f, -1.32922649e-01f, -1.51282996e-01f,
        -2.29445875e-01f, -2.71760732e-01f, -2.32914165e-01f, -2.50331789e-01f, -1.99241430e-01f, -1.69624478e-01f, -1.22753486e-01f, -3.58963273e-02f,
        -1.31517863e-02f, 1.08873537e-02f, 3.13691795e-02f, 2.75913849e-02f, 3.06854583e-02f, 1.39327850e-02f, -1.37614692e-02f, -1.71159338e-02f,
        -2.05129012e-02f, 3.48638296e-02f, -1.32976556e-02f, 4.72026924e-03f, 1.38909894e-03f, 3.32250420e-05f, -4.66962121e-02f, -2.22939383e-02f,
        -7.38130137e-02f, -1.48656517e-01f, -1.89322814e-01f, -2.46835575e-01f, -2.34218642e-01f, -2.20906019e-01f, -2.54913986e-01f, -2.43234947e-01f,
        -1.83720589e-01f, -1.14681430e-01f, -1.12887010e-01f, 7.48569984e-03f, 4.99943011e-02f, 9.80413109e-02f, 7.49518797e-02f, 6.60195947e-02f,
        5.59628345e-02f, -3.53734381e-03f, -2.59289099e-03f, 3.15084197e-02f, 2.55909972e-02f, -1.20309684e-02f, -2.70195045e-02f, -1.28287356e-02f,
        7.90656731e-03f, 2.15807538e-02f, 4.15140763e-02f, -1.82371698e-02f, 5.46650821e-03f, -3.61215957e-02f, -1.15865834e-01f, -1.20085940e-01f,
        -1.86841920e-01f, -1.80843562e-01f, -1.16873734e-01f, -7.84650147e-02f, -3.83854727e-03f, -1.73329562e-02f, 4.91198637e-02f, 9.41965580e-02f,
        7.84337595e-02f, 1.17469192e-01f, 1.75201207e-01f, 1.92969248e-01f, 1.16167948e-01f, 2.41965484e-02f, 2.91973241e-02f, 1.03393346e-02f,
        -7.28722662e-03f, 7.65591208e-03f, 2.57989094e-02f, 2.37328690e-02f, 4.51657772e-02f, 3.18547823e-02f, 7.26988539e-02f, 2.22579520e-02f,
        3.82800698e-02f, 5.92527865e-03f, -6.43378049e-02f, -1.80068463e-01f, -2.06852064e-01f, -2.51350015e-01f, -2.85895944e-01f, -2.68131077e-01f,
        -2.20864177e-01f, -1.70514092e-01f, -1.62105918e-01f, -5.23889959e-02f, -1.71421561e-02f, 6.52100518e-02f, 2.60313034e-01f, 2.67860293e-01f,
        1.36874542e-01f, 3.61792482e-02f, 3.16262916e-02f, 2.79407389e-02f, -4.78167878e-03f, -1.66130327e-02f, -3.40200476e-02f, -1.65153462e-02f,
        2.98529174e-02f, 8.73830095e-02f, 3.14300284e-02f, 4.07116599e-02f, -2.39504166e-02f, -6.72643036e-02f, -1.31530121e-01f, -2.42251918e-01f,
        -3.58051986e-01f, -3.02040577e-01f, -3.89373511e-01f, -4.29672658e-01f, -4.17544007e-01f, -2.41214365e-01f, -2.25815371e-01f, -1.52316466e-01f,
        -1.10504121e-01f, 2.97255721e-02f, 1.40905380e-01f, 2.15670764e-01f, 7.51972795e-02f, 3.79205346e-02f, 1.48096252e-02f, 1.99811105e-02f,
        -1.37905898e-02f, 9.09496378e-03f, -2.74012238e-02f, -6.38244720e-03f, -2.65226942e-02f, 2.90279854e-02f, 3.15013193e-02f, -4.75604879e-03f,
        -1.13309272e-01f, -6.90034032e-02f, -1.28438279e-01f, -1.54514939e-01f, -2.73912758e-01f, -2.31634974e-01f, -4.09330636e-01f, -4.15242195e-01f,
        -3.04736406e-01f, -2.03420728e-01f, -9.15110111e-02f, -7.19915181e-02f, -6.91729486e-02f, -2.17087604e-02f, 2.30964646e-02f, 1.01415627e-01f,
        1.17776450e-02f, -3.89030576e-02f, -6.48685498e-04f, 5.34608262e-03f, -9.59161669e-03f, -1.00303087e-02f, -1.33933378e-02f, -1.36711607e-02f,
        -2.23537646e-02f, -1.53114339e-02f, -8.46387297e-02f, -4.52293605e-02f, -5.80970049e-02f, -2.63031665e-02f, -9.49841514e-02f, -9.70851928e-02f,
        -1.03052042e-01f, -1.41553655e-01f, -5.40782571e-01f, -3.62244457e-01f, -1.17488153e-01f, -4.72631790e-02f, -7.71075720e-03f, -1.02689385e-03f,
        -3.94268110e-02f, -3.88918407e-02f, -1.47920335e-02f, -5.59317321e-02f, -1.65038526e-01f, -1.07269935e-01f, -2.35145967e-02f, -1.69839934e-02f,
        1.62916314e-02f, 1.08369365e-02f, -1.64737366e-02f, -8.50417018e-02f, -4.08271365e-02f, -7.89539367e-02f, -1.43676981e-01f, -6.29613698e-02f,
        -1.53613444e-02f, 9.31688473e-02f, 7.93976337e-02f, 6.39799461e-02f, 1.18102245e-01f, -2.19817296e-01f, -5.78070223e-01f, -1.86572045e-01f,
        1.30198775e-02f, 7.23475218e-02f, 2.96228239e-03f, -3.88969970e-03f, -1.23751760e-01f, -9.11150500e-02f, -1.21684864e-01f, -2.42203146e-01f,
        -1.45861089e-01f, -1.18293948e-01f, -1.09039964e-02f, -2.02012714e-02f, 2.82105878e-02f, 5.95388282e-03f, -4.93943430e-02f, -6.58873394e-02f,
        -5.53752892e-02f, -7.45068043e-02f, -3.78629891e-03f, 1.58395022e-02f, 1.58673748e-01f, 2.42947802e-01f, 2.61887074e-01f, 2.44928420e-01f,
        2.86786377e-01f, -3.25636894e-01f, -5.19186199e-01f, 2.53532897e-04f, 2.81025499e-01f, 1.18059471e-01f, -6.45650104e-02f, -2.28630062e-02f,
        -1.13945827e-01f, -1.11752778e-01f, -1.56726018e-01f, -2.02404872e-01f, -1.83767810e-01f, -4.66351919e-02f, -1.17717059e-02f, -1.84326451e-02f,
        -2.58146804e-02f, -4.66073863e-03f, -3.00131626e-02f, -9.63022336e-02f, -1.16267599e-01f, -1.65227000e-02f, 6.55210018e-02f, 2.10026279e-01f,
        3.17164332e-01f, 2.59285718e-01f, 4.07799929e-01f, 4.83676136e-01f, 4.16917622e-01f, -1.15614749e-01f, -2.72462517e-01f, 1.31041065e-01f,
        3.38304192e-01f, 1.29806980e-01f, 1.88313536e-02f, 4.60636057e-02f, 2.36197971e-02f, 6.80706799e-02f, -1.52971968e-02f, -8.81825164e-02f,
        -3.98004614e-02f, -3.37442830e-02f, 2.87839398e-03f, -2.99364310e-02f, -8.02465063e-03f, 2.72554271e-02f, -5.75999543e-02f, -4.25792448e-02f,
        -2.96948161e-02f, 6.90372512e-02f, 2.83965409e-01f, 3.14041674e-01f, 2.82090932e-01f, 2.83057451e-01f, 4.20782119e-01f, 5.49283683e-01f,
        3.61293465e-01f, -1.03305586e-01f, -1.02317080e-01f, 1.80892542e-01f, 2.55460232e-01f, 2.59853244e-01f, 1.92457840e-01f, 1.50209308e-01f,
        1.97738916e-01f, 1.27059832e-01f, 4.10850085e-02f, -4.64863107e-02f, -3.39142270e-02f, 1.99968610e-02f, 1.74428392e-02f, 1.45535106e-02f,
        2.53388006e-02f, -2.81781107e-02f, -1.90224801e-03f, 1.37476455e-02f, 1.31342188e-01f, 2.09386617e-01f, 2.80699551e-01f, 3.50797206e-01f,
        2.88228661e-01f, 2.42616326e-01f, 2.98001468e-01f, 3.72218758e-01f, 2.04810292e-01f, -8.96208808e-02f, -6.04027174e-02f, 1.48949564e-01f,
        3.31274480e-01f, 4.17509794e-01f, 2.50803739e-01f, 2.82198876e-01f, 1.57844990e-01f, 9.58489999e-02f, 4.79419902e-02f, -4.68528923e-03f,
        -8.38530660e-02f, -1.96367130e-02f, -3.58293578e-02f, -1.54362130e-03f, 5.30883577e-03f, -1.47222336e-02f, -1.17012030e-02f, -6.04073517e-03f,
        9.23805386e-02f, 1.36205167e-01f, 2.13748440e-01f, 3.07860285e-01f, 3.19046825e-01f, 2.90602177e-01f, 1.84050739e-01f, 2.20178992e-01f,
        1.18598588e-01f, -6.34420738e-02f, 1.12121068e-02f, 2.48367578e-01f, 4.65568125e-01f, 3.31198364e-01f, 1.80948347e-01f, 1.59768462e-01f,
        2.87748966e-02f, 3.62987281e-03f, 8.22316203e-03f, -7.00007603e-02f, -1.66711926e-01f, -9.26170051e-02f, 2.70738117e-02f, 1.99160688e-02f,
        6.44230889e-03f, -2.04112511e-02f, -9.02252621e-04f, -2.41898783e-02f, -2.69923974e-02f, 3.98285240e-02f, 1.11244664e-01f, 2.88146168e-01f,
        3.17877889e-01f, 2.05328017e-01f, 5.01870885e-02f, -1.31461760e-02f, 5.12886792e-02f, 6.26974106e-02f, 2.69990414e-01f, 4.51811552e-01f,
        3.89560491e-01f, 2.83707798e-01f, 1.87975526e-01f, 7.82400221e-02f, 1.07255988e-01f, 3.94599512e-02f, -6.99300021e-02f, -1.32719412e-01f,
        -1.01175979e-01f, -4.38450277e-02f, -6.06312938e-02f, 5.32949902e-03f, -1.87845118e-02f, 6.10637292e-03f, -2.74694432e-02f, -5.52904271e-02f,
        -8.73193592e-02f, -8.26253220e-02f, 8.29245523e-03f, 1.53837517e-01f, 2.50814289e-01f, 1.23213544e-01f, -2.34135203e-02f, -4.66541834e-02f,
        5.43616079e-02f, 2.61868238e-01f, 4.44321126e-01f, 4.01463777e-01f, 3.45124274e-01f, 1.47608802e-01f, 1.18861631e-01f, -2.08574906e-02f,
        -4.45054621e-02f, -1.19263306e-02f, -1.34116009e-01f, -1.05513528e-01f, -9.69675854e-02f, -6.45051599e-02f, -4.10652943e-02f, -2.35193539e-02f,
        -1.38577782e-02f, -2.51877420e-02f, -1.20585728e-02f, -6.98761195e-02f, -7.98064321e-02f, -1.06872663e-01f, -7.21253902e-02f, -2.82189418e-02f,
        4.31938991e-02f, -1.68862361e-02f, -1.81379020e-01f, -1.03994459e-01f, 1.12548091e-01f, 2.22169414e-01f, 2.64935374e-01f, 2.17606276e-01f,
        1.32285342e-01f, -1.10047065e-01f, -1.14604481e-01f, -1.18611805e-01f, -7.65441582e-02f, -7.67370388e-02f, -1.88024163e-01f, -1.31910384e-01f,
        -1.19773299e-01f, -9.20007974e-02f, -2.90988535e-02f, 3.18209305e-02f, 3.19027118e-02f, -7.75453169e-03f, 1.63434409e-02f, 5.48158307e-04f,
        -6.80856332e-02f, -1.03458397e-01f, -1.69659615e-01f, -1.88187301e-01f, -2.86553919e-01f, -2.98038423e-01f, -3.33613902e-01f, -2.36694247e-01f,
        -2.14203432e-01f, -1.13241196e-01f, 3.79193947e-02f, 7.21015930e-02f, -4.56976034e-02f, -1.12484790e-01f, -1.06682353e-01f, -1.42296463e-01f,
        -1.27500802e-01f, -1.31136626e-01f, -2.31169030e-01f, -1.81252614e-01f, -1.14103310e-01f, -9.86289931e-04f, -2.61987951e-02f, 2.55279671e-02f,
        3.04345042e-03f, 1.01356823e-02f, 6.71268767e-03f, -6.34889454e-02f, -1.03492141e-01f, -1.59625113e-01f, -2.10366681e-01f, -2.85058320e-01f,
        -3.74773234e-01f, -3.78810227e-01f, -3.77313465e-01f, -2.37711400e-01f, -2.38924906e-01f, -2.44797990e-01f, -1.11905605e-01f, -1.53464898e-02f,
        -2.11672410e-02f, -2.42810342e-02f, -7.86955133e-02f, -1.44828349e-01f, -7.41572827e-02f, -5.92887178e-02f, -1.15076147e-01f, -9.77008790e-02f,
        -6.05034791e-02f, -5.01511134e-02f, -2.35465467e-02f, -2.73467898e-02f, 2.83393133e-02f, -2.96486206e-02f, 8.88224132e-03f, -5.82529940e-02f,
        -4.88954708e-02f, -1.25778273e-01f, -2.22013742e-01f, -2.89817214e-01f, -2.27807432e-01f, -2.49445364e-01f, -2.06725404e-01f, -1.13092065e-01f,
        -1.40103891e-01f, -1.90958038e-01f, -1.29834443e-01f, -1.70954857e-02f, -5.58600575e-02f, -1.48480544e-02f, -7.39935040e-02f, 1.41617227e-02f,
        3.01248883e-03f, -1.91860441e-02f, -7.72545338e-02f, -4.54973765e-02f, -2.53644660e-02f, -1.25449887e-02f, -1.00099994e-02f, 3.91155202e-03f,
        1.01541011e-02f, -3.40167433e-02f, -3.21005681e-03f, -3.55586037e-02f, -3.93140987e-02f, -6.98854551e-02f, -9.73618478e-02f, -1.68050170e-01f,
        -1.43492237e-01f, -1.79215163e-01f, -9.80515108e-02f, -9.60195512e-02f, -1.12997711e-01f, -1.09224804e-01f, -1.00385375e-01f, -4.81399111e-02f,
        -1.95155907e-02f, 5.66482879e-02f, 5.24920598e-02f, 1.43186525e-01f, 1.06731176e-01f, 1.19966477e-01f, 1.14008645e-02f, -3.36619280e-02f,
        -2.42558606e-02f, -1.29240763e-03f, 7.41542457e-03f, 2.62906924e-02f, -1.54244229e-02f, -2.54517458e-02f, 1.38378760e-03f, -2.36279089e-02f,
        -4.78679389e-02f, -5.13384081e-02f, -4.10439633e-02f, -8.13389271e-02f, -5.76770008e-02f, -5.58727793e-02f, -1.71605553e-02f, -2.56362110e-02f,
        -7.14605004e-02f, -7.57041723e-02f, -4.09207754e-02f, -3.70012014e-03f, 2.69075427e-02f, 7.28017613e-02f, 1.46319002e-01f, 1.87229559e-01f,
        1.78852603e-01f, 1.14097223e-01f, -5.27976605e-04f, -2.17306218e-03f, 1.81306414e-02f, -2.81836884e-03f, -2.33170893e-02f, 1.78775787e-02f,
        -1.52323674e-02f, 5.27422503e-03f, -1.55894244e-02f, -1.55555038e-02f, 2.13041566e-02f, 9.97971557e-03f, -3.50722894e-02f, -6.93932772e-02f,
        -7.58246332e-02f, -9.91000235e-03f, -2.70908047e-02f, 2.57626013e-03f, -1.25639200e-01f, -1.18537366e-01f, -7.11511075e-02f, -8.50232318e-02f,
        -9.14717186e-03f, -6.04156144e-02f, 2.24579982e-02f, 3.43557447e-02f, 6.07195161e-02f, -8.40228982e-03f, 1.10506844e-02f, -1.10334540e-02f,
        -3.27440575e-02f, 3.67170759e-02f, 5.70125272e-03f, 1.98135152e-03f, 1.96629614e-02f, -3.07766721e-03f, -2.65913028e-02f, -1.77970752e-02f,
        -3.19822952e-02f, -1.41277360e-02f, -7.37759843e-02f, -9.20162201e-02f, -1.61106393e-01f, -1.46503165e-01f, -1.78466097e-01f, -2.38212839e-01f,
        -2.79110640e-01f, -2.35564172e-01f, -1.98685527e-01f, -1.86555743e-01f, -2.64332503e-01f, -2.63611823e-01f, -2.02580184e-01f, -1.96288764e-01f,
        -1.06923319e-01f, -5.53560928e-02f, 3.50129837e-03f, -2.21563485e-02f, -3.82247120e-02f, -2.55856961e-02f, -1.99694801e-02f, -1.16626881e-02f,
        -1.81248039e-03f, -3.43339443e-02f, -1.10753626e-03f, 1.89970713e-02f, -2.54137255e-02f, -1.99702699e-02f, -2.03498211e-02f, -2.59075258e-02f,
        -1.01707526e-01f, -1.03616357e-01f, -1.10667765e-01f, -1.83966234e-01f, -1.65765569e-01f, -2.15661913e-01f, -2.43312091e-01f, -2.43176177e-01f,
        -2.15503752e-01f, -1.88674942e-01f, -1.79649919e-01f, -1.27447009e-01f, -4.82173525e-02f, 2.81387547e-05f, 1.03805652e-02f, -1.52012175e-02f,
        5.62487589e-03f, 2.54839119e-02f, -9.68078710e-03f, 1.18427239e-02f, -6.77702762e-03f, 7.94021785e-03f, -3.31660472e-02f, 5.28250262e-03f,
        2.53355876e-02f, -1.57892948e-03f, -9.72939935e-03f, -7.57438224e-03f, 4.22991405e-04f, 1.68269686e-02f, -2.63720937e-02f, 9.96104907e-03f,
        -5.07712597e-03f, 7.12818140e-03f, -3.44584696e-02f, -1.58121753e-02f, -3.66707556e-02f, -2.43943464e-02f, -5.68102906e-03f, 7.18387589e-03f,
        -3.34354467e-03f, -1.03046689e-02f, -2.80311387e-02f, -5.68772387e-03f, -1.07793733e-02f, 8.02998990e-03f, -8.73768330e-03f, 2.68841200e-02f,
    },
    {
        -1.93015467e-02f, -8.96803476e-03f, -3.16209346e-03f, 2.23795325e-03f, -7.95003027e-04f, 1.97121799e-02f, 1.76403895e-02f, 7.64339790e-03f,
        2.31922045e-03f, -2.56111715e-02f, -1.87976714e-02f, 1.32557452e-02f, -2.33738236e-02f, 3.03532742e-02f, -1.56355649e-02f, -1.51094729e-02f,
        -4.42851335e-04f, 4.52565402e-03f, -2.20343526e-02f, -8.90705734e-04f, 3.06411870e-02f, -2.54903194e-02f, 2.48330832e-02f, 3.43833007e-02f,
        -2.40934342e-02f, -6.82748668e-03f, 6.86733797e-03f, 3.32043432e-02f, -1.86264515e-07f, -3.02014966e-02f, 2.42314562e-02f, 1.79972835e-02f,
        3.26396674e-02f, -8.50292947e-03f, 9.88200027e-03f, -1.77186783e-02f, -2.72951107e-02f, 1.08251497e-02f, -3.37211750e-02f, -3.07408758e-02f,
        4.61542094e-03f, -1.74794178e-02f, -1.15613933e-04f, -2.59603579e-02f, -2.77570188e-02f, -2.97513674e-03f, 2.96519743e-03f, 2.03564633e-02f,
        -9.80138220e-03f, 4.42473963e-03f, 1.48324333e-02f, -2.18982566e-02f, 1.14663988e-02f, 6.81565702e-03f, 1.22402683e-02f, -7.32670166e-03f,
        -3.43997106e-02f, -3.35758626e-02f, 1.01470444e-02f, -2.68476158e-02f, 2.37469897e-02f, 3.55796665e-02f, -1.09042646e-02f, -1.94145888e-02f,
        2.36285338e-03f, 2.64803376e-02f, -1.64228603e-02f, -5.01072928e-02f, -4.06036563e-02f, -3.41682099e-02f, -2.33824346e-02f, -3.80901694e-02f,
        -2.33174041e-02f, -2.83577270e-03f, -1.49423899e-02f, -2.24063005e-02f, 5.98580251e-03f, -2.33493578e-02f, -1.70867459e-03f, -3.56484763e-02f,
        -1.35459816e-02f, 6.06632698e-03f, -2.73359604e-02f, -2.21743062e-03f, 1.27766207e-02f, -1.90782472e-02f, -1.82111375e-02f, 3.43804359e-02f,
        -7.02219596e-03f, -2.89379880e-02f, 1.83825251e-02f, -5.31004152e-05f, -1.36463996e-02f, -6.41437992e-02f, -5.31959832e-02f, -7.77077377e-02f,
        -6.42801970e-02f, -4.07883860e-02f, -6.54061064e-02f, -4.27001491e-02f, -1.68732740e-03f, 7.26491809e-02f, 1.10816024e-01f, 9.64710489e-02f,
        1.16888538e-01f, 6.78303242e-02f, 5.98295219e-02f, -7.63445441e-03f, 2.30526868e-02f, 1.03200283e-02f, 3.38992812e-02f, -1.08706150e-02f,
        -2.64579654e-02f, -2.50848792e-02f, -5.33644855e-03f, 2.94252881e-03f, -3.43592837e-02f, -2.11283751e-02f, -5.15339300e-02f, -5.18287346e-02f,
        -1.70544356e-01f, -1.58244133e-01f, -1.14865236e-01f, -4.81981076e-02f, -8.84641856e-02f, -1.34462848e-01f, -5.38903102e-02f, 6.57608360e-02f,
        9.64620337e-02f, 1.29856601e-01f, 1.45538837e-01f, 5.50280660e-02f, -2.88097523e-02f, 1.11257702e-01f, 9.95774493e-02f, 7.64618143e-02f,
        8.25246945e-02f, 3.18226181e-02f, 8.94049881e-04f, 2.14901138e-02f, -1.88528299e-02f, 1.58067569e-02f, 3.11107431e-02f, 2.25785859e-02f,
        -8.84478539e-02f, -1.03240639e-01f, -1.70240626e-01f, -1.18484735e-01f, -1.02724023e-01f, 1.16956066e-02f, 4.13470156e-02f, 7.51003111e-03f,
        -4.91202474e-02f, -5.28868251e-02f, -8.94796029e-02f, -9.16760117e-02f, 3.01151332e-02f, 8.72815624e-02f, 1.23769559e-01f, 1.25352293e-02f,
        1.32830620e-01f, 9.34994221e-02f, 1.94259122e-01f, 2.40749747e-01f, 2.04572856e-01f, 8.40563327e-02f, 4.39351723e-02f, -2.67510191e-02f,
        2.99938396e-03f, -1.88085791e-02f, -3.25002149e-02f, -2.20529381e-02f, -1.24835320e-01f, -1.00228809e-01f, -1.06397711e-01f, -2.42999960e-02f,
        1.65722147e-02f, 6.64081350e-02f, 5.73125780e-02f, 7.92570710e-02f, 2.03813165e-02f, -2.95517743e-02f, 7.52716437e-02f, -7.69798690e-03f,
        -4.08440866e-02f, -1.86084043e-02f, 8.46150890e-02f, 1.21011123e-01f, 1.07965179e-01f, 7.44347498e-02f, 1.63214043e-01f, 2.96969742e-01f,
        3.70731056e-01f, 2.56458491e-01f, 6.42653108e-02f, 1.09597463e-02f, -3.08760740e-02f, -2.12723222e-02f, -3.09915729e-02f, -1.75606180e-02f,
        -1.38305202e-01f, -1.57949373e-01f, -9.15999040e-02f, -8.21359828e-03f, 1.29504487e-01f, 9.30288509e-02f, 1.32980943e-01f, 1.10343054e-01f,
        4.67766449e-02f, -1.47772525e-02f, 3.60500216e-02f, -9.41904634e-02f, 4.88056242e-02f, 8.17817673e-02f, 5.60653061e-02f, 8.77535120e-02f,
        1.05238363e-01f, 8.51082280e-02f, 1.79883227e-01f, 3.72316360e-01f, 5.19647896e-01f, 3.92177939e-01f, 1.10202000e-01f, 1.66568793e-02f,
        -7.48042297e-03f, 9.56578879e-04f, -1.77663118e-02f, -7.80097172e-02f, -2.20395878e-01f, -2.09116533e-01f, -1.35701343e-01f, -5.96248768e-02f,
        1.31219909e-01f, 7.81256258e-02f, 8.84477720e-02f, 1.56873152e-01f, 3.48984287e-03f, -6.73792586e-02f, -1.12516113e-01f, -1.47700801e-01f,
        -1.03621051e-01f, -1.01385275e-02f, -4.08985615e-02f, 5.97658567e-02f, 1.40250430e-01f, 1.37126088e-01f, 1.77204370e-01f, 4.83684838e-01f,
        6.90295160e-01f, 5.16356826e-01f, 1.08917922e-01f, -8.87313019e-03f, 3.15795802e-02f, 9.96396784e-03f, -2.78210584e-02f, -8.91647488e-02f,
        -2.04373822e-01f, -1.49068981e-01f, -7.77792484e-02f, 5.20787835e-02f, 1.52184263e-01f, 1.08216211e-01f, 1.47437602e-01f, 2.91375816e-01f,
        1.50454178e-01f, -9.33728740e-03f, -1.41172960e-01f, -2.91406542e-01f, -3.27226847e-01f, -1.87038243e-01f, -1.01558171e-01f, -5.60118593e-02f,
        2.00056527e-02f, 1.82857811e-01f, 2.29925677e-01f, 5.60871482e-01f, 8.58600557e-01f, 6.13089621e-01f, 1.10859834e-01f, -4.74000908e-03f,
        7.44830957e-03f, -2.89203543e-02f, -2.77648550e-02f, -7.36562014e-02f, -5.73101938e-02f, -8.15694481e-02f, 5.13367280e-02f, 1.40368670e-01f,
        2.11261526e-01f, 2.72347808e-01f, 2.65408099e-01f, 3.08354884e-01f, 2.80197144e-01f, 2.15964124e-01f, 4.28723507e-02f, -1.15641922e-01f,
        -2.01005444e-01f, -2.84293473e-01f, -2.72706866e-01f, -2.11966723e-01f, -1.46139696e-01f, 2.14201584e-03f, 5.24863973e-02f, 3.43161285e-01f,
        6.68614089e-01f, 5.49321353e-01f, 1.78061992e-01f, 1.46494145e-02f, -2.00641589e-04f, -2.44346559e-02f, -3.70025374e-02f, -4.71741594e-02f,
        -7.14893714e-02f, -2.18664370e-02f, 1.34414062e-01f, 1.36552840e-01f, 1.93058625e-01f, 1.44520611e-01f, 1.50096864e-01f, 1.86206400e-01f,
        2.71620721e-01f, 3.72835994e-01f, 9.62675139e-02f, -6.98037222e-02f, -1.44366995e-01f, -1.99351802e-01f, -2.00966194e-01f, -3.54222119e-01f,
        -4.54994559e-01f, -3.80822062e-01f, -3.79235268e-01f, -1.22742020e-01f, 1.29543468e-01f, 2.81841010e-01f, 5.69031201e-02f, -1.63364653e-02f,
        3.15232314e-02f, -2.38104537e-02f, -1.52702453e-02f, -4.88728508e-02f, -2.45342813e-02f, 4.22462337e-02f, 1.84219077e-01f, 1.25640273e-01f,
        9.66770202e-02f, 9.76139214e-03f, 2.07387790e-01f, 2.80723274e-01f, 2.86144644e-01f, 2.83897638e-01f, 4.05469388e-02f, -1.37372881e-01f,
        -3.07874650e-01f, -2.92868495e-01f, -2.54097760e-01f, -2.79946238e-01f, -4.03099746e-01f, -5.57076573e-01f, -5.69167018e-01f, -5.03967822e-01f,
        -2.67782509e-01f, 4.32124957e-02f, 5.43735400e-02f, 1.30802132e-02f, 6.42849971e-03f, 6.07151911e-03f, 1.16767120e-02f, -3.14749777e-02f,
        5.17160818e-02f, 4.89015058e-02f, 8.73990953e-02f, 1.13693036e-01f, 7.07129091e-02f, 6.78522065e-02f, 2.12004066e-01f, 2.72840679e-01f,
        3.11016530e-01f, 2.10218862e-01f, -1.04417780e-03f, -2.44769454e-01f, -3.98326337e-01f, -2.12582305e-01f, -1.39804780e-01f, -7.66495690e-02f,
        -1.29510447e-01f, -2.47380570e-01f, -3.26598942e-01f, -3.89991790e-01f, -2.82890111e-01f, -6.76866993e-02f, 1.83633249e-02f, 6.73083402e-03f,
        1.12451997e-03f, 6.64398400e-03f, -2.66437605e-02f, 2.43129544e-02f, -1.04928734e-02f, -3.41662355e-02f, 1.60661526e-02f, -4.82015079e-03f,
        5.43772392e-02f, 2.03539476e-01f, 2.55009145e-01f, 9.64007229e-02f, 1.42163157e-01f, 3.95331979e-02f, -8.48981813e-02f, -1.72729746e-01f,
        -2.26448163e-01f, -2.23670498e-01f, -1.55216187e-01f, -1.40495256e-01f, -7.76654631e-02f, -9.37218070e-02f, -1.33864731e-01f, -1.51530355e-01f,
        -1.18681446e-01f, -2.55948715e-02f, -3.89715694e-02f, -5.46370866e-03f, -4.76062531e-03f, 1.03770485e-02f, 2.26160102e-02f, 1.54606216e-02f,
        -2.22204868e-02f, -1.27967924e-01f, -1.46807224e-01f, -1.41005784e-01f, 2.31082109e-03f, 1.22809283e-01f, 1.26003489e-01f, 1.05832487e-01f,
        8.11692476e-02f, -6.24328628e-02f, -1.99796215e-01f, -2.64147758e-01f, -2.23034292e-01f, -1.54994547e-01f, -5.57260215e-03f, -4.70790863e-02f,
        -7.15618804e-02f, 1.52646902e-03f, -7.07301572e-02f, -4.81655449e-02f, -5.61201200e-02f, -5.43868467e-02f, -2.52164621e-02f, 2.93366872e-02f,
        3.09092123e-02f, 3.09371948e-03f, 6.80534588e-03f, -3.23725655e-03f, -5.57411797e-02f, -9.06021744e-02f, -1.44653544e-01f, -2.73126125e-01f,
        -2.80947536e-01f, -2.37581968e-01f, -1.03407368e-01f, -1.22554757e-01f, -5.13708368e-02f, -1.29396737e-01f, -2.40912095e-01f, -1.59334511e-01f,
        -1.78005025e-01f, -1.06968343e-01f, -2.15456467e-02f, -7.69848423e-03f, 2.92671565e-03f, -3.14927544e-03f, 4.38612513e-02f, 3.10933162e-02f,
        -8.92706122e-03f, -2.62810402e-02f, -2.31862161e-03f, -2.99791843e-02f, 2.83800699e-02f, -3.29145305e-02f, -3.29355448e-02f, -1.64350551e-02f,
        2.32288428e-02f, 6.05006255e-02f, 1.75773278e-01f, -1.67896286e-01f, -3.02301377e-01f, -3.13500345e-01f, -2.91301876e-01f, -2.69773364e-01f,
        -3.26439828e-01f, -3.23955387e-01f, -2.40229547e-01f, -1.08180627e-01f, -2.04937458e-02f, 6.93987459e-02f, 7.24671260e-02f, 2.04114858e-02f,
        8.62071589e-02f, 5.89479581e-02f, -1.38205076e-02f, 7.11874440e-02f, 8.14306363e-02f, -2.73130788e-03f, 2.33530682e-02f, 1.65639222e-02f,
        -1.43544925e-02f, -1.32590989e-02f, -1.20700453e-03f, -1.23891076e-02f, 6.72768652e-02f, 1.76168844e-01f, 3.71164560e-01f, 1.69320092e-01f,
        -2.49485709e-02f, -1.34566829e-01f, -1.55723497e-01f, -1.63794771e-01f, -1.47682399e-01f, -1.05551712e-01f, -1.99261936e-03f, -1.51435165e-02f,
        9.58267483e-04f, 9.89054292e-02f, 1.07138813e-03f, 8.17146227e-02f, 9.62769762e-02f, 4.10571471e-02f, 7.76801780e-02f, 9.82934609e-02f,
        6.54015541e-02f, -4.49205972e-02f, -3.75573784e-02f, 1.62525903e-02f, -1.00972075e-02f, -1.64228622e-02f, 1.11856144e-02f, -2.05807760e-02f,
        1.40278146e-01f, 1.87623337e-01f, 3.03794682e-01f, 2.27923259e-01f, 2.04103082e-01f, 9.88627821e-02f, 1.60634797e-02f, 5.39026782e-02f,
        6.97170123e-02f, 9.76039246e-02f, 2.07727719e-02f, 2.40825899e-02f, -5.49850687e-02f, -4.98451339e-03f, 8.01225677e-02f, 7.79859200e-02f,
        1.01869099e-01f, 9.93711278e-02f, 9.03354213e-02f, 1.58158794e-01f, 8.27027783e-02f, -3.65306288e-02f, 1.72502641e-02f, 1.26944110e-02f,
        -1.75504871e-02f, 3.15802582e-02f, -2.67868862e-02f, -1.56068793e-02f, 7.50451982e-02f, 1.42538920e-01f, 1.69628724e-01f, 7.60706067e-02f,
        2.66473234e-01f, 1.99482918e-01f, 7.73782581e-02f, 1.25036806e-01f, 4.69992198e-02f, 4.58215587e-02f, -3.36088873e-02f, 9.81077179e-03f,
        5.73006943e-02f, 9.49050933e-02f, 5.84293231e-02f, 4.37332578e-02f, 3.30393910e-02f, 5.25010191e-02f, 1.93722397e-01f, 1.16446584e-01f,
        2.68914923e-02f, -8.91009159e-03f, 1.30665163e-02f, 8.23388528e-03f, 3.45905088e-02f, 8.14332999e-03f, 4.34907572e-03f, -2.83872224e-02f,
        6.58699200e-02f, 6.82040825e-02f, 9.92833227e-02f, 1.50975555e-01f, 1.58517331e-01f, 1.27905875e-01f, 1.05404139e-01f, 1.18583530e-01f,
        1.15397640e-01f, 4.55328301e-02f, 5.91930412e-02f, 4.98090684e-02f, 6.31263480e-02f, 8.15994367e-02f, -1.20364167e-02f, 7.70206098e-03f,
        1.37247473e-01f, 1.87893152e-01f, 1.94439873e-01f, 1.49762377e-01f, 3.93568240e-02f, 1.67656094e-02f, -1.03540840e-02f, -1.19555546e-02f,
        2.40066200e-02f, 1.16362385e-02f, 2.73200385e-02f, 3.29015031e-02f, 6.44060522e-02f, -4.17764997e-03f, -7.46985748e-02f, 7.63611728e-03f,
        7.39278644e-02f, 7.29901046e-02f, 1.46989273e-02f, 7.90972188e-02f, 1.52461648e-01f, 1.89991474e-01f, 1.22632556e-01f, 6.91414624e-02f,
        1.02089487e-01f, 6.66734427e-02f, 8.56225416e-02f, 1.14583425e-01f, 1.44163847e-01f, 1.04732044e-01f, 1.30540565e-01f, 6.13603517e-02f,
        3.89800481e-02f, -8.31054524e-03f, 2.28617061e-02f, 1.35892304e-02f, -1.28040835e-02f, -3.14198248e-02f, -1.50334055e-03f, 3.46515775e-02f,
        3.41972825e-03f, 5.07736988e-02f, -2.74024829e-02f, -5.12268916e-02f, 4.94005717e-02f, 1.38391450e-01f, 1.57713458e-01f, 1.30945370e-01f,
        1.54700324e-01f, 3.63344066e-02f, 7.64568076e-02f, 7.79169798e-02f, 1.28133878e-01f, -5.43561438e-03f, -5.29598221e-02f, 1.05138859e-02f,
        3.39040495e-02f, 7.26602925e-03f, 1.07391616e-02f, 5.92027381e-02f, 5.56468079e-03f, -1.25683926e-03f, -9.89228766e-03f, 1.51129812e-02f,
        8.43219459e-04f, 6.17428496e-03f, 3.09214611e-02f, 1.51516646e-02f, -3.47596556e-02f, -2.32574772e-02f, -3.45958136e-02f, -4.66696499e-03f,
        6.16801493e-02f, 1.48867309e-01f, 1.36722729e-01f, 1.62228748e-01f, 2.04849184e-01f, 2.04619333e-01f, 1.86098784e-01f, 1.73464462e-01f,
        7.68177062e-02f, 1.15015291e-01f, 5.40549830e-02f, 4.95894030e-02f, 4.09084521e-02f, 2.15171482e-02f, 2.70878244e-02f, 1.99361169e-03f,
        -1.24620367e-02f, 1.99709218e-02f, -1.62939951e-02f, -1.86731946e-02f, -8.84144194e-03f, -4.40843403e-04f, 2.04372890e-02f, -6.49188785e-03f,
        -4.45645489e-03f, 4.91544022e-04f, 3.62684065e-03f, -2.52384450e-02f, -1.46258045e-02f, 3.67578007e-02f, 9.88694951e-02f, 9.02456194e-02f,
        1.28804684e-01f, 1.25790358e-01f, 1.08606324e-01f, 1.25159070e-01f, 1.18974924e-01f, 5.73133379e-02f, 1.00244600e-02f, 3.11103165e-02f,
        2.13213041e-02f, 1.67404227e-02f, 7.40128830e-02f, 6.43765256e-02f, 2.38065813e-02f, 2.00653579e-02f, -1.60918050e-02f, 6.23796880e-03f,
        8.15544277e-04f, -5.88017330e-03f, -9.68961231e-03f, 2.47332342e-02f, -9.84699465e-03f, -1.87029447e-02f, 2.04247981e-02f, -2.73674838e-02f,
        -5.88296242e-02f, -4.81952429e-02f, -7.77890556e-04f, 4.48320173e-02f, 4.71961573e-02f, 1.61916669e-02f, -5.99617288e-02f, 2.28538457e-02f,
        -2.60578897e-02f, -4.47604172e-02f, -2.59926487e-02f, -2.66177692e-02f, -1.20403152e-02f, -2.93659251e-02f, -2.87174694e-02f, -2.28042062e-02f,
        -1.14306426e-02f, 1.00153731e-02f, -3.08569130e-02f, 1.16418377e-02f, -1.24672353e-02f, 2.25744508e-02f, 1.78287178e-03f, -1.04178861e-03f,
        -1.12702493e-02f, -3.34449522e-02f, 1.00699095e-02f, 3.95081239e-03f, 1.97360534e-02f, -3.01666651e-02f, 1.56228086e-02f, 2.69762054e-02f,
        1.73224658e-02f, -8.49307235e-03f, -3.65357436e-02f, 2.00155675e-02f, -1.65871866e-02f, -2.17058752e-02f, 8.80586822e-03f, -2.03908626e-02f,
        -1.05226785e-02f, -1.28289480e-02f, 3.02316975e-02f, 9.71337222e-03f, 3.11744325e-02f, 1.57436356e-03f, 8.76273587e-03f, 2.91703306e-02f,
    },
    {
        6.51421025e-03f, 6.99387863e-03f, -1.10177100e-02f, 1.35253593e-02f, -2.91236732e-02f, 3.25461887e-02f, -1.27848387e-02f, -1.58668682e-02f,
        8.22142139e-03f, 6.30353391e-03f, 2.28820480e-02f, 1.71015412e-02f, 4.42836666e-03f, -8.34593666e-05f, 7.27229798e-03f, 3.28586102e-02f,
        3.21537592e-02f, 1.80576853e-02f, 4.08006832e-03f, -2.07882188e-02f, 3.47889848e-02f, 9.16463882e-03f, 2.32681260e-02f, -2.52424106e-02f,
        -6.57763332e-03f, 2.97058858e-02f, 4.10299376e-03f, 2.60264538e-02f, -2.63998285e-03f, -1.37575660e-02f, -2.98709422e-03f, 7.62657821e-03f,
        -1.80873033e-02f, 1.11202355e-02f, -2.63607539e-02f, 1.37335826e-02f, 3.12685929e-02f, 2.76810471e-02f, 1.31084851e-03f, 2.62228344e-02f,
        3.39578651e-02f, 5.58626205e-02f, 1.28105320e-02f, 1.52956815e-02f, -1.37437414e-02f, 1.89868140e-03f, -4.36580041e-03f, 1.03973486e-02f,
        3.67561541e-02f, 1.73894817e-03f, -2.68229302e-02f, -3.24868411e-02f, -4.52846661e-03f, -2.66618095e-02f, -7.45895877e-03f, 1.85822509e-02f,
        -1.71078369e-03f, -1.99573636e-02f, -1.87839605e-02f, -1.74282249e-02f, 1.52144358e-02f, -3.41588855e-02f, 4.60505746e-02f, 7.35443607e-02f,
        8.14755186e-02f, 4.26569916e-02f, 1.23881079e-01f, 1.57396361e-01f, 1.67052820e-01f, 1.73570499e-01f, 1.41032189e-01f, 1.24306582e-01f,
        1.40457690e-01f, 9.86560509e-02f, 1.36299521e-01f, 1.22474700e-01f, 5.54621108e-02f, 7.95099586e-02f, 3.84276584e-02f, 5.96766546e-02f,
        -1.09523945e-02f, -1.13713285e-02f, -2.07135454e-03f, 3.36326659e-04f, 1.70328282e-02f, -2.60071307e-02f, 3.40771638e-02f, -1.49971740e-02f,
        -1.08946338e-02f, -2.46891342e-02f, 2.18785834e-02f, 4.44531851e-02f, 8.35918859e-02f, 1.02012187e-01f, 1.52890384e-01f, 1.29659683e-01f,
        1.50893524e-01f, 1.20702110e-01f, 1.76114202e-01f, 1.30202025e-01f, 1.07228316e-01f, 1.57970428e-01f, 2.05420211e-01f, 1.97075576e-01f,
        1.94523633e-01f, 1.44845963e-01f, 1.47751570e-01f, 1.30579755e-01f, 4.63713780e-02f, -2.07814835e-02f, 2.12319549e-02f, 1.88941993e-02f,
        2.73546390e-02f, -1.85895767e-02f, -1.88723467e-02f, 3.21820341e-02f, 1.86503660e-02f, -2.79898010e-02f, 4.30297107e-03f, 3.65501009e-02f,
        6.04995154e-02f, 5.29917963e-02f, 3.28962840e-02f, -3.63180377e-02f, -4.51090746e-02f, -3.28338705e-02f, -7.56348297e-02f, -2.91930065e-02f,
        4.89171930e-02f, 9.61294547e-02f, 1.46370858e-01f, 1.95078522e-01f, 1.96155086e-01f, 2.27693275e-01f, 2.12052986e-01f, 1.65440932e-01f,
        3.33263054e-02f, -2.05196198e-02f, 1.74159594e-02f, -9.10810474e-03f, 2.21052319e-02f, -2.19099317e-02f, -7.84823392e-03f, -1.77247282e-02f,
        -1.93520989e-02f, -3.77076566e-02f, -2.05711625e-03f, -4.96516749e-02f, 1.59950554e-02f, 1.40192825e-02f, -3.58254425e-02f, -1.76111534e-01f,
        -1.24589421e-01f, -1.53114691e-01f, -1.06298827e-01f, -1.06538147e-01f, -1.15826979e-01f, 1.49812335e-02f, 1.15067631e-01f, 1.34676963e-01f,
        1.74359947e-01f, 1.51221260e-01f, 9.86408740e-02f, 1.45893633e-01f, 4.27069925e-02f, 3.22895795e-02f, 3.79411727e-02f, 1.50851002e-02f,
        1.79906934e-02f, 1.27552347e-02f, 1.75395068e-02f, -7.36993644e-03f, 1.03869392e-02f, -2.33402848e-02f, -5.13892174e-02f, -3.64820510e-02f,
        -1.92666762e-02f, -6.81739673e-02f, -1.48717478e-01f, -1.44012585e-01f, -1.72448665e-01f, -1.94830105e-01f, -1.28028303e-01f, -1.06196880e-01f,
        -1.48897544e-01f, -9.91461724e-02f, -1.13666698e-01f, -7.19899610e-02f, -5.75748086e-02f, -6.25086427e-02f, -3.65187274e-03f, -2.47618482e-02f,
        1.67937651e-02f, -6.37833495e-03f, -1.00872281e-03f, -2.85775866e-03f, 3.01382616e-02f, -1.64584834e-02f, 2.89589278e-02f, -4.32432257e-02f,
        -9.88616049e-03f, -5.47069795e-02f, -1.19909227e-01f, -6.08380623e-02f, -9.64375883e-02f, -7.57783651e-02f, -1.73667371e-01f, -1.50939718e-01f,
        -1.21150494e-01f, -1.96484506e-01f, -1.87148973e-01f, -1.54761925e-01f, -2.45787054e-01f, -2.43882075e-01f, -2.65917927e-01f, -2.98725873e-01f,
        -2.40042865e-01f, -1.96061999e-01f, -1.58961639e-01f, -1.51140288e-01f, -4.19473536e-02f, -3.47600169e-02f, 2.07867753e-02f, 1.27996914e-02f,
        -1.09114861e-02f, 1.31246587e-02f, 2.88287383e-02f, -2.80605014e-02f, -2.64936481e-02f, -4.74062935e-02f, -8.01507309e-02f, -1.21843725e-01f,
        -8.96394625e-02f, -1.30078793e-01f, -1.52642757e-01f, -1.37777403e-01f, -1.84264854e-01f, -2.03966826e-01f, -2.14967161e-01f, -2.74495393e-01f,
        -3.03439289e-01f, -3.44020605e-01f, -4.65328574e-01f, -4.39303815e-01f, -3.53572786e-01f, -2.51393080e-01f, -2.59464562e-01f, -2.44572654e-01f,
        -1.29746437e-01f, -9.02870297e-02f, -5.62213594e-03f, 3.79537698e-03f, -2.01365515e-03f, -2.54601631e-02f, -3.24922837e-02f, 4.64564655e-03f,
        -2.09906716e-02f, -8.27926695e-02f, -1.31180480e-01f, -1.29616363e-02f, -2.89448611e-02f, -1.30829528e-01f, -1.39061198e-01f, -1.33348167e-01f,
        -1.57141507e-01f, -1.85616016e-01f, -1.79129988e-01f, -3.05074692e-01f, -4.12219703e-01f, -5.43475032e-01f, -5.11458993e-01f, -4.30568516e-01f,
        -3.21308732e-01f, -2.85034567e-01f, -3.08373958e-01f, -2.01889142e-01f, -1.77040324e-01f, -9.17611420e-02f, -1.62385516e-02f, 6.21098606e-03f,
        2.86225211e-02f, -3.10510546e-02f, 1.36434371e-02f, -3.37384343e-02f, -3.38139944e-02f, -1.07974902e-01f, -8.49959999e-02f, 5.69386967e-03f,
        1.99650903e-03f, -4.23426554e-02f, -1.73730012e-02f, -7.87441880e-02f, -1.30552456e-01f, -5.87679930e-02f, -1.87709033e-01f, -3.43676686e-01f,
        -4.35191274e-01f, -4.09053087e-01f, -3.92092526e-01f, -3.16422194e-01f, -2.43950650e-01f, -2.32257843e-01f, -2.19625890e-01f, -7.45076016e-02f,
        -9.66192111e-02f, -1.55689970e-01f, -2.01172046e-02f, -2.17760690e-02f, -1.76541489e-02f, -3.29904370e-02f, 3.05114929e-02f, -3.37920040e-02f,
        -3.10830120e-02f, -2.37555075e-02f, 2.70986725e-02f, 1.09962791e-01f, 4.88847308e-02f, 5.92731945e-02f, 5.00125177e-02f, -1.32857647e-03f,
        5.59400171e-02f, 6.34719133e-02f, -1.74343109e-01f, -4.22194600e-01f, -2.75456369e-01f, -2.76953548e-01f, -2.05013901e-01f, -1.79953977e-01f,
        -1.22680143e-01f, -1.78645123e-02f, 4.03656811e-02f, 1.29297376e-01f, -1.36308055e-02f, -1.23629816e-01f, -3.80538478e-02f, 2.67199450e-03f,
        -1.66671891e-02f, 1.69865023e-02f, -3.55670862e-02f, -3.38708647e-02f, -6.09269105e-02f, -2.69420594e-02f, 9.31150988e-02f, 1.16553150e-01f,
        1.10476628e-01f, 1.18838131e-01f, 6.05174750e-02f, 1.84339508e-01f, 1.52928755e-01f, 8.42616260e-02f, -2.06545919e-01f, -2.18243390e-01f,
        -6.28949106e-02f, -1.04875393e-01f, -1.53912008e-01f, -1.79413006e-01f, -5.65113910e-02f, 1.08896568e-01f, 1.97228268e-01f, 3.39865893e-01f,
        1.43007800e-01f, -2.98871603e-02f, -2.01052055e-02f, 3.20904665e-02f, 2.32042130e-02f, -5.35948249e-03f, -3.54388393e-02f, 1.53284166e-02f,
        -4.52009179e-02f, 9.01707634e-02f, 1.57671720e-01f, 7.21266419e-02f, 1.20632440e-01f, 9.47530270e-02f, 1.53624669e-01f, 1.50432914e-01f,
        1.36964813e-01f, 1.32727576e-02f, -1.29509017e-01f, 2.22964417e-02f, 2.25513242e-04f, -1.07981578e-01f, -1.17257655e-01f, -7.63560757e-02f,
        -4.39507253e-02f, 1.62336737e-01f, 3.00093830e-01f, 4.06468958e-01f, 2.33499065e-01f, -2.64165122e-02f, -8.17786083e-02f, -8.80242791e-03f,
        2.51219328e-02f, 1.28375106e-02f, -2.88048051e-02f, -2.85457652e-02f, -5.62746078e-02f, 5.51263876e-02f, 1.27850994e-01f, 1.44317210e-01f,
        1.69033483e-01f, 1.75672054e-01f, 2.06392631e-01f, 3.19443107e-01f, 1.25943527e-01f, -5.94900995e-02f, -1.79090183e-02f, 9.10161138e-02f,
        8.52061883e-02f, -1.50630996e-01f, -1.68980241e-01f, -7.34680668e-02f, 2.78849732e-02f, 1.36617854e-01f, 2.87699133e-01f, 3.00946325e-01f,
        1.75692290e-01f, -3.70024070e-02f, -8.64528939e-02f, -8.43193033e-04f, 7.84803741e-03f, -2.03401595e-02f, -2.51276419e-03f, -2.75233760e-02f,
        -1.34573624e-01f, -7.22625060e-03f, 1.24852806e-01f, 1.69593766e-01f, 1.54095814e-01f, 1.92241296e-01f, 2.80793130e-01f, 3.48352671e-01f,
        1.20813377e-01f, 4.10201922e-02f, 1.53456792e-01f, 1.03498615e-01f, 6.84443163e-03f, -6.03082441e-02f, -8.29904452e-02f, -6.94487663e-03f,
        1.10214718e-01f, 1.31045341e-01f, 1.68048352e-01f, 1.87081248e-01f, 6.28969818e-02f, -3.54421660e-02f, -8.39601830e-02f, 1.88067816e-02f,
        9.42907855e-03f, -2.80648675e-02f, -1.36345522e-02f, -2.22556889e-02f, -1.46204770e-01f, -3.03536449e-02f, 1.33582562e-01f, 2.37414017e-01f,
        1.79688051e-01f, 2.60156900e-01f, 3.55046749e-01f, 4.14873034e-01f, 7.76148885e-02f, 6.29332438e-02f, 1.46375388e-01f, 5.23262136e-02f,
        -7.58504644e-02f, -1.36041969e-01f, 3.67960744e-02f, 7.81344026e-02f, 1.96767207e-02f, 9.55018494e-03f, 2.14728359e-02f, 7.20919371e-02f,
        1.89151540e-02f, -5.07737994e-02f, -8.49925205e-02f, -2.75831986e-02f, -2.15687156e-02f, -3.22277546e-02f, 2.78159510e-02f, -1.99870225e-02f,
        -1.87802255e-01f, -1.17966428e-01f, 5.42087071e-02f, 2.02960387e-01f, 2.29316443e-01f, 2.74038225e-01f, 4.06021774e-01f, 4.43310529e-01f,
        1.83653921e-01f, 6.63511679e-02f, 7.67586604e-02f, 1.37599483e-02f, -7.71251395e-02f, 2.89982818e-02f, 1.23714827e-01f, 1.43632382e-01f,
        5.11513464e-02f, 3.82984728e-02f, 2.19962522e-02f, 5.22519648e-02f, -6.06252328e-02f, -8.11047032e-02f, -2.52717678e-02f, -5.18259360e-03f,
        -2.79566813e-02f, 1.58526953e-02f, -9.45513230e-03f, -3.59769836e-02f, -1.55963600e-01f, -1.76562339e-01f, -5.87537736e-02f, 1.25871390e-01f,
        1.70312479e-01f, 1.93207368e-01f, 3.25758696e-01f, 3.51298660e-01f, 3.81270885e-01f, 2.13244304e-01f, 6.98928833e-02f, 6.39622584e-02f,
        1.22500092e-01f, 1.66658506e-01f, 2.23354921e-01f, 5.54078929e-02f, 2.98816804e-02f, 9.05329138e-02f, 3.88329104e-03f, 4.95726010e-03f,
        -6.03855737e-02f, -1.09844860e-02f, -4.94490517e-03f, -2.47754734e-02f, -3.04126348e-02f, 3.32416147e-02f, -3.28585431e-02f, -5.80081232e-02f,
        -1.13632381e-01f, -1.99695304e-01f, -1.06116466e-01f, 4.26230617e-02f, 9.05388072e-02f, 2.02083245e-01f, 3.08419824e-01f, 4.46006179e-01f,
        4.17829603e-01f, 2.00909391e-01f, 2.06437483e-01f, 1.80304199e-01f, 1.91906512e-01f, 1.58092409e-01f, 1.22958660e-01f, 8.28910619e-02f,
        9.08505321e-02f, 7.09854886e-02f, 1.17251361e-02f, -4.43455242e-02f, -8.32448974e-02f, -6.15120865e-02f, -8.48755147e-03f, -3.83149013e-02f,
        2.47227512e-02f, 1.23937819e-02f, -6.59435568e-03f, -5.11487052e-02f, -1.41075239e-01f, -2.09729493e-01f, -1.82797298e-01f, -5.09785078e-02f,
        1.15480917e-02f, 1.70828000e-01f, 2.73314148e-01f, 3.11178565e-01f, 4.24854845e-01f, 3.34198177e-01f, 3.84875059e-01f, 3.15811992e-01f,
        2.30199888e-01f, 1.05733603e-01f, 1.99160367e-01f, 1.12533502e-01f, 7.69419819e-02f, 5.57570893e-04f, -9.53363255e-02f, -8.14980641e-02f,
        -2.91513838e-02f, -1.72767472e-02f, 2.36416003e-03f, 1.51212905e-02f, 1.54626893e-03f, -1.71460211e-02f, -2.06263978e-02f, -3.80156860e-02f,
        -8.18945467e-02f, -1.56579047e-01f, -2.60028869e-01f, -9.06426087e-02f, 1.02362400e-02f, 1.12288289e-01f, 2.38257840e-01f, 2.58283049e-01f,
        4.02653784e-01f, 4.39628512e-01f, 3.85708779e-01f, 2.87511349e-01f, 1.83732599e-01f, 2.05678880e-01f, 2.02237338e-01f, 5.00515327e-02f,
        -7.59453629e-04f, -8.95009488e-02f, -8.85197148e-02f, -3.52897383e-02f, 5.09618409e-03f, 3.89595726e-03f, 2.89602857e-02f, 2.50372384e-02f,
        8.00422952e-03f, 1.40986657e-02f, -2.16003787e-03f, -8.22766568e-04f, -4.23740186e-02f, -1.23195648e-01f, -1.87453896e-01f, -2.18892261e-01f,
        -1.77765846e-01f, -6.63784370e-02f, 2.06785742e-02f, -7.49456976e-03f, 1.33630812e-01f, 1.26232997e-01f, 4.01627012e-02f, 9.52335596e-02f,
        6.89748377e-02f, -4.66830656e-03f, -7.89899975e-02f, -4.03386764e-02f, -7.79121146e-02f, -3.44889164e-02f, -6.24455139e-02f, -7.22019970e-02f,
        -3.29275690e-02f, -4.09203693e-02f, -2.55154837e-02f, -3.00133741e-03f, -2.62456462e-02f, -8.99098814e-05f, 4.47556004e-03f, -2.02657003e-02f,
        -1.63820421e-03f, -2.50520054e-02f, -9.13589895e-02f, -1.67135000e-01f, -1.80462286e-01f, -2.44067475e-01f, -2.48584479e-01f, -2.84100682e-01f,
        -1.91231787e-01f, -1.62456363e-01f, -1.12422973e-01f, -1.12099335e-01f, -1.19053580e-01f, -1.30793527e-01f, -8.15266445e-02f, -4.17795181e-02f,
        -8.22180808e-02f, -3.34097482e-02f, -5.79899326e-02f, -3.52692865e-02f, -3.61484475e-02f, -3.67375417e-03f, 6.83932099e-03f, -3.54609303e-02f,
        -7.04993121e-03f, 1.76408961e-02f, -3.15435277e-03f, -2.19908962e-03f, 2.22185757e-02f, -1.68575309e-02f, -1.95145104e-02f, -8.84663593e-03f,
