#include "PerceptronData.h"

const float g_perceptron_weights[PERCEPTRON_CLASS_COUNT][PERCEPTRON_INPUT_SIZE] = {
    {
        -2.71845609e-02f, -1.95264947e-02f, -1.23362169e-02f, 2.60478072e-02f, 8.15873221e-03f, 3.49656083e-02f, 6.08351827e-03f, 6.70806319e-03f,
        2.50039622e-03f, -2.68046316e-02f, -4.00693342e-03f, -1.63079984e-02f, -2.04568934e-02f, 1.17408177e-02f, 2.04553474e-02f, 2.63159014e-02f,
        1.32298172e-02f, -1.75123997e-02f, -3.60647589e-03f, -3.54821570e-02f, -1.64685510e-02f, 3.18007506e-02f, -2.79410407e-02f, 1.38538927e-02f,
        5.72721288e-03f, 2.60433443e-02f, -1.42407976e-02f, -2.68100761e-02f, -3.89009714e-04f, -2.36143265e-02f, -2.77300999e-02f, -2.61426829e-02f,
        1.12200072e-02f, 5.09726629e-03f, -1.69416852e-02f, -3.49746756e-02f, -1.40089970e-02f, -2.24120207e-02f, 1.07955206e-02f, -1.64176226e-02f,
        2.81528756e-02f, -3.29709463e-02f, -2.58033592e-02f, -9.37057007e-03f, -2.30029654e-02f, 2.04852577e-02f, -2.29834188e-02f, 1.59532335e-02f,
        1.01946220e-02f, -3.12726647e-02f, 8.62828456e-03f, 2.39364393e-02f, 2.12852657e-02f, 2.18842812e-02f, 5.63608482e-03f, 2.81747021e-02f,
        -1.08205173e-02f, -2.21061204e-02f, 3.49049307e-02f, -2.39356402e-02f, 1.35494163e-02f, 3.22920457e-02f, 3.41158025e-02f, -2.03479342e-02f,
        -1.47102280e-02f, 4.67967615e-03f, 6.70218421e-03f, -2.36151274e-02f, -3.80770043e-02f, -3.52824964e-02f, -5.71458554e-03f, -6.13234863e-02f,
        -2.10370738e-02f, -1.68350339e-02f, 5.16164536e-03f, -4.08475399e-02f, -1.86438654e-02f, -3.65986601e-02f, 2.19208952e-02f, 1.08588289e-03f,
        1.95026733e-02f, -1.77507233e-02f, 3.02980579e-02f, -2.37488747e-02f, -4.23980877e-03f, -1.17402133e-02f, -1.25569015e-04f, 1.92438476e-02f,
        -2.19960567e-02f, 1.83841959e-02f, 1.11622810e-02f, -9.38805472e-03f, 3.61915072e-03f, -1.63441580e-02f, -4.82551865e-02f, -5.97462282e-02f,
        -2.40871571e-02f, -6.43813536e-02f, -6.64022118e-02f, -2.87186205e-02f, -6.20741360e-02f, -7.31760263e-02f, -1.05426230e-01f, -7.01488703e-02f,
        -5.98912947e-02f, -2.30893772e-02f, -5.13934046e-02f, -4.14975695e-02f, -1.19160896e-03f, 2.39903037e-03f, 5.04992856e-03f, -1.72116756e-02f,
        -3.26246768e-03f, 1.26309711e-02f, 4.53791209e-03f, 2.77095456e-02f, 1.69476755e-02f, 1.28776701e-02f, -1.03611760e-02f, -5.20895906e-02f,
        -2.50475965e-02f, -2.15356071e-02f, 3.20875901e-03f, 7.30845938e-03f, -7.41673820e-03f, -1.86170321e-02f, 4.49961657e-03f, 4.30432558e-02f,
        -3.31464298e-02f, -2.66542267e-02f, -2.28369832e-02f, -7.52165690e-02f, -4.23752517e-02f, -7.55113140e-02f, -4.33582664e-02f, -1.52600668e-02f,
        -1.89661365e-02f, 6.28747325e-03f, -2.87113357e-02f, -3.22164409e-02f, -3.35627124e-02f, 3.27673741e-02f, 2.51338407e-02f, -3.29722837e-02f,
        -7.47116935e-03f, -3.63390371e-02f, -1.99555941e-02f, -4.86070290e-02f, -5.14523089e-02f, -6.56629801e-02f, -3.38738114e-02f, -2.63284966e-02f,
        3.86574753e-02f, 8.40497762e-02f, 1.15016975e-01f, 1.51791885e-01f, 1.32463396e-01f, 1.32966027e-01f, 1.40779436e-01f, 5.98365739e-02f,
        -1.94725003e-02f, 1.47697097e-02f, -2.90723965e-02f, -4.93984260e-02f, -7.79116303e-02f, -6.06084950e-02f, 4.96773981e-03f, -2.38416996e-02f,
        3.18753310e-02f, -3.31648886e-02f, -3.11659351e-02f, 1.31440535e-02f, 1.45431235e-02f, -2.84633264e-02f, -5.97107671e-02f, -6.47965893e-02f,
        -7.99559131e-02f, -9.47617367e-02f, -3.74289528e-02f, 4.46506366e-02f, 2.37831362e-02f, 1.39391571e-01f, 1.20693207e-01f, 1.48193866e-01f,
        1.39721975e-01f, 1.69265151e-01f, 1.77123114e-01f, 1.11615919e-01f, 4.33143824e-02f, 1.25604808e-01f, 5.78939915e-02f, -6.18365780e-02f,
        -7.27376863e-02f, -7.16460422e-02f, -1.81594566e-02f, 2.74481308e-02f, 1.37749622e-02f, -1.22465612e-02f, 2.29116287e-02f, 2.41974518e-02f,
        4.12090309e-03f, -3.87637131e-02f, -3.89333405e-02f, -5.73838539e-02f, -1.07450917e-01f, -1.66725386e-02f, -7.61398464e-04f, 3.04810032e-02f,
        2.03019734e-02f, 8.51804391e-02f, 6.14790656e-02f, 1.01275720e-01f, 1.72959983e-01f, 2.35661507e-01f, 1.85500830e-01f, 1.12176575e-01f,
        9.31584984e-02f, 5.39971553e-02f, 1.08274646e-01f, 6.03595115e-02f, -3.97644602e-02f, -7.18635172e-02f, -5.01186997e-02f, 2.79618446e-02f,
        2.53026150e-02f, 1.57387108e-02f, -2.43929308e-02f, -5.88569837e-03f, -1.88277029e-02f, -3.89483646e-02f, -6.31470829e-02f, -5.38911782e-02f,
        -4.29932624e-02f, -1.01440670e-02f, 1.75012071e-02f, 2.78261919e-02f, 4.19232473e-02f, 3.38880867e-02f, 8.49795043e-02f, 1.52680665e-01f,
        2.20417917e-01f, 2.01004297e-01f, 1.93013027e-01f, 1.16102703e-01f, 4.45514284e-02f, 5.08373156e-02f, 1.23486176e-01f, 1.54629529e-01f,
        -6.00425154e-02f, -7.78605565e-02f, 1.73461821e-03f, -1.93546955e-02f, 2.27262247e-02f, 1.75525285e-02f, 2.33008750e-02f, -1.57144256e-02f,
        -2.37479936e-02f, -7.54364580e-02f, -8.40738714e-02f, -7.01966733e-02f, -1.54117746e-02f, -3.28811780e-02f, 4.99874093e-02f, -3.37739550e-02f,
        3.30893770e-02f, 8.39536041e-02f, 5.52170239e-02f, 5.32804392e-02f, 1.49743795e-01f, 1.88752681e-01f, 2.05361217e-01f, 1.71011999e-01f,
        4.25878279e-02f, 6.47160187e-02f, 1.35656506e-01f, 2.03408748e-01f, 5.31705767e-02f, -4.47326601e-02f, -2.18518563e-02f, -1.91822462e-02f,
        2.23537907e-02f, -2.57420875e-02f, -1.84259471e-02f, -2.96053663e-02f, -4.08894755e-02f, -5.15706912e-02f, -2.26020310e-02f, -2.03751288e-02f,
        -7.59321218e-03f, -3.04764435e-02f, -5.24270050e-02f, 2.71335915e-02f, 6.39934987e-02f, 5.90785332e-02f, -1.48827611e-02f, -1.28124997e-01f,
        -9.32532474e-02f, 8.51486698e-02f, 1.77236840e-01f, 1.36381164e-01f, 1.30323753e-01f, 1.13216311e-01f, 1.75790757e-01f, 2.65889287e-01f,
        6.79360703e-02f, -8.30932781e-02f, -1.95767283e-02f, -2.12669596e-02f, 2.16172244e-02f, 2.79926807e-02f, 2.53954250e-02f, 1.42633263e-02f,
        -5.86658418e-02f, -3.60748544e-02f, 2.31286744e-03f, -1.65795349e-03f, 2.52612531e-02f, -3.07194572e-02f, -1.12592336e-02f, 3.68124209e-02f,
        1.53890774e-02f, -6.30755797e-02f, -2.09323183e-01f, -3.54382277e-01f, -3.34422946e-01f, -1.11377656e-01f, -9.73010808e-03f, 1.11904673e-01f,
        8.05786252e-02f, 1.74150392e-01f, 2.59796709e-01f, 2.86042035e-01f, 1.34014517e-01f, -3.79683338e-02f, -1.80731043e-02f, 1.72077902e-02f,
        -3.40495855e-02f, -1.10606067e-02f, -2.90998369e-02f, 1.31405536e-02f, -5.59411384e-02f, -1.10551687e-02f, 4.07069884e-02f, 4.72202413e-02f,
        2.41476558e-02f, 1.70982610e-02f, 4.76444922e-02f, 2.24750545e-02f, 2.49248762e-02f, -1.39872983e-01f, -3.66043746e-01f, -4.66506779e-01f,
        -4.85906184e-01f, -2.16110602e-01f, -4.16298695e-02f, 1.84233766e-02f, 8.49275477e-03f, 1.14117227e-01f, 2.71161258e-01f, 3.01920503e-01f,
        2.01688245e-01f, 1.37175899e-03f, -2.46033110e-02f, 1.79463569e-02f, -1.24587482e-02f, 7.97482673e-03f, -3.38699371e-02f, 1.90081019e-02f,
        -4.73623052e-02f, 4.06009033e-02f, 1.02138750e-01f, 1.25714585e-01f, 5.05476594e-02f, 4.98376153e-02f, 1.26768246e-01f, 7.43016303e-02f,
        2.18225736e-02f, -2.58301675e-01f, -4.44635302e-01f, -5.35229981e-01f, -4.54797179e-01f, -2.73740351e-01f, -9.99116004e-02f, -4.70001101e-02f,
        -5.66280037e-02f, 8.62336531e-02f, 2.49452204e-01f, 3.07228506e-01f, 1.64473236e-01f, 4.44043018e-02f, -8.11132323e-03f, 1.31258648e-02f,
        2.60488875e-02f, -9.22934804e-03f, 1.50958877e-02f, -1.26971910e-02f, -5.45229651e-02f, 7.16027096e-02f, 1.67185768e-01f, 2.09639639e-01f,
        1.11396521e-01f, 1.65044159e-01f, 2.02101201e-01f, 1.26108333e-01f, -1.09581351e-01f, -3.34053606e-01f, -4.92023557e-01f, -5.39128959e-01f,
        -4.83776629e-01f, -1.82951361e-01f, -8.68200660e-02f, -4.66071069e-02f, 1.65675022e-02f, 8.81556571e-02f, 2.15198010e-01f, 2.77328253e-01f,
        1.43652916e-01f, -1.73276104e-02f, 2.68750750e-02f, 8.47414043e-03f, -1.74197815e-02f, -7.46451970e-03f, 1.31077403e-02f, -4.55616862e-02f,
        -1.68031696e-02f, 1.36432424e-01f, 1.32869139e-01f, 2.20962197e-01f, 1.68548897e-01f, 1.75611690e-01f, 1.79020658e-01f, 5.04339598e-02f,
        -1.81453601e-01f, -4.63423401e-01f, -5.30947268e-01f, -5.22699237e-01f, -4.08689082e-01f, -1.72790319e-01f, -6.85834289e-02f, -2.76247039e-02f,
        5.92276230e-02f, 1.05122060e-01f, 1.86599046e-01f, 2.16549158e-01f, 1.32475078e-01f, -7.20152864e-03f, -3.35376263e-02f, -3.60564627e-02f,
        2.65529845e-02f, 4.67418833e-03f, -4.05389676e-03f, -4.39831708e-03f, -1.42015023e-02f, 1.62908390e-01f, 1.71840847e-01f, 1.81315139e-01f,
        2.00243324e-01f, 2.30094567e-01f, 2.28610784e-01f, 1.94857009e-02f, -2.71314979e-01f, -4.96287555e-01f, -5.33535540e-01f, -4.44162279e-01f,
        -2.70279825e-01f, -7.27490112e-02f, -8.39497056e-03f, 1.17665213e-02f, 6.07263520e-02f, 8.60898867e-02f, 1.54941112e-01f, 1.20156854e-01f,
        6.44495562e-02f, -3.76731195e-02f, 1.44870225e-02f, -2.03373171e-02f, -3.13108750e-02f, 8.67925119e-03f, 1.23057654e-02f, -3.14957798e-02f,
        -3.78668238e-03f, 1.45717815e-01f, 1.98644698e-01f, 1.55740395e-01f, 1.68448001e-01f, 2.39747792e-01f, 2.19199583e-01f, 5.10766264e-03f,
        -2.34362349e-01f, -4.81576651e-01f, -4.27509099e-01f, -3.11092556e-01f, -1.08416893e-01f, 2.47532520e-02f, 6.41667144e-03f, 4.40046042e-02f,
        4.58697267e-02f, 7.56055787e-02f, 1.25368953e-01f, 7.61672407e-02f, 1.24699052e-03f, 1.20763648e-02f, -3.10590724e-03f, -1.43327387e-02f,
        -5.33598009e-03f, -2.23546810e-02f, 3.07993591e-02f, -2.09557563e-02f, -4.23030071e-02f, 9.48548988e-02f, 1.81865662e-01f, 1.52003407e-01f,
        1.54650509e-01f, 2.19591483e-01f, 2.08879411e-01f, 2.43937057e-02f, -1.74260393e-01f, -3.28924268e-01f, -3.13695252e-01f, -1.61797047e-01f,
        -4.59839702e-02f, -1.72387622e-03f, 3.05682998e-02f, 1.42783318e-02f, 1.45503031e-02f, 5.72614223e-02f, 9.69139412e-02f, -4.03997401e-04f,
        6.55565690e-03f, -2.31244927e-03f, -1.95016786e-02f, -1.69143621e-02f, 1.12443762e-02f, -2.21041497e-02f, 4.78072185e-03f, -1.15157720e-02f,
        -3.32164727e-02f, 6.25006706e-02f, 1.41911894e-01f, 1.55568719e-01f, 1.68694153e-01f, 2.15058759e-01f, 2.38680735e-01f, 1.67757466e-01f,
        3.16271149e-02f, -1.12807691e-01f, -1.24850959e-01f, -9.65194404e-02f, -1.00516891e-02f, 2.26900447e-02f, -2.97239069e-02f, -2.19856817e-02f,
        -1.44860074e-02f, 5.15404306e-02f, 1.08371964e-02f, -3.48267816e-02f, 1.52904987e-02f, 6.85097137e-03f, 2.51852274e-02f, -7.98591971e-03f,
        -2.97260974e-02f, -2.98014507e-02f, -2.96307425e-03f, -3.06599289e-02f, 1.42443050e-02f, 8.55259001e-02f, 1.22079097e-01f, 9.39411670e-02f,
        7.60448948e-02f, 1.69702351e-01f, 2.95715272e-01f, 2.36002460e-01f, 1.81469455e-01f, 7.53767490e-02f, 1.43327601e-02f, -2.48565827e-03f,
        -4.04042900e-02f, -4.44861911e-02f, -8.27280134e-02f, -6.69806004e-02f, -5.91547787e-02f, 2.34463755e-02f, 1.14259841e-02f, -6.90467954e-02f,
        -2.94354558e-02f, -3.45273800e-02f, 1.87603086e-02f, 1.30451825e-02f, -2.67048161e-02f, 3.19006927e-02f, -2.08597966e-02f, -3.32358517e-02f,
        -3.95021960e-02f, 1.89739075e-02f, 9.02951211e-02f, 1.04523867e-01f, 9.18798819e-02f, 1.35266885e-01f, 1.96188584e-01f, 2.43257537e-01f,
        1.55262232e-01f, 7.36722946e-02f, 8.27390980e-03f, 2.68791076e-02f, -1.41268903e-02f, -8.37444514e-02f, -4.72774766e-02f, -8.93568024e-02f,
        -3.29162329e-02f, -5.71297035e-02f, -4.95387949e-02f, -2.43169609e-02f, -4.06826427e-03f, -2.61232816e-02f, 3.32293287e-02f, 4.87040542e-03f,
        -2.50266865e-02f, 4.59505897e-03f, -2.58805081e-02f, -1.86789874e-02f, -8.06388557e-02f, -1.85219627e-02f, 8.08580443e-02f, 9.95414183e-02f,
        9.46766064e-02f, 1.29541576e-01f, 1.46056890e-01f, 2.09464923e-01f, 1.80154741e-01f, 2.47971401e-01f, 1.51380956e-01f, 7.50938281e-02f,
        6.79732710e-02f, -4.45960946e-02f, -4.38240767e-02f, -1.09023631e-01f, -1.02986619e-01f, -9.34386924e-02f, -4.50704154e-03f, 1.42617682e-02f,
        -2.43032854e-02f, -3.70017290e-02f, 1.45688578e-02f, -1.09143807e-02f, -1.55705437e-02f, -2.14171559e-02f, 2.84965839e-02f, -1.57841202e-02f,
        -6.52033016e-02f, -1.61079690e-02f, -3.09587177e-02f, 1.27346283e-02f, 4.68901359e-02f, 1.33676693e-01f, 1.88560009e-01f, 2.38566130e-01f,
        2.81112611e-01f, 2.27270335e-01f, 1.46920502e-01f, 8.20529014e-02f, -5.23645850e-03f, -5.75796217e-02f, -9.48438346e-02f, -1.02647327e-01f,
        -1.14119269e-01f, -4.63931970e-02f, -3.44219916e-02f, -2.68469434e-02f, 9.91106965e-03f, -2.82083955e-02f, 2.18861345e-02f, -3.14141773e-02f,
        -3.18138599e-02f, 3.05120982e-02f, -3.14621143e-02f, 2.17761919e-02f, 2.72752866e-02f, -8.81935284e-03f, -2.78657731e-02f, -7.23615065e-02f,
        -3.81095968e-02f, -3.77925038e-02f, 7.78021291e-04f, -2.36356966e-02f, 5.41778281e-02f, 5.42496182e-02f, 1.16504803e-02f, -5.70218973e-02f,
        -8.02923068e-02f, -1.17533393e-01f, -1.02401994e-01f, -8.44894052e-02f, -5.20802028e-02f, -7.87750706e-02f, 5.63319726e-03f, 9.06298403e-03f,
        -1.38660613e-02f, -2.63504423e-02f, -1.83148142e-02f, 5.42841852e-04f, -1.10715982e-02f, -5.00115380e-03f, -1.07286992e-02f, -2.11052354e-02f,
        1.48364082e-02f, 2.03534551e-02f, -1.54273985e-02f, -4.87097129e-02f, -7.78536052e-02f, -7.44143277e-02f, -1.32832184e-01f, -1.26047105e-01f,
        -1.52171090e-01f, -1.22238599e-01f, -1.08186685e-01f, -9.26144570e-02f, -1.15260065e-01f, -5.72728328e-02f, -7.02185854e-02f, -6.21825419e-02f,
        -4.16284800e-02f, 8.68041813e-03f, -2.97911651e-02f, -2.51578502e-02f, -2.45240871e-02f, 1.69082135e-02f, 2.95132622e-02f, 6.12954050e-03f,
        -3.01899929e-02f, 1.47026032e-02f, -1.33287534e-03f, -7.44017772e-03f, 1.03765139e-02f, -2.97070444e-02f, 2.98223086e-02f, -8.18266999e-03f,
        -3.64730507e-02f, -3.79624665e-02f, -3.15866768e-02f, 9.00829764e-05f, -2.02029087e-02f, -2.91015562e-02f, -5.81663176e-02f, -1.96400788e-02f,
        -3.92443612e-02f, -3.80277932e-02f, 8.86666402e-03f, 4.76381229e-03f, -4.06993749e-05f, -1.77021157e-02f, -2.32582856e-02f, -2.08644569e-02f,
        -2.75772996e-02f, 4.29994427e-03f, 2.66914368e-02f, 8.41908529e-03f, 2.08807997e-02f, 1.55026466e-02f, -6.45427220e-03f, 2.62094364e-02f,
        5.85104758e-03f, 2.36596260e-03f, -1.25897732e-02f, -2.81504821e-03f, 3.23663056e-02f, 2.70866584e-02f, -2.41035279e-02f, 2.51250770e-02f,
        -2.57213842e-02f, -3.40602063e-02f, 8.09936225e-03f, 2.03471035e-02f, -2.04600096e-02f, -2.61015240e-02f, 2.88439672e-02f, 2.70048436e-02f,
        8.86253361e-03f, -2.52833739e-02f, -3.83080840e-02f, 1.68498531e-02f, -7.72857666e-03f, -2.38869246e-02f, -1.46624707e-02f, -4.96105291e-03f,
    },
    {
        1.36556029e-02f, -4.74087894e-04f, -1.92588493e-02f, -4.89061698e-03f, -4.76885214e-03f, -3.86863947e-03f, 5.94318286e-03f, 2.75753848e-02f,
        -1.92842409e-02f, -5.05454279e-03f, 1.84828229e-02f, -7.49401748e-04f, 2.27559879e-02f, 6.01412170e-03f, -4.82319808e-03f, 2.14768443e-02f,
        7.45323300e-03f, 3.16241756e-03f, -7.29000568e-03f, 2.73540430e-02f, -1.33608542e-02f, 2.06297897e-02f, 8.96537304e-03f, 1.50769018e-02f,
        -1.38975810e-02f, 2.32654661e-02f, -2.84386501e-02f, 3.55881117e-02f, -1.20038744e-02f, 3.29672545e-03f, 3.32578607e-02f, -2.32711583e-02f,
        -7.64282933e-03f, 3.14073004e-02f, -1.79414842e-02f, 9.17754602e-03f, 5.28013194e-03f, -3.60443816e-02f, 3.18573788e-02f, 1.67844817e-02f,
        9.83895006e-05f, -1.52776605e-02f, 2.75503546e-02f, 3.25584784e-02f, -5.13357017e-03f, 4.76720772e-04f, 3.21793631e-02f, -1.05288355e-02f,
        5.85575914e-03f, 1.36921555e-02f, -3.13101858e-02f, -4.30906750e-03f, 1.21780112e-03f, 1.01141594e-02f, -2.90951654e-02f, 2.05330662e-02f,
        2.25078687e-02f, 1.70415677e-02f, -1.42111247e-02f, -2.67391447e-02f, -3.44932824e-02f, -1.51543540e-03f, 1.49961771e-03f, 2.15329118e-02f,
        -3.75770554e-02f, 2.22934615e-02f, -2.28999159e-03f, -3.60590443e-02f, 3.35106403e-02f, 3.21852267e-02f, 4.82519306e-02f, 2.76692037e-04f,
        -1.19921537e-02f, -1.44677926e-02f, -3.57839204e-02f, 3.85290175e-03f, -1.25479959e-02f, 3.02656498e-02f, 4.02393425e-03f, -3.65271159e-02f,
        -2.92500779e-02f, 1.23226866e-02f, 2.13034339e-02f, -3.77870351e-03f, -8.71653669e-03f, -2.72506997e-02f, 1.37510514e-02f, 1.79172847e-02f,
        1.97493974e-02f, 1.44308098e-02f, 3.17183472e-02f, 1.42229283e-02f, 1.72062386e-02f, -3.90665196e-02f, -3.89846936e-02f, -3.19500379e-02f,
        -7.45197013e-02f, -2.57951040e-02f, 5.09952661e-03f, 1.65572558e-02f, -1.33751165e-02f, -2.74899937e-02f, -1.41443731e-02f, -6.39967853e-03f,
        -1.16316834e-02f, 4.56021447e-03f, 6.80816313e-03f, 1.30021758e-02f, -3.84653695e-02f, 2.14475188e-02f, 1.70238707e-02f, 3.49426158e-02f,
        -9.75102745e-03f, -3.26366425e-02f, -2.93243863e-02f, 8.35635886e-03f, -3.09511684e-02f, 3.12732975e-03f, -2.60749254e-02f, -2.23372187e-02f,
        -2.74784435e-02f, -7.96966329e-02f, -5.82021810e-02f, -2.69659255e-02f, 3.18988822e-02f, 8.11080113e-02f, 1.14635818e-01f, 1.19079903e-01f,
        6.24637939e-02f, 3.61433737e-02f, -8.25647730e-03f, 5.98477423e-02f, 8.72294307e-02f, 9.41332057e-02f, 3.13562565e-02f, 3.42418998e-02f,
        -1.56324878e-02f, -4.21998911e-02f, -6.31834008e-03f, 9.88152996e-03f, 3.34906317e-02f, -9.63409990e-03f, 5.18155866e-04f, 1.71729568e-02f,
        -3.09275016e-02f, 1.70929395e-02f, -6.18385803e-03f, -4.60931957e-02f, -7.19698593e-02f, -9.30569991e-02f, -8.75467956e-02f, -5.17392009e-02f,
        4.06377483e-03f, 7.53101781e-02f, 9.86190960e-02f, 4.19317707e-02f, -2.59390865e-02f, -6.33490905e-02f, -1.16351917e-02f, 9.72069800e-02f,
        1.23516627e-01f, 1.58722192e-01f, 1.46103546e-01f, 7.58853853e-02f, -1.71583407e-02f, -3.46673541e-02f, 1.25506415e-03f, 6.85453508e-03f,
        2.76542939e-02f, 3.02043110e-02f, -2.88597457e-02f, 6.08663959e-03f, 1.60955824e-02f, -3.64303440e-02f, -5.59891984e-02f, -7.60008469e-02f,
        -1.47444949e-01f, -1.89282492e-01f, -1.34912118e-01f, -1.34103283e-01f, -9.48290899e-02f, -3.70654836e-02f, -5.94162270e-02f, -1.44533709e-01f,
        -1.63567424e-01f, -1.68746501e-01f, -8.70943889e-02f, 1.23979179e-02f, 7.48703331e-02f, 8.16491991e-02f, 6.50585443e-02f, 1.13346046e-02f,
        -2.77263690e-02f, -5.94482422e-02f, 3.09081953e-02f, 1.01612620e-02f, -3.22693996e-02f, 8.74052010e-03f, -7.61767896e-03f, -3.05358460e-03f,
        -2.75269933e-02f, -5.90775199e-02f, -9.97336656e-02f, -1.24440305e-01f, -1.65670559e-01f, -1.88763499e-01f, -2.33423293e-01f, -1.83320999e-01f,
        -9.91445780e-02f, -1.45425662e-01f, -1.13210611e-01f, -1.93615571e-01f, -1.72234595e-01f, -1.68888196e-01f, -9.67664793e-02f, 1.62225626e-02f,
        5.85354632e-03f, -1.81700252e-02f, -1.20844925e-02f, -4.69337888e-02f, -6.40579388e-02f, -6.57412708e-02f, -2.68832296e-02f, 2.33396497e-02f,
        1.29766101e-02f, 4.72504739e-03f, 1.38706081e-02f, 1.13320416e-02f, -3.77303809e-02f, -5.72448373e-02f, -1.12266161e-01f, -1.51082948e-01f,
        -1.85809791e-01f, -2.23506033e-01f, -2.29265302e-01f, -2.06316531e-01f, -7.20833093e-02f, -2.78961193e-02f, -1.69105697e-02f, 2.28409730e-02f,
        -9.03602913e-02f, -4.38317517e-03f, -5.24859279e-02f, -4.65941280e-02f, -6.65512010e-02f, -1.30869418e-01f, -1.30283773e-01f, -1.78008065e-01f,
        -9.59517211e-02f, -4.78693135e-02f, 2.24166121e-02f, 1.38922594e-02f, -2.76351850e-02f, 8.90195370e-03f, 1.80385374e-02f, 1.18257254e-02f,
        -1.90621391e-02f, -7.31970370e-02f, -9.79528651e-02f, -1.23115145e-01f, -1.51383936e-01f, -2.06312448e-01f, -1.71331376e-01f, -1.45393774e-01f,
        -8.63294825e-02f, 2.93483734e-02f, 1.62256047e-01f, 2.26712853e-01f, 8.04451853e-02f, 7.54506374e-03f, -6.33440092e-02f, -1.41658291e-01f,
        -1.74570620e-01f, -2.34257013e-01f, -2.12740645e-01f, -2.06515774e-01f, -9.15745869e-02f, -5.76064363e-02f, -2.57554427e-02f, 2.10123491e-02f,
        1.35093518e-02f, 3.22164968e-02f, -3.43557145e-03f, 6.63568359e-03f, -1.48392085e-03f, -7.20391348e-02f, -1.08354375e-01f, -1.27900302e-01f,
        -1.16937853e-01f, -1.71823382e-01f, -1.08458474e-01f, -1.19900674e-01f, -8.02223105e-03f, 1.39340460e-01f, 3.65675032e-01f, 4.67094749e-01f,
        2.03518376e-01f, -2.06553061e-02f, -1.11246347e-01f, -1.79136485e-01f, -2.29136690e-01f, -1.89975664e-01f, -1.81262761e-01f, -1.27663240e-01f,
        -7.99514279e-02f, -4.87727262e-02f, 1.85478367e-02f, -3.53453532e-02f, 2.70692781e-02f, 2.44967453e-02f, -3.43254954e-02f, 1.44856749e-02f,
        2.30975859e-02f, -1.72109418e-02f, -6.91755712e-02f, -5.41263260e-02f, -9.75311175e-02f, -1.37330875e-01f, -1.96294516e-01f, -2.00624168e-01f,
        -1.04616404e-01f, 1.61022335e-01f, 5.54874182e-01f, 5.31905949e-01f, 1.35250881e-01f, -3.70406173e-02f, -8.00429657e-02f, -1.66098058e-01f,
        -1.35495782e-01f, -9.94798094e-02f, -1.07517280e-01f, -7.41397738e-02f, -6.16846792e-02f, -1.78124830e-02f, -2.56194621e-02f, 1.78166907e-02f,
        -8.26409366e-03f, -2.71066241e-02f, 1.19279990e-04f, -3.14413719e-02f, -2.39435285e-02f, -3.59678045e-02f, -2.35392712e-02f, -3.34574282e-02f,
        -1.22163787e-01f, -1.54869854e-01f, -2.25846857e-01f, -2.90030718e-01f, -1.39796585e-01f, 2.25569412e-01f, 6.50351107e-01f, 4.80292529e-01f,
        9.60488021e-02f, -5.52579612e-02f, -1.28596127e-01f, -1.36530057e-01f, -1.18869163e-01f, -4.06222492e-02f, -4.82724160e-02f, -3.90895493e-02f,
        -3.33706960e-02f, -3.12078819e-02f, -3.55839543e-02f, -3.01484969e-02f, 7.40327220e-03f, -1.84503309e-02f, 1.95979956e-03f, -1.10619329e-02f,
        2.74258200e-02f, 2.52161431e-03f, -2.90016010e-02f, -6.18448891e-02f, -9.45624411e-02f, -1.39728725e-01f, -3.22814435e-01f, -3.85519117e-01f,
        -2.01562598e-01f, 2.58285105e-01f, 6.16171300e-01f, 3.76815945e-01f, 4.90955040e-02f, -8.51994902e-02f, -1.93936840e-01f, -1.50424287e-01f,
        -8.90269652e-02f, -1.02375664e-01f, -6.59178495e-02f, -6.38588443e-02f, -5.13139442e-02f, 8.89905170e-03f, -8.16754997e-03f, -1.93603914e-02f,
        2.61435546e-02f, 8.22808407e-03f, 1.04508060e-03f, -6.83396775e-03f, -2.18743607e-02f, -4.69108149e-02f, -2.09530517e-02f, -6.62947670e-02f,
        -6.09425493e-02f, -2.27949500e-01f, -3.66538048e-01f, -3.45437288e-01f, -1.09854966e-01f, 3.66442144e-01f, 5.36877155e-01f, 3.67367923e-01f,
        1.27185024e-02f, -2.31779546e-01f, -2.82205582e-01f, -1.64453238e-01f, -1.28339812e-01f, -8.13463256e-02f, -7.88616911e-02f, -5.03358571e-03f,
        -4.98935431e-02f, -3.63744013e-02f, 3.06713674e-02f, 2.12548263e-02f, 1.29439933e-02f, 1.26590254e-02f, 5.29876724e-03f, -3.49391103e-02f,
        -3.19900587e-02f, -5.82190289e-04f, -1.00430839e-01f, -8.03601071e-02f, -1.12479307e-01f, -2.35975176e-01f, -2.84178644e-01f, -2.27924094e-01f,
        -9.30720009e-03f, 3.79647642e-01f, 5.19601822e-01f, 1.71126336e-01f, -7.94664919e-02f, -3.13753784e-01f, -2.69932717e-01f, -2.26676285e-01f,
        -1.34811208e-01f, -8.44758153e-02f, -9.63280350e-02f, -4.49537449e-02f, -1.98369399e-02f, -3.25141177e-02f, 3.44737130e-03f, 9.03348718e-03f,
        -2.10108124e-02f, 1.94605142e-02f, 1.89369693e-02f, -1.54190566e-02f, -2.58922298e-02f, -2.91007143e-02f, -8.92167315e-02f, -1.61709964e-01f,
        -1.73420861e-01f, -1.97852045e-01f, -1.47588640e-01f, -1.28019437e-01f, 1.04719233e-02f, 3.83747339e-01f, 4.97696757e-01f, 6.02342486e-02f,
        -2.09828943e-01f, -3.82679433e-01f, -2.73948848e-01f, -2.03983754e-01f, -1.45247012e-01f, -6.05217703e-02f, -9.94837582e-02f, -7.35141858e-02f,
        -6.50342554e-02f, -4.29539792e-02f, 1.85213815e-02f, -1.27903363e-02f, -2.44432315e-02f, -2.85711363e-02f, -1.65100824e-02f, 7.87317846e-03f,
        -3.05449637e-03f, -1.03392713e-01f, -1.43951491e-01f, -2.00730667e-01f, -1.84601352e-01f, -9.96844694e-02f, -4.81451824e-02f, -3.18986177e-02f,
        1.04044758e-01f, 3.45009148e-01f, 2.96610177e-01f, -5.01798801e-02f, -2.44297951e-01f, -3.34765077e-01f, -2.25130349e-01f, -1.99562192e-01f,
        -9.51797292e-02f, -7.11951554e-02f, -7.93372095e-02f, -4.59898338e-02f, -5.87169752e-02f, -2.71568131e-02f, 1.09493518e-02f, 4.30228468e-03f,
        1.69550329e-02f, 1.30882824e-03f, 1.21552916e-02f, -3.14512402e-02f, -1.01986350e-02f, -1.35407880e-01f, -2.43293434e-01f, -2.16220960e-01f,
        -1.25071719e-01f, -8.16819370e-02f, -4.18908186e-02f, -2.11471785e-02f, 8.48690793e-02f, 2.34776363e-01f, 1.96057871e-01f, -6.73142672e-02f,
        -1.78585917e-01f, -1.63622752e-01f, -1.41037866e-01f, -1.18232317e-01f, -9.77997482e-02f, -5.52806444e-02f, -3.16045657e-02f, -2.44540032e-02f,
        -8.33213143e-03f, 1.01339556e-02f, -2.59366240e-02f, 8.47380701e-03f, -4.72597266e-03f, 4.45896154e-03f, 2.53331121e-02f, -3.31684761e-02f,
        -1.66510642e-02f, -1.15858927e-01f, -1.78087398e-01f, -1.42400429e-01f, -5.75784594e-02f, 5.17321751e-03f, -5.01792766e-02f, 2.69526429e-02f,
        3.28678042e-02f, 1.28605723e-01f, 7.45713413e-02f, 4.03021346e-04f, -8.72223172e-03f, -7.37663582e-02f, -2.22190339e-02f, -4.60956879e-02f,
        -2.66411230e-02f, -6.77804947e-02f, -1.63947549e-02f, 9.21840256e-04f, 2.34485604e-02f, -3.58247869e-02f, 3.24752964e-02f, 2.53244322e-02f,
        -1.45076904e-02f, 1.45925255e-03f, -2.39021163e-02f, -1.31222783e-02f, -3.24227922e-02f, -7.60429353e-02f, -7.18328282e-02f, -5.67948259e-02f,
        2.74799615e-02f, 3.32431123e-02f, 4.72293943e-02f, 1.65266963e-03f, -2.61068363e-02f, 2.09928025e-02f, 4.30441112e-04f, -2.65952777e-02f,
        7.84307420e-02f, 5.14100157e-02f, 9.38426405e-02f, 4.50790375e-02f, 1.49295777e-02f, -6.07142076e-02f, -5.11747599e-03f, -5.35956398e-02f,
        -2.79827584e-02f, -3.15595022e-03f, -3.31497043e-02f, -4.74591320e-03f, -2.78613926e-03f, -1.46444915e-02f, 2.75784321e-02f, 1.36580644e-02f,
        2.56533604e-02f, 6.32826686e-02f, 9.83042642e-02f, 9.54843238e-02f, 9.03889686e-02f, 3.15241255e-02f, 2.72576939e-02f, -5.27326800e-02f,
        -1.25259578e-01f, -1.29820183e-01f, -4.48730700e-02f, 4.38435841e-03f, 8.71198922e-02f, 1.10941924e-01f, 8.22978541e-02f, 4.19787131e-02f,
        1.20322406e-02f, -4.35090661e-02f, -4.36507538e-02f, -6.42015785e-02f, -2.06986684e-02f, -2.03008614e-02f, 2.86640991e-02f, 3.49965505e-02f,
        2.72510219e-02f, 9.74696316e-03f, 2.79774964e-02f, 1.66700277e-02f, 3.43152657e-02f, 1.25582993e-01f, 1.79052591e-01f, 1.42874166e-01f,
        6.74433559e-02f, 3.68846580e-02f, -3.71373445e-02f, -1.96640253e-01f, -2.72969514e-01f, -2.44460166e-01f, -6.59295693e-02f, 3.44712809e-02f,
        1.00382723e-01f, 1.53558299e-01f, 1.13928057e-01f, 6.26911060e-04f, -3.39021906e-02f, -2.62651891e-02f, -6.40771985e-02f, -1.55083491e-02f,
        3.06140557e-02f, 1.89756919e-02f, -2.30655540e-03f, 1.36095360e-02f, 2.12353207e-02f, -3.45481448e-02f, 2.57153902e-02f, 7.26562086e-03f,
        1.23811010e-02f, 1.24372132e-01f, 1.74201772e-01f, 1.27601653e-01f, 1.43303331e-02f, 2.44623832e-02f, -8.25850144e-02f, -1.74234837e-01f,
        -1.45723969e-01f, -1.59011468e-01f, -6.82089254e-02f, 5.31687364e-02f, 6.80815205e-02f, 1.41267568e-01f, 5.38683124e-02f, 2.72577088e-02f,
        -4.63629216e-02f, -1.47915399e-02f, -1.95688754e-02f, -5.39583387e-03f, 9.28209070e-03f, 4.29091882e-03f, -5.35936747e-03f, -8.73492099e-03f,
        -2.15875991e-02f, -8.79938714e-03f, 1.91604793e-02f, 1.80000940e-03f, -6.50596456e-04f, -1.43638281e-02f, -1.31308530e-02f, -1.76976006e-02f,
        -5.68633489e-02f, -1.37863502e-01f, -1.94376752e-01f, -2.10174143e-01f, -1.97085068e-01f, -2.10421562e-01f, -2.01126471e-01f, -9.89309624e-02f,
        -1.34261593e-01f, -8.44191294e-03f, -1.41403498e-02f, 1.19996695e-02f, -1.48141542e-02f, -3.00920680e-02f, 3.83783760e-03f, -2.46733939e-03f,
        2.10354161e-02f, -1.22605124e-02f, 3.47640854e-03f, -2.31954809e-02f, -2.71649621e-02f, -8.81168619e-03f, -2.83165593e-02f, -1.92158688e-02f,
        -3.31242830e-02f, -2.68458966e-02f, -6.05369080e-03f, -2.11298205e-02f, -9.29101631e-02f, -1.13682382e-01f, -9.86773670e-02f, -1.62454322e-01f,
        -1.35008469e-01f, -1.46730527e-01f, -1.56393439e-01f, -1.21471405e-01f, -5.00499532e-02f, -6.15523718e-02f, -4.58930917e-02f, 2.40775719e-02f,
        -1.95826292e-02f, -3.02601866e-02f, 3.24707106e-02f, 1.74287744e-02f, 3.74136749e-03f, -1.08221676e-02f, 1.02977303e-03f, 3.52449678e-02f,
        2.64017507e-02f, -2.37168297e-02f, 1.45377964e-03f, -2.91024856e-02f, -2.17168573e-02f, 2.40043867e-02f, 5.17504429e-03f, -4.08899821e-02f,
        -3.70643437e-02f, -2.36075409e-02f, 1.09707122e-03f, -1.75774451e-02f, -2.51158532e-02f, -3.03869210e-02f, -5.19279912e-02f, -1.29902288e-02f,
        -1.76964328e-02f, -1.05382167e-02f, 2.48844665e-03f, -3.36498767e-02f, 1.78927202e-02f, -1.23280725e-02f, 2.33416017e-02f, -1.33789498e-02f,
        2.69935816e-03f, -3.34334895e-02f, 2.09529512e-02f, 1.29628181e-02f, 1.77618638e-02f, -1.39262732e-02f, -5.49655408e-03f, 3.12499218e-02f,
        3.52289975e-02f, -2.70487498e-02f, 2.80363369e-03f, 2.38500349e-02f, -6.42423145e-03f, -1.94541737e-02f, 5.46676945e-03f, -2.94154324e-02f,
        2.72354316e-02f, 3.17444801e-02f, -1.98872834e-02f, 3.17471288e-02f, 4.20798222e-03f, 4.93021170e-03f, -1.63869374e-02f, 1.02925245e-02f,
        -8.94192420e-03f, 3.15918028e-02f, 1.93787646e-02f, 1.23064602e-02f, -1.24049559e-03f, 3.29260901e-03f, -2.27506515e-02f, 2.56160162e-02f,
    },
    {
        2.28183568e-02f, -2.28328891e-02f, -3.98682803e-03f, -3.49452123e-02f, 3.06983329e-02f, -1.13748480e-02f, 1.74475387e-02f, -3.04873381e-02f,
        -2.91181654e-02f, -6.11698627e-03f, -1.91276893e-02f, 7.06718862e-03f, 3.54605205e-02f, 3.33008952e-02f, 7.66429072e-03f, 3.05782519e-02f,
        -8.79800692e-03f, 4.97701764e-03f, -1.74072273e-02f, 9.53651965e-03f, 1.55423954e-03f, 1.24603771e-02f, -3.40113938e-02f, 1.28803700e-02f,
        1.41678192e-02f, 1.32174231e-02f, -3.31531838e-03f, -2.04814672e-02f, -3.48716602e-02f, -2.48980317e-02f, 1.09032579e-02f, 2.93613859e-02f,
        1.40767801e-03f, -1.93865392e-02f, 1.06192408e-02f, 2.77623143e-02f, -6.27816131e-04f, 6.57565938e-03f, -3.34081315e-02f, 2.71118656e-02f,
        -2.09676474e-02f, 1.24405865e-02f, -2.67796293e-02f, -1.28789768e-02f, -1.58664752e-02f, -1.42649310e-02f, 4.05583391e-03f, -1.39747560e-02f,
        -1.95000507e-03f, -3.59227285e-02f, -3.13910167e-03f, -2.70549152e-02f, -5.35742752e-03f, 1.66016221e-02f, 3.37190889e-02f, -3.42398658e-02f,
        2.95551233e-02f, -2.74325237e-02f, -1.21347001e-02f, 1.81439873e-02f, -3.35232839e-02f, -2.77230982e-02f, -1.63484700e-02f, 1.82125159e-02f,
        -3.88611341e-03f, 2.47815177e-02f, -1.72109399e-02f, -1.39423478e-02f, 4.47038971e-02f, 4.09550890e-02f, 3.89015721e-03f, 4.75717932e-02f,
        1.37248030e-02f, -3.11849862e-02f, -2.24532414e-04f, 2.20467011e-03f, -1.78819802e-02f, -4.47753742e-02f, 1.51644237e-02f, -3.84168290e-02f,
        -2.89136749e-02f, 3.38532440e-02f, 2.50096582e-02f, 2.36640200e-02f, -3.35936733e-02f, -1.25806034e-02f, 3.31844315e-02f, -3.12900096e-02f,
        -1.24231819e-03f, -1.05088567e-02f, 1.15807028e-02f, 1.69334058e-02f, 4.56344411e-02f, 1.10138968e-01f, 1.19502813e-01f, 1.23315111e-01f,
        1.42346442e-01f, 1.50165603e-01f, 1.28300041e-01f, 6.89841658e-02f, 7.07148165e-02f, 5.08228801e-02f, -2.81168409e-02f, -6.55026287e-02f,
        -8.31212401e-02f, -7.35080913e-02f, -5.85403554e-02f, -4.54771407e-02f, 1.04538305e-02f, 1.18058100e-02f, -1.69931781e-02f, 2.08843797e-02f,
        1.75402164e-02f, 1.95731479e-03f, 2.42586005e-02f, 1.22602293e-02f, -4.77426825e-03f, 1.17172152e-02f, 5.12672104e-02f, 7.35418722e-02f,
        9.39908177e-02f, 1.82050303e-01f, 2.21576303e-01f, 2.76448965e-01f, 2.52348244e-01f, 2.27355555e-01f, 1.90088317e-01f, 1.50250241e-01f,
        1.05800636e-01f, 9.98600125e-02f, 5.72768133e-03f, -7.43205994e-02f, -5.59087545e-02f, -1.28703192e-01f, -1.13568082e-01f, -5.99187650e-02f,
        -2.50561759e-02f, -6.01543952e-03f, 8.60954169e-03f, 1.78300645e-02f, 1.28049254e-02f, 3.04841660e-02f, -4.93027177e-03f, 1.22565879e-02f,
        -2.62131300e-02f, 1.01233814e-02f, 6.88425153e-02f, 9.37554464e-02f, 2.12181360e-01f, 2.32513770e-01f, 2.40383431e-01f, 2.31155887e-01f,
        2.02821568e-01f, 2.29821622e-01f, 2.20119387e-01f, 1.96442857e-01f, 2.27079913e-01f, 2.18550026e-01f, 1.27104238e-01f, 3.77268642e-02f,
        -2.30805520e-02f, -8.26093778e-02f, -6.56986237e-02f, -1.17529422e-01f, -5.44583723e-02f, -3.88639383e-02f, 8.29436816e-03f, 1.89150423e-02f,
        2.74828412e-02f, 2.78921798e-02f, 1.49391377e-02f, -2.71904320e-02f, -8.67915747e-04f, 4.81712110e-02f, 7.67431483e-02f, 1.67184204e-01f,
        1.46916702e-01f, 1.50718495e-01f, 1.55592442e-01f, 8.17524940e-02f, 5.06009646e-02f, 8.03377777e-02f, 1.13130912e-01f, 9.64773670e-02f,
        9.59737673e-02f, 6.09253906e-02f, 3.26193981e-02f, -3.05617154e-02f, -5.94525561e-02f, -5.30513115e-02f, -8.21370035e-02f, -1.65957883e-01f,
        -7.92828798e-02f, -5.48849367e-02f, 7.10762991e-03f, -2.49833730e-03f, -4.02655872e-03f, -2.53821854e-02f, 9.87550244e-03f, -2.66169049e-02f,
        4.93871346e-02f, 6.97435811e-02f, 1.68073192e-01f, 1.55990541e-01f, 9.39882770e-02f, 4.31648269e-02f, 1.42875882e-02f, 6.59026057e-02f,
        3.69608700e-02f, 8.56710821e-02f, 3.16039957e-02f, -1.02158254e-02f, -1.71322748e-02f, -9.72243398e-02f, -6.37513921e-02f, -4.17973921e-02f,
        -5.78524098e-02f, -2.10320856e-02f, -3.88831049e-02f, -1.37272224e-01f, -8.64595398e-02f, -4.07230705e-02f, 2.71400623e-02f, -1.29858833e-02f,
        6.30782638e-03f, 1.32251494e-02f, -2.15228349e-02f, -8.52141995e-03f, 6.34607524e-02f, 8.61118212e-02f, 9.61076543e-02f, 9.24919397e-02f,
        8.44056383e-02f, 8.88168588e-02f, 1.56096831e-01f, 9.32866409e-02f, 7.65118748e-02f, 8.85466263e-02f, 1.02517597e-01f, 9.01778415e-02f,
        1.67090781e-02f, -3.77023332e-02f, -4.89251427e-02f, 3.98373641e-02f, -4.22656815e-03f, -4.68291342e-02f, -7.71303177e-02f, -7.25554749e-02f,
        -1.53284028e-01f, -5.26321158e-02f, -2.08178926e-02f, -2.23066211e-02f, -2.11365949e-02f, -8.30399990e-03f, -3.27479355e-02f, 4.32162592e-03f,
        2.26737875e-02f, 8.05608183e-02f, 4.06879112e-02f, -4.75169439e-03f, -1.89155005e-02f, 5.62008396e-02f, 7.62874484e-02f, 7.45649263e-02f,
        1.11425137e-02f, 4.57463413e-02f, 1.16156660e-01f, 1.06933109e-01f, 1.06580719e-01f, 5.13176695e-02f, 6.27504960e-02f, 1.28133490e-03f,
        4.77409177e-03f, -1.24866012e-02f, -3.16561759e-02f, -1.33992136e-01f, -7.95464516e-02f, -2.57207621e-02f, -4.16482741e-04f, -1.46205043e-02f,
        -3.22203338e-02f, 2.86212675e-02f, 2.17238143e-02f, -1.34070041e-02f, 3.66339274e-02f, 4.85501863e-04f, 2.14994643e-02f, -1.43159166e-01f,
        -1.18609712e-01f, -1.37606740e-01f, -1.27334103e-01f, -1.15780644e-01f, -1.94117203e-01f, -2.38111481e-01f, -1.28616467e-01f, -9.53756720e-02f,
        7.96982460e-03f, 4.67547141e-02f, 3.08548212e-02f, -1.03885978e-02f, -3.52726877e-02f, -3.74853946e-02f, -2.72514075e-02f, -5.97726218e-02f,
        -4.29523475e-02f, -2.45748255e-02f, -1.60621200e-02f, -2.35424899e-02f, -2.90240310e-02f, 2.86477339e-02f, -1.08497159e-03f, -3.91690582e-02f,
        7.99856673e-04f, -1.15379319e-01f, -1.99310556e-01f, -3.10223401e-01f, -3.29303384e-01f, -3.45796436e-01f, -4.29432243e-01f, -4.27894443e-01f,
        -4.85984236e-01f, -4.90378618e-01f, -3.67858946e-01f, -2.27179095e-01f, -1.42654061e-01f, -1.47725701e-01f, -7.87614286e-02f, 4.61606458e-02f,
        -1.31054483e-02f, -5.10197394e-02f, -7.35449642e-02f, -6.35681748e-02f, -5.01440912e-02f, -6.93992199e-03f, 2.88833342e-02f, -1.76747311e-02f,
        3.05309538e-02f, -1.56714581e-02f, 3.21255475e-02f, -4.95884046e-02f, -6.33814335e-02f, -2.42345437e-01f, -3.94358128e-01f, -4.79634523e-01f,
        -4.28159922e-01f, -4.12401646e-01f, -4.20560092e-01f, -4.47108150e-01f, -4.41926420e-01f, -4.32208419e-01f, -3.52291584e-01f, -2.53514171e-01f,
        -2.19045967e-01f, -2.07433596e-01f, -6.41133413e-02f, 5.12320958e-02f, -1.88326389e-02f, -3.45060602e-02f, -1.17287621e-01f, -1.32164031e-01f,
        -1.25455540e-02f, 5.17713428e-02f, 4.31398302e-02f, 1.51737547e-02f, 2.42958870e-02f, 1.46155190e-02f, -2.03057192e-02f, -2.00801287e-02f,
        -7.96561837e-02f, -2.84593970e-01f, -4.14650768e-01f, -4.55001831e-01f, -3.02805454e-01f, -2.52207935e-01f, -2.00568631e-01f, -1.19881079e-01f,
        -1.28983125e-01f, -9.31847468e-02f, -9.65130106e-02f, -2.26308599e-01f, -1.79014057e-01f, -1.17226839e-01f, -8.95106792e-02f, -5.01717478e-02f,
        -7.04282448e-02f, -6.15330189e-02f, -1.32944286e-01f, -8.03367868e-02f, 5.19714579e-02f, 8.91027078e-02f, 5.01963720e-02f, -1.83195695e-02f,
        2.56873835e-02f, -1.08571192e-02f, -7.72679644e-03f, 5.75045962e-03f, -1.05982199e-01f, -2.45374620e-01f, -2.90400803e-01f, -1.62889972e-01f,
        -1.11450277e-01f, -4.87124100e-02f, -1.90659184e-02f, 4.67962883e-02f, 4.13753912e-02f, 1.58537745e-01f, 2.92328112e-02f, -9.63276401e-02f,
        -1.01252876e-01f, -1.04247935e-01f, -8.08438435e-02f, -9.29138288e-02f, -3.00183874e-02f, -7.16520324e-02f, -9.84917432e-02f, -6.80873841e-02f,
        1.79928504e-02f, 1.28397614e-01f, 9.07225907e-02f, -3.27039920e-02f, -1.36437779e-03f, -1.12776263e-02f, 2.60643475e-02f, -9.22869425e-03f,
        6.32783258e-03f, -7.08571495e-03f, 1.23407478e-02f, 8.45774263e-03f, 5.06086387e-02f, 2.55974643e-02f, 5.79731800e-02f, 4.15637530e-02f,
        1.20684661e-01f, 1.71516538e-01f, 8.22434276e-02f, 1.65449567e-02f, -1.95323420e-03f, -5.17137274e-02f, -6.26825169e-02f, -4.78294231e-02f,
        -8.57741013e-02f, -6.92177117e-02f, -9.49417353e-02f, -8.82388558e-03f, 1.50272951e-01f, 1.36147469e-01f, 8.28399360e-02f, -1.72206704e-02f,
        -4.64778440e-03f, 5.42720128e-03f, -1.01662753e-02f, 3.78787741e-02f, 8.09465647e-02f, 1.18116871e-01f, 1.40864596e-01f, 8.81720558e-02f,
        5.31007349e-02f, 1.07418120e-01f, 1.10303178e-01f, 1.33460179e-01f, 2.40429103e-01f, 2.04042956e-01f, 9.95986983e-02f, 1.91276874e-02f,
        1.10274106e-01f, 6.17055148e-02f, 1.23635521e-02f, -6.49581850e-03f, -2.82570533e-02f, 4.73646037e-02f, 4.80968095e-02f, 8.75789002e-02f,
        2.16409668e-01f, 2.18385860e-01f, 8.91492739e-02f, 2.53083780e-02f, 2.89476402e-02f, 2.07442064e-02f, 2.96034031e-02f, 9.50913429e-02f,
        1.55185923e-01f, 1.99831232e-01f, 1.78951666e-01f, 1.32088885e-01f, 6.30175024e-02f, 1.06636830e-01f, 1.69701457e-01f, 2.39798889e-01f,
        2.56168813e-01f, 2.41846725e-01f, 6.50410354e-02f, 1.01840056e-01f, 4.42554578e-02f, 4.43918630e-02f, 6.30558506e-02f, -2.72168894e-03f,
        5.59465513e-02f, 1.23712666e-01f, 1.69447795e-01f, 1.92314908e-01f, 3.05606455e-01f, 2.56044060e-01f, 5.19066937e-02f, -2.56545711e-02f,
        -2.30537616e-02f, 3.28588001e-02f, -3.46802771e-02f, 7.84006715e-02f, 1.99932709e-01f, 2.72375673e-01f, 2.28091836e-01f, 1.96578652e-01f,
        1.58198208e-01f, 1.20380104e-01f, 1.79618657e-01f, 2.24956587e-01f, 2.98188448e-01f, 2.46945590e-01f, 9.96183380e-02f, 7.71964192e-02f,
        1.05800472e-01f, 1.29557177e-01f, 7.07102045e-02f, 4.90268134e-02f, 7.02963024e-02f, 1.36844724e-01f, 1.66868985e-01f, 2.83902287e-01f,
        3.45204085e-01f, 2.00403720e-01f, 2.11926121e-02f, 2.76902709e-02f, -6.25815429e-03f, 1.89856105e-02f, -2.93089040e-02f, 1.48006603e-02f,
        1.65249169e-01f, 1.91549107e-01f, 1.90283909e-01f, 2.53585637e-01f, 2.23110512e-01f, 1.91198945e-01f, 2.24284336e-01f, 2.21405655e-01f,
        2.17774689e-01f, 2.16953486e-01f, 1.01610355e-01f, 6.34128973e-02f, 9.79470462e-02f, 8.39929506e-02f, 9.09296870e-02f, 3.00704353e-02f,
        8.03841129e-02f, 1.39980078e-01f, 2.51571625e-01f, 2.78928161e-01f, 2.40026906e-01f, 1.23640239e-01f, 3.31073366e-02f, 9.55551164e-04f,
        -5.16194850e-04f, 1.99110154e-02f, 2.69713756e-02f, 4.29096818e-02f, 1.27248228e-01f, 1.78105578e-01f, 2.17875227e-01f, 2.39636838e-01f,
        1.74482018e-01f, 2.14465365e-01f, 1.53168172e-01f, 1.95467189e-01f, 1.06877096e-01f, 8.11354443e-02f, 3.82809937e-02f, 1.35805756e-02f,
        5.62429167e-02f, 5.63566424e-02f, 7.92874768e-02f, 1.51212186e-01f, 1.42109960e-01f, 1.70423180e-01f, 2.54543155e-01f, 2.27786750e-01f,
        1.79241389e-01f, 9.60170999e-02f, 8.50842614e-03f, -3.49736772e-02f, -1.78689323e-02f, 8.22253060e-03f, -3.20136431e-03f, 5.33217117e-02f,
        6.00310192e-02f, 1.15992740e-01f, 1.50987566e-01f, 1.33818328e-01f, 1.37236670e-01f, 1.60134196e-01f, 1.45263121e-01f, 9.83838290e-02f,
        3.99629250e-02f, 8.48767348e-03f, -6.35243207e-03f, -4.68422137e-02f, 1.71667952e-02f, 6.84899911e-02f, 1.90076753e-01f, 2.01018795e-01f,
        1.62736803e-01f, 1.66182846e-01f, 2.18924969e-01f, 2.40292519e-01f, 1.59292996e-01f, 5.43806925e-02f, -3.68872704e-03f, -1.32609308e-02f,
        -3.18475626e-02f, 1.20730530e-02f, 9.63691343e-03f, 5.38307056e-02f, 2.58660503e-02f, 4.35876474e-02f, 9.14782211e-02f, 1.36140630e-01f,
        1.27953067e-01f, 1.48850515e-01f, 1.25903949e-01f, 8.13832581e-02f, 3.52917053e-02f, -3.19531448e-02f, -9.40569341e-02f, -8.86582881e-02f,
        -1.44139212e-02f, 4.08245958e-02f, 1.32805616e-01f, 1.40576556e-01f, 1.47688389e-01f, 1.44756764e-01f, 1.64512515e-01f, 1.18913606e-01f,
        5.75679280e-02f, 1.85817722e-02f, -1.97435115e-02f, -2.44411756e-03f, 1.15391389e-02f, 2.68561207e-02f, 3.17989439e-02f, 9.63045564e-03f,
        6.89027738e-03f, -1.70455221e-02f, -4.79959324e-02f, -1.41539685e-02f, 1.33360028e-02f, -3.30644846e-02f, -1.30428011e-02f, -2.93238815e-02f,
        -3.55190746e-02f, -9.56382528e-02f, -1.28606871e-01f, -1.15202583e-01f, -8.28693509e-02f, -2.37490684e-02f, 9.11875069e-02f, 1.21191293e-01f,
        1.00845352e-01f, 1.27708629e-01f, 7.00276047e-02f, 5.65628260e-02f, 5.27204312e-02f, -2.18069889e-02f, -8.74993391e-03f, 7.91308284e-03f,
        4.49805334e-03f, -5.22444956e-03f, 2.85709463e-02f, -2.27106586e-02f, -3.69740762e-02f, -5.96779250e-02f, -9.38047841e-02f, -1.47585526e-01f,
        -1.21669322e-01f, -1.53942809e-01f, -1.62922397e-01f, -1.07536346e-01f, -6.00461289e-02f, -7.07510188e-02f, -8.16021673e-03f, -3.02648749e-02f,
        -6.52277395e-02f, -4.46798019e-02f, 2.03056950e-02f, -3.51328366e-02f, -4.49093282e-02f, 7.60396011e-03f, -1.15415417e-02f, 3.03837424e-03f,
        -8.16509966e-03f, -1.52904855e-03f, 3.14336158e-02f, -2.19886657e-02f, -3.28149647e-04f, 9.24991071e-03f, -1.63871306e-03f, -1.06493337e-03f,
        5.32442704e-04f, -1.59174222e-02f, -2.61144992e-02f, -4.94439453e-02f, -9.92471352e-02f, -1.44060925e-01f, -1.01030208e-01f, -7.55823553e-02f,
        -1.06876768e-01f, -8.14565718e-02f, -4.68983315e-02f, -5.47871329e-02f, -4.75278869e-02f, -2.31625829e-02f, -8.09385106e-02f, -8.66954327e-02f,
        -6.42234236e-02f, -3.93976718e-02f, -3.25498767e-02f, 2.24042106e-02f, -3.38147022e-02f, 3.20606120e-02f, 3.48398089e-02f, 1.31891705e-02f,
        -2.26669163e-02f, -2.06466839e-02f, -2.82656401e-04f, -5.46929101e-03f, -7.25520728e-03f, -2.10831482e-02f, -1.30524291e-02f, -4.27520610e-02f,
        -1.21949930e-02f, -4.45244461e-02f, 1.14864055e-02f, 1.59467384e-02f, -4.36921380e-02f, -2.79025268e-02f, -2.79769897e-02f, -4.81969044e-02f,
        -1.09239910e-02f, -4.35470976e-02f, 5.70319174e-03f, 1.74477808e-02f, -2.91885361e-02f, 2.01760419e-03f, 2.06140522e-02f, -1.78996604e-02f,
        -1.80505011e-02f, 1.46389296e-02f, 3.02296467e-02f, -1.24931559e-02f, -3.22573893e-02f, -2.57849917e-02f, 1.22250989e-02f, -2.28905771e-02f,
        -3.04882671e-03f, -7.65608391e-03f, 3.35429832e-02f, 7.17969751e-03f, -1.78992637e-02f, -2.17221845e-02f, -2.58523691e-02f, -2.28986796e-02f,
        -1.86496004e-02f, 3.40911262e-02f, 1.67912133e-02f, -2.81027611e-02f, -1.58854965e-02f, -3.39523740e-02f, 1.33629711e-02f, 2.26383302e-02f,
        -2.88097747e-02f, 2.59705037e-02f, 2.37132628e-02f, 5.64334262e-03f, 2.25244984e-02f, -8.07728991e-03f, 2.77248137e-02f, 9.17838886e-03f,
    },
    {
        -2.76543498e-02f, -2.88695954e-02f, -2.71250233e-02f, 4.02791426e-03f, 2.61084363e-03f, -2.63684243e-02f, 2.05304772e-02f, -2.05369443e-02f,
        2.40633823e-02f, -2.96240766e-02f, 1.34492405e-02f, -1.79075431e-02f, -2.13921629e-02f, -8.99390131e-03f, 2.38666199e-02f, -1.10706184e-02f,
        1.63500756e-02f, 1.21640638e-02f, -2.31128726e-02f, -3.23457643e-03f, 2.03627907e-02f, -3.04258987e-02f, 1.06506012e-02f, -1.86630711e-03f,
        -3.24083231e-02f, -1.48575269e-02f, 1.82577558e-02f, -2.99517065e-03f, 1.37123913e-02f, -2.97551844e-02f, 1.59619451e-02f, -2.17075739e-02f,
        9.74683091e-04f, -2.31453199e-02f, -2.60763373e-02f, -2.49463897e-02f, -2.25008838e-02f, -2.89065298e-02f, 3.11990455e-02f, 3.92261147e-03f,
        3.87063978e-04f, -1.12845823e-02f, -3.53283733e-02f, -2.71061957e-02f, 4.37701028e-03f, -2.84424853e-02f, -1.82086378e-02f, -3.16578187e-02f,
        -2.68719997e-02f, 1.06335497e-02f, -1.86281558e-02f, 2.49081012e-02f, -1.78850070e-03f, 1.96262263e-02f, -1.28266346e-02f, 2.16428638e-02f,
        -2.47259401e-02f, 1.36344507e-03f, -7.26578431e-03f, 1.75485723e-02f, 6.15889532e-03f, 2.17139106e-02f, 2.61761658e-02f, 9.08856746e-03f,
        -1.01278070e-02f, -1.69070356e-03f, 2.65838895e-02f, 5.61304623e-03f, 9.15466866e-04f, -1.78340022e-02f, 1.73921026e-02f, 6.31237868e-03f,
        -3.02782431e-02f, 1.16114877e-03f, 4.85820137e-03f, -7.15543004e-03f, -2.06110552e-02f, 1.21146906e-02f, -1.27096642e-02f, -3.31637748e-02f,
        -2.58321445e-02f, -3.52942906e-02f, 3.36235873e-02f, -3.19123939e-02f, -1.79832056e-03f, 2.06060670e-02f, -2.92039718e-02f, -2.91209687e-02f,
        -2.32273862e-02f, -2.89482460e-03f, 2.37113722e-02f, 1.36968475e-02f, 3.22402604e-02f, 6.00869861e-03f, 6.71459287e-02f, 6.90107569e-02f,
        1.04631014e-01f, 8.88808295e-02f, 1.85552672e-01f, 1.63094625e-01f, 1.20753549e-01f, 9.37702060e-02f, 7.40876049e-02f, 2.78921537e-02f,
        4.40610275e-02f, -2.83758212e-02f, -2.42660996e-02f, 1.27597880e-02f, 7.50891957e-03f, 3.19696181e-02f, 1.23803532e-02f, 2.56820247e-02f,
        -2.28229351e-02f, 6.55874703e-03f, 3.17511335e-02f, -2.61443891e-02f, 3.62667106e-02f, 2.34857593e-02f, 6.25975132e-02f, 9.45717022e-02f,
        1.33536756e-01f, 1.54385254e-01f, 2.28450254e-01f, 2.33073860e-01f, 2.33210176e-01f, 2.46318117e-01f, 2.17873439e-01f, 1.56721160e-01f,
        1.67005867e-01f, 7.66009167e-02f, 1.00621149e-01f, -2.00946387e-02f, -3.82043459e-02f, -6.66954666e-02f, -6.26022369e-02f, -3.79190668e-02f,
        -5.30901402e-02f, -2.34217811e-02f, 7.64349941e-03f, -1.52711822e-02f, 2.43857354e-02f, -1.17078982e-02f, 1.42251998e-02f, 1.16006639e-02f,
        3.70448455e-02f, 9.68861803e-02f, 1.74596980e-01f, 1.61750630e-01f, 1.78888246e-01f, 1.76697135e-01f, 1.50399029e-01f, 1.72267944e-01f,
        7.25620687e-02f, 1.06745511e-01f, 4.21731733e-02f, 8.64357874e-02f, 1.01478942e-01f, 1.31719084e-02f, -5.51732862e-03f, -2.76035722e-03f,
        -9.28544924e-02f, -1.31223693e-01f, -1.57717794e-01f, -8.81049633e-02f, -6.31789267e-02f, -2.24670693e-02f, 3.08116861e-02f, 4.04964061e-03f,
        -3.45444754e-02f, -2.28033215e-02f, 2.77312528e-02f, 6.30240440e-02f, 6.15099259e-02f, 1.45302296e-01f, 1.90335810e-01f, 1.56740367e-01f,
        1.45710900e-01f, 1.89924315e-01f, 1.62786901e-01f, 7.76688457e-02f, 1.11151457e-01f, 1.67344898e-01f, 1.57051057e-01f, 1.26581490e-01f,
        1.80473417e-01f, 1.02473222e-01f, 9.60329622e-02f, -1.57388337e-02f, 2.76551712e-02f, -7.51378685e-02f, -1.44061580e-01f, -1.55879557e-01f,
        -9.60432068e-02f, -4.56346720e-02f, -3.52782244e-03f, -7.76819931e-03f, -1.08808908e-03f, -3.40888998e-03f, 1.78741869e-02f, 2.01873928e-02f,
        1.13535240e-01f, 2.15563044e-01f, 1.45626664e-01f, 1.26402691e-01f, 5.35077490e-02f, 9.64046642e-02f, 6.50092289e-02f, 8.23511332e-02f,
        1.18472055e-01f, 1.15199231e-01f, 1.52960941e-01f, 1.94144934e-01f, 7.81226084e-02f, 7.32371658e-02f, 8.39337483e-02f, 8.48962218e-02f,
        4.35862429e-02f, 2.21234225e-02f, -9.76761952e-02f, -1.61802620e-01f, -1.16709314e-01f, -4.35402133e-02f, 1.19085712e-02f, 6.13291981e-03f,
        8.94979853e-03f, -2.83981878e-02f, 2.88363472e-02f, 5.87627552e-02f, 1.48138940e-01f, 2.01702684e-01f, 1.32799089e-01f, 5.33728004e-02f,
        7.26388115e-03f, 3.45864818e-02f, 2.09378824e-02f, -2.28778347e-02f, 3.72273177e-02f, 8.59300047e-02f, 1.69672146e-01f, 1.62865832e-01f,
        1.02453455e-01f, 1.16841756e-01f, 1.37934908e-01f, 1.61984071e-01f, 1.37423068e-01f, 8.96964669e-02f, 2.45112851e-02f, -1.32824659e-01f,
        -1.31674632e-01f, -6.20551892e-02f, -1.13949049e-02f, 9.35768988e-03f, 3.19727063e-02f, -2.16193628e-02f, 3.41052003e-02f, 6.76449239e-02f,
        1.27293065e-01f, 9.63933319e-02f, 6.93396032e-02f, -7.10777193e-03f, -3.81889604e-02f, -8.36165026e-02f, -1.92294836e-01f, -2.61604905e-01f,
        -2.48177454e-01f, -4.85884063e-02f, 1.20461278e-01f, 2.51021862e-01f, 2.35864997e-01f, 1.54069200e-01f, 9.77079496e-02f, 1.22911297e-01f,
        2.27209210e-01f, 1.54420435e-01f, 4.46390323e-02f, -1.03178233e-01f, -8.32823291e-02f, -1.38123855e-02f, 3.10795680e-02f, -6.73844363e-04f,
        -1.76599789e-02f, 2.00467708e-04f, 3.07585560e-02f, 7.81353787e-02f, 7.59303644e-02f, -1.13922125e-02f, -7.18179643e-02f, -1.44922867e-01f,
        -2.38512486e-01f, -3.40098560e-01f, -3.63530517e-01f, -3.82987380e-01f, -3.32437783e-01f, -1.74013488e-02f, 1.95809141e-01f, 2.17582062e-01f,
        2.33812019e-01f, 1.40200004e-01f, 1.46781906e-01f, 2.09087431e-01f, 1.96127206e-01f, 5.19152954e-02f, -2.27317922e-02f, -5.04194275e-02f,
        -8.87852386e-02f, 1.42504694e-02f, 1.02684991e-02f, -2.41062101e-02f, -2.06049327e-02f, -1.69932749e-02f, -2.77213491e-02f, 2.92953532e-02f,
        5.24284039e-03f, -7.58919790e-02f, -1.80827394e-01f, -2.91869819e-01f, -3.50524455e-01f, -3.14420938e-01f, -2.89182097e-01f, -2.14916468e-01f,
        -1.05310418e-01f, 9.83329266e-02f, 2.26360917e-01f, 1.56041071e-01f, 1.21252798e-01f, 1.48496628e-01f, 1.56574726e-01f, 1.48642242e-01f,
        8.05780441e-02f, -3.27393524e-02f, -6.03974760e-02f, -9.87992212e-02f, -2.67344955e-02f, 1.26960147e-02f, 2.38496941e-02f, -1.90869849e-02f,
        1.16872380e-03f, 2.33317679e-03f, -2.30731033e-02f, 3.41963116e-03f, -5.05194478e-02f, -1.12460323e-01f, -2.00382769e-01f, -3.29930305e-01f,
        -2.54388779e-01f, -1.82797551e-01f, -2.84030084e-02f, -2.38862280e-02f, 4.53109108e-02f, 1.76864788e-01f, 2.39838913e-01f, 1.67495757e-01f,
        1.18649207e-01f, 1.14858612e-01f, 1.35450676e-01f, 5.01174200e-03f, -9.57526341e-02f, -1.66632488e-01f, -1.50741994e-01f, -9.13881063e-02f,
        -2.94252411e-02f, 1.96761880e-02f, -3.50321643e-02f, -2.34993529e-02f, 2.89278980e-02f, 9.42284800e-03f, 8.90817959e-03f, -1.43089015e-02f,
        -4.82886359e-02f, -1.45114988e-01f, -2.34554306e-01f, -2.58807212e-01f, -1.79960430e-01f, -9.67832729e-02f, -1.43377811e-01f, -7.40513876e-02f,
        7.20711499e-02f, 1.70000359e-01f, 1.84917748e-01f, 1.12223765e-02f, 6.77237213e-02f, 1.24001108e-01f, 5.06178923e-02f, -4.88489941e-02f,
        -1.64698333e-01f, -1.93589330e-01f, -1.30755767e-01f, -1.13052912e-01f, -1.78659018e-02f, 1.43897934e-02f, -2.01141089e-03f, -1.14936866e-02f,
        2.79956628e-02f, -2.60718390e-02f, -2.79006753e-02f, -2.89295241e-02f, 1.22939702e-03f, -1.03033185e-01f, -2.05889374e-01f, -2.36897081e-01f,
        -1.60349518e-01f, -9.90463197e-02f, -1.44978583e-01f, -9.03747007e-02f, 8.76229405e-02f, 1.27648339e-01f, 9.34282541e-02f, 1.65496450e-02f,
        -1.53632797e-02f, 6.10137098e-02f, 3.74438427e-02f, -4.45936881e-02f, -6.67953715e-02f, -3.73595804e-02f, -1.19950257e-01f, -4.85214032e-02f,
        -2.85286922e-02f, -4.21405472e-02f, 2.70396248e-02f, 3.09707690e-02f, -2.11210875e-03f, 2.47030482e-02f, 1.58156231e-02f, 4.33168858e-02f,
        -8.81386921e-03f, -2.15868205e-02f, -1.45815209e-01f, -2.19763473e-01f, -2.05706805e-01f, -2.10394531e-01f, -1.66748181e-01f, -3.80978249e-02f,
        5.51847629e-02f, 1.31804660e-01f, 7.56381750e-02f, 3.39286849e-02f, -5.62100522e-02f, -1.02906693e-02f, 1.54950656e-02f, 1.10541113e-01f,
        1.47590861e-01f, 1.11292407e-01f, 2.95888260e-02f, -1.93508882e-02f, -4.11826260e-02f, -1.68734137e-02f, -1.69107728e-02f, 8.01949296e-03f,
        -1.29789617e-02f, -6.48082653e-03f, 1.68430060e-02f, 2.97751818e-02f, 9.69111100e-02f, 1.74896196e-02f, -9.01693255e-02f, -1.63292333e-01f,
        -2.46378079e-01f, -2.09422708e-01f, -2.17007101e-01f, -1.48007795e-01f, -1.35680975e-03f, 3.58390473e-02f, -7.08613992e-02f, -1.35186270e-01f,
        -9.76159275e-02f, -2.64956243e-02f, 1.30336612e-01f, 1.49336472e-01f, 1.21109970e-01f, 1.67661980e-01f, 1.51853457e-01f, 9.79571417e-02f,
        4.38490044e-03f, 1.63122953e-03f, -1.45861590e-02f, -2.34686583e-02f, 3.55344079e-02f, -2.71396935e-02f, 3.07808947e-02f, 7.18040243e-02f,
        1.37303472e-01f, 7.10543171e-02f, -7.07210004e-02f, -9.37907547e-02f, -1.93558365e-01f, -2.99855292e-01f, -4.02167559e-01f, -3.18597317e-01f,
        -2.59483546e-01f, -2.11196840e-01f, -2.58580476e-01f, -1.61509693e-01f, 2.20686495e-02f, 1.15309879e-01f, 1.15947522e-01f, 2.07318336e-01f,
        1.22183047e-01f, 2.10924387e-01f, 1.76140472e-01f, 1.05583496e-01f, -1.79072618e-02f, -6.79653659e-02f, -2.87503116e-02f, 1.83332264e-02f,
        3.49880718e-02f, -2.18500774e-02f, 3.12310681e-02f, 1.26633555e-01f, 1.82776883e-01f, 1.21866778e-01f, 6.43722638e-02f, -4.40898314e-02f,
        -1.49227068e-01f, -2.59348482e-01f, -3.71809274e-01f, -3.41586858e-01f, -3.50515723e-01f, -2.80321687e-01f, -2.49081537e-01f, -1.73461845e-03f,
        1.72324747e-01f, 1.63812056e-01f, 2.01848373e-01f, 1.45494595e-01f, 1.62853330e-01f, 2.07339734e-01f, 1.82496890e-01f, 5.65740131e-02f,
        -5.64479418e-02f, -1.15198987e-02f, -3.87367979e-02f, -2.46327017e-02f, 1.31032923e-02f, -1.33231087e-02f, 3.18557434e-02f, 1.52399495e-01f,
        2.12796658e-01f, 2.33184814e-01f, 1.44138411e-01f, 5.53287342e-02f, -8.18174426e-03f, -8.46058801e-02f, -1.74446478e-01f, -2.06674784e-01f,
        -2.47120813e-01f, -1.78838253e-01f, -1.04909927e-01f, 2.46582031e-02f, 1.41735807e-01f, 2.09790140e-01f, 2.15777293e-01f, 1.85341746e-01f,
        1.84399143e-01f, 2.20090851e-01f, 1.07065886e-01f, 2.97490396e-02f, -6.87888935e-02f, -8.64673872e-03f, 6.87607937e-03f, 1.07390573e-02f,
        3.23755033e-02f, -2.63049584e-02f, 1.13380505e-02f, 1.57611609e-01f, 2.02545881e-01f, 2.39591792e-01f, 2.22555161e-01f, 1.24031469e-01f,
        1.25930205e-01f, 1.05955057e-01f, -7.21047968e-02f, -1.28601938e-01f, -1.79600298e-01f, -1.05594784e-01f, 3.94030251e-02f, 4.22622189e-02f,
        8.63177404e-02f, 1.43473193e-01f, 1.49066642e-01f, 1.55267209e-01f, 2.21737340e-01f, 1.38568029e-01f, 2.86383219e-02f, -5.87838218e-02f,
        -2.97329389e-02f, -1.12681147e-02f, 2.80382391e-02f, 2.72558201e-02f, -1.19029637e-02f, -3.30324359e-02f, 2.62868591e-02f, 1.05490223e-01f,
        1.75861835e-01f, 1.85614198e-01f, 1.36141628e-01f, 9.83785614e-02f, 1.25996530e-01f, 2.37316135e-02f, -1.37546211e-02f, -9.79468897e-02f,
        -1.05228662e-01f, -6.03541061e-02f, 8.27514660e-03f, -8.51427263e-04f, 1.11132920e-01f, 8.33163410e-02f, 1.76794842e-01f, 1.54472157e-01f,
        1.09670885e-01f, -2.54629571e-02f, -7.08017051e-02f, -8.71585757e-02f, -3.51165533e-02f, -3.48995673e-03f, -3.22647728e-02f, 3.30594629e-02f,
        2.43037497e-03f, -3.05893570e-02f, -7.91099109e-03f, 7.98889324e-02f, 1.33193538e-01f, 1.44751638e-01f, 1.34672120e-01f, 1.13127612e-01f,
        1.31287789e-02f, 1.03917615e-02f, 5.63308895e-02f, -1.17428554e-02f, -3.08944974e-02f, -4.56724726e-02f, -2.26053298e-02f, -1.08108949e-03f,
        4.65721563e-02f, 9.40305889e-02f, 8.01114440e-02f, 7.06560835e-02f, 3.58964950e-02f, -3.75112519e-02f, -2.38001440e-02f, -3.28844860e-02f,
        6.46093208e-03f, 1.37539739e-02f, -9.96076409e-03f, -2.15028096e-02f, 2.22664438e-02f, -3.33306789e-02f, -2.41596401e-02f, 1.68290418e-02f,
        1.02419972e-01f, 1.62796989e-01f, 2.03824267e-01f, 1.44492954e-01f, 6.46836013e-02f, 5.35654314e-02f, 7.48482049e-02f, 8.63675103e-02f,
        -1.92023609e-02f, 5.08449301e-02f, -2.24649184e-03f, 1.74474455e-02f, -5.33489957e-02f, 4.20405529e-02f, 9.62288976e-02f, 1.43632507e-02f,
        -6.97985590e-02f, -3.67001370e-02f, -8.01668242e-02f, -2.56457441e-02f, 5.96428523e-03f, -1.41133331e-02f, -3.31484675e-02f, 2.26875544e-02f,
        1.81824341e-03f, 2.37028413e-02f, 1.40090883e-02f, 1.76967271e-02f, 8.63235742e-02f, 9.56910104e-02f, 2.02155426e-01f, 2.42172495e-01f,
        2.01484159e-01f, 2.21843749e-01f, 2.15730309e-01f, 2.08422318e-01f, 2.06027806e-01f, 2.14348838e-01f, 1.29378021e-01f, 7.45762736e-02f,
        6.04576468e-02f, 2.87427325e-02f, -4.28689085e-02f, -5.40086851e-02f, -5.09865321e-02f, -6.29115328e-02f, -1.40898582e-02f, 1.41578270e-02f,
        1.11439070e-02f, 4.09905659e-03f, 4.62912256e-03f, 2.16194913e-02f, 9.87270847e-03f, -1.20676514e-02f, 2.09437795e-02f, -3.39852343e-03f,
        1.32422298e-02f, 5.36481030e-02f, 7.94309601e-02f, 8.61561149e-02f, 1.58720121e-01f, 1.77312121e-01f, 2.09133863e-01f, 2.39164978e-01f,
        2.56234795e-01f, 1.95792571e-01f, 1.16539434e-01f, 2.79582124e-02f, 4.89018671e-02f, 1.05204275e-02f, -1.39392000e-02f, -3.45906056e-02f,
        -1.96951982e-02f, -2.28818087e-03f, 4.30472987e-03f, -3.04304063e-02f, -3.15254778e-02f, -5.75955072e-03f, -3.05274781e-02f, 2.36568972e-03f,
        1.04006715e-02f, -2.97807902e-02f, 3.50044481e-02f, -2.44178139e-02f, -3.51760127e-02f, -2.60974094e-02f, -2.33590063e-02f, 2.40819342e-02f,
        -3.95315990e-04f, 1.92319136e-02f, 3.03043780e-05f, -2.97973454e-02f, 3.62489768e-03f, -6.32454501e-03f, -1.68318544e-02f, -2.39666756e-02f,
        2.16115322e-02f, 9.04277060e-03f, 1.80091560e-02f, 4.40642470e-03f, 1.99849792e-02f, -6.87587494e-03f, -2.56445091e-02f, 5.22414083e-03f,
        2.01126318e-02f, -1.91816371e-02f, 3.48260440e-02f, 2.27810964e-02f, -2.76306029e-02f, -1.95136033e-02f, 6.40617311e-03f, 2.69271396e-02f,
        6.94108568e-03f, 1.49295693e-02f, 2.61086808e-03f, 2.20639221e-02f, -2.78031826e-02f, 1.71269313e-03f, -1.68503970e-02f, -6.42273296e-03f,
        -3.30057024e-04f, -3.16121988e-02f, 1.98107325e-02f, 9.29582492e-03f, 3.11476216e-02f, -3.38557474e-02f, 1.21639995e-02f, 1.53477844e-02f,
        -4.71688155e-03f, 7.89751671e-03f, -1.01266392e-02f, -2.69953460e-02f, 1.33461282e-02f, 2.91038044e-02f, -8.34057108e-03f, -8.78816471e-03f,
    },
    {
        3.22614238e-03f, -2.70618126e-02f, -1.85527764e-02f, 2.58540064e-02f, -3.15210335e-02f, 3.22043560e-02f, 4.41443920e-03f, 2.18943916e-02f,
        -7.40441680e-03f, 2.80243494e-02f, 1.30207501e-02f, -1.97675359e-02f, 1.80944707e-02f, -8.83658323e-03f, 4.77339840e-03f, 2.64012422e-02f,
        -2.18081437e-02f, -2.17739344e-02f, -3.10658365e-02f, 2.38323808e-02f, -2.37062871e-02f, -3.33288163e-02f, 3.07290293e-02f, 2.65292339e-02f,
        -1.08202919e-02f, -1.00548398e-02f, 5.36961481e-03f, 8.14129412e-03f, 8.38324428e-03f, -3.76751274e-03f, 8.66133347e-03f, -2.73548067e-04f,
        -2.19522845e-02f, 3.44498344e-02f, 2.68346779e-02f, -2.00824253e-02f, -2.62674782e-02f, 2.19607130e-02f, -3.86345433e-03f, 1.71662793e-02f,
        1.07420553e-02f, -7.90785532e-03f, 5.54990722e-03f, 1.28849801e-02f, -3.58216688e-02f, -4.18508202e-02f, 2.46638730e-02f, -3.14861685e-02f,
        2.95385532e-02f, 3.16768256e-03f, -2.13512350e-02f, 2.57108174e-02f, -7.39611126e-03f, -1.41587108e-04f, 1.24844536e-02f, -1.45870671e-02f,
        3.16916294e-02f, -1.40444208e-02f, -2.31427443e-03f, -2.55213352e-03f, -1.85329793e-03f, 6.68122806e-03f, -3.32722589e-02f, -1.04618054e-02f,
        -2.06453446e-02f, -5.02624512e-02f, -5.71558364e-02f, -7.31657520e-02f, -1.15048267e-01f, -9.39903185e-02f, -4.02430780e-02f, -8.99705514e-02f,
        -4.83762883e-02f, -3.40944715e-02f, -1.93738136e-02f, -2.11555455e-02f, 2.30547246e-02f, -2.05018669e-02f, -2.04110350e-02f, 1.79607589e-02f,
        2.03988999e-02f, -9.99973621e-03f, 3.48941423e-02f, 1.50867105e-02f, 6.46515936e-03f, -2.76989192e-02f, 9.31336731e-03f, 1.70211261e-03f,
        -2.13130265e-02f, -7.92890973e-03f, -2.71217618e-02f, -2.79274564e-02f, -4.64510992e-02f, -5.18990010e-02f, -6.58104494e-02f, -1.52672961e-01f,
        -1.25265419e-01f, -1.85818613e-01f, -2.01768354e-01f, -1.39581218e-01f, -1.42504022e-01f, -1.02432795e-01f, -1.04773179e-01f, -1.11313462e-02f,
        1.02162152e-03f, -1.16082504e-02f, -1.70250870e-02f, 1.37723982e-02f, 7.25331996e-03f, -2.79566702e-02f, 2.70788651e-02f, 1.45495869e-02f,
        2.72575021e-03f, -2.97732092e-02f, 3.98838008e-03f, -3.38905528e-02f, -2.61932816e-02f, 6.42706733e-03f, -2.60770563e-02f, 4.24259575e-03f,
        -4.64462712e-02f, -9.05024260e-02f, -1.13539144e-01f, -1.60407707e-01f, -1.82273000e-01f, -1.70345336e-01f, -2.37529382e-01f, -1.64493546e-01f,
        -1.15176268e-01f, -1.27551794e-01f, -6.52300939e-02f, 5.37157408e-04f, 5.06417714e-02f, 2.29790285e-02f, 8.85104984e-02f, 2.60651577e-02f,
        -5.08298539e-03f, -2.88523603e-02f, -3.41403298e-02f, 5.46018127e-03f, 1.30714104e-03f, -1.68176591e-02f, -2.08339207e-02f, 8.68507754e-03f,
        2.92178001e-02f, -1.78631523e-03f, 5.14167063e-02f, -1.66397765e-02f, 1.58420447e-02f, -5.05112261e-02f, -4.03630920e-02f, -1.23903662e-01f,
        -1.24730088e-01f, -1.57732874e-01f, -8.37197080e-02f, -6.09168410e-02f, -3.42361145e-02f, -1.32426806e-02f, 5.26780114e-02f, 5.01157530e-02f,
        7.87334442e-02f, 9.63415802e-02f, 1.28744915e-01f, 1.25262111e-01f, 8.82574618e-02f, 1.60478335e-02f, -2.04687659e-02f, 1.35545321e-02f,
        9.47931409e-03f, -2.23533977e-02f, -2.62319134e-03f, 2.50069741e-02f, -1.65658724e-02f, 4.40138578e-02f, 6.78493902e-02f, 5.22412248e-02f,
        4.20510061e-02f, -8.18697643e-03f, -9.45873708e-02f, -1.71980292e-01f, -2.07088068e-01f, -2.13448897e-01f, -2.74217039e-01f, -2.56402612e-01f,
        -1.69761226e-01f, -1.67866588e-01f, -9.42400768e-02f, -4.21600826e-02f, -1.66261625e-02f, 7.45750368e-02f, 2.01805353e-01f, 2.48140559e-01f,
        1.04455367e-01f, 4.46365997e-02f, -2.30080299e-02f, -2.93961130e-02f, 2.42399368e-02f, 7.01154768e-03f, -2.82059330e-02f, 2.74776910e-02f,
        3.90638113e-02f, 3.43331769e-02f, 4.78059761e-02f, 1.12360697e-02f, -1.76600404e-02f, -3.51095758e-02f, -1.23113714e-01f, -2.01660812e-01f,
        -3.18379313e-01f, -2.85704643e-01f, -3.98111463e-01f, -4.38886702e-01f, -3.58966887e-01f, -2.57451653e-01f, -2.11637720e-01f, -1.13886520e-01f,
        -8.22221115e-02f, 3.54793407e-02f, 1.59846172e-01f, 1.89863950e-01f, 5.68668097e-02f, -2.00564228e-02f, 5.85492607e-03f, -1.19093833e-02f,
        -2.48698555e-02f, 9.00804531e-03f, -2.63798051e-02f, -1.12697473e-02f, -1.27655147e-02f, 1.11140367e-02f, 1.70678634e-03f, -1.55856367e-02f,
        -1.01702027e-01f, -8.50217864e-02f, -1.38224036e-01f, -1.90665632e-01f, -1.92551523e-01f, -2.41760075e-01f, -3.81800801e-01f, -4.33965534e-01f,
        -3.13972324e-01f, -1.88361272e-01f, -1.04077801e-01f, -8.45295638e-02f, -8.23757946e-02f, 2.70785894e-02f, 4.40201759e-02f, 4.25009429e-02f,
        -2.49557681e-02f, -1.09972516e-02f, -2.07840186e-02f, 2.84275878e-03f, -1.91197526e-02f, -3.69866402e-03f, -2.82015326e-03f, -3.22396383e-02f,
        -2.47979518e-02f, -3.41020003e-02f, -4.40095179e-02f, -6.09358624e-02f, -3.02068759e-02f, -2.03656051e-02f, -5.77576011e-02f, -8.96883011e-02f,
        -4.64057550e-02f, -1.84108138e-01f, -4.55293655e-01f, -4.04194653e-01f, -8.19312334e-02f, -3.12487707e-02f, -2.70224810e-02f, -1.94335207e-02f,
        -6.90561309e-02f, -1.45184435e-02f, -5.25773242e-02f, -3.09056249e-02f, -7.65252560e-02f, -4.22163568e-02f, -3.46111250e-03f, 2.10188776e-02f,
        -2.87182373e-03f, 2.43388340e-02f, 1.88793074e-02f, -2.76703341e-03f, -5.50133064e-02f, -4.51852977e-02f, -8.24395046e-02f, -5.85547052e-02f,
        1.39151681e-02f, 9.36344787e-02f, 2.94269621e-02f, 2.98061259e-02f, 1.06531322e-01f, -1.96491793e-01f, -4.58493918e-01f, -1.85751259e-01f,
        -1.33250991e-03f, 6.65238574e-02f, -3.74835730e-02f, -2.91587170e-02f, -6.76808879e-02f, -9.01224166e-02f, -1.20950870e-01f, -1.69438571e-01f,
        -9.58194360e-02f, -6.29590750e-02f, -4.07276265e-02f, -1.21788522e-02f, 6.11837720e-03f, 2.35811062e-02f, -3.29467878e-02f, -5.94876483e-02f,
        -5.83650433e-02f, -3.31783332e-02f, -1.51586989e-02f, 6.02177158e-02f, 1.07942834e-01f, 2.06356004e-01f, 2.60758847e-01f, 2.34814420e-01f,
        1.62904337e-01f, -2.33743548e-01f, -4.34256494e-01f, -2.33032815e-02f, 2.05270201e-01f, 1.60679236e-01f, -1.99315567e-02f, -4.66697663e-02f,
        -1.20065160e-01f, -5.76372221e-02f, -9.14646834e-02f, -1.54805198e-01f, -6.57207444e-02f, -7.56334513e-02f, 1.12579586e-02f, 1.39150606e-03f,
        1.30858766e-02f, 2.09710579e-02f, -3.74224894e-02f, -2.74243578e-02f, -4.08458933e-02f, -5.21788597e-02f, 3.95211168e-02f, 1.86445877e-01f,
        2.35130608e-01f, 2.64491767e-01f, 3.40028942e-01f, 4.48550940e-01f, 2.97598362e-01f, -7.36289620e-02f, -2.26095334e-01f, 5.91409840e-02f,
        3.03120881e-01f, 1.18468717e-01f, 3.29499543e-02f, 3.80026759e-03f, -5.77829033e-03f, 2.56596953e-02f, -5.41415326e-02f, -8.60271603e-02f,
        -3.15136202e-02f, 1.70521252e-02f, -2.68238466e-02f, 3.12335435e-02f, 8.20319168e-03f, 1.26106320e-02f, 1.52688688e-02f, -2.07211468e-02f,
        2.07525399e-02f, 6.06146306e-02f, 1.88465342e-01f, 2.88529247e-01f, 2.81055182e-01f, 2.70429492e-01f, 4.05261815e-01f, 4.93208468e-01f,
        2.79024541e-01f, -7.50169158e-02f, -9.09091532e-02f, 1.47465691e-01f, 2.56480932e-01f, 2.70209283e-01f, 1.89723983e-01f, 1.39317125e-01f,
        1.20200790e-01f, 5.88410422e-02f, 3.24143618e-02f, -2.83006970e-02f, -3.94669734e-02f, -1.61088444e-02f, -1.20028351e-02f, 1.55814383e-02f,
        -2.12452561e-02f, -1.20910536e-02f, 2.06255261e-02f, -3.71843800e-02f, 5.72638251e-02f, 1.94297671e-01f, 2.90262163e-01f, 3.23323190e-01f,
        3.18194419e-01f, 2.50129879e-01f, 3.17013919e-01f, 3.23580265e-01f, 2.06737712e-01f, -6.84168562e-02f, -5.12827523e-02f, 1.11132629e-01f,
        3.41643721e-01f, 3.54761869e-01f, 2.45297506e-01f, 2.26437703e-01f, 1.52582198e-01f, 6.33589700e-02f, 4.30193469e-02f, -7.96559919e-03f,
        -4.74744067e-02f, -4.41647209e-02f, -3.17133367e-02f, 2.09376961e-02f, -3.87025252e-03f, 2.16315221e-02f, 1.45777855e-02f, 4.39730473e-02f,
        4.22009639e-02f, 1.33862928e-01f, 1.93227217e-01f, 2.99331665e-01f, 2.95760840e-01f, 2.53647059e-01f, 1.71283185e-01f, 2.15066373e-01f,
        1.05461165e-01f, -2.60794591e-02f, 1.65222678e-02f, 2.56632775e-01f, 3.74803156e-01f, 3.28428894e-01f, 2.13473454e-01f, 1.88927636e-01f,
        6.74659759e-02f, -2.64797043e-02f, 3.27892303e-02f, -4.07214947e-02f, -8.38880390e-02f, -6.42884001e-02f, -1.05196042e-02f, 2.53381650e-03f,
        -2.01035049e-02f, 8.57386924e-03f, 7.30063440e-03f, -3.39457914e-02f, -5.33409975e-02f, 4.57492657e-02f, 1.39776632e-01f, 2.43648246e-01f,
        3.06324065e-01f, 2.29019061e-01f, 5.76761924e-02f, 1.03315748e-02f, 7.47930929e-02f, 6.04729950e-02f, 2.36005515e-01f, 4.25887614e-01f,
        3.65376413e-01f, 2.94590473e-01f, 1.60357088e-01f, 5.77061176e-02f, 8.78978297e-02f, 3.97301354e-02f, -8.22882727e-02f, -5.51950559e-02f,
        -5.73022813e-02f, -7.31411949e-02f, -2.54572481e-02f, 1.09345494e-02f, -1.87225901e-02f, 3.32839265e-02f, 1.78808775e-02f, -5.92626184e-02f,
        -6.26876578e-02f, -6.31299168e-02f, 5.50198965e-02f, 1.26773506e-01f, 1.86490759e-01f, 1.54803291e-01f, 3.87870218e-03f, 3.34058818e-03f,
        6.99288175e-02f, 2.14733303e-01f, 3.70831311e-01f, 3.64673406e-01f, 3.10708970e-01f, 1.57870099e-01f, 4.15287614e-02f, -2.02575680e-02f,
        -3.77772972e-02f, -7.08676055e-02f, -9.44854841e-02f, -1.18751712e-01f, -9.34454054e-02f, -1.88237522e-02f, 1.73125211e-02f, 4.71330713e-03f,
        1.21431062e-02f, -1.51055092e-02f, -2.29492020e-02f, -7.59155005e-02f, -7.09526911e-02f, -1.03672318e-01f, -6.33175150e-02f, -5.51185086e-02f,
        1.46156074e-02f, -5.83169088e-02f, -1.69566184e-01f, -1.25573918e-01f, 8.17969739e-02f, 1.98730573e-01f, 1.97811320e-01f, 2.25827858e-01f,
        1.08862363e-01f, -6.00185357e-02f, -7.99136385e-02f, -1.27406731e-01f, -7.36599267e-02f, -1.33122295e-01f, -1.96544200e-01f, -8.16157758e-02f,
        -5.92832789e-02f, -4.66778018e-02f, -2.53998414e-02f, 2.63613486e-03f, -3.81390710e-04f, 5.69796842e-03f, -3.75906453e-02f, -1.56730972e-02f,
        -6.14970177e-02f, -8.59689638e-02f, -1.46205053e-01f, -2.25774094e-01f, -2.15948358e-01f, -2.63009518e-01f, -2.82589942e-01f, -2.37956092e-01f,
        -1.94785103e-01f, -1.07797071e-01f, 5.25721163e-02f, 3.59619930e-02f, -3.82957496e-02f, -8.87348354e-02f, -9.48793739e-02f, -1.36628270e-01f,
        -1.00156344e-01f, -1.05872341e-01f, -1.96520522e-01f, -9.16503817e-02f, -3.13771255e-02f, -3.40204909e-02f, 3.11230533e-02f, -2.96200216e-02f,
        -1.92231666e-02f, 2.08691563e-02f, -7.01069459e-03f, -4.08089459e-02f, -3.28049883e-02f, -1.33987978e-01f, -1.99545577e-01f, -2.75618672e-01f,
        -3.12486798e-01f, -3.63356024e-01f, -3.66187334e-01f, -2.43541211e-01f, -1.77785814e-01f, -1.72069922e-01f, -1.24526627e-01f, -4.84964252e-02f,
        -5.06948344e-02f, -3.10288109e-02f, -1.10803008e-01f, -1.06263511e-01f, -9.55343619e-02f, -6.11156560e-02f, -8.40613991e-02f, -4.38375883e-02f,
        -1.33295842e-02f, 8.40521324e-03f, -1.86781883e-02f, 2.34949421e-02f, 8.17781372e-04f, 3.52941006e-02f, -5.45623340e-03f, -3.14500257e-02f,
        -7.14464560e-02f, -8.27795416e-02f, -1.85175344e-01f, -2.50805974e-01f, -2.28170320e-01f, -2.63219148e-01f, -2.13749528e-01f, -1.51194751e-01f,
        -1.54270768e-01f, -1.83880955e-01f, -7.83184320e-02f, -3.27537023e-02f, -8.02153796e-02f, -1.56631507e-02f, -3.39002237e-02f, 7.16543710e-03f,
        4.76164091e-03f, 1.39407199e-02f, -4.09659557e-02f, -4.71091121e-02f, -1.24777677e-02f, -8.98004975e-03f, 2.74305716e-02f, 2.68769152e-02f,
        1.62316207e-02f, -1.66044869e-02f, 2.81278435e-02f, -3.05586047e-02f, -8.99852533e-03f, -4.80587371e-02f, -1.09336287e-01f, -1.16315417e-01f,
        -1.23216644e-01f, -1.51504502e-01f, -8.70761499e-02f, -1.23202384e-01f, -9.70874354e-02f, -6.77940995e-02f, -1.04480408e-01f, -9.14507639e-03f,
        -1.12419855e-02f, 5.24693318e-02f, 7.20870644e-02f, 9.44841355e-02f, 8.78684446e-02f, 4.29556593e-02f, 3.18388566e-02f, -1.72074779e-03f,
        1.09442780e-02f, -3.10592037e-02f, -1.03736366e-03f, 2.18147449e-02f, 5.14846295e-04f, 3.25376168e-03f, -1.13776391e-02f, -1.61311012e-02f,
        -3.71727087e-02f, -2.83216424e-02f, -6.97942525e-02f, -8.91505778e-02f, -7.04750642e-02f, -6.82143643e-02f, -4.35017273e-02f, -3.09208091e-02f,
        -8.64912271e-02f, -7.77843520e-02f, -4.47357967e-02f, -2.84901727e-02f, 1.54892653e-02f, 7.52765685e-02f, 1.16451867e-01f, 1.67809740e-01f,
        1.42050073e-01f, 7.95782730e-02f, 3.13416705e-03f, 7.79944006e-03f, 9.90756415e-03f, 2.15987880e-02f, 1.04075717e-03f, -2.72471365e-02f,
        -1.05713774e-02f, 1.89055726e-02f, -5.19890105e-03f, 2.80865487e-02f, -8.92085116e-03f, -3.38835707e-05f, -2.91530322e-02f, -4.32255939e-02f,
        -3.79006900e-02f, -2.75045913e-02f, -1.70600433e-02f, -1.17913652e-02f, -8.28478634e-02f, -8.48075673e-02f, -3.61473411e-02f, -3.86309661e-02f,
        -1.69832967e-02f, -4.99645397e-02f, 4.37909514e-02f, 2.59101074e-02f, 5.61960377e-02f, -5.44910459e-03f, -1.41762514e-02f, 1.85060538e-02f,
        -3.71683612e-02f, 3.33562046e-02f, 3.11492700e-02f, -2.67330762e-02f, 1.16798356e-02f, 1.77980885e-02f, -2.70528588e-02f, -1.77080128e-02f,
        -1.30091114e-02f, -4.36854474e-02f, -2.68178899e-03f, -4.68691774e-02f, -9.43232030e-02f, -9.40798000e-02f, -1.37852535e-01f, -1.59846738e-01f,
        -1.88829482e-01f, -2.17372641e-01f, -1.92375377e-01f, -1.77222461e-01f, -2.13757142e-01f, -2.03221902e-01f, -1.68240443e-01f, -9.70708802e-02f,
        -9.71003547e-02f, -5.02497293e-02f, -2.38149576e-02f, -1.92152485e-02f, 6.66784635e-03f, -2.17841137e-02f, -1.71714351e-02f, -2.55567692e-02f,
        2.80006416e-02f, -1.25577021e-02f, -8.01069476e-03f, -2.21150797e-02f, 1.19906142e-02f, 3.71534703e-03f, -3.91027741e-02f, -7.26981461e-03f,
        -6.26852661e-02f, -1.16596960e-01f, -7.59454221e-02f, -1.36982068e-01f, -1.17408127e-01f, -1.52979955e-01f, -1.60173565e-01f, -1.13526992e-01f,
        -1.35226399e-01f, -1.16745926e-01f, -1.15452178e-01f, -7.92618990e-02f, -6.47899583e-02f, -2.17420682e-02f, -3.23779136e-03f, 2.13441835e-03f,
        2.83865146e-02f, 2.81501021e-02f, -2.33268403e-02f, -1.24483034e-02f, 9.49819759e-03f, 1.90676376e-02f, -3.18693891e-02f, 3.19872908e-02f,
        3.09161469e-02f, -2.66096164e-02f, 2.29784683e-03f, -2.45575234e-02f, -1.13205379e-02f, -1.34120695e-02f, -1.95826078e-03f, -5.78353601e-03f,
        -2.47831121e-02f, -4.21251021e-02f, -4.36909869e-02f, -2.87722219e-02f, -3.49609070e-02f, -1.75696220e-02f, -4.03447300e-02f, -1.74683556e-02f,
        -6.47838181e-03f, -2.65636556e-02f, -1.12769753e-02f, 2.73178741e-02f, 1.83619596e-02f, 3.55175249e-02f, -4.09286842e-03f, 2.92606615e-02f,
    },
    {
        1.86641477e-02f, -3.16169970e-02f, 1.16673894e-02f, 3.27276327e-02f, -1.03595257e-02f, 2.50626057e-02f, -2.46242676e-02f, 2.63800360e-02f,
        -5.02834655e-03f, 2.96326391e-02f, -5.73213585e-03f, -2.65335329e-02f, 2.40461566e-02f, -2.62591392e-02f, -9.86251328e-03f, 2.26843096e-02f,
        -9.69372690e-04f, 2.23963112e-02f, 2.13912129e-03f, -1.44203827e-02f, -2.88502462e-02f, -2.43977997e-02f, -2.20540259e-02f, -3.16735953e-02f,
        1.58864111e-02f, 3.46860252e-02f, -2.47888453e-02f, 3.16625200e-02f, 2.37389766e-02f, -3.39693613e-02f, -3.29682790e-02f, 1.42894313e-02f,
        -8.99755210e-03f, -2.31276359e-02f, -3.00134113e-03f, -2.37895045e-02f, -2.36319238e-03f, -2.20961440e-02f, -3.20968255e-02f, 8.99060722e-03f,
        -7.08612008e-03f, 9.75452550e-03f, 1.79190151e-02f, 2.30583418e-02f, -1.73249487e-02f, 2.87465076e-03f, 4.28760750e-03f, -1.94324981e-02f,
        -3.24190333e-02f, -6.00500219e-03f, 5.47818514e-03f, 2.36973371e-02f, -1.04022752e-02f, -1.15336478e-02f, 2.68712454e-02f, 1.04559436e-02f,
        -3.44655886e-02f, -2.41315626e-02f, -1.61110256e-02f, -7.06216134e-03f, 1.48286466e-02f, 2.16009878e-02f, 2.97672693e-02f, -2.88787298e-02f,
        -3.48254815e-02f, -5.69899101e-04f, 2.51649283e-02f, -3.55773680e-02f, -3.60351652e-02f, -2.69075762e-02f, -1.66862831e-02f, 5.90187823e-03f,
        1.33381821e-02f, 1.11212283e-02f, 1.04058683e-02f, -3.92688997e-03f, -3.92604321e-02f, -2.20038053e-02f, -5.87341376e-03f, 2.42881253e-02f,
        2.35399678e-02f, -1.92887895e-02f, -1.10473298e-02f, -9.62544046e-03f, 1.33145228e-03f, -3.34869549e-02f, -1.89711340e-02f, 3.10847256e-02f,
        1.83478296e-02f, -9.46376752e-03f, 2.57675555e-02f, -4.39914428e-02f, 3.81628680e-03f, -5.57145327e-02f, -5.56589514e-02f, -5.67386784e-02f,
        -4.66034636e-02f, -7.44380653e-02f, -1.04575651e-02f, -4.61467654e-02f, 2.52966769e-02f, 3.24400626e-02f, 6.67100251e-02f, 7.99084678e-02f,
        6.88296184e-02f, 2.48910729e-02f, 2.50035282e-02f, 1.98923200e-02f, 1.91452578e-02f, -2.57903226e-02f, -2.71921810e-02f, 2.29053944e-03f,
        -1.49224065e-02f, -2.71008722e-03f, -1.65975187e-02f, -8.84900894e-03f, 1.35535188e-02f, 4.37784009e-03f, -2.36738063e-02f, -9.28597301e-02f,
        -8.38305131e-02f, -7.35632107e-02f, -7.94687197e-02f, -4.73040901e-02f, -7.73933679e-02f, -1.32046178e-01f, -4.08670008e-02f, -3.33414326e-04f,
        5.59272207e-02f, 9.28931311e-02f, 1.24749556e-01f, 2.86902823e-02f, -1.56217450e-02f, 7.72449449e-02f, 4.52077240e-02f, 7.07149655e-02f,
        7.48547018e-02f, -1.67054646e-02f, -3.27899456e-02f, 1.09962597e-02f, 2.11325772e-02f, -2.43415534e-02f, -3.21869180e-02f, 1.32177975e-02f,
        -3.15007456e-02f, -3.19594778e-02f, -1.31079718e-01f, -6.03608266e-02f, -8.87917653e-02f, -3.56481634e-02f, -5.91827231e-03f, 1.98853556e-02f,
        -6.35818169e-02f, -6.69810548e-02f, -6.56154752e-02f, -4.43339013e-02f, 1.59823627e-03f, 7.71305859e-02f, 6.57646060e-02f, 5.34916669e-02f,
        9.67433378e-02f, 7.62853771e-02f, 1.93115667e-01f, 1.96663618e-01f, 1.22427933e-01f, 1.02692470e-01f, 3.07480078e-02f, -7.38182571e-03f,
        -2.58800015e-03f, 2.03322619e-02f, -2.30163373e-02f, -4.79316972e-02f, -7.08066970e-02f, -8.22666883e-02f, -7.23036304e-02f, -6.76159784e-02f,
        -2.42969897e-02f, 3.70418392e-02f, 8.46095383e-02f, 7.30512366e-02f, 4.00793925e-02f, 6.92965556e-03f, 3.95874791e-02f, -1.73313729e-02f,
        -1.29116222e-03f, 3.35874371e-02f, 6.25639334e-02f, 1.28001437e-01f, 8.84188265e-02f, 1.10554673e-01f, 1.93734974e-01f, 2.95697063e-01f,
        3.11401159e-01f, 1.76893383e-01f, 4.72876020e-02f, -1.73206814e-02f, 3.21226865e-02f, -1.94662828e-02f, -5.75683080e-03f, -3.19148004e-02f,
        -8.08009431e-02f, -1.53766885e-01f, -8.19588080e-02f, -2.29740757e-02f, 8.19046497e-02f, 8.73309746e-02f, 1.10324241e-01f, 1.35194823e-01f,
        4.63167429e-02f, 9.19558946e-03f, 2.59172041e-02f, -6.97499514e-02f, 1.69717725e-02f, 3.42688337e-02f, 5.49579561e-02f, 7.96615109e-02f,
        6.61467984e-02f, 7.74058625e-02f, 1.84279755e-01f, 3.53807837e-01f, 4.10840631e-01f, 2.67761499e-01f, 1.00741364e-01f, 4.36011050e-03f,
        2.25820951e-02f, -1.05655827e-02f, -2.41432041e-02f, -2.72105467e-02f, -1.47189289e-01f, -1.19568743e-01f, -9.17526409e-02f, -2.37681381e-02f,
        1.04172446e-01f, 1.02435298e-01f, 6.71941042e-02f, 1.19381577e-01f, 5.68502657e-02f, -4.48053740e-02f, -9.24964920e-02f, -1.45539850e-01f,
        -9.62810740e-02f, -7.95202553e-02f, -8.73604324e-04f, 5.04813194e-02f, 1.08946025e-01f, 1.42944455e-01f, 1.89163193e-01f, 4.59548175e-01f,
        5.98918319e-01f, 3.76473993e-01f, 6.72233105e-02f, 3.81668797e-03f, 2.97427196e-02f, 9.23486368e-05f, 1.81498602e-02f, -4.18407917e-02f,
        -1.21878847e-01f, -1.22087695e-01f, -7.11413920e-02f, 2.53200866e-02f, 1.35491788e-01f, 1.47197947e-01f, 1.45664886e-01f, 2.81960011e-01f,
        1.22496679e-01f, 2.51154751e-02f, -1.22608095e-01f, -2.72422522e-01f, -2.36031711e-01f, -1.73335567e-01f, -1.10247612e-01f, -3.56183946e-02f,
        5.78951044e-03f, 1.63687810e-01f, 2.28175744e-01f, 4.53953624e-01f, 6.18548393e-01f, 4.51659441e-01f, 7.35244825e-02f, 2.31772754e-02f,
        -2.50213849e-03f, -1.00853210e-02f, 2.59949062e-02f, -1.93294063e-02f, -3.67023088e-02f, -4.29022349e-02f, 2.06054337e-02f, 1.38756543e-01f,
        2.01954111e-01f, 2.08490461e-01f, 2.39779428e-01f, 2.63185859e-01f, 2.69388288e-01f, 1.45855919e-01f, 6.85124844e-02f, -8.72594863e-02f,
        -1.85140550e-01f, -2.41457924e-01f, -2.61853069e-01f, -2.05070361e-01f, -9.07945409e-02f, -3.38960402e-02f, 5.95878325e-02f, 2.63177484e-01f,
        4.75332439e-01f, 3.70368570e-01f, 9.15869549e-02f, -1.09622320e-02f, 8.60355236e-03f, -1.28951045e-02f, -1.43787926e-02f, 4.33825981e-03f,
        -1.60753392e-02f, 2.97025889e-02f, 1.09918848e-01f, 1.45495042e-01f, 1.85980007e-01f, 1.66892156e-01f, 1.71365738e-01f, 2.30474085e-01f,
        3.31171572e-01f, 2.97206610e-01f, 9.86860022e-02f, -7.13012591e-02f, -1.74101606e-01f, -1.90320611e-01f, -2.73002625e-01f, -3.18071455e-01f,
        -4.19093579e-01f, -3.48129481e-01f, -2.88124353e-01f, -1.23168543e-01f, 6.66048154e-02f, 1.69612318e-01f, 6.18903786e-02f, -6.90385886e-03f,
        -2.16087382e-02f, 2.37909760e-02f, -1.65058281e-02f, -3.68781611e-02f, 6.75827637e-03f, 5.26475385e-02f, 1.33343130e-01f, 1.24806441e-01f,
        1.06657647e-01f, 3.61588895e-02f, 1.82096645e-01f, 2.76222229e-01f, 3.09026033e-01f, 2.67017901e-01f, 4.06395458e-02f, -9.20183733e-02f,
        -3.04049253e-01f, -2.36459091e-01f, -2.52473563e-01f, -2.88727224e-01f, -3.84466976e-01f, -4.56106275e-01f, -4.75109130e-01f, -3.71830225e-01f,
        -1.80188313e-01f, 3.35444435e-02f, 3.47419456e-02f, 5.81187010e-03f, -2.62614153e-02f, 2.57653948e-02f, -2.23661028e-02f, 8.47923383e-03f,
        1.51788732e-02f, 6.79471344e-02f, 5.10209799e-02f, 1.02862775e-01f, 8.42677504e-02f, 1.29506797e-01f, 2.08828092e-01f, 3.07780921e-01f,
        3.03349018e-01f, 2.07275748e-01f, -2.06977110e-02f, -2.32793033e-01f, -3.11326861e-01f, -1.89727068e-01f, -1.44128159e-01f, -7.71828219e-02f,
        -1.40978113e-01f, -2.38936275e-01f, -2.84585953e-01f, -2.69107789e-01f, -1.78592011e-01f, -4.36990708e-02f, 5.92712499e-03f, -2.14306097e-02f,
        7.01905508e-03f, -1.78117417e-02f, 1.04788528e-03f, -3.08910999e-02f, -8.24576057e-03f, -3.95753421e-02f, -6.41274382e-04f, 4.26997878e-02f,
        5.33871129e-02f, 2.00437978e-01f, 2.51188725e-01f, 1.47187397e-01f, 1.42026305e-01f, 6.69195652e-02f, -5.35120852e-02f, -1.98135540e-01f,
        -2.21059412e-01f, -2.18997195e-01f, -1.16214097e-01f, -9.66168791e-02f, -3.59078385e-02f, -8.93047750e-02f, -1.39476955e-01f, -1.33992612e-01f,
        -1.15438670e-01f, -5.79624586e-02f, -1.84375886e-02f, 1.91957783e-02f, 1.75856855e-02f, -1.04586873e-02f, -1.17017720e-02f, 2.46474911e-02f,
        -3.64521965e-02f, -4.75966297e-02f, -1.18076921e-01f, -1.22039266e-01f, -1.63343251e-02f, 8.34483057e-02f, 1.16517074e-01f, 1.22405328e-01f,
        8.49062875e-02f, -6.06283396e-02f, -1.83234826e-01f, -2.18963608e-01f, -1.87038392e-01f, -1.44069791e-01f, -2.48365439e-02f, -5.03089055e-02f,
        -5.02421670e-02f, -1.85617507e-02f, -5.39188012e-02f, -3.26231010e-02f, -4.25264053e-02f, -3.54549699e-02f, 2.36558784e-02f, 7.51494989e-03f,
        -1.92839168e-02f, -3.22195217e-02f, -3.68780494e-02f, -2.89913174e-02f, -8.61504767e-03f, -1.02995887e-01f, -1.49470523e-01f, -2.14834943e-01f,
        -2.52951682e-01f, -1.87623426e-01f, -8.89317319e-02f, -9.29849297e-02f, -8.42263475e-02f, -1.35623232e-01f, -2.33770266e-01f, -1.88122854e-01f,
        -1.90546051e-01f, -7.44414553e-02f, -2.30531397e-04f, -3.12822126e-02f, 1.91365331e-02f, -1.12299537e-02f, 5.48164453e-03f, 4.84781945e-03f,
        -1.08768893e-02f, -5.41705862e-02f, 1.37380557e-02f, -3.63683118e-03f, 2.24226229e-02f, 1.49754742e-02f, -8.04338139e-04f, 1.08928718e-02f,
        -8.78939871e-03f, 2.01166905e-02f, 8.33475068e-02f, -1.17320009e-01f, -2.40683317e-01f, -2.67786503e-01f, -2.69234121e-01f, -2.22268417e-01f,
        -2.70915836e-01f, -2.82952189e-01f, -2.27370381e-01f, -1.02641217e-01f, -2.21702512e-02f, 4.31172028e-02f, 7.37921298e-02f, 2.52773315e-02f,
        9.13332030e-02f, 1.36978142e-02f, -2.21504681e-02f, 7.01561719e-02f, 3.86121534e-02f, 1.27978195e-02f, -7.32745219e-04f, -2.01044139e-02f,
        2.39326358e-02f, 2.14767624e-02f, 2.32109241e-03f, -1.93879511e-02f, 2.53513400e-02f, 1.38203815e-01f, 2.71195799e-01f, 1.29115596e-01f,
        -5.02601489e-02f, -1.31631359e-01f, -2.24347323e-01f, -1.97835326e-01f, -1.39446348e-01f, -5.54300584e-02f, -1.27280075e-02f, 2.62007634e-05f,
        3.94615456e-02f, 5.90855144e-02f, 2.76671592e-02f, 3.83713655e-02f, 7.72293806e-02f, 3.61499786e-02f, 4.57868055e-02f, 5.64625375e-02f,
        7.64702857e-02f, 5.38684288e-03f, -2.27484703e-02f, 1.51950195e-02f, -1.87509600e-03f, 3.22293080e-02f, 1.15287455e-03f, 1.79997850e-02f,
        4.94238809e-02f, 1.08859301e-01f, 2.83234775e-01f, 2.29582012e-01f, 1.79996684e-01f, 7.64746144e-02f, 2.21555755e-02f, 1.63382459e-02f,
        7.40778968e-02f, 5.26110940e-02f, 5.80457374e-02f, 2.59206956e-03f, -2.72622425e-02f, 2.62441132e-02f, 5.15247844e-02f, 6.37620166e-02f,
        6.08688109e-02f, 7.01218843e-02f, 5.24075367e-02f, 1.12636589e-01f, 3.20217721e-02f, 2.58201621e-02f, -1.64636467e-02f, 3.43724713e-02f,
        1.88947581e-02f, -2.56887246e-02f, 2.41190922e-02f, -4.23421804e-03f, 2.10402049e-02f, 1.07848078e-01f, 1.70678124e-01f, 1.48460567e-01f,
        2.36010104e-01f, 2.01714590e-01f, 1.24059595e-01f, 1.30309850e-01f, 6.50433451e-02f, 3.00440621e-02f, -5.97156491e-03f, -7.10843503e-03f,
        5.29619977e-02f, 7.39280581e-02f, 3.62442099e-02f, 6.57618120e-02f, 3.61420214e-02f, 5.38096093e-02f, 1.40109658e-01f, 7.42592812e-02f,
        8.99507757e-03f, 1.33763878e-02f, -3.28822955e-02f, -2.24066377e-02f, -3.44111286e-02f, 1.50202364e-02f, -4.57476592e-03f, 1.74481701e-02f,
        1.68025494e-02f, 3.10294107e-02f, 8.81997645e-02f, 8.55344459e-02f, 1.51470780e-01f, 1.26560271e-01f, 9.25157890e-02f, 8.43020156e-02f,
        9.10623223e-02f, 3.50784995e-02f, 4.47956212e-02f, 1.37815857e-02f, 5.58784492e-02f, 4.26312350e-02f, 9.93929617e-03f, 1.04601989e-02f,
        1.00827187e-01f, 1.30923390e-01f, 1.68061912e-01f, 7.73296878e-02f, 3.28565910e-02f, -2.51053870e-02f, -2.29506963e-03f, -1.48099603e-03f,
        2.68753581e-02f, 9.74982569e-04f, -4.92030413e-05f, -1.12049747e-02f, 4.13762853e-02f, -7.61874113e-03f, -1.86963659e-02f, 3.26769911e-02f,
        6.62766770e-02f, 8.31786543e-02f, 6.20714873e-02f, 6.14544600e-02f, 1.04786962e-01f, 1.72825038e-01f, 1.17244519e-01f, 9.66316313e-02f,
        9.06693116e-02f, 7.97247440e-02f, 3.82034518e-02f, 1.16609879e-01f, 7.43699372e-02f, 1.01584949e-01f, 5.14971837e-02f, 6.64064884e-02f,
        -5.54800034e-03f, 3.27277482e-02f, -2.89521720e-02f, 2.11590156e-02f, 2.28798352e-02f, 2.35289298e-02f, 2.93965805e-02f, 1.50818694e-02f,
        4.20137532e-02f, -1.83451045e-02f, -2.25753058e-02f, -5.03254980e-02f, 6.69280365e-02f, 8.56245831e-02f, 1.29909247e-01f, 1.24902256e-01f,
        1.59743547e-01f, 6.93569556e-02f, 8.05479586e-02f, 6.63478747e-02f, 7.32460022e-02f, 3.46344747e-02f, -2.54360810e-02f, 1.75224766e-02f,
        6.35405257e-02f, -1.33058792e-02f, 1.81776173e-02f, 3.68208177e-02f, 4.42803986e-02f, 9.86236380e-04f, -1.49742309e-02f, -2.22591646e-02f,
        3.18695419e-02f, -2.72050127e-02f, -3.16909105e-02f, -3.46120670e-02f, 3.66125209e-03f, 1.76462773e-02f, -6.20729337e-03f, 7.62582617e-03f,
        3.22748128e-05f, 1.22246787e-01f, 9.03145298e-02f, 1.51022464e-01f, 1.44407272e-01f, 1.95391387e-01f, 1.87041655e-01f, 1.18205316e-01f,
        4.26562764e-02f, 5.44231795e-02f, 5.41664101e-02f, -1.79396593e-03f, -7.47893425e-03f, 2.75021140e-03f, 3.19835581e-02f, 2.04236433e-02f,
        -1.24433311e-02f, 2.28806559e-04f, -1.18072350e-02f, -1.68899894e-02f, 2.67434493e-03f, 1.68500692e-02f, 1.52069945e-02f, 1.15868542e-02f,
        -3.04459631e-02f, 2.47254670e-02f, -3.87202241e-02f, -2.88506430e-02f, -1.84444580e-02f, 5.15979528e-02f, 7.43140206e-02f, 9.42569524e-02f,
        7.64116719e-02f, 9.43078175e-02f, 6.03291728e-02f, 5.34977838e-02f, 2.47752983e-02f, 5.48321977e-02f, 2.37887353e-02f, -4.28950507e-03f,
        2.00184304e-02f, 3.05257761e-03f, 3.36165987e-02f, 1.13846874e-02f, -1.94621701e-02f, 3.17289867e-02f, 4.49065492e-03f, -1.98968500e-03f,
        1.85898505e-02f, 3.40536498e-02f, -2.01443098e-02f, 3.36561650e-02f, 2.91249137e-02f, 6.52431464e-03f, -1.40744832e-03f, -4.55573164e-02f,
        3.02975369e-03f, -5.06509990e-02f, -3.91196795e-02f, 1.12135219e-03f, 2.57196035e-02f, -6.68572821e-03f, -4.93037142e-02f, 2.20961180e-02f,
        -1.01834163e-02f, -1.85849853e-02f, -1.80934221e-02f, 1.42281996e-02f, -3.57434526e-02f, -1.71806179e-02f, 3.20862536e-03f, -7.85492547e-03f,
        -2.47925799e-02f, -9.20286402e-04f, -2.17283163e-02f, 3.08993571e-02f, 1.36825778e-02f, -3.92237306e-03f, 2.36113891e-02f, 4.90764901e-03f,
        9.67195316e-04f, 6.22653170e-04f, 2.52845176e-02f, 3.35441045e-02f, 7.79355410e-03f, -1.79332420e-02f, 2.97174416e-02f, 2.75844019e-02f,
        2.64431909e-02f, 5.31536667e-03f, -3.32052521e-02f, 3.06225419e-02f, 5.80701337e-04f, 2.01584902e-02f, 1.04930252e-02f, 2.46675429e-03f,
        -2.15858631e-02f, -6.19143900e-03f, 5.87615359e-04f, -1.05241239e-02f, 3.09596397e-02f, -1.18083786e-02f, 1.35157332e-02f, 8.80306587e-03f,
    },
    {
        -9.76313837e-03f, -2.04343051e-02f, -2.75963210e-02f, -3.26475501e-02f, 3.47922705e-02f, 9.55259800e-03f, -5.50838560e-03f, -3.21240723e-02f,
        1.02737136e-02f, -1.12481415e-04f, -1.51470732e-02f, -1.45783219e-02f, 1.84867568e-02f, 1.50200911e-02f, -2.98924511e-03f, 3.19881737e-02f,
        6.51469082e-03f, -9.16951895e-03f, -1.65289044e-02f, -1.98697932e-02f, 3.44607197e-02f, 2.61858851e-03f, -2.67405659e-02f, -2.63267010e-02f,
        -3.17204222e-02f, -9.41338763e-03f, 1.98238306e-02f, -1.57039687e-02f, 3.16446908e-02f, 2.61652395e-02f, 3.35590057e-02f, 1.06561556e-03f,
        1.04826195e-02f, 1.88317802e-02f, -2.50102133e-02f, 7.10727181e-03f, 4.50422131e-02f, 1.49832191e-02f, 3.77205051e-02f, 4.47281487e-02f,
        3.87450010e-02f, 2.37595923e-02f, 2.24258807e-02f, 1.94420312e-02f, 1.00838719e-02f, -1.76860373e-02f, 3.81056368e-02f, -8.66134278e-03f,
        3.09287254e-02f, 1.14847897e-02f, 8.69900826e-03f, 2.75211148e-02f, 2.68521421e-02f, 2.01078057e-02f, -1.38271078e-02f, -3.09939645e-02f,
        1.19259879e-02f, 3.19603197e-02f, -2.61934940e-02f, -7.09451083e-03f, 4.20372747e-03f, -9.22996923e-03f, 1.90531667e-02f, 5.98307215e-02f,
        2.20333207e-02f, 7.32578337e-02f, 5.73575646e-02f, 1.22089185e-01f, 1.01114117e-01f, 1.37695342e-01f, 1.53508097e-01f, 1.20743610e-01f,
        8.03417861e-02f, 1.09038770e-01f, 1.09249555e-01f, 1.07324332e-01f, 6.80137500e-02f, 6.43058568e-02f, 1.64801662e-03f, -4.92831320e-03f,
        -3.23782340e-02f, -3.48012857e-02f, -2.94859372e-02f, -1.62629113e-02f, -3.68840247e-03f, 1.90054439e-02f, -9.07474605e-04f, -3.18131596e-02f,
        1.59733538e-02f, 1.76344905e-02f, 4.30417992e-02f, 4.45402926e-03f, 3.90255749e-02f, 5.61433919e-02f, 1.20507546e-01f, 1.19119301e-01f,
        1.27010778e-01f, 1.05560370e-01f, 1.49210989e-01f, 1.77010387e-01f, 1.30410537e-01f, 1.58748835e-01f, 2.36353904e-01f, 2.02922121e-01f,
        1.92724898e-01f, 1.08668931e-01f, 8.18377510e-02f, 9.68720242e-02f, 4.06229943e-02f, -1.39639189e-03f, 2.37305630e-02f, -8.09192285e-03f,
        3.91227379e-03f, -7.08183786e-03f, -1.10825207e-02f, 1.59920827e-02f, -2.82507744e-02f, -1.65804662e-02f, -1.39958756e-02f, 1.49042234e-02f,
        5.95764853e-02f, 5.82966488e-03f, 6.90278038e-02f, -1.27477804e-02f, -1.45770898e-02f, -3.36143821e-02f, -1.07971970e-02f, -2.10190248e-02f,
        4.13016789e-02f, 1.48418546e-01f, 1.66275620e-01f, 2.10326195e-01f, 2.51075000e-01f, 1.93181336e-01f, 1.50741205e-01f, 1.15820512e-01f,
        6.54737651e-02f, 4.18185629e-02f, -4.78256634e-03f, 2.67692306e-03f, -6.66869991e-03f, 1.32803209e-02f, 2.09795162e-02f, -2.80310065e-02f,
        -1.45685105e-02f, 1.19959926e-02f, -4.73643169e-02f, 1.59559511e-02f, -1.34737557e-02f, -1.05694598e-02f, -3.26577909e-02f, -9.24815759e-02f,
        -9.16082337e-02f, -1.35157555e-01f, -9.16206762e-02f, -5.63495867e-02f, -5.58935069e-02f, 1.09466305e-02f, 1.13607407e-01f, 1.38241619e-01f,
        1.63295433e-01f, 8.97796750e-02f, 1.00220256e-01f, 6.32542968e-02f, 6.25557080e-03f, 1.77973378e-02f, 9.71117523e-03f, -2.98608001e-02f,
        5.59420511e-03f, 2.00821366e-02f, -2.01935433e-02f, -2.86322236e-02f, -2.61234008e-02f, -3.99111137e-02f, -7.18927309e-02f, 7.41267204e-03f,
        -3.40192877e-02f, -6.28813952e-02f, -9.55445617e-02f, -1.40867636e-01f, -1.33864731e-01f, -1.24754481e-01f, -1.44076288e-01f, -1.33182809e-01f,
        -1.12169661e-01f, -9.68724117e-02f, -6.35017976e-02f, -3.46668623e-02f, -3.40093002e-02f, -4.29433584e-02f, -5.87312765e-02f, -2.52846945e-02f,
        -2.82592531e-02f, 1.78308152e-02f, -2.78883595e-02f, 1.76034030e-02f, -2.71909684e-02f, 2.16562059e-02f, -2.54127174e-03f, -1.32988412e-02f,
        -3.38561945e-02f, -5.71529120e-02f, -9.83908176e-02f, -5.05852588e-02f, -3.13649438e-02f, -8.00459385e-02f, -1.47138372e-01f, -1.17640063e-01f,
        -1.23757839e-01f, -1.77314028e-01f, -1.58052355e-01f, -1.59054652e-01f, -2.07497448e-01f, -1.98018104e-01f, -2.25012854e-01f, -2.86519736e-01f,
        -1.86371550e-01f, -1.79117247e-01f, -1.22484662e-01f, -1.32922575e-01f, -4.47926968e-02f, -5.89271896e-02f, -3.37489024e-02f, 1.72492582e-02f,
        1.32660766e-03f, -9.74990800e-03f, 3.06708813e-02f, -3.81082334e-02f, 4.23981855e-03f, -7.13869706e-02f, -5.36366031e-02f, -1.04491897e-01f,
        -6.27575591e-02f, -7.25087821e-02f, -1.30129710e-01f, -1.28059641e-01f, -1.25451520e-01f, -1.92511365e-01f, -1.67015433e-01f, -2.28780821e-01f,
        -2.60449231e-01f, -3.46789807e-01f, -3.91216367e-01f, -3.88701409e-01f, -2.79261500e-01f, -2.80772001e-01f, -2.06875935e-01f, -1.72475398e-01f,
        -1.31029919e-01f, -6.60136268e-02f, -5.77999093e-03f, -2.49893628e-02f, 1.49992714e-02f, -2.45654304e-02f, 1.32950144e-02f, -4.47758175e-02f,
        -3.96204777e-02f, -8.17746148e-02f, -8.08699876e-02f, -4.14004475e-02f, -3.17487232e-02f, -1.07778437e-01f, -9.83390361e-02f, -1.34259284e-01f,
        -1.01413511e-01f, -1.64893776e-01f, -1.28047198e-01f, -2.52564728e-01f, -3.23662072e-01f, -4.63267058e-01f, -4.73452449e-01f, -3.95110577e-01f,
        -3.13587844e-01f, -2.44636714e-01f, -2.19333187e-01f, -1.26280144e-01f, -1.36658400e-01f, -1.08430438e-01f, -4.23066542e-02f, 1.45076346e-02f,
        2.79514901e-02f, -3.22170071e-02f, 1.66539308e-02f, -3.20447870e-02f, -6.23423867e-02f, -3.16168033e-02f, -3.21422480e-02f, 2.15250328e-02f,
        3.94559130e-02f, -4.61413041e-02f, -1.25515228e-02f, -6.30100295e-02f, -7.03129768e-02f, -5.76572940e-02f, -1.58563957e-01f, -3.18329215e-01f,
        -3.89525950e-01f, -3.96644056e-01f, -3.50754857e-01f, -2.69464761e-01f, -2.28841946e-01f, -1.57752618e-01f, -1.12072855e-01f, -8.62002671e-02f,
        -4.71139662e-02f, -5.57607450e-02f, -1.70779284e-02f, -3.00524570e-02f, 2.14918517e-02f, -5.77847613e-03f, 1.44264689e-02f, -3.12705524e-02f,
        -2.43986249e-02f, -2.56722653e-03f, 1.70964710e-02f, 9.36496183e-02f, 2.29634866e-02f, 5.60527928e-02f, 4.60097305e-02f, 3.19832587e-03f,
        2.79573184e-02f, 6.60221502e-02f, -1.42470747e-01f, -3.75827998e-01f, -2.38510311e-01f, -2.49659330e-01f, -2.05341294e-01f, -1.75310507e-01f,
        -1.09923229e-01f, 2.03548875e-02f, 4.64665145e-02f, 7.88155347e-02f, -2.50229117e-04f, -5.91653474e-02f, -5.03141731e-02f, -8.76938552e-03f,
        -6.57639047e-03f, -2.13622376e-02f, 1.67073980e-02f, 1.67986955e-02f, -2.87004299e-02f, 1.71227288e-02f, 4.50965501e-02f, 1.05350152e-01f,
        1.04054630e-01f, 7.85804093e-02f, 7.32074827e-02f, 1.62221432e-01f, 1.27798095e-01f, 3.29897627e-02f, -1.69206083e-01f, -2.01964527e-01f,
        -1.10311121e-01f, -7.90443495e-02f, -1.06289804e-01f, -1.10690810e-01f, -2.80451607e-02f, 6.87205195e-02f, 1.59740612e-01f, 2.49001339e-01f,
        1.24969475e-01f, -1.60805639e-02f, -2.88545918e-02f, 2.46395729e-02f, -2.01899912e-02f, -5.34133799e-03f, 1.25315525e-02f, -9.69823450e-03f,
        -4.00069803e-02f, 5.27720489e-02f, 1.43980891e-01f, 1.07616231e-01f, 1.23762555e-01f, 1.28053814e-01f, 1.34311199e-01f, 1.61773160e-01f,
        1.62506193e-01f, -5.89561313e-02f, -1.08931348e-01f, 8.21699575e-03f, 3.34858149e-02f, -3.89099903e-02f, -1.31509781e-01f, -3.37870345e-02f,
        -4.74032275e-02f, 1.47561327e-01f, 2.69139767e-01f, 3.19839507e-01f, 1.92782357e-01f, -3.42611922e-03f, -4.01217937e-02f, 4.94782440e-03f,
        -1.23839814e-03f, -2.46188249e-02f, -1.59343984e-03f, -3.82585377e-02f, -3.68390307e-02f, 2.80978344e-02f, 7.53601938e-02f, 8.60648230e-02f,
        1.33068040e-01f, 1.38051733e-01f, 1.91173151e-01f, 2.40424424e-01f, 9.55476537e-02f, -2.80470345e-02f, 1.06532509e-02f, 8.32328424e-02f,
        6.92733154e-02f, -1.08951144e-01f, -1.02724701e-01f, -2.62096059e-02f, 4.35142145e-02f, 1.53588995e-01f, 2.51434833e-01f, 2.41600469e-01f,
        1.23755962e-01f, -8.50699190e-03f, -7.74318352e-03f, -7.86376279e-03f, 1.89616568e-02f, 3.37456018e-02f, -3.40765305e-02f, -1.75514203e-02f,
        -7.18657151e-02f, -4.33449373e-02f, 1.09806970e-01f, 1.30602732e-01f, 1.33730918e-01f, 1.57157868e-01f, 2.82605469e-01f, 2.82744706e-01f,
        1.18648775e-01f, 3.49576548e-02f, 1.18522398e-01f, 1.05530083e-01f, 8.42132047e-03f, -5.51386923e-02f, -7.68145397e-02f, -4.09742445e-02f,
        9.19642895e-02f, 1.54394642e-01f, 1.53806791e-01f, 1.63776785e-01f, 5.36461547e-02f, -1.40805878e-02f, -3.80013660e-02f, 1.85594633e-02f,
        3.15430760e-02f, -3.32004949e-02f, -1.11315828e-02f, -2.92975851e-03f, -1.02361582e-01f, -1.93490330e-02f, 9.03714299e-02f, 1.73332140e-01f,
        1.94295421e-01f, 2.57974744e-01f, 3.25457633e-01f, 3.50559294e-01f, 1.04005352e-01f, 1.57969296e-02f, 1.14238180e-01f, 4.24375013e-02f,
        -4.36740592e-02f, -1.08788051e-01f, 3.72088812e-02f, 3.92927788e-02f, 2.77704895e-02f, 6.73576146e-02f, 6.49488419e-02f, 8.28551650e-02f,
        -2.94190040e-03f, -3.40733938e-02f, -5.55139370e-02f, -4.01137508e-02f, -7.74612650e-03f, -2.14416347e-02f, -1.51800131e-02f, -2.82682870e-02f,
        -1.35799631e-01f, -9.89148617e-02f, 3.58178057e-02f, 1.47386387e-01f, 1.71022907e-01f, 2.32576907e-01f, 3.69191021e-01f, 3.86559457e-01f,
        1.66580781e-01f, 1.05302259e-01f, 5.41609004e-02f, -3.86783890e-02f, -6.01876080e-02f, -2.06625890e-02f, 1.05675168e-01f, 1.02800637e-01f,
        8.27184916e-02f, 2.80202031e-02f, 2.62817759e-02f, 3.85163631e-03f, -6.93176966e-03f, -2.28131320e-02f, -1.21520441e-02f, 2.14968380e-02f,
        -1.07099190e-02f, 1.18118012e-02f, -1.32445153e-02f, -1.88032202e-02f, -1.52417317e-01f, -1.64400473e-01f, -8.20360109e-02f, 6.36313930e-02f,
        1.94502845e-01f, 1.98982701e-01f, 2.84307480e-01f, 3.19453984e-01f, 3.03849041e-01f, 1.39110193e-01f, 6.82148114e-02f, 2.85336748e-02f,
        1.20931782e-01f, 1.27139211e-01f, 1.83343917e-01f, 6.36180863e-02f, 4.91613187e-02f, 4.74881195e-02f, 2.07704306e-03f, -3.94997746e-02f,
        -4.72909734e-02f, -4.57652472e-02f, -1.54935839e-02f, -2.57564876e-02f, 1.20561514e-02f, 2.55853143e-02f, -1.21066663e-02f, -1.79988593e-02f,
        -8.42567012e-02f, -1.76599219e-01f, -1.34382367e-01f, -1.48221543e-02f, 8.26444477e-02f, 1.81220949e-01f, 3.18010032e-01f, 3.99987072e-01f,
        3.43002409e-01f, 1.80233136e-01f, 1.59517735e-01f, 1.69380307e-01f, 1.93609446e-01f, 2.10523337e-01f, 1.34368107e-01f, 1.20039120e-01f,
        9.67943072e-02f, 5.60400039e-02f, 1.80374533e-02f, -6.32677525e-02f, -2.92611569e-02f, -6.04104660e-02f, -1.72620006e-02f, -1.41164819e-02f,
        1.91220641e-02f, -2.32038088e-02f, 1.79149620e-02f, -5.71669154e-02f, -1.09448940e-01f, -1.35802269e-01f, -1.51266083e-01f, -5.89717962e-02f,
        3.17328759e-02f, 1.13495626e-01f, 2.39332795e-01f, 3.01211834e-01f, 3.72586101e-01f, 3.41896713e-01f, 3.17708939e-01f, 2.61047870e-01f,
        1.98085546e-01f, 1.17958583e-01f, 1.66321546e-01f, 5.01169115e-02f, 5.59072830e-02f, -5.10392804e-03f, -1.06288925e-01f, -4.37121205e-02f,
        -2.36973558e-02f, -7.51604792e-03f, 2.14093998e-02f, -2.33942531e-02f, 6.72387658e-03f, -3.50778177e-02f, 3.14644985e-02f, -4.46107164e-02f,
        -9.67425704e-02f, -9.77062210e-02f, -1.81492865e-01f, -1.32965818e-01f, -1.98051240e-02f, 4.59359474e-02f, 1.14614047e-01f, 2.44226411e-01f,
        3.35492849e-01f, 3.83359432e-01f, 3.80518794e-01f, 2.39166737e-01f, 2.02406868e-01f, 1.59644455e-01f, 1.46242216e-01f, 3.30656320e-02f,
        -4.26480100e-02f, -9.23973620e-02f, -3.94982584e-02f, -3.58550660e-02f, -2.07191091e-02f, 1.72690544e-02f, -3.48916836e-02f, 3.34960483e-02f,
        -2.40742918e-02f, 2.65205447e-02f, -1.47607820e-02f, 1.62713546e-02f, -2.02726759e-02f, -6.74613714e-02f, -1.65813059e-01f, -1.61878780e-01f,
        -1.76459819e-01f, -1.01520754e-01f, -4.51740362e-02f, -5.97719587e-02f, 6.46819398e-02f, 8.17469880e-02f, 1.43085131e-02f, 6.93566054e-02f,
        2.52860002e-02f, -5.95237128e-02f, -5.82366027e-02f, -7.17011467e-02f, -6.03957176e-02f, -3.75293382e-02f, -5.31129874e-02f, -3.20688635e-02f,
        -1.92370489e-02f, 1.46931335e-02f, -1.06340898e-02f, -1.16364257e-02f, -3.12895030e-02f, 2.69287191e-02f, 1.05392328e-02f, 3.11247725e-02f,
        -1.59255844e-02f, -3.23279426e-02f, -8.33398700e-02f, -7.80510008e-02f, -1.39391869e-01f, -2.22640783e-01f, -2.51392424e-01f, -2.17656821e-01f,
        -1.93953484e-01f, -1.70634910e-01f, -1.74064979e-01f, -1.49637699e-01f, -1.44867823e-01f, -1.64239809e-01f, -1.19248778e-01f, -9.98915061e-02f,
        -4.96633947e-02f, -2.56790742e-02f, -5.41127436e-02f, -1.90633871e-02f, -3.32597494e-02f, -2.65842043e-02f, 3.44678238e-02f, -1.53182633e-02f,
        -2.53065526e-02f, 3.33790220e-02f, 3.53631787e-02f, 2.47452650e-02f, 1.69812795e-02f, -1.02276243e-02f, -4.66526905e-03f, -4.29388098e-02f,
